{"learner":{"attributes":{"scikit_learn":"{\"_estimator_type\": \"regressor\"}"},"feature_names":["distance_km","gdp_usd","gdp_growth_pct","population","tourism_arrivals_baseline","competitor_count","competitor_avg_fare_usd","avg_fare_usd","month_sin","month_cos"],"feature_types":["float","float","float","float","float","int","float","float","float","float"],"gradient_booster":{"model":{"gbtree_model_param":{"num_parallel_tree":"1","num_trees":"150"},"iteration_indptr":[0,1,2,3,4,5,6,7,8,9,10,11,12,13,14,15,16,17,18,19,20,21,22,23,24,25,26,27,28,29,30,31,32,33,34,35,36,37,38,39,40,41,42,43,44,45,46,47,48,49,50,51,52,53,54,55,56,57,58,59,60,61,62,63,64,65,66,67,68,69,70,71,72,73,74,75,76,77,78,79,80,81,82,83,84,85,86,87,88,89,90,91,92,93,94,95,96,97,98,99,100,101,102,103,104,105,106,107,108,109,110,111,112,113,114,115,116,117,118,119,120,121,122,123,124,125,126,127,128,129,130,131,132,133,134,135,136,137,138,139,140,141,142,143,144,145,146,147,148,149,150],"tree_info":[0,0,0,0,0,0,0,0,0,0,0,0,0,0,0,0,0,0,0,0,0,0,0,0,0,0,0,0,0,0,0,0,0,0,0,0,0,0,0,0,0,0,0,0,0,0,0,0,0,0,0,0,0,0,0,0,0,0,0,0,0,0,0,0,0,0,0,0,0,0,0,0,0,0,0,0,0,0,0,0,0,0,0,0,0,0,0,0,0,0,0,0,0,0,0,0,0,0,0,0,0,0,0,0,0,0,0,0,0,0,0,0,0,0,0,0,0,0,0,0,0,0,0,0,0,0,0,0,0,0,0,0,0,0,0,0,0,0,0,0,0,0,0,0,0,0,0,0,0,0],"trees":[{"base_weights":[-7.249148E1,1.7869465E3,-2.368023E3,1.6605609E2,3.1645867E3,-3.131173E2,-1.8943544E3,-6.5816016E0,1.1045139E2,3.934626E2,1.9268956E2,-1.3019742E2,-2.5579045E2],"categories":[],"categories_nodes":[],"categories_segments":[],"categories_sizes":[],"default_left":[0,0,0,0,0,0,0,0,0,0,0,0,0],"id":0,"left_children":[1,3,5,7,9,-1,11,-1,-1,-1,-1,-1,-1],"loss_changes":[4.8656054E8,1.4015374E8,1.2503936E7,6.60076E6,2.4822784E7,0E0,1.0034184E7,0E0,0E0,0E0,0E0,0E0,0E0],"parents":[2147483647,0,0,1,1,2,2,3,3,4,4,6,6],"right_children":[2,4,6,8,10,-1,12,-1,-1,-1,-1,-1,-1],"split_conditions":[7.1831E3,5.917648E6,7.8178E3,4.2369E2,2.1591E3,-3.131173E2,4.2624633E12,-6.5816016E0,1.1045139E2,3.934626E2,1.9268956E2,-1.3019742E2,-2.5579045E2],"split_indices":[0,3,0,7,0,0,1,0,0,0,0,0,0],"split_type":[0,0,0,0,0,0,0,0,0,0,0,0,0],"sum_hessian":[1.12E2,6.2E1,5E1,2.9E1,3.3E1,1.7E1,3.3E1,2.4E1,5E0,1.9E1,1.4E1,1.9E1,1.4E1],"tree_param":{"num_deleted":"0","num_feature":"10","num_nodes":"13","size_leaf_vector":"1"}},{"base_weights":[3.1085173E1,1.6786102E3,-2.111319E3,1.5445187E2,2.7575005E3,-2.8354514E2,-1.6523588E3,-3.2617733E0,1.285024E2,3.5608365E2,1.7667522E2,-1.1443866E2,-2.2600076E2],"categories":[],"categories_nodes":[],"categories_segments":[],"categories_sizes":[],"default_left":[0,0,0,0,0,0,0,0,0,0,0,0,0],"id":1,"left_children":[1,3,5,7,9,-1,11,-1,-1,-1,-1,-1,-1],"loss_changes":[4.059259E8,1.0646006E8,1.1932224E7,5.9637935E6,2.3953184E7,0E0,7.599744E6,0E0,0E0,0E0,0E0,0E0,0E0],"parents":[2147483647,0,0,1,1,2,2,3,3,4,4,6,6],"right_children":[2,4,6,8,10,-1,12,-1,-1,-1,-1,-1,-1],"split_conditions":[7.1831E3,5.917648E6,7.8178E3,4.2369E2,2.1591E3,-2.8354514E2,4.2624633E12,-3.2617733E0,1.285024E2,3.5608365E2,1.7667522E2,-1.1443866E2,-2.2600076E2],"split_indices":[0,3,0,7,0,0,1,0,0,0,0,0,0],"split_type":[0,0,0,0,0,0,0,0,0,0,0,0,0],"sum_hessian":[1.13E2,6.4E1,4.9E1,2.7E1,3.7E1,1.7E1,3.2E1,2.4E1,3E0,1.9E1,1.8E1,1.9E1,1.3E1],"tree_param":{"num_deleted":"0","num_feature":"10","num_nodes":"13","size_leaf_vector":"1"}},{"base_weights":[-2.1696924E1,1.4972764E3,-1.9432203E3,3.232607E2,6.553255E2,-2.5676584E2,-1.5312483E3,-3.6075916E0,1.452241E2,-1.0062552E2,-2.134364E2],"categories":[],"categories_nodes":[],"categories_segments":[],"categories_sizes":[],"default_left":[0,0,0,0,0,0,0,0,0,0,0],"id":2,"left_children":[1,3,5,-1,7,-1,9,-1,-1,-1,-1],"loss_changes":[3.2397126E8,8.846752E7,8.673568E6,0E0,2.3744892E7,0E0,7.984504E6,0E0,0E0,0E0,0E0],"parents":[2147483647,0,0,1,1,2,2,4,4,6,6],"right_children":[2,4,6,-1,8,-1,10,-1,-1,-1,-1],"split_conditions":[7.1831E3,2.1591E3,7.8178E3,3.232607E2,4.2369E2,-2.5676584E2,4.2624633E12,-3.6075916E0,1.452241E2,-1.0062552E2,-2.134364E2],"split_indices":[0,0,0,0,7,0,1,0,0,0,0],"split_type":[0,0,0,0,0,0,0,0,0,0,0],"sum_hessian":[1.09E2,6.1E1,4.8E1,1.9E1,4.2E1,1.7E1,3.1E1,2.3E1,1.9E1,1.8E1,1.3E1],"tree_param":{"num_deleted":"0","num_feature":"10","num_nodes":"11","size_leaf_vector":"1"}},{"base_weights":[-7.782903E1,1.2913585E3,-1.7527969E3,-4.187449E1,2.0643323E3,-2.3237105E2,-1.4055747E3,-3.9136837E1,3.749705E1,2.8362445E2,1.3740213E2,-9.519258E1,-1.8864919E2],"categories":[],"categories_nodes":[],"categories_segments":[],"categories_sizes":[],"default_left":[0,0,0,0,0,0,0,0,0,0,0,0,0],"id":3,"left_children":[1,3,5,7,9,-1,11,-1,-1,-1,-1,-1,-1],"loss_changes":[2.4994475E8,6.191969E7,6.447312E6,3.4975018E6,1.63516E7,0E0,5.403732E6,0E0,0E0,0E0,0E0,0E0,0E0],"parents":[2147483647,0,0,1,1,2,2,3,3,4,4,6,6],"right_children":[2,4,6,8,10,-1,12,-1,-1,-1,-1,-1,-1],"split_conditions":[7.1831E3,4.1344523E11,7.8178E3,-1.8369701E-16,2.1591E3,-2.3237105E2,4.2624633E12,-3.9136837E1,3.749705E1,2.8362445E2,1.3740213E2,-9.519258E1,-1.8864919E2],"split_indices":[0,1,0,9,0,0,1,0,0,0,0,0,0],"split_type":[0,0,0,0,0,0,0,0,0,0,0,0,0],"sum_hessian":[1.07E2,5.9E1,4.8E1,2.2E1,3.7E1,1.6E1,3.2E1,1.2E1,1E1,1.6E1,2.1E1,1.8E1,1.4E1],"tree_param":{"num_deleted":"0","num_feature":"10","num_nodes":"13","size_leaf_vector":"1"}},{"base_weights":[2.0575891E1,1.3182917E3,-1.5749618E3,8.140939E1,2.0515352E3,-2.084235E2,-1.2803156E3,-1.0766469E1,1.00642746E2,2.6634702E2,1.3316245E2,-8.369012E1,-1.7566193E2],"categories":[],"categories_nodes":[],"categories_segments":[],"categories_sizes":[],"default_left":[0,0,0,0,0,0,0,0,0,0,0,0,0],"id":4,"left_children":[1,3,5,7,9,-1,11,-1,-1,-1,-1,-1,-1],"loss_changes":[2.2155506E8,5.334219E7,4.534184E6,4.1309862E6,1.2753184E7,0E0,5.49948E6,0E0,0E0,0E0,0E0,0E0,0E0],"parents":[2147483647,0,0,1,1,2,2,3,3,4,4,6,6],"right_children":[2,4,6,8,10,-1,12,-1,-1,-1,-1,-1,-1],"split_conditions":[7.1831E3,5.917648E6,7.8178E3,4.2369E2,2.1591E3,-2.084235E2,4.2624633E12,-1.0766469E1,1.00642746E2,2.6634702E2,1.3316245E2,-8.369012E1,-1.7566193E2],"split_indices":[0,3,0,7,0,0,1,0,0,0,0,0,0],"split_type":[0,0,0,0,0,0,0,0,0,0,0,0,0],"sum_hessian":[1.05E2,5.8E1,4.7E1,2.2E1,3.6E1,1.5E1,3.2E1,1.9E1,3E0,1.8E1,1.8E1,1.8E1,1.4E1],"tree_param":{"num_deleted":"0","num_feature":"10","num_nodes":"13","size_leaf_vector":"1"}},{"base_weights":[-1.2112237E1,1.0742919E3,-1.4086704E3,1.6394897E1,1.8672593E3,-1.8906296E2,-1.1618688E3,2.6557209E1,-5.3915382E1,2.3491862E2,1.1904476E2,-1.5852917E2,-7.6503685E1],"categories":[],"categories_nodes":[],"categories_segments":[],"categories_sizes":[],"default_left":[0,0,0,0,0,0,0,0,0,0,0,0,0],"id":5,"left_children":[1,3,5,7,9,-1,11,-1,-1,-1,-1,-1,-1],"loss_changes":[1.6992547E8,5.281869E7,3.6318E6,4.0192258E6,8.945672E6,0E0,4.668164E6,0E0,0E0,0E0,0E0,0E0,0E0],"parents":[2147483647,0,0,1,1,2,2,3,3,4,4,6,6],"right_children":[2,4,6,8,10,-1,12,-1,-1,-1,-1,-1,-1],"split_conditions":[7.1831E3,5.917648E6,7.8178E3,8.660254E-1,2.1591E3,-1.8906296E2,1.3942518E0,2.6557209E1,-5.3915382E1,2.3491862E2,1.1904476E2,-1.5852917E2,-7.6503685E1],"split_indices":[0,3,0,8,0,0,2,0,0,0,0,0,0],"split_type":[0,0,0,0,0,0,0,0,0,0,0,0,0],"sum_hessian":[1.1E2,6.2E1,4.8E1,2.7E1,3.5E1,1.4E1,3.4E1,1.9E1,8E0,1.9E1,1.6E1,1.5E1,1.9E1],"tree_param":{"num_deleted":"0","num_feature":"10","num_nodes":"13","size_leaf_vector":"1"}},{"base_weights":[-5.399897E1,9.2683826E2,-1.2739392E3,5.489071E1,1.6650092E3,-1.7191974E2,-1.0059596E3,2.8632822E1,-4.9122913E1,1.0880839E2,2.209987E2,-6.767584E1,-1.4043927E2],"categories":[],"categories_nodes":[],"categories_segments":[],"categories_sizes":[],"default_left":[0,0,0,0,0,0,0,0,0,0,0,0,0],"id":6,"left_children":[1,3,5,7,9,-1,11,-1,-1,-1,-1,-1,-1],"loss_changes":[1.3160609E8,3.9171028E7,4.11724E6,3.8060385E6,7.970928E6,0E0,3.377998E6,0E0,0E0,0E0,0E0,0E0,0E0],"parents":[2147483647,0,0,1,1,2,2,3,3,4,4,6,6],"right_children":[2,4,6,8,10,-1,12,-1,-1,-1,-1,-1,-1],"split_conditions":[9.968066E7,5.917648E6,5.0543952E11,8.660254E-1,5.0901785E11,-1.7191974E2,4.2624633E12,2.8632822E1,-4.9122913E1,1.0880839E2,2.209987E2,-6.767584E1,-1.4043927E2],"split_indices":[3,3,1,8,1,0,1,0,0,0,0,0,0],"split_type":[0,0,0,0,0,0,0,0,0,0,0,0,0],"sum_hessian":[1.08E2,6E1,4.8E1,2.8E1,3.2E1,1.6E1,3.2E1,2E1,8E0,1.7E1,1.5E1,1.9E1,1.3E1],"tree_param":{"num_deleted":"0","num_feature":"10","num_nodes":"13","size_leaf_vector":"1"}},{"base_weights":[2.9885964E0,9.144852E2,-1.1503947E3,6.3512188E1,1.5273126E3,-7.6428094E2,-1.4366991E3,3.0225836E1,-4.475644E1,1.916065E2,9.801149E1,-1.2875821E2,-5.8634487E1,-1.4593852E2,-4.2342968E1],"categories":[],"categories_nodes":[],"categories_segments":[],"categories_sizes":[],"default_left":[0,0,0,0,0,0,0,0,0,0,0,0,0,0,0],"id":7,"left_children":[1,3,5,7,9,11,13,-1,-1,-1,-1,-1,-1,-1,-1],"loss_changes":[1.1669556E8,3.2235968E7,4.318712E6,3.4297545E6,5.78012E6,1.386658E6,2.704E3,0E0,0E0,0E0,0E0,0E0,0E0,0E0,0E0],"parents":[2147483647,0,0,1,1,2,2,3,3,4,4,5,5,6,6],"right_children":[2,4,6,8,10,12,14,-1,-1,-1,-1,-1,-1,-1,-1],"split_conditions":[7.1831E3,5.917648E6,1.2246469E-16,8.660254E-1,2.1591E3,7.8178E3,5.3148E2,3.0225836E1,-4.475644E1,1.916065E2,9.801149E1,-1.2875821E2,-5.8634487E1,-1.4593852E2,-4.2342968E1],"split_indices":[0,3,8,8,0,0,7,0,0,0,0,0,0,0,0],"split_type":[0,0,0,0,0,0,0,0,0,0,0,0,0,0,0],"sum_hessian":[1.09E2,6.1E1,4.8E1,2.6E1,3.5E1,2.2E1,2.6E1,1.8E1,8E0,1.9E1,1.6E1,4E0,1.8E1,2.5E1,1E0],"tree_param":{"num_deleted":"0","num_feature":"10","num_nodes":"15","size_leaf_vector":"1"}},{"base_weights":[1.1121916E1,8.468677E2,-1.0465793E3,-1.0305303E2,1.3359259E3,-1.435678E2,-8.1442E2,-3.51739E1,2.952421E1,1.8114876E2,8.84987E1,-5.412724E1,-1.14645805E2],"categories":[],"categories_nodes":[],"categories_segments":[],"categories_sizes":[],"default_left":[0,0,0,0,0,0,0,0,0,0,0,0,0],"id":8,"left_children":[1,3,5,7,9,-1,11,-1,-1,-1,-1,-1,-1],"loss_changes":[9.8122936E7,2.89408E7,3.257068E6,2.282957E6,7.18928E6,0E0,2.372402E6,0E0,0E0,0E0,0E0,0E0,0E0],"parents":[2147483647,0,0,1,1,2,2,3,3,4,4,6,6],"right_children":[2,4,6,8,10,-1,12,-1,-1,-1,-1,-1,-1],"split_conditions":[7.1831E3,4.1344523E11,7.8178E3,-1.8369701E-16,2.1591E3,-1.435678E2,4.2624633E12,-3.51739E1,2.952421E1,1.8114876E2,8.84987E1,-5.412724E1,-1.14645805E2],"split_indices":[0,1,0,9,0,0,1,0,0,0,0,0,0],"split_type":[0,0,0,0,0,0,0,0,0,0,0,0,0],"sum_hessian":[1.09E2,6.1E1,4.8E1,2.1E1,4E1,1.6E1,3.2E1,1.3E1,8E0,1.8E1,2.2E1,1.9E1,1.3E1],"tree_param":{"num_deleted":"0","num_feature":"10","num_nodes":"13","size_leaf_vector":"1"}},{"base_weights":[-1.7086288E1,7.1920056E2,-9.8310675E2,6.355424E1,1.276559E3,-6.7309344E2,-1.1992989E2,2.0710642E1,-3.5710255E1,8.0157585E1,1.6542343E2,-1.0775213E2,-5.2335827E1],"categories":[],"categories_nodes":[],"categories_segments":[],"categories_sizes":[],"default_left":[0,0,0,0,0,0,0,0,0,0,0,0,0],"id":9,"left_children":[1,3,5,7,9,11,-1,-1,-1,-1,-1,-1,-1],"loss_changes":[7.894655E7,2.2940958E7,2.409836E6,1.885544E6,4.773248E6,7.68327E5,0E0,0E0,0E0,0E0,0E0,0E0,0E0],"parents":[2147483647,0,0,1,1,2,2,3,3,4,4,5,5],"right_children":[2,4,6,8,10,12,-1,-1,-1,-1,-1,-1,-1],"split_conditions":[9.968066E7,5.917648E6,1.2246469E-16,8.660254E-1,5.0901785E11,4.338577E11,-1.1992989E2,2.0710642E1,-3.5710255E1,8.0157585E1,1.6542343E2,-1.0775213E2,-5.2335827E1],"split_indices":[3,3,8,8,1,1,0,0,0,0,0,0,0],"split_type":[0,0,0,0,0,0,0,0,0,0,0,0,0],"sum_hessian":[1.09E2,6.2E1,4.7E1,2.9E1,3.3E1,2.1E1,2.6E1,2.2E1,7E0,1.6E1,1.7E1,4E0,1.7E1],"tree_param":{"num_deleted":"0","num_feature":"10","num_nodes":"13","size_leaf_vector":"1"}},{"base_weights":[-5.5479407E0,6.313958E2,-8.54683E2,1.4077234E2,2.9173788E2,-5.660986E2,-1.0836069E3,-4.269701E0,6.784728E1,-6.8831535E1,-1.254681E1,-1.10330894E2,-3.1522963E1],"categories":[],"categories_nodes":[],"categories_segments":[],"categories_sizes":[],"default_left":[0,0,0,0,0,0,0,0,0,0,0,0,0],"id":10,"left_children":[1,3,5,-1,7,9,11,-1,-1,-1,-1,-1,-1],"loss_changes":[5.6788176E7,1.5410462E7,2.359448E6,0E0,5.590488E6,1.0983915E6,1.5534E4,0E0,0E0,0E0,0E0,0E0,0E0],"parents":[2147483647,0,0,1,1,2,2,4,4,5,5,6,6],"right_children":[2,4,6,-1,8,10,12,-1,-1,-1,-1,-1,-1],"split_conditions":[7.1831E3,2.1591E3,1.2246469E-16,1.4077234E2,4.2369E2,5.258E2,5.3148E2,-4.269701E0,6.784728E1,-6.8831535E1,-1.254681E1,-1.10330894E2,-3.1522963E1],"split_indices":[0,0,8,0,7,7,7,0,0,0,0,0,0],"split_type":[0,0,0,0,0,0,0,0,0,0,0,0,0],"sum_hessian":[1.03E2,5.9E1,4.4E1,1.7E1,4.2E1,2.1E1,2.3E1,2.3E1,1.9E1,1.6E1,5E0,2.2E1,1E0],"tree_param":{"num_deleted":"0","num_feature":"10","num_nodes":"13","size_leaf_vector":"1"}},{"base_weights":[1.6020218E1,5.7983777E2,-8.0444214E2,2.3402697E1,1.0119705E3,-1.0966433E2,-6.315268E2,1.967446E1,-3.8366207E1,6.6227715E1,1.25861145E2,-4.0153023E1,-9.430608E1],"categories":[],"categories_nodes":[],"categories_segments":[],"categories_sizes":[],"default_left":[0,0,0,0,0,0,0,0,0,0,0,0,0],"id":11,"left_children":[1,3,5,7,9,-1,11,-1,-1,-1,-1,-1,-1],"loss_changes":[4.9963692E7,1.5365362E7,1.53059E6,2.1217635E6,2.271404E6,0E0,1.770885E6,0E0,0E0,0E0,0E0,0E0,0E0],"parents":[2147483647,0,0,1,1,2,2,3,3,4,4,6,6],"right_children":[2,4,6,8,10,-1,12,-1,-1,-1,-1,-1,-1],"split_conditions":[9.968066E7,5.917648E6,5.0543952E11,8.660254E-1,5.0901785E11,-1.0966433E2,4.2624633E12,1.967446E1,-3.8366207E1,6.6227715E1,1.25861145E2,-4.0153023E1,-9.430608E1],"split_indices":[3,3,1,8,1,0,1,0,0,0,0,0,0],"split_type":[0,0,0,0,0,0,0,0,0,0,0,0,0],"sum_hessian":[1.06E2,6.3E1,4.3E1,2.8E1,3.5E1,1.4E1,2.9E1,2E1,8E0,1.6E1,1.9E1,1.8E1,1.1E1],"tree_param":{"num_deleted":"0","num_feature":"10","num_nodes":"13","size_leaf_vector":"1"}},{"base_weights":[-8.793632E1,4.6374234E2,-7.2972943E2,-1.1101164E1,9.741706E2,-1.00323685E2,-5.47379E2,1.2786336E1,-3.4955875E1,1.1668787E2,5.877881E1,-3.0755217E1,-8.166293E1],"categories":[],"categories_nodes":[],"categories_segments":[],"categories_sizes":[],"default_left":[0,0,0,0,0,0,0,0,0,0,0,0,0],"id":12,"left_children":[1,3,5,7,9,-1,11,-1,-1,-1,-1,-1,-1],"loss_changes":[3.6806956E7,1.3583736E7,1.84481E6,1.4557036E6,1.324516E6,0E0,1.750621E6,0E0,0E0,0E0,0E0,0E0,0E0],"parents":[2147483647,0,0,1,1,2,2,3,3,4,4,6,6],"right_children":[2,4,6,8,10,-1,12,-1,-1,-1,-1,-1,-1],"split_conditions":[7.1831E3,5.917648E6,7.8178E3,8.660254E-1,2.1591E3,-1.00323685E2,4.2624633E12,1.2786336E1,-3.4955875E1,1.1668787E2,5.877881E1,-3.0755217E1,-8.166293E1],"split_indices":[0,3,0,8,0,0,1,0,0,0,0,0,0],"split_type":[0,0,0,0,0,0,0,0,0,0,0,0,0],"sum_hessian":[1.02E2,5.5E1,4.7E1,2.9E1,2.6E1,1.7E1,3E1,2.1E1,8E0,1.6E1,1E1,1.7E1,1.3E1],"tree_param":{"num_deleted":"0","num_feature":"10","num_nodes":"13","size_leaf_vector":"1"}},{"base_weights":[-3.1113968E1,4.583824E2,-6.57047E2,1.074009E3,1.9413698E2,-4.1801605E2,-8.299279E1,7.9081894E1,1.364543E2,-8.710618E0,5.0490707E1,-7.894694E1,-2.7097519E1],"categories":[],"categories_nodes":[],"categories_segments":[],"categories_sizes":[],"default_left":[0,0,0,0,0,0,0,0,0,0,0,0,0],"id":13,"left_children":[1,3,5,7,9,11,-1,-1,-1,-1,-1,-1,-1],"loss_changes":[3.4923468E7,1.0202791E7,1.719268E6,4.84146E5,4.0644705E6,1.04230625E6,0E0,0E0,0E0,0E0,0E0,0E0,0E0],"parents":[2147483647,0,0,1,1,2,2,3,3,4,4,5,5],"right_children":[2,4,6,8,10,12,-1,-1,-1,-1,-1,-1,-1],"split_conditions":[7.1831E3,2.1591E3,1.2246469E-16,5E-1,4.2369E2,7.8178E3,-8.299279E1,7.9081894E1,1.364543E2,-8.710618E0,5.0490707E1,-7.894694E1,-2.7097519E1],"split_indices":[0,0,8,9,7,0,0,0,0,0,0,0,0],"split_type":[0,0,0,0,0,0,0,0,0,0,0,0,0],"sum_hessian":[1.12E2,6.3E1,4.9E1,1.8E1,4.5E1,2.2E1,2.7E1,1.1E1,7E0,2.4E1,2.1E1,5E0,1.7E1],"tree_param":{"num_deleted":"0","num_feature":"10","num_nodes":"13","size_leaf_vector":"1"}},{"base_weights":[2.2483313E1,4.5512036E2,-5.987456E2,-4.6085293E1,7.4262085E2,-3.9820093E2,-7.3769525E2,-2.5690693E1,2.4558834E1,1.0076421E2,4.0071545E1,-7.051064E1,-2.8451101E1,-8.264151E1,-5.4158504E1],"categories":[],"categories_nodes":[],"categories_segments":[],"categories_sizes":[],"default_left":[0,0,0,0,0,0,0,0,0,0,0,0,0,0,0],"id":14,"left_children":[1,3,5,7,9,11,13,-1,-1,-1,-1,-1,-1,-1,-1],"loss_changes":[3.01056E7,9.544619E6,9.88067E5,1.6003711E6,3.401934E6,5.3212275E5,4.797E3,0E0,0E0,0E0,0E0,0E0,0E0,0E0,0E0],"parents":[2147483647,0,0,1,1,2,2,3,3,4,4,5,5,6,6],"right_children":[2,4,6,8,10,12,14,-1,-1,-1,-1,-1,-1,-1,-1],"split_conditions":[7.1831E3,4.1344523E11,1.2246469E-16,-1.8369701E-16,4.3856E2,7.8178E3,5.0917E2,-2.5690693E1,2.4558834E1,1.0076421E2,4.0071545E1,-7.051064E1,-2.8451101E1,-8.264151E1,-5.4158504E1],"split_indices":[0,1,8,9,7,0,7,0,0,0,0,0,0,0,0],"split_type":[0,0,0,0,0,0,0,0,0,0,0,0,0,0,0],"sum_hessian":[1.1E2,6.5E1,4.5E1,2.4E1,4.1E1,2E1,2.5E1,1.4E1,1E1,2.2E1,1.9E1,4E0,1.6E1,1.5E1,1E1],"tree_param":{"num_deleted":"0","num_feature":"10","num_nodes":"15","size_leaf_vector":"1"}},{"base_weights":[-4.6585016E0,4.2055386E2,-5.252316E2,9.738636E0,6.415123E2,-3.695547E2,-6.994918E1,-1.8680279E1,2.2326212E1,8.326629E1,4.559568E1,-4.5541664E1,-4.6909356E0],"categories":[],"categories_nodes":[],"categories_segments":[],"categories_sizes":[],"default_left":[0,0,0,0,0,0,0,0,0,0,0,0,0],"id":15,"left_children":[1,3,5,7,9,11,-1,-1,-1,-1,-1,-1,-1],"loss_changes":[2.4127132E7,5.44014E6,1.070786E6,9.649626E5,1.003634E6,7.543195E5,0E0,0E0,0E0,0E0,0E0,0E0,0E0],"parents":[2147483647,0,0,1,1,2,2,3,3,4,4,5,5],"right_children":[2,4,6,8,10,12,-1,-1,-1,-1,-1,-1,-1],"split_conditions":[7.1831E3,4.1344523E11,5E-1,-1.8369701E-16,2.1591E3,8.660254E-1,-6.994918E1,-1.8680279E1,2.2326212E1,8.326629E1,4.559568E1,-4.5541664E1,-4.6909356E0],"split_indices":[0,1,8,9,0,9,0,0,0,0,0,0,0],"split_type":[0,0,0,0,0,0,0,0,0,0,0,0,0],"sum_hessian":[1.07E2,5.9E1,4.8E1,2.1E1,3.8E1,2.7E1,2.1E1,1.1E1,1E1,1.7E1,2.1E1,2.1E1,6E0],"tree_param":{"num_deleted":"0","num_feature":"10","num_nodes":"13","size_leaf_vector":"1"}},{"base_weights":[1.3373698E1,3.7533096E2,-4.826411E2,-4.297463E0,6.422131E2,-2.915184E2,-6.610892E2,1.6424297E1,-4.2511135E1,8.253445E1,4.2528095E1,-6.04318E1,-1.9874258E1,-6.7655106E1,-1.6046387E1],"categories":[],"categories_nodes":[],"categories_segments":[],"categories_sizes":[],"default_left":[0,0,0,0,0,0,0,0,0,0,0,0,0,0,0],"id":16,"left_children":[1,3,5,7,9,11,13,-1,-1,-1,-1,-1,-1,-1,-1],"loss_changes":[1.9571056E7,6.38567E6,1.376132E6,1.9847739E6,1.118899E6,5.763821E5,6.9471E4,0E0,0E0,0E0,0E0,0E0,0E0,0E0,0E0],"parents":[2147483647,0,0,1,1,2,2,3,3,4,4,5,5,6,6],"right_children":[2,4,6,8,10,12,14,-1,-1,-1,-1,-1,-1,-1,-1],"split_conditions":[7.1831E3,5.917648E6,5E-1,8.660254E-1,2.1591E3,7.8178E3,5.3148E2,1.6424297E1,-4.2511135E1,8.253445E1,4.2528095E1,-6.04318E1,-1.9874258E1,-6.7655106E1,-1.6046387E1],"split_indices":[0,3,8,8,0,0,7,0,0,0,0,0,0,0,0],"split_type":[0,0,0,0,0,0,0,0,0,0,0,0,0,0,0],"sum_hessian":[1.07E2,6.2E1,4.5E1,2.6E1,3.6E1,2.3E1,2.2E1,1.9E1,7E0,1.8E1,1.8E1,4E0,1.9E1,2.1E1,1E0],"tree_param":{"num_deleted":"0","num_feature":"10","num_nodes":"15","size_leaf_vector":"1"}},{"base_weights":[-8.23043E0,3.149218E2,-4.5765463E2,-2.9199286E1,5.833826E2,-4.7582043E2,1.7990356E1,3.077832E0,-8.542861E1,7.692119E1,3.962587E1,-5.704378E1,-3.5097332E1],"categories":[],"categories_nodes":[],"categories_segments":[],"categories_sizes":[],"default_left":[0,0,0,0,0,0,0,0,0,0,0,0,0],"id":17,"left_children":[1,3,5,7,9,11,-1,-1,-1,-1,-1,-1,-1],"loss_changes":[1.5974461E7,5.929548E6,6.18363E5,1.4614088E6,9.47025E5,3.31364E5,0E0,0E0,0E0,0E0,0E0,0E0,0E0],"parents":[2147483647,0,0,1,1,2,2,3,3,4,4,5,5],"right_children":[2,4,6,8,10,12,-1,-1,-1,-1,-1,-1,-1],"split_conditions":[7.1831E3,5.917648E6,1E0,4.3856E2,1.3212E2,5.0983E2,1.7990356E1,3.077832E0,-8.542861E1,7.692119E1,3.962587E1,-5.704378E1,-3.5097332E1],"split_indices":[0,3,9,7,7,7,0,0,0,0,0,0,0],"split_type":[0,0,0,0,0,0,0,0,0,0,0,0,0],"sum_hessian":[1.08E2,6.3E1,4.5E1,2.8E1,3.5E1,4.4E1,1E0,2.7E1,1E0,1.6E1,1.9E1,2.3E1,2.1E1],"tree_param":{"num_deleted":"0","num_feature":"10","num_nodes":"13","size_leaf_vector":"1"}},{"base_weights":[-1.24567E1,2.8062256E2,-3.9499988E2,-4.1619602E1,5.168971E2,-5.8647243E1,-2.843928E2,1.6955359E0,-8.115718E1,4.3210003E1,8.829986E1,-1.2045489E1,-4.9827602E1],"categories":[],"categories_nodes":[],"categories_segments":[],"categories_sizes":[],"default_left":[0,0,0,0,0,0,0,0,0,0,0,0,0],"id":18,"left_children":[1,3,5,7,9,-1,11,-1,-1,-1,-1,-1,-1],"loss_changes":[1.2667778E7,4.89432E6,8.70944E5,1.2765582E6,7.67097E5,0E0,1.0970778E6,0E0,0E0,0E0,0E0,0E0,0E0],"parents":[2147483647,0,0,1,1,2,2,3,3,4,4,6,6],"right_children":[2,4,6,8,10,-1,12,-1,-1,-1,-1,-1,-1],"split_conditions":[7.1831E3,5.917648E6,7.8178E3,4.3856E2,1E0,-5.8647243E1,4.2624633E12,1.6955359E0,-8.115718E1,4.3210003E1,8.829986E1,-1.2045489E1,-4.9827602E1],"split_indices":[0,3,0,7,9,0,1,0,0,0,0,0,0],"split_type":[0,0,0,0,0,0,0,0,0,0,0,0,0],"sum_hessian":[1.11E2,6.3E1,4.8E1,2.7E1,3.6E1,1.6E1,3.2E1,2.6E1,1E0,3.1E1,5E0,1.9E1,1.3E1],"tree_param":{"num_deleted":"0","num_feature":"10","num_nodes":"13","size_leaf_vector":"1"}},{"base_weights":[-7.879571E0,2.640461E2,-3.646179E2,-2.454036E1,4.9561646E2,-2.4811365E2,-4.7078406E2,1.0442201E1,-3.7611935E1,6.660136E1,3.1707083E1,-5.103445E1,-1.3844367E1,-3.5800606E1,-5.928727E1],"categories":[],"categories_nodes":[],"categories_segments":[],"categories_sizes":[],"default_left":[0,0,0,0,0,0,0,0,0,0,0,0,0,0,0],"id":19,"left_children":[1,3,5,7,9,11,13,-1,-1,-1,-1,-1,-1,-1,-1],"loss_changes":[1.076697E7,4.2223315E6,4.768945E5,1.3541484E6,8.53654E5,6.483174E5,1.18202E5,0E0,0E0,0E0,0E0,0E0,0E0,0E0,0E0],"parents":[2147483647,0,0,1,1,2,2,3,3,4,4,5,5,6,6],"right_children":[2,4,6,8,10,12,14,-1,-1,-1,-1,-1,-1,-1,-1],"split_conditions":[7.1831E3,5.917648E6,1.2246469E-16,8.660254E-1,1.3212E2,7.8178E3,4.2624633E12,1.0442201E1,-3.7611935E1,6.660136E1,3.1707083E1,-5.103445E1,-1.3844367E1,-3.5800606E1,-5.928727E1],"split_indices":[0,3,8,8,7,0,1,0,0,0,0,0,0,0,0],"split_type":[0,0,0,0,0,0,0,0,0,0,0,0,0,0,0],"sum_hessian":[1.09E2,6.2E1,4.7E1,2.8E1,3.4E1,2.4E1,2.3E1,2.1E1,7E0,1.6E1,1.8E1,6E0,1.8E1,1.4E1,9E0],"tree_param":{"num_deleted":"0","num_feature":"10","num_nodes":"15","size_leaf_vector":"1"}},{"base_weights":[-1.3189955E1,2.3544685E2,-3.3925098E2,-3.5826633E1,4.5348926E2,-4.0728476E2,-1.01209236E2,1.6621504E0,-7.521873E1,3.6970387E1,8.8226105E1,-3.20357E1,-4.8124424E1,-4.396571E1,1.2297182E1],"categories":[],"categories_nodes":[],"categories_segments":[],"categories_sizes":[],"default_left":[0,0,0,0,0,0,0,0,0,0,0,0,0,0,0],"id":20,"left_children":[1,3,5,7,9,11,13,-1,-1,-1,-1,-1,-1,-1,-1],"loss_changes":[8.997661E6,3.742642E6,7.36133E5,1.1020841E6,9.31194E5,8.37085E4,9.6454856E5,0E0,0E0,0E0,0E0,0E0,0E0,0E0,0E0],"parents":[2147483647,0,0,1,1,2,2,3,3,4,4,5,5,6,6],"right_children":[2,4,6,8,10,12,14,-1,-1,-1,-1,-1,-1,-1,-1],"split_conditions":[7.1831E3,5.917648E6,8.660254E-1,4.5717E2,1E0,5E-1,7.8178E3,1.6621504E0,-7.521873E1,3.6970387E1,8.8226105E1,-3.20357E1,-4.8124424E1,-4.396571E1,1.2297182E1],"split_indices":[0,3,9,7,9,8,0,0,0,0,0,0,0,0,0],"split_type":[0,0,0,0,0,0,0,0,0,0,0,0,0,0,0],"sum_hessian":[1.09E2,6.2E1,4.7E1,2.8E1,3.4E1,3.6E1,1.1E1,2.7E1,1E0,3E1,4E0,1.9E1,1.7E1,4E0,7E0],"tree_param":{"num_deleted":"0","num_feature":"10","num_nodes":"15","size_leaf_vector":"1"}},{"base_weights":[1.4643453E0,2.3577261E2,-2.9633292E2,-1.5401714E1,4.1062708E2,-4.6219807E1,-2.0693367E2,-1.3006662E1,2.5885267E1,3.3513042E1,8.116802E1,-7.2491813E0,-3.842125E1],"categories":[],"categories_nodes":[],"categories_segments":[],"categories_sizes":[],"default_left":[0,0,0,0,0,0,0,0,0,0,0,0,0],"id":21,"left_children":[1,3,5,7,9,-1,11,-1,-1,-1,-1,-1,-1],"loss_changes":[7.6057145E6,2.6853802E6,6.161105E5,8.512993E5,8.17995E5,0E0,7.5865975E5,0E0,0E0,0E0,0E0,0E0,0E0],"parents":[2147483647,0,0,1,1,2,2,3,3,4,4,6,6],"right_children":[2,4,6,8,10,-1,12,-1,-1,-1,-1,-1,-1],"split_conditions":[7.1831E3,5.917648E6,7.8178E3,8.660254E-1,1E0,-4.6219807E1,4.2624633E12,-1.3006662E1,2.5885267E1,3.3513042E1,8.116802E1,-7.2491813E0,-3.842125E1],"split_indices":[0,3,0,9,9,0,1,0,0,0,0,0,0],"split_type":[0,0,0,0,0,0,0,0,0,0,0,0,0],"sum_hessian":[1.07E2,6E1,4.7E1,2.5E1,3.5E1,1.5E1,3.2E1,1.8E1,7E0,3.1E1,4E0,1.9E1,1.3E1],"tree_param":{"num_deleted":"0","num_feature":"10","num_nodes":"13","size_leaf_vector":"1"}},{"base_weights":[-8.619932E0,2.2967838E2,-2.7373276E2,6.984149E1,4.7682126E2,-4.1382484E1,-1.9608304E2,-4.4308758E1,1.2813193E1,6.7708755E1,9.006396E0,-6.350729E0,-3.578335E1],"categories":[],"categories_nodes":[],"categories_segments":[],"categories_sizes":[],"default_left":[0,0,0,0,0,0,0,0,0,0,0,0,0],"id":22,"left_children":[1,3,5,7,9,-1,11,-1,-1,-1,-1,-1,-1],"loss_changes":[7.0753995E6,2.2973482E6,4.95396E5,1.1630314E6,1.720471E6,0E0,7.492659E5,0E0,0E0,0E0,0E0,0E0,0E0],"parents":[2147483647,0,0,1,1,2,2,3,3,4,4,6,6],"right_children":[2,4,6,8,10,-1,12,-1,-1,-1,-1,-1,-1],"split_conditions":[7.1831E3,5.0901785E11,7.8178E3,2.3097E2,5E-1,-4.1382484E1,4.2624633E12,-4.4308758E1,1.2813193E1,6.7708755E1,9.006396E0,-6.350729E0,-3.578335E1],"split_indices":[0,1,0,7,8,0,1,0,0,0,0,0,0],"split_type":[0,0,0,0,0,0,0,0,0,0,0,0,0],"sum_hessian":[1.1E2,5.8E1,5.2E1,3.6E1,2.2E1,1.7E1,3.5E1,3E0,3.3E1,1.4E1,8E0,2E1,1.5E1],"tree_param":{"num_deleted":"0","num_feature":"10","num_nodes":"13","size_leaf_vector":"1"}},{"base_weights":[-1.7577229E1,1.6090619E2,-2.4305466E2,3.5354987E2,-1.9100386E1,-2.9095004E2,-7.113141E1,8.555328E0,6.158429E1,-1.7706415E1,1.5980262E1,-2.9448347E1,-8.010669E0,-2.9652227E1,3.69458E0],"categories":[],"categories_nodes":[],"categories_segments":[],"categories_sizes":[],"default_left":[0,0,0,0,0,0,0,0,0,0,0,0,0,0,0],"id":23,"left_children":[1,3,5,7,9,11,13,-1,-1,-1,-1,-1,-1,-1,-1],"loss_changes":[4.465947E6,2.156735E6,3.827865E5,2.0561218E6,9.6088156E5,4.71975E3,3.0327066E5,0E0,0E0,0E0,0E0,0E0,0E0,0E0,0E0],"parents":[2147483647,0,0,1,1,2,2,3,3,4,4,5,5,6,6],"right_children":[2,4,6,8,10,12,14,-1,-1,-1,-1,-1,-1,-1,-1],"split_conditions":[7.1831E3,1.2246469E-16,8.660254E-1,5.0901785E11,5.917648E6,5.4668E2,7.8178E3,8.555328E0,6.158429E1,-1.7706415E1,1.5980262E1,-2.9448347E1,-8.010669E0,-2.9652227E1,3.69458E0],"split_indices":[0,8,9,1,3,7,0,0,0,0,0,0,0,0,0],"split_type":[0,0,0,0,0,0,0,0,0,0,0,0,0,0,0],"sum_hessian":[1.09E2,6.1E1,4.8E1,2.9E1,3.2E1,3.7E1,1.1E1,1.5E1,1.4E1,1.7E1,1.5E1,3.6E1,1E0,3E0,8E0],"tree_param":{"num_deleted":"0","num_feature":"10","num_nodes":"15","size_leaf_vector":"1"}},{"base_weights":[-9.776671E0,1.4431522E2,-2.1084003E2,-2.1773256E1,2.3183237E2,-2.3535727E2,2.4354345E1,-1.6557213E1,1.8172249E1,3.2859493E1,-3.7457013E0,-3.6031532E1,-1.7142612E1],"categories":[],"categories_nodes":[],"categories_segments":[],"categories_sizes":[],"default_left":[0,0,0,0,0,0,0,0,0,0,0,0,0],"id":24,"left_children":[1,3,5,7,9,11,-1,-1,-1,-1,-1,-1,-1],"loss_changes":[3.5004378E6,9.353254E5,6.0319125E5,7.0312475E5,1.106708E6,3.1370175E5,0E0,0E0,0E0,0E0,0E0,0E0,0E0],"parents":[2147483647,0,0,1,1,2,2,3,3,4,4,5,5],"right_children":[2,4,6,8,10,12,-1,-1,-1,-1,-1,-1,-1],"split_conditions":[7.1831E3,4.1344523E11,1E0,-1.8369701E-16,8.660254E-1,7.8178E3,2.4354345E1,-1.6557213E1,1.8172249E1,3.2859493E1,-3.7457013E0,-3.6031532E1,-1.7142612E1],"split_indices":[0,1,9,9,8,0,0,0,0,0,0,0,0],"split_type":[0,0,0,0,0,0,0,0,0,0,0,0,0],"sum_hessian":[1.11E2,6.3E1,4.8E1,2.2E1,4.1E1,4.6E1,2E0,1.3E1,9E0,3E1,1.1E1,1.4E1,3.2E1],"tree_param":{"num_deleted":"0","num_feature":"10","num_nodes":"13","size_leaf_vector":"1"}},{"base_weights":[3.9958544E0,1.5788419E2,-2.0127184E2,1.06184944E2,5.636944E2,-3.565743E1,-1.5628987E2,-2.7761435E1,1.4763043E1,-2.7768555E0,8.0583336E1,-6.8751397E0,-3.0769775E1],"categories":[],"categories_nodes":[],"categories_segments":[],"categories_sizes":[],"default_left":[0,0,0,0,0,0,0,0,0,0,0,0,0],"id":25,"left_children":[1,3,5,7,9,-1,11,-1,-1,-1,-1,-1,-1],"loss_changes":[3.5380792E6,1.2828692E6,2.7958962E5,9.635757E5,1.02489E6,0E0,4.95752E5,0E0,0E0,0E0,0E0,0E0,0E0],"parents":[2147483647,0,0,1,1,2,2,3,3,4,4,6,6],"right_children":[2,4,6,8,10,-1,12,-1,-1,-1,-1,-1,-1],"split_conditions":[7.1831E3,1E0,4.338577E11,2.5519497E11,5.0901785E11,-3.565743E1,4.2624633E12,-2.7761435E1,1.4763043E1,-2.7768555E0,8.0583336E1,-6.8751397E0,-3.0769775E1],"split_indices":[0,9,1,1,1,0,1,0,0,0,0,0,0],"split_type":[0,0,0,0,0,0,0,0,0,0,0,0,0],"sum_hessian":[1.1E2,6.3E1,4.7E1,5.7E1,6E0,9E0,3.8E1,5E0,5.2E1,2E0,4E0,2.5E1,1.3E1],"tree_param":{"num_deleted":"0","num_feature":"10","num_nodes":"13","size_leaf_vector":"1"}},{"base_weights":[-1.3094683E1,1.3020898E2,-1.8424034E2,7.463825E1,4.4299115E2,-9.036883E1,-2.643347E2,-2.5038067E1,1.0628022E1,5.587735E1,2.516862E0,-1.9001549E1,5.372832E0,-1.9052504E1,-3.7075863E1],"categories":[],"categories_nodes":[],"categories_segments":[],"categories_sizes":[],"default_left":[0,0,0,0,0,0,0,0,0,0,0,0,0,0,0],"id":26,"left_children":[1,3,5,7,9,11,13,-1,-1,-1,-1,-1,-1,-1,-1],"loss_changes":[2.7463538E6,1.0272094E6,3.5955988E5,5.716751E5,4.2132475E5,3.691792E5,1.4144925E5,0E0,0E0,0E0,0E0,0E0,0E0,0E0,0E0],"parents":[2147483647,0,0,1,1,2,2,3,3,4,4,5,5,6,6],"right_children":[2,4,6,8,10,12,14,-1,-1,-1,-1,-1,-1,-1,-1],"split_conditions":[7.1831E3,1.7344513E12,1.2246469E-16,2.5519497E11,8.660254E-1,6.123234E-17,4.2624633E12,-2.5038067E1,1.0628022E1,5.587735E1,2.516862E0,-1.9001549E1,5.372832E0,-1.9052504E1,-3.7075863E1],"split_indices":[0,1,8,1,8,9,1,0,0,0,0,0,0,0,0],"split_type":[0,0,0,0,0,0,0,0,0,0,0,0,0,0,0],"sum_hessian":[1.1E2,6E1,5E1,5.2E1,8E0,2.4E1,2.6E1,4E0,4.8E1,6E0,2E0,1.4E1,1E1,1.7E1,9E0],"tree_param":{"num_deleted":"0","num_feature":"10","num_nodes":"15","size_leaf_vector":"1"}},{"base_weights":[1.5746529E1,1.413742E2,-1.5298305E2,8.697885E1,4.5808203E2,-1.750029E2,2.2830893E1,1.7989544E1,3.5518557E-1,5.7889523E1,2.349056E0,-3.007179E1,-1.3522087E1],"categories":[],"categories_nodes":[],"categories_segments":[],"categories_sizes":[],"default_left":[0,0,0,0,0,0,0,0,0,0,0,0,0],"id":27,"left_children":[1,3,5,7,9,11,-1,-1,-1,-1,-1,-1,-1],"loss_changes":[2.3321125E6,1.045485E6,4.3456612E5,4.257074E5,4.58941E5,1.8439062E5,0E0,0E0,0E0,0E0,0E0,0E0,0E0],"parents":[2147483647,0,0,1,1,2,2,3,3,4,4,5,5],"right_children":[2,4,6,8,10,12,-1,-1,-1,-1,-1,-1,-1],"split_conditions":[7.1831E3,1.7344513E12,1E0,1.2246469E-16,8.660254E-1,4.338577E11,2.2830893E1,1.7989544E1,3.5518557E-1,5.7889523E1,2.349056E0,-3.007179E1,-1.3522087E1],"split_indices":[0,1,9,8,8,1,0,0,0,0,0,0,0],"split_type":[0,0,0,0,0,0,0,0,0,0,0,0,0],"sum_hessian":[1.08E2,6.2E1,4.6E1,5.4E1,8E0,4.4E1,2E0,2.5E1,2.9E1,6E0,2E0,9E0,3.5E1],"tree_param":{"num_deleted":"0","num_feature":"10","num_nodes":"13","size_leaf_vector":"1"}},{"base_weights":[2.1271296E0,3.0486285E2,-6.16291E1,1.9767435E2,6.841984E1,-1.5773684E1,-2.5691208E2,1.0008042E1,2.9495747E1,1.775896E0,-2.0168314E1,-2.9304382E1,-1.5827022E1],"categories":[],"categories_nodes":[],"categories_segments":[],"categories_sizes":[],"default_left":[0,0,0,0,0,0,0,0,0,0,0,0,0],"id":28,"left_children":[1,3,5,7,-1,9,11,-1,-1,-1,-1,-1,-1],"loss_changes":[2.2191355E6,6.779596E5,8.4665175E5,1.3188262E5,0E0,4.898364E5,1.777375E4,0E0,0E0,0E0,0E0,0E0,0E0],"parents":[2147483647,0,0,1,1,2,2,3,3,5,5,6,6],"right_children":[2,4,6,8,-1,10,12,-1,-1,-1,-1,-1,-1],"split_conditions":[1.3272E2,1E0,4.2530456E0,1.2417E2,6.841984E1,4.2624633E12,4.338577E11,1.0008042E1,2.9495747E1,1.775896E0,-2.0168314E1,-2.9304382E1,-1.5827022E1],"split_indices":[7,9,2,7,0,1,1,0,0,0,0,0,0],"split_type":[0,0,0,0,0,0,0,0,0,0,0,0,0],"sum_hessian":[1.13E2,1.9E1,9.4E1,1.6E1,3E0,7.7E1,1.7E1,9E0,7E0,6.6E1,1.1E1,1.1E1,6E0],"tree_param":{"num_deleted":"0","num_feature":"10","num_nodes":"13","size_leaf_vector":"1"}},{"base_weights":[9.642636E-1,1.03707886E2,-1.2905756E2,5.4849514E1,3.5228647E2,-1.4807518E2,2.1190447E1,-3.5177038E0,1.4969159E1,4.395103E1,2.2607422E-1,-7.4755425E0,-1.9961739E1],"categories":[],"categories_nodes":[],"categories_segments":[],"categories_sizes":[],"default_left":[0,0,0,0,0,0,0,0,0,0,0,0,0],"id":29,"left_children":[1,3,5,7,9,11,-1,-1,-1,-1,-1,-1,-1],"loss_changes":[1.4828648E6,7.336763E5,3.4910788E5,4.5779588E5,3.0431225E5,1.626935E5,0E0,0E0,0E0,0E0,0E0,0E0,0E0],"parents":[2147483647,0,0,1,1,2,2,3,3,4,4,5,5],"right_children":[2,4,6,8,10,12,-1,-1,-1,-1,-1,-1,-1],"split_conditions":[7.1831E3,1.7344513E12,1E0,2.5511E2,8.660254E-1,-2.4492937E-16,2.1190447E1,-3.5177038E0,1.4969159E1,4.395103E1,2.2607422E-1,-7.4755425E0,-1.9961739E1],"split_indices":[0,1,9,7,8,8,0,0,0,0,0,0,0],"split_type":[0,0,0,0,0,0,0,0,0,0,0,0,0],"sum_hessian":[1.09E2,6.1E1,4.8E1,5.2E1,9E0,4.6E1,2E0,2.7E1,2.5E1,7E0,2E0,2E1,2.6E1],"tree_param":{"num_deleted":"0","num_feature":"10","num_nodes":"13","size_leaf_vector":"1"}},{"base_weights":[-9.440811E0,1.1120419E2,-1.065829E2,-5.7816868E1,2.4607135E2,-3.252983E1,-2.857943E2,-1.6718086E1,1.010744E1,2.7828775E1,-3.1188562E1,5.08728E0,-1.8687666E1,-7.2309746E1,-2.1753546E1],"categories":[],"categories_nodes":[],"categories_segments":[],"categories_sizes":[],"default_left":[0,0,0,0,0,0,0,0,0,0,0,0,0,0,0],"id":30,"left_children":[1,3,5,7,9,11,13,-1,-1,-1,-1,-1,-1,-1,-1],"loss_changes":[1.3127401E6,1.1539965E6,8.135147E5,4.165683E5,5.90104E5,5.8878875E5,3.7999738E5,0E0,0E0,0E0,0E0,0E0,0E0,0E0,0E0],"parents":[2147483647,0,0,1,1,2,2,3,3,4,4,5,5,6,6],"right_children":[2,4,6,8,10,12,14,-1,-1,-1,-1,-1,-1,-1,-1],"split_conditions":[4.5717E2,4.338577E11,3.4963868E0,-1.8369701E-16,1E0,4.2624633E12,7.1831E3,-1.6718086E1,1.010744E1,2.7828775E1,-3.1188562E1,5.08728E0,-1.8687666E1,-7.2309746E1,-2.1753546E1],"split_indices":[7,1,2,9,8,1,0,0,0,0,0,0,0,0,0],"split_type":[0,0,0,0,0,0,0,0,0,0,0,0,0,0,0],"sum_hessian":[1.1E2,4.9E1,6.1E1,2.2E1,2.7E1,4.4E1,1.7E1,1.3E1,9E0,2.6E1,1E0,2.9E1,1.5E1,1E0,1.6E1],"tree_param":{"num_deleted":"0","num_feature":"10","num_nodes":"15","size_leaf_vector":"1"}},{"base_weights":[8.168473E0,2.4501328E2,-4.3975094E1,6.3488724E1,4.2018896E2,-8.250989E0,-2.1091615E2,-8.217448E0,1.9857048E1,2.626038E1,5.909158E1,-1.4401053E1,3.3307023E0,-2.4129972E1,-1.2006026E1],"categories":[],"categories_nodes":[],"categories_segments":[],"categories_sizes":[],"default_left":[0,0,0,0,0,0,0,0,0,0,0,0,0,0,0],"id":31,"left_children":[1,3,5,7,9,11,13,-1,-1,-1,-1,-1,-1,-1,-1],"loss_changes":[1.3692672E6,6.092964E5,5.409673E5,2.3275825E5,1.13863375E5,4.3358066E5,1.51979375E4,0E0,0E0,0E0,0E0,0E0,0E0,0E0,0E0],"parents":[2147483647,0,0,1,1,2,2,3,3,4,4,5,5,6,6],"right_children":[2,4,6,8,10,12,14,-1,-1,-1,-1,-1,-1,-1,-1],"split_conditions":[1.3272E2,6.123234E-17,4.2530456E0,1.2417E2,1E0,-5E-1,4.338577E11,-8.217448E0,1.9857048E1,2.626038E1,5.909158E1,-1.4401053E1,3.3307023E0,-2.4129972E1,-1.2006026E1],"split_indices":[7,9,2,7,9,9,1,0,0,0,0,0,0,0,0],"split_type":[0,0,0,0,0,0,0,0,0,0,0,0,0,0,0],"sum_hessian":[1.09E2,1.9E1,9E1,1E1,9E0,7.5E1,1.5E1,5E0,5E0,6E0,3E0,1.7E1,5.8E1,1E1,5E0],"tree_param":{"num_deleted":"0","num_feature":"10","num_nodes":"15","size_leaf_vector":"1"}},{"base_weights":[2.4497826E0,9.643303E1,-1.1843582E2,-4.616132E1,1.8536702E2,-2.150293E1,-8.481589E1,-1.03267765E1,4.0704185E1,1.3911742E1,3.7691994E1,-2.3077219E0,-2.0176893E1],"categories":[],"categories_nodes":[],"categories_segments":[],"categories_sizes":[],"default_left":[0,0,0,0,0,0,0,0,0,0,0,0,0],"id":32,"left_children":[1,3,5,7,9,-1,11,-1,-1,-1,-1,-1,-1],"loss_changes":[1.2725168E6,8.0749025E5,1.40888E5,6.8905475E5,2.9307462E5,0E0,2.6972366E5,0E0,0E0,0E0,0E0,0E0,0E0],"parents":[2147483647,0,0,1,1,2,2,3,3,4,4,6,6],"right_children":[2,4,6,8,10,-1,12,-1,-1,-1,-1,-1,-1],"split_conditions":[7.1831E3,4.1344523E11,4.338577E11,2.6237E2,1E0,-2.150293E1,4.2624633E12,-1.03267765E1,4.0704185E1,1.3911742E1,3.7691994E1,-2.3077219E0,-2.0176893E1],"split_indices":[0,1,1,7,9,0,1,0,0,0,0,0,0],"split_type":[0,0,0,0,0,0,0,0,0,0,0,0,0],"sum_hessian":[1.1E2,6.2E1,4.8E1,2.4E1,3.8E1,1.1E1,3.7E1,2.2E1,2E0,3.2E1,6E0,2.5E1,1.2E1],"tree_param":{"num_deleted":"0","num_feature":"10","num_nodes":"13","size_leaf_vector":"1"}},{"base_weights":[-1.8557944E0,2.0857845E2,-4.5225166E1,4.555105E1,3.6705072E2,2.0561092E1,-1.0255099E2,-8.691977E0,1.7043001E1,2.2817076E1,5.18328E1,-1.1627154E1,7.798824E0,-2.4921396E0,-2.4780014E1],"categories":[],"categories_nodes":[],"categories_segments":[],"categories_sizes":[],"default_left":[0,0,0,0,0,0,0,0,0,0,0,0,0,0,0],"id":33,"left_children":[1,3,5,7,9,11,13,-1,-1,-1,-1,-1,-1,-1,-1],"loss_changes":[1.0680954E6,4.9998694E5,3.6791988E5,1.9678472E5,9.18265E4,3.7053153E5,5.801574E5,0E0,0E0,0E0,0E0,0E0,0E0,0E0,0E0],"parents":[2147483647,0,0,1,1,2,2,3,3,4,4,5,5,6,6],"right_children":[2,4,6,8,10,12,14,-1,-1,-1,-1,-1,-1,-1,-1],"split_conditions":[1.3272E2,6.123234E-17,1.2246469E-16,1.2417E2,1E0,5.0803665E2,3.4963868E0,-8.691977E0,1.7043001E1,2.2817076E1,5.18328E1,-1.1627154E1,7.798824E0,-2.4921396E0,-2.4780014E1],"split_indices":[7,9,8,7,9,6,2,0,0,0,0,0,0,0,0],"split_type":[0,0,0,0,0,0,0,0,0,0,0,0,0,0,0],"sum_hessian":[1.15E2,1.9E1,9.6E1,1E1,9E0,4.5E1,5.1E1,5E0,5E0,6E0,3E0,1.3E1,3.2E1,3.4E1,1.7E1],"tree_param":{"num_deleted":"0","num_feature":"10","num_nodes":"15","size_leaf_vector":"1"}},{"base_weights":[-6.849697E0,2.2455481E2,-4.953477E1,1.3568704E2,4.7945324E1,-9.904664E0,-1.4975333E2,-1.4204883E1,1.679782E1,2.9543815E0,-1.4862899E1,5.2005835E0,-3.011771E1],"categories":[],"categories_nodes":[],"categories_segments":[],"categories_sizes":[],"default_left":[0,0,0,0,0,0,0,0,0,0,0,0,0],"id":34,"left_children":[1,3,5,7,-1,9,11,-1,-1,-1,-1,-1,-1],"loss_changes":[1.0778952E6,3.200328E5,3.6391056E5,1.494188E5,0E0,3.710461E5,8.099924E5,0E0,0E0,0E0,0E0,0E0,0E0],"parents":[2147483647,0,0,1,1,2,2,3,3,5,5,6,6],"right_children":[2,4,6,8,-1,10,12,-1,-1,-1,-1,-1,-1],"split_conditions":[1.3272E2,1E0,3.4963868E0,-8.660254E-1,4.7945324E1,4.2624633E12,5E-1,-1.4204883E1,1.679782E1,2.9543815E0,-1.4862899E1,5.2005835E0,-3.011771E1],"split_indices":[7,9,2,8,0,1,8,0,0,0,0,0,0],"split_type":[0,0,0,0,0,0,0,0,0,0,0,0,0],"sum_hessian":[1.07E2,1.6E1,9.1E1,1.3E1,3E0,6.6E1,2.5E1,1E0,1.2E1,5.2E1,1.4E1,1.1E1,1.4E1],"tree_param":{"num_deleted":"0","num_feature":"10","num_nodes":"13","size_leaf_vector":"1"}},{"base_weights":[1.443852E1,9.093244E1,-8.677555E1,4.496006E0,2.276028E2,-1.2852953E2,-2.89597E1,-1.0614018E1,1.2654148E1,3.074314E1,2.9516633E0,-8.498422E0,-1.5770019E1,7.9099016E0,-1.3438571E1],"categories":[],"categories_nodes":[],"categories_segments":[],"categories_sizes":[],"default_left":[0,0,0,0,0,0,0,0,0,0,0,0,0,0,0],"id":35,"left_children":[1,3,5,7,9,11,13,-1,-1,-1,-1,-1,-1,-1,-1],"loss_changes":[8.440549E5,7.314012E5,1.0973781E5,5.4003425E5,3.7043625E5,2.0894562E4,2.4986598E5,0E0,0E0,0E0,0E0,0E0,0E0,0E0,0E0],"parents":[2147483647,0,0,1,1,2,2,3,3,4,4,5,5,6,6],"right_children":[2,4,6,8,10,12,14,-1,-1,-1,-1,-1,-1,-1,-1],"split_conditions":[7.1831E3,5.0901785E11,5E-1,2.5511E2,5E-1,5.019E2,1.2246469E-16,-1.0614018E1,1.2654148E1,3.074314E1,2.9516633E0,-8.498422E0,-1.5770019E1,7.9099016E0,-1.3438571E1],"split_indices":[0,1,9,7,8,7,8,0,0,0,0,0,0,0,0],"split_type":[0,0,0,0,0,0,0,0,0,0,0,0,0,0,0],"sum_hessian":[1.07E2,6.1E1,4.6E1,3.8E1,2.3E1,2.6E1,2E1,2E1,1.8E1,1.6E1,7E0,1.2E1,1.4E1,1E1,1E1],"tree_param":{"num_deleted":"0","num_feature":"10","num_nodes":"15","size_leaf_vector":"1"}},{"base_weights":[-3.5685833E0,1.2720906E2,-3.291672E1,9.566447E0,2.6993152E2,-2.1297386E1,-2.7450321E1,-7.512765E0,1.0678183E1,1.390787E1,3.4679806E1,-1.834832E1,-9.020693E-1],"categories":[],"categories_nodes":[],"categories_segments":[],"categories_sizes":[],"default_left":[0,0,0,0,0,0,0,0,0,0,0,0,0],"id":36,"left_children":[1,3,5,7,9,11,-1,-1,-1,-1,-1,-1,-1],"loss_changes":[4.1869997E5,3.3322256E5,2.4398338E5,1.06825086E5,4.2291625E4,1.6957994E5,0E0,0E0,0E0,0E0,0E0,0E0,0E0],"parents":[2147483647,0,0,1,1,2,2,3,3,4,4,5,5],"right_children":[2,4,6,8,10,12,-1,-1,-1,-1,-1,-1,-1],"split_conditions":[2.1591E3,6.123234E-17,1E0,1.7344513E12,-2.4492937E-16,2.5519497E11,-2.7450321E1,-7.512765E0,1.0678183E1,1.390787E1,3.4679806E1,-1.834832E1,-9.020693E-1],"split_indices":[0,9,8,1,8,1,0,0,0,0,0,0,0],"split_type":[0,0,0,0,0,0,0,0,0,0,0,0,0],"sum_hessian":[1.07E2,1.9E1,8.8E1,1.1E1,8E0,8.5E1,3E0,6E0,5E0,4E0,4E0,5E0,8E1],"tree_param":{"num_deleted":"0","num_feature":"10","num_nodes":"13","size_leaf_vector":"1"}},{"base_weights":[-1.9335624E0,5.928079E1,-8.3067085E1,-3.146183E1,1.3722792E2,-4.8405975E1,-1.6732944E2,-1.5499198E1,2.1874464E1,1.8580044E1,6.931104E-1,-1.2151731E1,2.333284E0,-5.836043E0,-2.8473322E1],"categories":[],"categories_nodes":[],"categories_segments":[],"categories_sizes":[],"default_left":[0,0,0,0,0,0,0,0,0,0,0,0,0,0,0],"id":37,"left_children":[1,3,5,7,9,11,13,-1,-1,-1,-1,-1,-1,-1,-1],"loss_changes":[5.3137706E5,4.3577812E5,1.2624903E5,9.302368E5,2.0756406E5,1.8116264E5,1.4969669E5,0E0,0E0,0E0,0E0,0E0,0E0,0E0,0E0],"parents":[2147483647,0,0,1,1,2,2,3,3,4,4,5,5,6,6],"right_children":[2,4,6,8,10,12,14,-1,-1,-1,-1,-1,-1,-1,-1],"split_conditions":[7.1831E3,-1.8369701E-16,4.2624633E12,2.6237E2,4.5787E2,7.8178E3,5.1882E2,-1.5499198E1,2.1874464E1,1.8580044E1,6.931104E-1,-1.2151731E1,2.333284E0,-5.836043E0,-2.8473322E1],"split_indices":[0,9,1,7,7,0,7,0,0,0,0,0,0,0,0],"split_type":[0,0,0,0,0,0,0,0,0,0,0,0,0,0,0],"sum_hessian":[1.05E2,6E1,4.5E1,2.8E1,3.2E1,3.3E1,1.2E1,1.9E1,9E0,2.3E1,9E0,1.6E1,1.7E1,7E0,5E0],"tree_param":{"num_deleted":"0","num_feature":"10","num_nodes":"15","size_leaf_vector":"1"}},{"base_weights":[5.174723E0,6.2731453E1,-6.5006836E1,-2.0080622E1,1.9162651E2,-1.0493031E2,2.9258127E0,-1.7000544E1,3.063804E0,-1.7186197E0,3.1217564E1,-6.190405E0,-1.3166038E1,1.0088688E1,-1.0624491E1],"categories":[],"categories_nodes":[],"categories_segments":[],"categories_sizes":[],"default_left":[0,0,0,0,0,0,0,0,0,0,0,0,0,0,0],"id":38,"left_children":[1,3,5,7,9,11,13,-1,-1,-1,-1,-1,-1,-1,-1],"loss_changes":[4.120595E5,6.0159575E5,1.2506394E5,2.7134812E5,5.591533E5,2.5202469E4,2.0321934E5,0E0,0E0,0E0,0E0,0E0,0E0,0E0,0E0],"parents":[2147483647,0,0,1,1,2,2,3,3,4,4,5,5,6,6],"right_children":[2,4,6,8,10,12,14,-1,-1,-1,-1,-1,-1,-1,-1],"split_conditions":[7.1831E3,5.0901785E11,5E-1,-5E-1,1.2417E2,5.019E2,1.2246469E-16,-1.7000544E1,3.063804E0,-1.7186197E0,3.1217564E1,-6.190405E0,-1.3166038E1,1.0088688E1,-1.0624491E1],"split_indices":[0,1,9,9,7,7,8,0,0,0,0,0,0,0,0],"split_type":[0,0,0,0,0,0,0,0,0,0,0,0,0,0,0],"sum_hessian":[1E2,5.5E1,4.5E1,3.4E1,2.1E1,2.8E1,1.7E1,8E0,2.6E1,8E0,1.3E1,1.2E1,1.6E1,9E0,8E0],"tree_param":{"num_deleted":"0","num_feature":"10","num_nodes":"15","size_leaf_vector":"1"}},{"base_weights":[-6.524747E-1,6.610938E1,-5.7219265E1,-3.4337234E1,1.4003064E2,-6.940385E1,-3.427344E1,-8.906883E0,2.3422218E1,2.312596E1,9.9596417E-1,-3.972921E-1,-1.2087008E1],"categories":[],"categories_nodes":[],"categories_segments":[],"categories_sizes":[],"default_left":[0,0,0,0,0,0,0,0,0,0,0,0,0],"id":39,"left_children":[1,3,5,7,9,-1,11,-1,-1,-1,-1,-1,-1],"loss_changes":[4.116452E5,3.7606525E5,8.3834094E5,3.44233E5,3.418177E5,0E0,1.5170734E5,0E0,0E0,0E0,0E0,0E0,0E0],"parents":[2147483647,0,0,1,1,2,2,3,3,4,4,6,6],"right_children":[2,4,6,8,10,-1,12,-1,-1,-1,-1,-1,-1],"split_conditions":[4.5717E2,4.338577E11,5.917648E6,2.5511E2,5E-1,-6.940385E1,4.2624633E12,-8.906883E0,2.3422218E1,2.312596E1,9.9596417E-1,-3.972921E-1,-1.2087008E1],"split_indices":[7,1,3,7,8,0,1,0,0,0,0,0,0],"split_type":[0,0,0,0,0,0,0,0,0,0,0,0,0],"sum_hessian":[1.07E2,4.9E1,5.8E1,2.1E1,2.8E1,1E0,5.7E1,1.8E1,3E0,1.6E1,1.2E1,4.3E1,1.4E1],"tree_param":{"num_deleted":"0","num_feature":"10","num_nodes":"13","size_leaf_vector":"1"}},{"base_weights":[-6.388132E0,1.7820117E2,-3.4291683E1,-1.6655518E1,2.1472342E2,-2.476112E1,-2.5445224E2,3.0138025E1,8.501227E0,4.1993E0,-5.7243743E0,-7.597304E0,-2.8862095E1],"categories":[],"categories_nodes":[],"categories_segments":[],"categories_sizes":[],"default_left":[0,0,0,0,0,0,0,0,0,0,0,0,0],"id":40,"left_children":[1,3,5,-1,7,9,11,-1,-1,-1,-1,-1,-1],"loss_changes":[5.8813956E5,2.2463244E5,2.014266E5,0E0,1.31744E5,2.1056533E5,2.4662188E3,0E0,0E0,0E0,0E0,0E0,0E0],"parents":[2147483647,0,0,1,1,2,2,4,4,5,5,6,6],"right_children":[2,4,6,-1,8,10,12,-1,-1,-1,-1,-1,-1],"split_conditions":[1.3212E2,-8.660254E-1,1E0,-1.6655518E1,1.2246469E-16,4.5717E2,4.338577E11,3.0138025E1,8.501227E0,4.1993E0,-5.7243743E0,-7.597304E0,-2.8862095E1],"split_indices":[7,8,8,0,8,7,1,0,0,0,0,0,0],"split_type":[0,0,0,0,0,0,0,0,0,0,0,0,0],"sum_hessian":[1.12E2,1.4E1,9.8E1,1E0,1.3E1,9.5E1,3E0,7E0,6E0,3.1E1,6.4E1,1E0,2E0],"tree_param":{"num_deleted":"0","num_feature":"10","num_nodes":"13","size_leaf_vector":"1"}},{"base_weights":[-1.3614312E1,4.4084995E1,-5.9926426E1,-1.5015425E1,2.3248761E2,-6.564744E1,-3.938508E1,-1.2337825E1,1.4846727E1,3.0383741E1,-2.7618006E1,-1.3093175E1,-1.886746E0],"categories":[],"categories_nodes":[],"categories_segments":[],"categories_sizes":[],"default_left":[0,0,0,0,0,0,0,0,0,0,0,0,0],"id":41,"left_children":[1,3,5,7,9,-1,11,-1,-1,-1,-1,-1,-1],"loss_changes":[2.9925353E5,5.602246E5,7.338865E5,7.0922E5,5.1943375E5,0E0,1.1210714E5,0E0,0E0,0E0,0E0,0E0,0E0],"parents":[2147483647,0,0,1,1,2,2,3,3,4,4,6,6],"right_children":[2,4,6,8,10,-1,12,-1,-1,-1,-1,-1,-1],"split_conditions":[4.5717E2,2.6237E2,5.917648E6,6.123234E-17,1E0,-6.564744E1,4.338577E11,-1.2337825E1,1.4846727E1,3.0383741E1,-2.7618006E1,-1.3093175E1,-1.886746E0],"split_indices":[7,7,3,9,8,0,1,0,0,0,0,0,0],"split_type":[0,0,0,0,0,0,0,0,0,0,0,0,0],"sum_hessian":[1.1E2,4.9E1,6.1E1,3.8E1,1.1E1,1E0,6E1,2.3E1,1.5E1,1E1,1E0,1E1,5E1],"tree_param":{"num_deleted":"0","num_feature":"10","num_nodes":"13","size_leaf_vector":"1"}},{"base_weights":[-2.3774505E0,5.05169E1,-4.7935036E1,2.7699202E1,3.0599562E1,-6.2365063E1,-2.6893524E1,-1.7936455E0,1.6229792E1,-1.1902885E1,-4.757733E-1],"categories":[],"categories_nodes":[],"categories_segments":[],"categories_sizes":[],"default_left":[0,0,0,0,0,0,0,0,0,0,0],"id":42,"left_children":[1,3,5,7,-1,-1,9,-1,-1,-1,-1],"loss_changes":[2.6026358E5,2.8299597E5,6.858356E5,2.9160856E5,0E0,0E0,1.1568452E5,0E0,0E0,0E0,0E0],"parents":[2147483647,0,0,1,1,2,2,3,3,6,6],"right_children":[2,4,6,8,-1,-1,10,-1,-1,-1,-1],"split_conditions":[4.5717E2,1E0,4.5778E2,2.6237E2,3.0599562E1,-6.2365063E1,4.338577E11,-1.7936455E0,1.6229792E1,-1.1902885E1,-4.757733E-1],"split_indices":[7,9,7,7,0,0,1,0,0,0,0],"split_type":[0,0,0,0,0,0,0,0,0,0,0],"sum_hessian":[1.06E2,4.9E1,5.7E1,4.6E1,3E0,1E0,5.6E1,3.5E1,1.1E1,1E1,4.6E1],"tree_param":{"num_deleted":"0","num_feature":"10","num_nodes":"11","size_leaf_vector":"1"}},{"base_weights":[3.0188236E0,-2.5043991E1,8.9103935E1,1.319711E2,-3.4312668E1,1.6396704E2,2.5289013E0,-5.002051E0,1.8997412E1,-1.7462168E1,-2.4878595E0,8.259963E0,3.1018194E1,-1.4826337E1,7.7672143E0],"categories":[],"categories_nodes":[],"categories_segments":[],"categories_sizes":[],"default_left":[0,0,0,0,0,0,0,0,0,0,0,0,0,0,0],"id":43,"left_children":[1,3,5,7,9,11,13,-1,-1,-1,-1,-1,-1,-1,-1],"loss_changes":[2.7521584E5,1.2968597E5,1.8106108E5,6.228293E4,1.0419787E5,1.52836E5,1.7015022E5,0E0,0E0,0E0,0E0,0E0,0E0,0E0,0E0],"parents":[2147483647,0,0,1,1,2,2,3,3,4,4,5,5,6,6],"right_children":[2,4,6,8,10,12,14,-1,-1,-1,-1,-1,-1,-1,-1],"split_conditions":[8.660254E-1,1.1981E2,4.5787E2,1.1828E2,1.2417E2,1E0,1.0035219E8,-5.002051E0,1.8997412E1,-1.7462168E1,-2.4878595E0,8.259963E0,3.1018194E1,-1.4826337E1,7.7672143E0],"split_indices":[9,7,7,7,7,9,3,0,0,0,0,0,0,0,0],"split_type":[0,0,0,0,0,0,0,0,0,0,0,0,0,0,0],"sum_hessian":[1.12E2,8.5E1,2.7E1,4E0,8.1E1,1.4E1,1.3E1,1E0,3E0,4E0,7.7E1,1E1,4E0,4E0,9E0],"tree_param":{"num_deleted":"0","num_feature":"10","num_nodes":"15","size_leaf_vector":"1"}},{"base_weights":[-1.7317922E0,5.267265E1,-4.362158E1,1.0811801E1,1.8868889E2,-5.9122425E1,-2.4641129E1,-8.850257E0,1.4669333E1,2.9460333E1,-7.031221E0,2.8447524E-1,-9.433158E0],"categories":[],"categories_nodes":[],"categories_segments":[],"categories_sizes":[],"default_left":[0,0,0,0,0,0,0,0,0,0,0,0,0],"id":44,"left_children":[1,3,5,7,9,-1,11,-1,-1,-1,-1,-1,-1],"loss_changes":[2.4614962E5,2.6556644E5,6.1944994E5,5.122973E5,3.2246575E5,0E0,1.1519856E5,0E0,0E0,0E0,0E0,0E0,0E0],"parents":[2147483647,0,0,1,1,2,2,3,3,4,4,6,6],"right_children":[2,4,6,8,10,-1,12,-1,-1,-1,-1,-1,-1],"split_conditions":[4.5717E2,2.5511E2,5.917648E6,6.123234E-17,6.123234E-17,-5.9122425E1,5.1882E2,-8.850257E0,1.4669333E1,2.9460333E1,-7.031221E0,2.8447524E-1,-9.433158E0],"split_indices":[7,7,3,9,9,0,7,0,0,0,0,0,0],"split_type":[0,0,0,0,0,0,0,0,0,0,0,0,0],"sum_hessian":[1.06E2,4.6E1,6E1,3.6E1,1E1,1E0,5.9E1,2.1E1,1.5E1,7E0,3E0,4.3E1,1.6E1],"tree_param":{"num_deleted":"0","num_feature":"10","num_nodes":"13","size_leaf_vector":"1"}},{"base_weights":[-5.9350324E0,-2.0885073E1,1.6249709E2,-4.1461053E0,-1.5746333E2,-1.5614417E1,2.7584375E1,2.9538019E0,-4.9815655E0,-1.0153691E1,-2.2995035E1],"categories":[],"categories_nodes":[],"categories_segments":[],"categories_sizes":[],"default_left":[0,0,0,0,0,0,0,0,0,0,0],"id":45,"left_children":[1,3,5,7,9,-1,-1,-1,-1,-1,-1],"loss_changes":[2.7786306E5,2.3025122E5,3.6812372E5,1.4146027E5,2.1244906E4,0E0,0E0,0E0,0E0,0E0,0E0],"parents":[2147483647,0,0,1,1,2,2,3,3,4,4],"right_children":[2,4,6,8,10,-1,-1,-1,-1,-1,-1],"split_conditions":[1E0,5.2476E2,5.0901785E11,3.4963868E0,6.123234E-17,-1.5614417E1,2.7584375E1,2.9538019E0,-4.9815655E0,-1.0153691E1,-2.2995035E1],"split_indices":[9,7,1,2,9,0,0,0,0,0,0],"split_type":[0,0,0,0,0,0,0,0,0,0,0],"sum_hessian":[1.08E2,1E2,8E0,9E1,1E1,2E0,6E0,5.2E1,3.8E1,7E0,3E0],"tree_param":{"num_deleted":"0","num_feature":"10","num_nodes":"11","size_leaf_vector":"1"}},{"base_weights":[-1.670123E1,9.2921745E1,-3.915922E1,-1.7255589E1,1.746194E2,-7.81823E0,-1.27632935E2,1.2323037E1,-1.5429044E1,2.4589209E1,-1.158081E0,-5.319108E0,4.630635E0,-1.8415502E0,-2.3531576E1],"categories":[],"categories_nodes":[],"categories_segments":[],"categories_sizes":[],"default_left":[0,0,0,0,0,0,0,0,0,0,0,0,0,0,0],"id":46,"left_children":[1,3,5,7,9,11,13,-1,-1,-1,-1,-1,-1,-1,-1],"loss_changes":[2.7444906E5,1.7403656E5,2.5410469E5,1.9227652E5,1.488285E5,1.7191233E5,2.779267E5,0E0,0E0,0E0,0E0,0E0,0E0,0E0,0E0],"parents":[2147483647,0,0,1,1,2,2,3,3,4,4,5,5,6,6],"right_children":[2,4,6,8,10,12,14,-1,-1,-1,-1,-1,-1,-1,-1],"split_conditions":[1.3272E2,1.2417E2,3.4963868E0,1.1981E2,8.660254E-1,6.123234E-17,8.660254E-1,1.2323037E1,-1.5429044E1,2.4589209E1,-1.158081E0,-5.319108E0,4.630635E0,-1.8415502E0,-2.3531576E1],"split_indices":[7,7,2,7,8,9,8,0,0,0,0,0,0,0,0],"split_type":[0,0,0,0,0,0,0,0,0,0,0,0,0,0,0],"sum_hessian":[1.09E2,1.8E1,9.1E1,8E0,1E1,6.8E1,2.3E1,4E0,4E0,7E0,3E0,3.7E1,3.1E1,1.2E1,1.1E1],"tree_param":{"num_deleted":"0","num_feature":"10","num_nodes":"15","size_leaf_vector":"1"}},{"base_weights":[-6.1324234E0,3.557952E1,-3.925664E1,-4.3605118E1,9.086928E1,-1.3646319E1,-1.633826E2,1.2893518E1,-5.947225E0,1.9661873E1,1.0877355E0,5.2201085E0,-8.715606E0,-7.836396E0,-2.7131956E1],"categories":[],"categories_nodes":[],"categories_segments":[],"categories_sizes":[],"default_left":[0,0,0,0,0,0,0,0,0,0,0,0,0,0,0],"id":47,"left_children":[1,3,5,7,9,11,13,-1,-1,-1,-1,-1,-1,-1,-1],"loss_changes":[1.4647267E5,2.0973306E5,1.8532584E5,6.2422457E4,2.3471617E5,2.465709E5,7.050484E4,0E0,0E0,0E0,0E0,0E0,0E0,0E0,0E0],"parents":[2147483647,0,0,1,1,2,2,3,3,4,4,5,5,6,6],"right_children":[2,4,6,8,10,12,14,-1,-1,-1,-1,-1,-1,-1,-1],"split_conditions":[1.2246469E-16,5.0901785E11,4.2624633E12,2.5519497E11,7.1831E3,3.4963868E0,-1.8369701E-16,1.2893518E1,-5.947225E0,1.9661873E1,1.0877355E0,5.2201085E0,-8.715606E0,-7.836396E0,-2.7131956E1],"split_indices":[8,1,1,1,0,2,9,0,0,0,0,0,0,0,0],"split_type":[0,0,0,0,0,0,0,0,0,0,0,0,0,0,0],"sum_hessian":[1.04E2,4.6E1,5.8E1,1.9E1,2.7E1,4.9E1,9E0,1E0,1.8E1,1.1E1,1.6E1,2.6E1,2.3E1,6E0,3E0],"tree_param":{"num_deleted":"0","num_feature":"10","num_nodes":"15","size_leaf_vector":"1"}},{"base_weights":[-4.182771E0,-1.5530127E1,1.3392676E2,4.3393132E-1,-1.2864503E2,-7.776986E0,2.1745394E1,-1.2659892E1,9.8384154E-1,-8.135652E0,-2.0288294E1],"categories":[],"categories_nodes":[],"categories_segments":[],"categories_sizes":[],"default_left":[0,0,0,0,0,0,0,0,0,0,0],"id":48,"left_children":[1,3,5,7,9,-1,-1,-1,-1,-1,-1],"loss_changes":[1.6506639E5,1.7521578E5,1.583707E5,1.0398787E5,2.562136E4,0E0,0E0,0E0,0E0,0E0,0E0],"parents":[2147483647,0,0,1,1,2,2,3,3,4,4],"right_children":[2,4,6,8,10,-1,-1,-1,-1,-1,-1],"split_conditions":[1E0,5.2381E2,5.0901785E11,2.5519497E11,6.123234E-17,-7.776986E0,2.1745394E1,-1.2659892E1,9.8384154E-1,-8.135652E0,-2.0288294E1],"split_indices":[9,7,1,1,9,0,0,0,0,0,0],"split_type":[0,0,0,0,0,0,0,0,0,0,0],"sum_hessian":[1.03E2,9.6E1,7E0,8.5E1,1.1E1,2E0,5E0,5E0,8E1,8E0,3E0],"tree_param":{"num_deleted":"0","num_feature":"10","num_nodes":"11","size_leaf_vector":"1"}},{"base_weights":[-1.0370585E1,-2.9325645E1,5.449144E1,-2.1791563E1,-1.2489248E2,-1.798769E1,1.2277892E2,-6.4195E0,2.2755781E-1,-1.463313E1,-8.849182E-1,2.8758276E0,-1.3035568E1,1.969853E1,3.3739218E-1],"categories":[],"categories_nodes":[],"categories_segments":[],"categories_sizes":[],"default_left":[0,0,0,0,0,0,0,0,0,0,0,0,0,0,0],"id":49,"left_children":[1,3,5,7,9,11,13,-1,-1,-1,-1,-1,-1,-1,-1],"loss_changes":[1.3560952E5,5.8479125E4,1.2594395E5,8.178844E4,1.3632086E4,7.2034555E4,1.1452336E5,0E0,0E0,0E0,0E0,0E0,0E0,0E0,0E0],"parents":[2147483647,0,0,1,1,2,2,3,3,4,4,5,5,6,6],"right_children":[2,4,6,8,10,12,14,-1,-1,-1,-1,-1,-1,-1,-1],"split_conditions":[8.660254E-1,5.2979E2,5.0901785E11,2.6237E2,5.4668E2,1E0,5.1882E2,-6.4195E0,2.2755781E-1,-1.463313E1,-8.849182E-1,2.8758276E0,-1.3035568E1,1.969853E1,3.3739218E-1],"split_indices":[9,7,1,7,7,9,7,0,0,0,0,0,0,0,0],"split_type":[0,0,0,0,0,0,0,0,0,0,0,0,0,0,0],"sum_hessian":[1.08E2,8.4E1,2.4E1,7.9E1,5E0,1.2E1,1.2E1,2.8E1,5.1E1,4E0,1E0,9E0,3E0,7E0,5E0],"tree_param":{"num_deleted":"0","num_feature":"10","num_nodes":"15","size_leaf_vector":"1"}},{"base_weights":[-3.5902388E0,5.764265E0,-8.405275E1,4.018605E1,-2.3472712E1,-1.3105418E1,-3.8472763E1,-6.675384E0,8.718516E0,4.1767344E-1,-1.5603971E1,-7.81177E-1,-4.9174805E0],"categories":[],"categories_nodes":[],"categories_segments":[],"categories_sizes":[],"default_left":[0,0,0,0,0,0,0,0,0,0,0,0,0],"id":50,"left_children":[1,3,5,7,9,-1,11,-1,-1,-1,-1,-1,-1],"loss_changes":[7.951662E4,9.655022E4,1.8523555E4,2.2696744E5,1.9125272E5,0E0,1.9128047E3,0E0,0E0,0E0,0E0,0E0,0E0],"parents":[2147483647,0,0,1,1,2,2,3,3,4,4,6,6],"right_children":[2,4,6,8,10,-1,12,-1,-1,-1,-1,-1,-1],"split_conditions":[8.5375E0,1.2246469E-16,1.2246469E-16,-1.8369701E-16,4.2624633E12,-1.3105418E1,-1.8369701E-16,-6.675384E0,8.718516E0,4.1767344E-1,-1.5603971E1,-7.81177E-1,-4.9174805E0],"split_indices":[2,8,8,9,1,0,9,0,0,0,0,0,0],"split_type":[0,0,0,0,0,0,0,0,0,0,0,0,0],"sum_hessian":[1.04E2,9.4E1,1E1,4.3E1,5.1E1,4E0,6E0,1.3E1,3E1,4.3E1,8E0,2E0,4E0],"tree_param":{"num_deleted":"0","num_feature":"10","num_nodes":"13","size_leaf_vector":"1"}},{"base_weights":[-9.148743E0,1.2038574E1,-6.746203E1,-2.3970575E1,5.5311794E1,-3.0476556E2,-2.9807354E1,1.2575752E1,-4.1224623E0,8.185862E0,-3.9323366E0,1.8225904E1,-5.278601E1,7.3122153E0,-5.6524158E0],"categories":[],"categories_nodes":[],"categories_segments":[],"categories_sizes":[],"default_left":[0,0,0,0,0,0,0,0,0,0,0,0,0,0,0],"id":51,"left_children":[1,3,5,7,9,11,13,-1,-1,-1,-1,-1,-1,-1,-1],"loss_changes":[1.3918838E5,1.306591E5,2.5898334E5,1.240214E5,9.868494E4,5.3081744E5,7.838175E4,0E0,0E0,0E0,0E0,0E0,0E0,0E0,0E0],"parents":[2147483647,0,0,1,1,2,2,3,3,4,4,5,5,6,6],"right_children":[2,4,6,8,10,12,14,-1,-1,-1,-1,-1,-1,-1,-1],"split_conditions":[4.1080003E0,6.123234E-17,4.2530456E0,2.1591E3,5.1882E2,5E-1,1.1981E2,1.2575752E1,-4.1224623E0,8.185862E0,-3.9323366E0,1.8225904E1,-5.278601E1,7.3122153E0,-5.6524158E0],"split_indices":[2,9,2,0,7,8,7,0,0,0,0,0,0,0,0],"split_type":[0,0,0,0,0,0,0,0,0,0,0,0,0,0,0],"sum_hessian":[1.11E2,8.2E1,2.9E1,4.5E1,3.7E1,3E0,2.6E1,4E0,4.1E1,2.9E1,8E0,1E0,2E0,5E0,2.1E1],"tree_param":{"num_deleted":"0","num_feature":"10","num_nodes":"15","size_leaf_vector":"1"}},{"base_weights":[7.330188E0,5.0397522E1,-2.8561838E1,-1.0899557E2,7.098754E1,-5.1747047E1,-1.1210474E1,1.297301E1,-1.8268673E1,3.8031998E0,1.466483E1,9.5197976E-1,-7.704274E0],"categories":[],"categories_nodes":[],"categories_segments":[],"categories_sizes":[],"default_left":[0,0,0,0,0,0,0,0,0,0,0,0,0],"id":52,"left_children":[1,3,5,7,9,-1,11,-1,-1,-1,-1,-1,-1],"loss_changes":[1.6683725E5,1.6855078E5,4.9470956E5,1.2925179E5,1.0413409E5,0E0,7.988724E4,0E0,0E0,0E0,0E0,0E0,0E0],"parents":[2147483647,0,0,1,1,2,2,3,3,4,4,6,6],"right_children":[2,4,6,8,10,-1,12,-1,-1,-1,-1,-1,-1],"split_conditions":[4.5717E2,2.5519497E11,4.5778E2,-8.660254E-1,2.5511E2,-5.1747047E1,5.2381E2,1.297301E1,-1.8268673E1,3.8031998E0,1.466483E1,9.5197976E-1,-7.704274E0],"split_indices":[7,1,7,8,7,0,7,0,0,0,0,0,0],"split_type":[0,0,0,0,0,0,0,0,0,0,0,0,0],"sum_hessian":[1.06E2,4.8E1,5.8E1,5E0,4.3E1,1E0,5.7E1,1E0,4E0,3.1E1,1.2E1,4.4E1,1.3E1],"tree_param":{"num_deleted":"0","num_feature":"10","num_nodes":"13","size_leaf_vector":"1"}},{"base_weights":[-3.92395E0,9.3656525E1,-2.1621264E1,1.5357275E2,4.234951E1,2.2395334E1,-5.111138E1,3.856543E0,2.301869E1,1.9960511E0,8.793701E0,4.50799E0,-9.854081E0,-1.1013006E0,-1.1672305E1],"categories":[],"categories_nodes":[],"categories_segments":[],"categories_sizes":[],"default_left":[0,0,0,0,0,0,0,0,0,0,0,0,0,0,0],"id":53,"left_children":[1,3,5,7,9,11,13,-1,-1,-1,-1,-1,-1,-1,-1],"loss_changes":[1.7989694E5,4.2682234E4,1.1537347E5,5.2801047E4,8.45132E3,1.0320402E5,1.3815336E5,0E0,0E0,0E0,0E0,0E0,0E0,0E0,0E0],"parents":[2147483647,0,0,1,1,2,2,3,3,4,4,5,5,6,6],"right_children":[2,4,6,8,10,12,14,-1,-1,-1,-1,-1,-1,-1,-1],"split_conditions":[2.1591E3,1.2246469E-16,-2.4492937E-16,-5E-1,-1.8369701E-16,4.2530456E0,3.4963868E0,3.856543E0,2.301869E1,1.9960511E0,8.793701E0,4.50799E0,-9.854081E0,-1.1013006E0,-1.1672305E1],"split_indices":[0,8,8,8,9,2,2,0,0,0,0,0,0,0,0],"split_type":[0,0,0,0,0,0,0,0,0,0,0,0,0,0,0],"sum_hessian":[1.02E2,1.5E1,8.7E1,6E0,9E0,3.5E1,5.2E1,3E0,3E0,7E0,2E0,3E1,5E0,3.3E1,1.9E1],"tree_param":{"num_deleted":"0","num_feature":"10","num_nodes":"15","size_leaf_vector":"1"}},{"base_weights":[1.6658356E0,-2.0423018E1,8.111907E1,-6.0276817E1,-4.167298E0,1.8152687E1,1.3784554E2,-9.387275E0,2.2858284E1,9.781626E0,-3.408075E0,4.1973605E0,-2.8355503E0,-6.127588E0,1.5954531E1],"categories":[],"categories_nodes":[],"categories_segments":[],"categories_sizes":[],"default_left":[0,0,0,0,0,0,0,0,0,0,0,0,0,0,0],"id":54,"left_children":[1,3,5,7,9,11,13,-1,-1,-1,-1,-1,-1,-1,-1],"loss_changes":[2.0173023E5,5.8055508E4,8.679425E4,2.737749E5,2.0162784E5,1.5592464E4,6.594784E4,0E0,0E0,0E0,0E0,0E0,0E0,0E0,0E0],"parents":[2147483647,0,0,1,1,2,2,3,3,4,4,5,5,6,6],"right_children":[2,4,6,8,10,12,14,-1,-1,-1,-1,-1,-1,-1,-1],"split_conditions":[8.660254E-1,2.4874E2,5.0901785E11,1E0,4.5717E2,4.5787E2,1.1934E2,-9.387275E0,2.2858284E1,9.781626E0,-3.408075E0,4.1973605E0,-2.8355503E0,-6.127588E0,1.5954531E1],"split_indices":[9,7,1,8,7,7,7,0,0,0,0,0,0,0,0],"split_type":[0,0,0,0,0,0,0,0,0,0,0,0,0,0,0],"sum_hessian":[1.13E2,8.9E1,2.4E1,2.5E1,6.4E1,1.2E1,1.2E1,2.3E1,2E0,1.4E1,5E1,8E0,4E0,1E0,1.1E1],"tree_param":{"num_deleted":"0","num_feature":"10","num_nodes":"15","size_leaf_vector":"1"}},{"base_weights":[1.5517325E1,-3.48801E1,3.5605675E1,-8.187231E1,8.9086655E1,2.5958918E1,1.977659E1,-1.8091574E1,-5.149918E0,3.288783E1,-8.562222E0,4.1445127E0,-5.404006E0],"categories":[],"categories_nodes":[],"categories_segments":[],"categories_sizes":[],"default_left":[0,0,0,0,0,0,0,0,0,0,0,0,0],"id":55,"left_children":[1,3,5,7,9,-1,11,-1,-1,-1,-1,-1,-1],"loss_changes":[1.0956884E5,1.8788334E5,2.6786612E5,5.9872906E4,4.052028E5,0E0,1.19003086E5,0E0,0E0,0E0,0E0,0E0,0E0],"parents":[2147483647,0,0,1,1,2,2,3,3,4,4,6,6],"right_children":[2,4,6,8,10,-1,12,-1,-1,-1,-1,-1,-1],"split_conditions":[4.338577E11,8.660254E-1,5.917648E6,-8.660254E-1,1.4750348E0,2.5958918E1,5.2381E2,-1.8091574E1,-5.149918E0,3.288783E1,-8.562222E0,4.1445127E0,-5.404006E0],"split_indices":[1,8,3,9,2,0,7,0,0,0,0,0,0],"split_type":[0,0,0,0,0,0,0,0,0,0,0,0,0],"sum_hessian":[1.06E2,3E1,7.6E1,2.2E1,8E0,4E0,7.2E1,4E0,1.8E1,3E0,5E0,5.6E1,1.6E1],"tree_param":{"num_deleted":"0","num_feature":"10","num_nodes":"13","size_leaf_vector":"1"}},{"base_weights":[1.24651E0,3.2943665E1,-2.4432878E1,6.106333E0,1.1092154E2,-4.9703625E1,-8.7935295E0,3.418902E0,-1.06987705E1,1.822588E1,-1.8762224E1,1.04677E0,-6.9843225E0],"categories":[],"categories_nodes":[],"categories_segments":[],"categories_sizes":[],"default_left":[0,0,0,0,0,0,0,0,0,0,0,0,0],"id":56,"left_children":[1,3,5,7,9,-1,11,-1,-1,-1,-1,-1,-1],"loss_changes":[9.278279E4,1.06051305E5,4.6127544E5,1.2752119E5,3.1106062E5,0E0,7.3636414E4,0E0,0E0,0E0,0E0,0E0,0E0],"parents":[2147483647,0,0,1,1,2,2,3,3,4,4,6,6],"right_children":[2,4,6,8,10,-1,12,-1,-1,-1,-1,-1,-1],"split_conditions":[4.5717E2,2.6237E2,5.917648E6,2.4775E2,1E0,-4.9703625E1,4.2624633E12,3.418902E0,-1.06987705E1,1.822588E1,-1.8762224E1,1.04677E0,-6.9843225E0],"split_indices":[7,7,3,7,8,0,1,0,0,0,0,0,0],"split_type":[0,0,0,0,0,0,0,0,0,0,0,0,0],"sum_hessian":[1.12E2,5E1,6.2E1,3.8E1,1.2E1,1E0,6.1E1,3.1E1,7E0,1E1,2E0,4.7E1,1.4E1],"tree_param":{"num_deleted":"0","num_feature":"10","num_nodes":"13","size_leaf_vector":"1"}},{"base_weights":[-4.4293885E0,5.6958823E0,-6.6235756E1,2.5587015E1,-3.83982E1,-1.1919836E1,-1.4572299E2,1.3349338E1,1.2122679E0,2.6964977E0,-1.2091942E1,-3.6306438E0,1.0377978E1,-5.404733E0,-2.193829E1],"categories":[],"categories_nodes":[],"categories_segments":[],"categories_sizes":[],"default_left":[0,0,0,0,0,0,0,0,0,0,0,0,0,0,0],"id":57,"left_children":[1,3,5,7,9,11,13,-1,-1,-1,-1,-1,-1,-1,-1],"loss_changes":[6.6712734E4,8.167397E4,6.302435E4,9.1366516E4,1.5968222E5,3.1983082E4,2.8659844E4,0E0,0E0,0E0,0E0,0E0,0E0,0E0,0E0],"parents":[2147483647,0,0,1,1,2,2,3,3,4,4,5,5,6,6],"right_children":[2,4,6,8,10,12,14,-1,-1,-1,-1,-1,-1,-1,-1],"split_conditions":[5.2381E2,4.1080003E0,4.2624633E12,1.3212E2,6.123234E-17,1E0,5.258E2,1.3349338E1,1.2122679E0,2.6964977E0,-1.2091942E1,-3.6306438E0,1.0377978E1,-5.404733E0,-2.193829E1],"split_indices":[7,2,1,7,9,9,7,0,0,0,0,0,0,0,0],"split_type":[0,0,0,0,0,0,0,0,0,0,0,0,0,0,0],"sum_hessian":[1.05E2,9.1E1,1.4E1,6.3E1,2.8E1,9E0,5E0,6E0,5.7E1,1.6E1,1.2E1,8E0,1E0,3E0,2E0],"tree_param":{"num_deleted":"0","num_feature":"10","num_nodes":"15","size_leaf_vector":"1"}},{"base_weights":[-2.5773625E0,6.616959E1,-1.4006552E1,1.3419014E2,2.923575E1,-2.9568016E1,3.853197E1,-1.6188803E0,2.3983904E1,9.912265E0,-4.5523763E0,5.0706325E0,-4.705075E0,5.859456E0,-3.7387218E0],"categories":[],"categories_nodes":[],"categories_segments":[],"categories_sizes":[],"default_left":[0,0,0,0,0,0,0,0,0,0,0,0,0,0,0],"id":58,"left_children":[1,3,5,7,9,11,13,-1,-1,-1,-1,-1,-1,-1,-1],"loss_changes":[8.26419E4,3.376075E4,7.472119E4,8.3319555E4,6.1984246E4,1.006248E5,3.4176523E4,0E0,0E0,0E0,0E0,0E0,0E0,0E0,0E0],"parents":[2147483647,0,0,1,1,2,2,3,3,4,4,5,5,6,6],"right_children":[2,4,6,8,10,12,14,-1,-1,-1,-1,-1,-1,-1,-1],"split_conditions":[1.3272E2,-5E-1,8.660254E-1,1.7344513E12,1.7344513E12,-8.660254E-1,5.1882E2,-1.6188803E0,2.3983904E1,9.912265E0,-4.5523763E0,5.0706325E0,-4.705075E0,5.859456E0,-3.7387218E0],"split_indices":[7,9,9,1,1,8,7,0,0,0,0,0,0,0,0],"split_type":[0,0,0,0,0,0,0,0,0,0,0,0,0,0,0],"sum_hessian":[1.03E2,1.4E1,8.9E1,4E0,1E1,6.9E1,2E1,2E0,2E0,5E0,5E0,1.2E1,5.7E1,1.6E1,4E0],"tree_param":{"num_deleted":"0","num_feature":"10","num_nodes":"15","size_leaf_vector":"1"}},{"base_weights":[-2.453189E0,-8.532281E0,5.8583054E1,6.64998E0,-3.1471922E1,-1.2300843E1,1.539806E2,-1.02444105E-1,2.3355762E1,2.4124086E0,-1.2574021E1,1.647085E1,4.4806643E0],"categories":[],"categories_nodes":[],"categories_segments":[],"categories_sizes":[],"default_left":[0,0,0,0,0,0,0,0,0,0,0,0,0],"id":59,"left_children":[1,3,5,7,9,-1,11,-1,-1,-1,-1,-1,-1],"loss_changes":[4.094375E4,3.503685E4,1.9217475E5,1.06463734E5,2.1267098E5,0E0,8.183906E2,0E0,0E0,0E0,0E0,0E0,0E0],"parents":[2147483647,0,0,1,1,2,2,3,3,4,4,6,6],"right_children":[2,4,6,8,10,-1,12,-1,-1,-1,-1,-1,-1],"split_conditions":[1E0,3.4963868E0,5.0901785E11,1E0,8.660254E-1,-1.2300843E1,4.2530456E0,-1.02444105E-1,2.3355762E1,2.4124086E0,-1.2574021E1,1.647085E1,4.4806643E0],"split_indices":[9,2,1,8,8,0,2,0,0,0,0,0,0],"split_type":[0,0,0,0,0,0,0,0,0,0,0,0,0],"sum_hessian":[1.08E2,9.9E1,9E0,6E1,3.9E1,3E0,6E0,5.9E1,1E0,2.5E1,1.4E1,5E0,1E0],"tree_param":{"num_deleted":"0","num_feature":"10","num_nodes":"13","size_leaf_vector":"1"}},{"base_weights":[2.1945915E0,2.5501503E1,-1.6945412E1,3.2388947E0,9.572986E1,-4.574989E1,-1.9778715E0,-1.2560422E0,1.970175E1,1.6153585E1,-1.5553339E1,4.8896074E0,-2.0022433E0],"categories":[],"categories_nodes":[],"categories_segments":[],"categories_sizes":[],"default_left":[0,0,0,0,0,0,0,0,0,0,0,0,0],"id":60,"left_children":[1,3,5,7,9,-1,11,-1,-1,-1,-1,-1,-1],"loss_changes":[4.950251E4,7.786325E4,4.0132925E5,1.2187583E5,2.2353972E5,0E0,5.60589E4,0E0,0E0,0E0,0E0,0E0,0E0],"parents":[2147483647,0,0,1,1,2,2,3,3,4,4,6,6],"right_children":[2,4,6,8,10,-1,12,-1,-1,-1,-1,-1,-1],"split_conditions":[4.5717E2,2.6237E2,5.917648E6,1E0,1E0,-4.574989E1,4.7713E2,-1.2560422E0,1.970175E1,1.6153585E1,-1.5553339E1,4.8896074E0,-2.0022433E0],"split_indices":[7,7,3,8,8,0,7,0,0,0,0,0,0],"split_type":[0,0,0,0,0,0,0,0,0,0,0,0,0],"sum_hessian":[1.09E2,4.9E1,6E1,3.8E1,1.1E1,1E0,5.9E1,3.6E1,2E0,9E0,2E0,1.5E1,4.4E1],"tree_param":{"num_deleted":"0","num_feature":"10","num_nodes":"13","size_leaf_vector":"1"}},{"base_weights":[-6.3189907E0,-1.4439903E1,8.3713165E1,-1.0209306E0,-9.583932E1,-7.640983E0,1.4037828E1,-9.0887016E-1,1.6664053E1,-5.1168633E0,-1.6601282E1],"categories":[],"categories_nodes":[],"categories_segments":[],"categories_sizes":[],"default_left":[0,0,0,0,0,0,0,0,0,0,0],"id":61,"left_children":[1,3,5,7,9,-1,-1,-1,-1,-1,-1],"loss_changes":[7.944114E4,1.08039516E5,9.2386766E4,1.17842805E5,3.5391133E4,0E0,0E0,0E0,0E0,0E0,0E0],"parents":[2147483647,0,0,1,1,2,2,3,3,4,4],"right_children":[2,4,6,8,10,-1,-1,-1,-1,-1,-1],"split_conditions":[1E0,5.1882E2,5.0901785E11,5.1352E2,6.123234E-17,-7.640983E0,1.4037828E1,-9.0887016E-1,1.6664053E1,-5.1168633E0,-1.6601282E1],"split_indices":[9,7,1,7,9,0,0,0,0,0,0],"split_type":[0,0,0,0,0,0,0,0,0,0,0],"sum_hessian":[1.06E2,9.8E1,8E0,8.5E1,1.3E1,2E0,6E0,8.2E1,3E0,9E0,4E0],"tree_param":{"num_deleted":"0","num_feature":"10","num_nodes":"11","size_leaf_vector":"1"}},{"base_weights":[1.5714575E0,2.8055046E1,-2.0001148E1,4.2872696E1,-1.0795131E1,-1.1457384E2,-2.9196694E0,-2.2780874E0,6.820469E0,-4.4043903E0,-1.917253E1,-6.704511E0,3.4089515E0],"categories":[],"categories_nodes":[],"categories_segments":[],"categories_sizes":[],"default_left":[0,0,0,0,0,0,0,0,0,0,0,0,0],"id":62,"left_children":[1,3,5,7,-1,9,11,-1,-1,-1,-1,-1,-1],"loss_changes":[6.1121047E4,1.0136231E5,9.497653E4,7.4731734E4,0E0,4.052903E4,1.2332029E5,0E0,0E0,0E0,0E0,0E0,0E0],"parents":[2147483647,0,0,1,1,2,2,3,3,5,5,6,6],"right_children":[2,4,6,8,-1,10,12,-1,-1,-1,-1,-1,-1],"split_conditions":[1.2246469E-16,5.065024E0,1.3942518E0,-1.8369701E-16,-1.0795131E1,5.0953E2,5.917648E6,-2.2780874E0,6.820469E0,-4.4043903E0,-1.917253E1,-6.704511E0,3.4089515E0],"split_indices":[8,2,2,9,0,7,3,0,0,0,0,0,0],"split_type":[0,0,0,0,0,0,0,0,0,0,0,0,0],"sum_hessian":[1.05E2,4.7E1,5.8E1,4.3E1,4E0,8E0,5E1,1.2E1,3.1E1,5E0,3E0,1.8E1,3.2E1],"tree_param":{"num_deleted":"0","num_feature":"10","num_nodes":"13","size_leaf_vector":"1"}},{"base_weights":[-1.6808823E0,-6.860242E1,2.1229866E0,-1.2926201E1,1.1734778E1,2.3681911E1,-1.48002205E1,-3.2259557E-1,9.430449E0,-4.3081715E1,-4.4710096E-2],"categories":[],"categories_nodes":[],"categories_segments":[],"categories_sizes":[],"default_left":[0,0,0,0,0,0,0,0,0,0,0],"id":63,"left_children":[1,3,5,-1,-1,7,9,-1,-1,-1,-1],"loss_changes":[2.8401885E4,8.2846586E4,3.9024188E4,0E0,0E0,8.9618445E4,3.580758E5,0E0,0E0,0E0,0E0],"parents":[2147483647,0,0,1,1,2,2,5,5,6,6],"right_children":[2,4,6,-1,-1,8,10,-1,-1,-1,-1],"split_conditions":[2.5519497E11,-1.8369701E-16,4.5717E2,-1.2926201E1,1.1734778E1,2.5511E2,5.917648E6,-3.2259557E-1,9.430449E0,-4.3081715E1,-4.4710096E-2],"split_indices":[1,9,7,0,0,7,3,0,0,0,0],"split_type":[0,0,0,0,0,0,0,0,0,0,0],"sum_hessian":[1.1E2,5E0,1.05E2,4E0,1E0,4.6E1,5.9E1,3.4E1,1.2E1,1E0,5.8E1],"tree_param":{"num_deleted":"0","num_feature":"10","num_nodes":"11","size_leaf_vector":"1"}},{"base_weights":[-5.176955E0,7.5633345E0,-3.871008E1,-2.2462599E1,3.1550207E1,1.09259766E2,-5.2682472E1,9.432471E0,-3.947696E0,5.327708E0,-3.4449005E0,2.841089E0,1.3547876E1,-2.0511456E1,-2.0088758E0],"categories":[],"categories_nodes":[],"categories_segments":[],"categories_sizes":[],"default_left":[0,0,0,0,0,0,0,0,0,0,0,0,0,0,0],"id":64,"left_children":[1,3,5,7,9,11,13,-1,-1,-1,-1,-1,-1,-1,-1],"loss_changes":[4.814161E4,5.9767418E4,6.984836E4,7.724492E4,6.779731E4,2.510254E3,1.3996102E5,0E0,0E0,0E0,0E0,0E0,0E0,0E0,0E0],"parents":[2147483647,0,0,1,1,2,2,3,3,4,4,5,5,6,6],"right_children":[2,4,6,8,10,12,14,-1,-1,-1,-1,-1,-1,-1,-1],"split_conditions":[4.1080003E0,-1.8369701E-16,-8.660254E-1,2.1591E3,5.1882E2,2.1591E3,4.2530456E0,9.432471E0,-3.947696E0,5.327708E0,-3.4449005E0,2.841089E0,1.3547876E1,-2.0511456E1,-2.0088758E0],"split_indices":[2,9,9,0,7,0,2,0,0,0,0,0,0,0,0],"split_type":[0,0,0,0,0,0,0,0,0,0,0,0,0,0,0],"sum_hessian":[1.11E2,8.1E1,3E1,3.6E1,4.5E1,2E0,2.8E1,4E0,3.2E1,3.4E1,1.1E1,1E0,1E0,4E0,2.4E1],"tree_param":{"num_deleted":"0","num_feature":"10","num_nodes":"15","size_leaf_vector":"1"}},{"base_weights":[-1.0002812E1,-2.1340801E1,2.4801552E1,9.2822266E1,-2.8385345E1,-2.2065834E1,6.3766518E1,-6.1238284E0,1.4664698E1,-1.688053E1,-2.0517812E0,1.6448662E0,-1.1283562E1,9.846754E-1,1.2398242E1],"categories":[],"categories_nodes":[],"categories_segments":[],"categories_sizes":[],"default_left":[0,0,0,0,0,0,0,0,0,0,0,0,0,0,0],"id":65,"left_children":[1,3,5,7,9,11,13,-1,-1,-1,-1,-1,-1,-1,-1],"loss_changes":[4.3147324E4,6.85814E4,5.0714086E4,5.0441727E4,8.270769E4,4.730338E4,4.7481582E4,0E0,0E0,0E0,0E0,0E0,0E0,0E0,0E0],"parents":[2147483647,0,0,1,1,2,2,3,3,4,4,5,5,6,6],"right_children":[2,4,6,8,10,12,14,-1,-1,-1,-1,-1,-1,-1,-1],"split_conditions":[8.660254E-1,1.1981E2,5.0901785E11,1.1828E2,1.2417E2,1E0,1E0,-6.1238284E0,1.4664698E1,-1.688053E1,-2.0517812E0,1.6448662E0,-1.1283562E1,9.846754E-1,1.2398242E1],"split_indices":[9,7,1,7,7,9,9,0,0,0,0,0,0,0,0],"split_type":[0,0,0,0,0,0,0,0,0,0,0,0,0,0,0],"sum_hessian":[1.07E2,8.1E1,2.6E1,4E0,7.7E1,1.2E1,1.4E1,1E0,3E0,3E0,7.4E1,9E0,3E0,8E0,6E0],"tree_param":{"num_deleted":"0","num_feature":"10","num_nodes":"15","size_leaf_vector":"1"}},{"base_weights":[3.4256613E0,8.524834E1,-4.6621665E-1,-5.817627E0,1.3564857E1,-1.4290215E2,6.520508E0,-1.7821648E1,-5.995378E0,8.520752E0,-2.0105743E-1],"categories":[],"categories_nodes":[],"categories_segments":[],"categories_sizes":[],"default_left":[0,0,0,0,0,0,0,0,0,0,0],"id":66,"left_children":[1,3,5,-1,-1,7,9,-1,-1,-1,-1],"loss_changes":[3.506857E4,4.403468E4,1.0641881E5,0E0,0E0,3.961586E3,6.864242E4,0E0,0E0,0E0,0E0],"parents":[2147483647,0,0,1,1,2,2,5,5,6,6],"right_children":[2,4,6,-1,-1,8,10,-1,-1,-1,-1],"split_conditions":[1.1981E2,1.1828E2,1.2417E2,-5.817627E0,1.3564857E1,1.2099E2,2.1591E3,-1.7821648E1,-5.995378E0,8.520752E0,-2.0105743E-1],"split_indices":[7,7,7,0,0,7,0,0,0,0,0],"split_type":[0,0,0,0,0,0,0,0,0,0,0],"sum_hessian":[1.09E2,4E0,1.05E2,1E0,3E0,4E0,1.01E2,2E0,2E0,9E0,9.2E1],"tree_param":{"num_deleted":"0","num_feature":"10","num_nodes":"11","size_leaf_vector":"1"}},{"base_weights":[-4.96861E0,1.9209096E0,-4.8903477E1,2.2428858E1,-2.6732832E1,2.5912563E1,-1.2742131E2,-1.3255416E-1,1.1324798E1,1.4029881E0,-1.0620189E1,-3.5169175E0,1.3943852E1,-4.9189134E0,-1.7379816E1],"categories":[],"categories_nodes":[],"categories_segments":[],"categories_sizes":[],"default_left":[0,0,0,0,0,0,0,0,0,0,0,0,0,0,0],"id":67,"left_children":[1,3,5,7,9,11,13,-1,-1,-1,-1,-1,-1,-1,-1],"loss_changes":[3.127102E4,5.348624E4,8.554331E4,1.1448986E5,1.24586234E5,6.0378836E4,1.6848148E4,0E0,0E0,0E0,0E0,0E0,0E0,0E0,0E0],"parents":[2147483647,0,0,1,1,2,2,3,3,4,4,5,5,6,6],"right_children":[2,4,6,8,10,12,14,-1,-1,-1,-1,-1,-1,-1,-1],"split_conditions":[4.2624633E12,3.4963868E0,5.1882E2,8.660254E-1,8.660254E-1,5.0953E2,-8.660254E-1,-1.3255416E-1,1.1324798E1,1.4029881E0,-1.0620189E1,-3.5169175E0,1.3943852E1,-4.9189134E0,-1.7379816E1],"split_indices":[1,2,7,8,8,7,8,0,0,0,0,0,0,0,0],"split_type":[0,0,0,0,0,0,0,0,0,0,0,0,0,0,0],"sum_hessian":[1.02E2,8.9E1,1.3E1,5.2E1,3.7E1,7E0,6E0,4.2E1,1E1,2.5E1,1.2E1,5E0,2E0,3E0,3E0],"tree_param":{"num_deleted":"0","num_feature":"10","num_nodes":"15","size_leaf_vector":"1"}},{"base_weights":[-1.7630161E0,-5.4941382E0,1.3438876E2,-2.807671E1,6.9877553E0,2.0879725E1,-7.2140926E-1,1.7112564E0,-6.0256753E0,1.8310831E1,-6.259864E-1],"categories":[],"categories_nodes":[],"categories_segments":[],"categories_sizes":[],"default_left":[0,0,0,0,0,0,0,0,0,0,0],"id":68,"left_children":[1,3,5,7,9,-1,-1,-1,-1,-1,-1],"loss_changes":[5.7126234E4,3.0920379E4,3.3115645E4,5.7744656E4,1.6680186E5,0E0,0E0,0E0,0E0,0E0,0E0],"parents":[2147483647,0,0,1,1,2,2,3,3,4,4],"right_children":[2,4,6,8,10,-1,-1,-1,-1,-1,-1],"split_conditions":[1E0,2.6237E2,6.2934E3,1.3272E2,4.3856E2,2.0879725E1,-7.2140926E-1,1.7112564E0,-6.0256753E0,1.8310831E1,-6.259864E-1],"split_indices":[8,7,0,7,7,0,0,0,0,0,0],"split_type":[0,0,0,0,0,0,0,0,0,0,0],"sum_hessian":[1.1E2,1.08E2,2E0,3.8E1,7E1,1E0,1E0,1.6E1,2.2E1,4E0,6.6E1],"tree_param":{"num_deleted":"0","num_feature":"10","num_nodes":"11","size_leaf_vector":"1"}},{"base_weights":[4.737389E0,-1.1547091E0,7.926947E1,6.8611555E0,-5.6560333E1,2.168164E1,1.0948585E1,-1.9706538E-1,7.7712693E0,-1.1095553E1,-8.6938936E-1,-5.341675E0,6.452002E0],"categories":[],"categories_nodes":[],"categories_segments":[],"categories_sizes":[],"default_left":[0,0,0,0,0,0,0,0,0,0,0,0,0],"id":69,"left_children":[1,3,5,7,9,11,-1,-1,-1,-1,-1,-1,-1],"loss_changes":[4.795892E4,4.5688715E4,1.1546926E4,5.6470406E4,3.2883523E4,1.6314823E4,0E0,0E0,0E0,0E0,0E0,0E0,0E0],"parents":[2147483647,0,0,1,1,2,2,3,3,4,4,5,5],"right_children":[2,4,6,8,10,12,-1,-1,-1,-1,-1,-1,-1],"split_conditions":[1E0,5.2381E2,2.6659922E7,5.0983E2,1.3942518E0,3.4963868E0,1.0948585E1,-1.9706538E-1,7.7712693E0,-1.1095553E1,-8.6938936E-1,-5.341675E0,6.452002E0],"split_indices":[9,7,3,7,2,2,0,0,0,0,0,0,0],"split_type":[0,0,0,0,0,0,0,0,0,0,0,0,0],"sum_hessian":[1.08E2,1.01E2,7E0,8.9E1,1.2E1,3E0,4E0,8E1,9E0,5E0,7E0,1E0,2E0],"tree_param":{"num_deleted":"0","num_feature":"10","num_nodes":"13","size_leaf_vector":"1"}},{"base_weights":[-5.038902E-1,4.406025E1,-9.411119E0,-1.8505209E1,9.5963135E1,-1.093644E1,-3.4904501E0,4.128459E0,-1.035636E1,1.6938135E1,4.030085E0,5.003556E0,-1.1191709E0],"categories":[],"categories_nodes":[],"categories_segments":[],"categories_sizes":[],"default_left":[0,0,0,0,0,0,0,0,0,0,0,0,0],"id":70,"left_children":[1,3,5,7,9,-1,11,-1,-1,-1,-1,-1,-1],"loss_changes":[4.288756E4,6.022772E4,5.2879395E4,5.0046195E4,3.404004E4,0E0,3.6010695E4,0E0,0E0,0E0,0E0,0E0,0E0],"parents":[2147483647,0,0,1,1,2,2,3,3,4,4,6,6],"right_children":[2,4,6,8,10,-1,12,-1,-1,-1,-1,-1,-1],"split_conditions":[1.3272E2,1.2417E2,2.3097E2,1.1981E2,-5E-1,-1.093644E1,2.4775E2,4.128459E0,-1.035636E1,1.6938135E1,4.030085E0,5.003556E0,-1.1191709E0],"split_indices":[7,7,7,7,9,0,7,0,0,0,0,0,0],"split_type":[0,0,0,0,0,0,0,0,0,0,0,0,0],"sum_hessian":[1.06E2,1.7E1,8.9E1,8E0,9E0,4E0,8.5E1,5E0,3E0,3E0,6E0,1E1,7.5E1],"tree_param":{"num_deleted":"0","num_feature":"10","num_nodes":"13","size_leaf_vector":"1"}},{"base_weights":[3.620618E0,1.0278599E1,-4.086601E1,-5.6806824E1,1.6399584E1,2.4332012E1,-1.0954003E2,4.5665894E0,-1.2742363E1,9.521989E0,7.094683E-1,-3.061992E0,1.2612521E1,-3.5869446E0,-1.5582562E1],"categories":[],"categories_nodes":[],"categories_segments":[],"categories_sizes":[],"default_left":[0,0,0,0,0,0,0,0,0,0,0,0,0,0,0],"id":71,"left_children":[1,3,5,7,9,11,13,-1,-1,-1,-1,-1,-1,-1,-1],"loss_changes":[3.1816303E4,3.9120094E4,6.534908E4,6.3709285E4,6.239815E4,4.8611805E4,1.8279828E4,0E0,0E0,0E0,0E0,0E0,0E0,0E0,0E0],"parents":[2147483647,0,0,1,1,2,2,3,3,4,4,5,5,6,6],"right_children":[2,4,6,8,10,12,14,-1,-1,-1,-1,-1,-1,-1,-1],"split_conditions":[4.2624633E12,1.2417E2,5.1882E2,1.1981E2,1.3212E2,5.0953E2,-8.660254E-1,4.5665894E0,-1.2742363E1,9.521989E0,7.094683E-1,-3.061992E0,1.2612521E1,-3.5869446E0,-1.5582562E1],"split_indices":[1,7,7,7,7,7,8,0,0,0,0,0,0,0,0],"split_type":[0,0,0,0,0,0,0,0,0,0,0,0,0,0,0],"sum_hessian":[1.05E2,9.2E1,1.3E1,7E0,8.5E1,7E0,6E0,3E0,4E0,8E0,7.7E1,5E0,2E0,3E0,3E0],"tree_param":{"num_deleted":"0","num_feature":"10","num_nodes":"15","size_leaf_vector":"1"}},{"base_weights":[-9.129473E0,3.0693634E0,-4.409291E1,-4.4447727E1,2.6340128E1,-1.7804855E2,5.3356E-1,-1.0046136E1,7.060603E-1,2.0409765E1,1.2159932E0,1.5973755E1,-2.6096914E1,-4.392669E0,6.9634666E0],"categories":[],"categories_nodes":[],"categories_segments":[],"categories_sizes":[],"default_left":[0,0,0,0,0,0,0,0,0,0,0,0,0,0,0],"id":72,"left_children":[1,3,5,7,9,11,13,-1,-1,-1,-1,-1,-1,-1,-1],"loss_changes":[4.6198773E4,9.073724E4,1.674781E5,7.860886E4,1.3615319E5,2.3775256E5,7.064837E4,0E0,0E0,0E0,0E0,0E0,0E0,0E0,0E0],"parents":[2147483647,0,0,1,1,2,2,3,3,4,4,5,5,6,6],"right_children":[2,4,6,8,10,12,14,-1,-1,-1,-1,-1,-1,-1,-1],"split_conditions":[8.660254E-1,5.0543952E11,5.917648E6,-1.8369701E-16,5.917648E6,1.4750348E0,4.1080003E0,-1.0046136E1,7.060603E-1,2.0409765E1,1.2159932E0,1.5973755E1,-2.6096914E1,-4.392669E0,6.9634666E0],"split_indices":[8,1,3,9,3,2,2,0,0,0,0,0,0,0,0],"split_type":[0,0,0,0,0,0,0,0,0,0,0,0,0,0,0],"sum_hessian":[1.07E2,8E1,2.7E1,2.6E1,5.4E1,6E0,2.1E1,1.2E1,1.4E1,3E0,5.1E1,1E0,5E0,1.3E1,8E0],"tree_param":{"num_deleted":"0","num_feature":"10","num_nodes":"15","size_leaf_vector":"1"}},{"base_weights":[-6.6572547E0,-6.1645126E1,-1.7401164E0,-8.901221E1,7.8645754E0,6.555083E1,-8.956991E0,-3.0271242E0,-1.1820254E1,1.1371268E1,-3.5120118E0,4.84604E0,-1.7250303E0],"categories":[],"categories_nodes":[],"categories_segments":[],"categories_sizes":[],"default_left":[0,0,0,0,0,0,0,0,0,0,0,0,0],"id":73,"left_children":[1,3,5,7,-1,9,11,-1,-1,-1,-1,-1,-1],"loss_changes":[2.963486E4,4.155459E4,5.0121434E4,1.0139211E4,0E0,5.247859E4,4.512073E4,0E0,0E0,0E0,0E0,0E0,0E0],"parents":[2147483647,0,0,1,1,2,2,3,3,5,5,6,6],"right_children":[2,4,6,8,-1,10,12,-1,-1,-1,-1,-1,-1],"split_conditions":[1.2417E2,8.660254E-1,1.3212E2,1.1981E2,7.8645754E0,8.660254E-1,-8.660254E-1,-3.0271242E0,-1.1820254E1,1.1371268E1,-3.5120118E0,4.84604E0,-1.7250303E0],"split_indices":[7,8,7,7,0,8,8,0,0,0,0,0,0],"split_type":[0,0,0,0,0,0,0,0,0,0,0,0,0],"sum_hessian":[1.09E2,8E0,1.01E2,7E0,1E0,9E0,9.2E1,3E0,4E0,6E0,3E0,1.1E1,8.1E1],"tree_param":{"num_deleted":"0","num_feature":"10","num_nodes":"13","size_leaf_vector":"1"}},{"base_weights":[-4.045981E0,2.2791407E0,-6.3097527E1,-5.682898E0,6.287297E1,-1.7830526E1,-1.0479842E2,4.9569755E0,-1.2974147E0,8.320231E0,-7.0210204E0,-4.296175E0,5.475525E-1,-3.3534057E0,-1.4112999E1],"categories":[],"categories_nodes":[],"categories_segments":[],"categories_sizes":[],"default_left":[0,0,0,0,0,0,0,0,0,0,0,0,0,0,0],"id":74,"left_children":[1,3,5,7,9,11,13,-1,-1,-1,-1,-1,-1,-1,-1],"loss_changes":[3.8615156E4,4.570764E4,1.7008137E4,3.4483426E4,3.5602066E4,3.7494956E3,8.2130625E3,0E0,0E0,0E0,0E0,0E0,0E0,0E0,0E0],"parents":[2147483647,0,0,1,1,2,2,3,3,4,4,5,5,6,6],"right_children":[2,4,6,8,10,12,14,-1,-1,-1,-1,-1,-1,-1,-1],"split_conditions":[5.2476E2,5.0953E2,4.2624633E12,-8.660254E-1,1E0,-5E-1,5.258E2,4.9569755E0,-1.2974147E0,8.320231E0,-7.0210204E0,-4.296175E0,5.475525E-1,-3.3534057E0,-1.4112999E1],"split_indices":[7,7,1,8,8,8,7,0,0,0,0,0,0,0,0],"split_type":[0,0,0,0,0,0,0,0,0,0,0,0,0,0,0],"sum_hessian":[1.02E2,9.3E1,9E0,8.3E1,1E1,5E0,4E0,9E0,7.4E1,9E0,1E0,2E0,3E0,2E0,2E0],"tree_param":{"num_deleted":"0","num_feature":"10","num_nodes":"15","size_leaf_vector":"1"}},{"base_weights":[-3.0199957E0,5.4716814E-1,-9.857842E1,-3.0199429E1,1.5082083E1,4.7592287E0,-1.631661E1,-6.661626E0,1.7209076E0,1.4491071E1,-2.8503355E-1],"categories":[],"categories_nodes":[],"categories_segments":[],"categories_sizes":[],"default_left":[0,0,0,0,0,0,0,0,0,0,0],"id":75,"left_children":[1,3,5,7,9,-1,-1,-1,-1,-1,-1],"loss_changes":[3.7890793E4,4.872058E4,4.552875E4,6.1572766E4,1.726955E5,0E0,0E0,0E0,0E0,0E0,0E0],"parents":[2147483647,0,0,1,1,2,2,3,3,4,4],"right_children":[2,4,6,8,10,-1,-1,-1,-1,-1,-1],"split_conditions":[1E0,2.4874E2,2.1591E3,6.123234E-17,4.3856E2,4.7592287E0,-1.631661E1,-6.661626E0,1.7209076E0,1.4491071E1,-2.8503355E-1],"split_indices":[8,7,0,9,7,0,0,0,0,0,0],"split_type":[0,0,0,0,0,0,0,0,0,0,0],"sum_hessian":[1.1E2,1.07E2,3E0,3.4E1,7.3E1,1E0,2E0,1.9E1,1.5E1,8E0,6.5E1],"tree_param":{"num_deleted":"0","num_feature":"10","num_nodes":"11","size_leaf_vector":"1"}},{"base_weights":[-1.378124E0,3.0946887E0,-3.226989E1,-1.7390503E0,1.1591388E1,3.6140747E0,-9.758384E1,3.8331127E0,-6.4327294E-1,-4.489618E0,3.0817924E0,-3.110844E0,-1.315313E1],"categories":[],"categories_nodes":[],"categories_segments":[],"categories_sizes":[],"default_left":[0,0,0,0,0,0,0,0,0,0,0,0,0],"id":76,"left_children":[1,3,5,7,-1,9,11,-1,-1,-1,-1,-1,-1],"loss_changes":[1.5298904E4,5.3099414E4,3.3164805E4,1.7925771E4,0E0,1.4580264E4,7.191621E3,0E0,0E0,0E0,0E0,0E0,0E0],"parents":[2147483647,0,0,1,1,2,2,3,3,5,5,6,6],"right_children":[2,4,6,8,-1,10,12,-1,-1,-1,-1,-1,-1],"split_conditions":[5.1882E2,5.1352E2,4.2624633E12,-8.660254E-1,1.1591388E1,-5E-1,5.258E2,3.8331127E0,-6.4327294E-1,-4.489618E0,3.0817924E0,-3.110844E0,-1.315313E1],"split_indices":[7,7,1,8,0,8,7,0,0,0,0,0,0],"split_type":[0,0,0,0,0,0,0,0,0,0,0,0,0],"sum_hessian":[1.09E2,9.6E1,1.3E1,9.3E1,3E0,9E0,4E0,9E0,8.4E1,3E0,6E0,2E0,2E0],"tree_param":{"num_deleted":"0","num_feature":"10","num_nodes":"13","size_leaf_vector":"1"}},{"base_weights":[-2.0578103E0,9.543995E0,-1.1755166E1,-6.8861585E0,8.880875E1,-3.7694386E1,4.109406E-1,-9.690857E0,7.140011E-1,-6.666913E-1,1.6652266E1,1.1377829E0,-2.6419837E0],"categories":[],"categories_nodes":[],"categories_segments":[],"categories_sizes":[],"default_left":[0,0,0,0,0,0,0,0,0,0,0,0,0],"id":77,"left_children":[1,3,5,7,9,-1,11,-1,-1,-1,-1,-1,-1],"loss_changes":[1.2825465E4,6.833281E4,2.7561625E5,5.624939E4,6.7888266E4,0E0,1.824986E4,0E0,0E0,0E0,0E0,0E0,0E0],"parents":[2147483647,0,0,1,1,2,2,3,3,4,4,6,6],"right_children":[2,4,6,8,10,-1,12,-1,-1,-1,-1,-1,-1],"split_conditions":[4.5717E2,4.2369E2,5.917648E6,-8.660254E-1,5.0901785E11,-3.7694386E1,5.1882E2,-9.690857E0,7.140011E-1,-6.666913E-1,1.6652266E1,1.1377829E0,-2.6419837E0],"split_indices":[7,7,3,9,1,0,7,0,0,0,0,0,0],"split_type":[0,0,0,0,0,0,0,0,0,0,0,0,0],"sum_hessian":[1.12E2,5.1E1,6.1E1,4.3E1,8E0,1E0,6E1,5E0,3.8E1,4E0,4E0,4.3E1,1.7E1],"tree_param":{"num_deleted":"0","num_feature":"10","num_nodes":"13","size_leaf_vector":"1"}},{"base_weights":[-1.0777738E0,-7.972662E1,5.10133E0,-1.1358971E2,7.865747E0,6.0874023E1,-1.6225936E0,-1.409213E1,-3.0173829E0,1.540907E1,6.6564333E-1,-5.9679565E0,8.686523E-1],"categories":[],"categories_nodes":[],"categories_segments":[],"categories_sizes":[],"default_left":[0,0,0,0,0,0,0,0,0,0,0,0,0],"id":78,"left_children":[1,3,5,7,-1,9,11,-1,-1,-1,-1,-1,-1],"loss_changes":[5.3378465E4,5.1841668E4,3.834993E4,1.1707078E4,0E0,5.456812E4,5.5581887E4,0E0,0E0,0E0,0E0,0E0,0E0],"parents":[2147483647,0,0,1,1,2,2,3,3,5,5,6,6],"right_children":[2,4,6,8,-1,10,12,-1,-1,-1,-1,-1,-1],"split_conditions":[1.2417E2,8.660254E-1,1.3272E2,1.2099E2,7.865747E0,-5E-1,2.4874E2,-1.409213E1,-3.0173829E0,1.540907E1,6.6564333E-1,-5.9679565E0,8.686523E-1],"split_indices":[7,8,7,7,0,9,7,0,0,0,0,0,0],"split_type":[0,0,0,0,0,0,0,0,0,0,0,0,0],"sum_hessian":[1.08E2,7E0,1.01E2,6E0,1E0,1E1,9.1E1,4E0,2E0,3E0,7E0,1.3E1,7.8E1],"tree_param":{"num_deleted":"0","num_feature":"10","num_nodes":"13","size_leaf_vector":"1"}},{"base_weights":[-3.3419607E0,-4.5605415E1,3.475878E-1,1.732461E1,-9.941435E1,5.6247868E1,-6.1976323E0,5.597998E0,-6.864844E0,-1.3752849E1,-2.816211E0,1.4253382E1,6.0739136E-1,-7.330278E0,-2.4007058E-1],"categories":[],"categories_nodes":[],"categories_segments":[],"categories_sizes":[],"default_left":[0,0,0,0,0,0,0,0,0,0,0,0,0,0,0],"id":79,"left_children":[1,3,5,7,9,11,13,-1,-1,-1,-1,-1,-1,-1,-1],"loss_changes":[1.7480354E4,3.2198098E4,3.8400086E4,2.045954E4,9.705492E3,4.6756645E4,2.3774594E4,0E0,0E0,0E0,0E0,0E0,0E0,0E0,0E0],"parents":[2147483647,0,0,1,1,2,2,3,3,4,4,5,5,6,6],"right_children":[2,4,6,8,10,12,14,-1,-1,-1,-1,-1,-1,-1,-1],"split_conditions":[1.2417E2,1.1981E2,1.3272E2,8.660254E-1,1.2099E2,-5E-1,2.3097E2,5.597998E0,-6.864844E0,-1.3752849E1,-2.816211E0,1.4253382E1,6.0739136E-1,-7.330278E0,-2.4007058E-1],"split_indices":[7,7,7,9,7,9,7,0,0,0,0,0,0,0,0],"split_type":[0,0,0,0,0,0,0,0,0,0,0,0,0,0,0],"sum_hessian":[1.11E2,8E0,1.03E2,4E0,4E0,1E1,9.3E1,3E0,1E0,2E0,2E0,3E0,7E0,4E0,8.9E1],"tree_param":{"num_deleted":"0","num_feature":"10","num_nodes":"15","size_leaf_vector":"1"}},{"base_weights":[2.6297688E0,6.784253E0,-3.688806E1,-6.48563E-1,3.1587332E1,-8.639275E0,3.7421477E0,7.4870605E0,-5.5439824E-1,-6.5216064E0,3.8631656E0,1.9632629E0,-2.398937E0],"categories":[],"categories_nodes":[],"categories_segments":[],"categories_sizes":[],"default_left":[0,0,0,0,0,0,0,0,0,0,0,0,0],"id":80,"left_children":[1,3,5,7,9,-1,11,-1,-1,-1,-1,-1,-1],"loss_changes":[1.8966346E4,1.9193586E4,2.244854E4,3.0360617E4,1.8885352E4,0E0,3.5556445E3,0E0,0E0,0E0,0E0,0E0,0E0],"parents":[2147483647,0,0,1,1,2,2,3,3,4,4,6,6],"right_children":[2,4,6,8,10,-1,12,-1,-1,-1,-1,-1,-1],"split_conditions":[8.5375E0,8.660254E-1,1.2246469E-16,1.1981E2,1.1934E2,-8.639275E0,8.660254E-1,7.4870605E0,-5.5439824E-1,-6.5216064E0,3.8631656E0,1.9632629E0,-2.398937E0],"split_indices":[2,9,8,7,7,0,9,0,0,0,0,0,0],"split_type":[0,0,0,0,0,0,0,0,0,0,0,0,0],"sum_hessian":[1.13E2,1.03E2,1E1,8E1,2.3E1,4E0,6E0,4E0,7.6E1,1E0,2.2E1,4E0,2E0],"tree_param":{"num_deleted":"0","num_feature":"10","num_nodes":"13","size_leaf_vector":"1"}},{"base_weights":[4.6206164E0,3.74863E1,7.8399295E-1,2.1056404E1,-1.8185654E1,-2.916722E1,1.1665161E1,3.4769208E0,-3.5770519E0,-3.7190574E-1,-3.581338E1,-2.5105443E0,1.7528019E0],"categories":[],"categories_nodes":[],"categories_segments":[],"categories_sizes":[],"default_left":[0,0,0,0,0,0,0,0,0,0,0,0,0],"id":81,"left_children":[1,3,5,-1,7,9,11,-1,-1,-1,-1,-1,-1],"loss_changes":[1.4471335E4,1.1945617E5,3.4234273E4,0E0,1.0555754E4,2.3307273E5,1.7039773E4,0E0,0E0,0E0,0E0,0E0,0E0],"parents":[2147483647,0,0,1,1,2,2,4,4,5,5,6,6],"right_children":[2,4,6,-1,8,10,12,-1,-1,-1,-1,-1,-1],"split_conditions":[-8.660254E-1,5.917648E6,5.917648E6,2.1056404E1,7.1831E3,4.5717E2,4.338577E11,3.4769208E0,-3.5770519E0,-3.7190574E-1,-3.581338E1,-2.5105443E0,1.7528019E0],"split_indices":[8,3,3,0,0,7,1,0,0,0,0,0,0],"split_type":[0,0,0,0,0,0,0,0,0,0,0,0,0],"sum_hessian":[1.14E2,1.1E1,1.03E2,2E0,9E0,2.7E1,7.6E1,2E0,7E0,2.6E1,1E0,1E1,6.6E1],"tree_param":{"num_deleted":"0","num_feature":"10","num_nodes":"13","size_leaf_vector":"1"}},{"base_weights":[1.9026803E0,-1.2871619E1,7.56108E0,-4.5910416E0,2.9426723E1,1.5480349E0,-3.755286E0,2.7287963E-1,6.5464716E0],"categories":[],"categories_nodes":[],"categories_segments":[],"categories_sizes":[],"default_left":[0,0,0,0,0,0,0,0,0],"id":82,"left_children":[1,-1,3,5,7,-1,-1,-1,-1],"loss_changes":[7.118714E4,0E0,2.4580785E4,4.02767E4,3.1571969E4,0E0,0E0,0E0,0E0],"parents":[2147483647,0,0,2,2,3,3,4,4],"right_children":[2,-1,4,6,8,-1,-1,-1,-1],"split_conditions":[1.2099E2,-1.2871619E1,5E-1,4.7798E2,5.0901785E11,1.5480349E0,-3.755286E0,2.7287963E-1,6.5464716E0],"split_indices":[7,0,9,7,1,0,0,0,0],"split_type":[0,0,0,0,0,0,0,0,0],"sum_hessian":[9.4E1,3E0,9.1E1,5.9E1,3.2E1,3.7E1,2.2E1,1.9E1,1.3E1],"tree_param":{"num_deleted":"0","num_feature":"10","num_nodes":"9","size_leaf_vector":"1"}},{"base_weights":[9.7317286E-2,1.4638371E1,-2.2957947E1,8.615852E0,2.000398E1,-6.3815904E0,-1.1858976E2,-7.281189E0,1.3814133E0,4.6014485E0,-1.6316909E0,7.914136E0,-3.4270134E1],"categories":[],"categories_nodes":[],"categories_segments":[],"categories_sizes":[],"default_left":[0,0,0,0,0,0,0,0,0,0,0,0,0],"id":83,"left_children":[1,3,5,7,-1,9,11,-1,-1,-1,-1,-1,-1],"loss_changes":[3.553709E4,7.0854414E4,6.4237523E4,2.8096023E4,0E0,1.9491395E4,2.9300484E5,0E0,0E0,0E0,0E0,0E0,0E0],"parents":[2147483647,0,0,1,1,2,2,3,3,5,5,6,6],"right_children":[2,4,6,8,-1,10,12,-1,-1,-1,-1,-1,-1],"split_conditions":[3.4963868E0,1E0,1.9116E7,2.3477E2,2.000398E1,1.1981E2,5E-1,-7.281189E0,1.3814133E0,4.6014485E0,-1.6316909E0,7.914136E0,-3.4270134E1],"split_indices":[2,8,4,7,0,7,8,0,0,0,0,0,0],"split_type":[0,0,0,0,0,0,0,0,0,0,0,0,0],"sum_hessian":[1.04E2,6.4E1,4E1,6.3E1,1E0,3.5E1,5E0,3E0,6E1,5E0,3E1,3E0,2E0],"tree_param":{"num_deleted":"0","num_feature":"10","num_nodes":"13","size_leaf_vector":"1"}},{"base_weights":[5.732671E0,1.0890603E1,-2.5573217E1,1.872567E1,-3.9476247E0,3.5746147E1,-7.7237854E1,1.2897443E0,1.9003784E1,2.6229331E0,-3.5667481E0,-2.116327E0,9.794639E0,-2.9800699E0,-1.2908411E1],"categories":[],"categories_nodes":[],"categories_segments":[],"categories_sizes":[],"default_left":[0,0,0,0,0,0,0,0,0,0,0,0,0,0,0],"id":84,"left_children":[1,3,5,7,9,11,13,-1,-1,-1,-1,-1,-1,-1,-1],"loss_changes":[1.8202084E4,1.1234739E4,5.3449637E4,6.04511E4,3.348063E4,3.0391094E4,1.8288156E4,0E0,0E0,0E0,0E0,0E0,0E0,0E0,0E0],"parents":[2147483647,0,0,1,1,2,2,3,3,4,4,5,5,6,6],"right_children":[2,4,6,8,10,12,14,-1,-1,-1,-1,-1,-1,-1,-1],"split_conditions":[4.2624633E12,4.1080003E0,5E-1,1E0,4.5717E2,6.123234E-17,5.0953E2,1.2897443E0,1.9003784E1,2.6229331E0,-3.5667481E0,-2.116327E0,9.794639E0,-2.9800699E0,-1.2908411E1],"split_indices":[1,2,8,8,7,9,7,0,0,0,0,0,0,0,0],"split_type":[0,0,0,0,0,0,0,0,0,0,0,0,0,0,0],"sum_hessian":[1.1E2,9.5E1,1.5E1,6.2E1,3.3E1,7E0,8E0,6.1E1,1E0,1.7E1,1.6E1,4E0,3E0,5E0,3E0],"tree_param":{"num_deleted":"0","num_feature":"10","num_nodes":"15","size_leaf_vector":"1"}},{"base_weights":[-5.708118E-1,2.2113957E0,-3.840704E1,-9.70598E-1,8.598139E0,-4.633778E1,8.554077E-1,1.1739488E-1,-1.1307401E1,-3.1566408E0,-6.748302E0],"categories":[],"categories_nodes":[],"categories_segments":[],"categories_sizes":[],"default_left":[0,0,0,0,0,0,0,0,0,0,0],"id":85,"left_children":[1,3,5,7,-1,9,-1,-1,-1,-1,-1],"loss_changes":[1.229605E4,2.9138014E4,3.3758691E3,2.5616309E4,0E0,5.621289E1,0E0,0E0,0E0,0E0,0E0],"parents":[2147483647,0,0,1,1,2,2,3,3,5,5],"right_children":[2,4,6,8,-1,10,-1,-1,-1,-1,-1],"split_conditions":[5.2979E2,5.2593E2,5.4668E2,5.258E2,8.598139E0,4.2624633E12,8.554077E-1,1.1739488E-1,-1.1307401E1,-3.1566408E0,-6.748302E0],"split_indices":[7,7,7,7,0,1,0,0,0,0,0],"split_type":[0,0,0,0,0,0,0,0,0,0,0],"sum_hessian":[1.15E2,1.08E2,7E0,1.05E2,3E0,6E0,1E0,1.04E2,1E0,5E0,1E0],"tree_param":{"num_deleted":"0","num_feature":"10","num_nodes":"11","size_leaf_vector":"1"}},{"base_weights":[-9.16735E-1,1.0930246E1,-1.1168839E1,-6.8991523E0,7.09365E1,-3.246406E1,-3.533752E-1,-4.0755706E0,3.8626206E0,1.0863306E1,-7.8364177E0,-3.6679318E0,5.242027E-1],"categories":[],"categories_nodes":[],"categories_segments":[],"categories_sizes":[],"default_left":[0,0,0,0,0,0,0,0,0,0,0,0,0],"id":86,"left_children":[1,3,5,7,9,-1,11,-1,-1,-1,-1,-1,-1],"loss_changes":[1.3603749E4,5.612292E4,2.0330588E5,6.4768844E4,7.605041E4,0E0,1.2184512E4,0E0,0E0,0E0,0E0,0E0,0E0],"parents":[2147483647,0,0,1,1,2,2,3,3,4,4,6,6],"right_children":[2,4,6,8,10,-1,12,-1,-1,-1,-1,-1,-1],"split_conditions":[4.5717E2,2.5511E2,5.917648E6,6.123234E-17,6.123234E-17,-3.246406E1,4.338577E11,-4.0755706E0,3.8626206E0,1.0863306E1,-7.8364177E0,-3.6679318E0,5.242027E-1],"split_indices":[7,7,3,9,9,0,1,0,0,0,0,0,0],"split_type":[0,0,0,0,0,0,0,0,0,0,0,0,0],"sum_hessian":[1.1E2,5.1E1,5.9E1,4E1,1.1E1,1E0,5.8E1,2.3E1,1.7E1,9E0,2E0,7E0,5.1E1],"tree_param":{"num_deleted":"0","num_feature":"10","num_nodes":"13","size_leaf_vector":"1"}},{"base_weights":[1.0397822E0,6.790576E1,-2.1849263E0,1.1588135E1,-6.199829E0,-1.2137614E1,1.3421185E0,6.902641E-1,-3.7257047E0],"categories":[],"categories_nodes":[],"categories_segments":[],"categories_sizes":[],"default_left":[0,0,0,0,0,0,0,0,0],"id":87,"left_children":[1,3,5,-1,-1,-1,7,-1,-1],"loss_changes":[2.3435686E4,3.8345562E4,4.3883746E4,0E0,0E0,0E0,2.2149586E4,0E0,0E0],"parents":[2147483647,0,0,1,1,2,2,6,6],"right_children":[2,4,6,-1,-1,-1,8,-1,-1],"split_conditions":[1.1981E2,8.660254E-1,1.2099E2,1.1588135E1,-6.199829E0,-1.2137614E1,4.2624633E12,6.902641E-1,-3.7257047E0],"split_indices":[7,9,7,0,0,0,1,0,0],"split_type":[0,0,0,0,0,0,0,0,0],"sum_hessian":[1.07E2,4E0,1.03E2,3E0,1E0,2E0,1.01E2,8.9E1,1.2E1],"tree_param":{"num_deleted":"0","num_feature":"10","num_nodes":"9","size_leaf_vector":"1"}},{"base_weights":[-2.2984364E0,1.2357691E1,-1.4962106E1,-3.098529E0,5.89647E1,-3.0875366E1,-4.7494755E0,-1.4763583E0,1.4569165E1,9.672501E0,-9.914467E0,4.676211E-1,-3.5380337E0],"categories":[],"categories_nodes":[],"categories_segments":[],"categories_sizes":[],"default_left":[0,0,0,0,0,0,0,0,0,0,0,0,0],"id":88,"left_children":[1,3,5,7,9,-1,11,-1,-1,-1,-1,-1,-1],"loss_changes":[2.0786535E4,3.764185E4,1.7855666E5,7.157674E4,8.720313E4,0E0,1.7199742E4,0E0,0E0,0E0,0E0,0E0,0E0],"parents":[2147483647,0,0,1,1,2,2,3,3,4,4,6,6],"right_children":[2,4,6,8,10,-1,12,-1,-1,-1,-1,-1,-1],"split_conditions":[4.5717E2,2.6237E2,5.917648E6,1E0,1E0,-3.0875366E1,4.2624633E12,-1.4763583E0,1.4569165E1,9.672501E0,-9.914467E0,4.676211E-1,-3.5380337E0],"split_indices":[7,7,3,8,8,0,1,0,0,0,0,0,0],"split_type":[0,0,0,0,0,0,0,0,0,0,0,0,0],"sum_hessian":[1.1E2,5.1E1,5.9E1,3.9E1,1.2E1,1E0,5.8E1,3.7E1,2E0,1E1,2E0,4.5E1,1.3E1],"tree_param":{"num_deleted":"0","num_feature":"10","num_nodes":"13","size_leaf_vector":"1"}},{"base_weights":[3.5200712E-1,3.7122906E1,-3.9774318E0,-1.14214115E1,1.86563E1,-1.6200687E1,1.1865375E1,2.8438804E0,-2.4941316E0,-5.662621E-1,-1.0658683E1,2.1654572E0,-3.6116478E0],"categories":[],"categories_nodes":[],"categories_segments":[],"categories_sizes":[],"default_left":[0,0,0,0,0,0,0,0,0,0,0,0,0],"id":89,"left_children":[1,3,5,7,-1,9,11,-1,-1,-1,-1,-1,-1],"loss_changes":[1.8136955E4,8.9184414E4,1.9944598E4,6.0983633E3,0E0,5.4641164E4,2.1918756E4,0E0,0E0,0E0,0E0,0E0,0E0],"parents":[2147483647,0,0,1,1,2,2,3,3,5,5,6,6],"right_children":[2,4,6,8,-1,10,12,-1,-1,-1,-1,-1,-1],"split_conditions":[-8.660254E-1,3.4963868E0,1.6956275E12,7.1831E3,1.86563E1,5.0901785E11,5.2979E2,2.8438804E0,-2.4941316E0,-5.662621E-1,-1.0658683E1,2.1654572E0,-3.6116478E0],"split_indices":[8,2,1,0,0,1,7,0,0,0,0,0,0],"split_type":[0,0,0,0,0,0,0,0,0,0,0,0,0],"sum_hessian":[1.12E2,1.1E1,1.01E2,9E0,2E0,5.7E1,4.4E1,2E0,7E0,5.2E1,5E0,3.7E1,7E0],"tree_param":{"num_deleted":"0","num_feature":"10","num_nodes":"13","size_leaf_vector":"1"}},{"base_weights":[-1.0085156E0,-3.4429993E1,1.4764875E0,4.086316E1,-8.777852E1,4.6113182E1,-3.0471838E0,-5.793237E0,9.31058E0,-1.1924056E1,-2.7056968E0,8.677776E0,-3.6578126E0,-5.116638E0,5.6671356E-3],"categories":[],"categories_nodes":[],"categories_segments":[],"categories_sizes":[],"default_left":[0,0,0,0,0,0,0,0,0,0,0,0,0,0,0],"id":90,"left_children":[1,3,5,7,9,11,13,-1,-1,-1,-1,-1,-1,-1,-1],"loss_changes":[9.60187E3,3.5721133E4,2.1948062E4,2.6039197E4,6.325836E3,3.6800242E4,1.4789047E4,0E0,0E0,0E0,0E0,0E0,0E0,0E0,0E0],"parents":[2147483647,0,0,1,1,2,2,3,3,4,4,5,5,6,6],"right_children":[2,4,6,8,10,12,14,-1,-1,-1,-1,-1,-1,-1,-1],"split_conditions":[1.2417E2,1.1981E2,1.3212E2,1.1828E2,1.2099E2,8.660254E-1,2.3097E2,-5.793237E0,9.31058E0,-1.1924056E1,-2.7056968E0,8.677776E0,-3.6578126E0,-5.116638E0,5.6671356E-3],"split_indices":[7,7,7,7,7,8,7,0,0,0,0,0,0,0,0],"split_type":[0,0,0,0,0,0,0,0,0,0,0,0,0,0,0],"sum_hessian":[1.14E2,7E0,1.07E2,3E0,4E0,9E0,9.8E1,1E0,2E0,2E0,2E0,6E0,3E0,5E0,9.3E1],"tree_param":{"num_deleted":"0","num_feature":"10","num_nodes":"15","size_leaf_vector":"1"}},{"base_weights":[-4.5016715E-1,5.773838E1,-3.216763E0,-5.5035644E0,9.96908E0,-9.289283E0,-1.461293E0,2.6056E0,-5.333723E-1],"categories":[],"categories_nodes":[],"categories_segments":[],"categories_sizes":[],"default_left":[0,0,0,0,0,0,0,0,0],"id":91,"left_children":[1,3,5,-1,-1,-1,7,-1,-1],"loss_changes":[1.7733006E4,2.9142262E4,1.6393738E4,0E0,0E0,0E0,1.1221088E4,0E0,0E0],"parents":[2147483647,0,0,1,1,2,2,6,6],"right_children":[2,4,6,-1,-1,-1,8,-1,-1],"split_conditions":[1.1981E2,1.1828E2,1.2087E2,-5.5035644E0,9.96908E0,-9.289283E0,-8.660254E-1,2.6056E0,-5.333723E-1],"split_indices":[7,7,7,0,0,0,8,0,0],"split_type":[0,0,0,0,0,0,0,0,0],"sum_hessian":[1.08E2,4E0,1.04E2,1E0,3E0,1E0,1.03E2,1.2E1,9.1E1],"tree_param":{"num_deleted":"0","num_feature":"10","num_nodes":"9","size_leaf_vector":"1"}},{"base_weights":[-6.5270844E0,3.842851E1,-1.1504937E1,-1.660859E1,1.723846E1,-3.7076046E1,-1.4928962E0,1.8601563E0,-2.4295976E0,-1.4643992E0,-2.8772266E1,4.6936256E-1,-3.2289789E0],"categories":[],"categories_nodes":[],"categories_segments":[],"categories_sizes":[],"default_left":[0,0,0,0,0,0,0,0,0,0,0,0,0],"id":92,"left_children":[1,3,5,7,-1,9,11,-1,-1,-1,-1,-1,-1],"loss_changes":[2.2372781E4,7.658862E4,2.2730338E4,2.6173357E3,0E0,1.3634955E5,1.2535722E4,0E0,0E0,0E0,0E0,0E0,0E0],"parents":[2147483647,0,0,1,1,2,2,3,3,5,5,6,6],"right_children":[2,4,6,8,-1,10,12,-1,-1,-1,-1,-1,-1],"split_conditions":[-8.660254E-1,3.4963868E0,5.917648E6,7.1831E3,1.723846E1,4.5717E2,4.2624633E12,1.8601563E0,-2.4295976E0,-1.4643992E0,-2.8772266E1,4.6936256E-1,-3.2289789E0],"split_indices":[8,2,3,0,0,7,1,0,0,0,0,0,0],"split_type":[0,0,0,0,0,0,0,0,0,0,0,0,0],"sum_hessian":[9.7E1,9E0,8.8E1,7E0,2E0,2.4E1,6.4E1,1E0,6E0,2.3E1,1E0,5.4E1,1E1],"tree_param":{"num_deleted":"0","num_feature":"10","num_nodes":"13","size_leaf_vector":"1"}},{"base_weights":[-4.245939E0,6.7914076E0,-1.3527657E1,-4.616304E1,3.0805115E1,8.465967E1,-2.0299473E1,-8.397483E0,-7.42334E-1,5.501585E0,-2.018345E0,1.0054444E0,1.061766E1,3.7216282E0,-2.6668003E0],"categories":[],"categories_nodes":[],"categories_segments":[],"categories_sizes":[],"default_left":[0,0,0,0,0,0,0,0,0,0,0,0,0,0,0],"id":93,"left_children":[1,3,5,7,9,11,13,-1,-1,-1,-1,-1,-1,-1,-1],"loss_changes":[1.115599E4,6.500369E4,4.0948023E4,2.28137E4,4.4316883E4,5.3535566E3,2.150477E4,0E0,0E0,0E0,0E0,0E0,0E0,0E0,0E0],"parents":[2147483647,0,0,1,1,2,2,3,3,4,4,5,5,6,6],"right_children":[2,4,6,8,10,12,14,-1,-1,-1,-1,-1,-1,-1,-1],"split_conditions":[1.821407E0,-5E-1,-8.660254E-1,4.9753E2,5.2381E2,2.1591E3,-8.660254E-1,-8.397483E0,-7.42334E-1,5.501585E0,-2.018345E0,1.0054444E0,1.061766E1,3.7216282E0,-2.6668003E0],"split_indices":[2,9,9,7,7,0,8,0,0,0,0,0,0,0,0],"split_type":[0,0,0,0,0,0,0,0,0,0,0,0,0,0,0],"sum_hessian":[1.07E2,4.9E1,5.8E1,1.5E1,3.4E1,3E0,5.5E1,7E0,8E0,2.3E1,1.1E1,1E0,2E0,5E0,5E1],"tree_param":{"num_deleted":"0","num_feature":"10","num_nodes":"15","size_leaf_vector":"1"}},{"base_weights":[3.6789672E0,-5.5708156E0,2.1562462E1,-2.134367E1,1.1757607E1,3.3811237E1,-3.401264E1,-5.727424E0,3.5172787E0,5.069126E0,-1.0202379E1,-2.491172E0,5.2766566E0,-4.3057904E0,1.0129455E0],"categories":[],"categories_nodes":[],"categories_segments":[],"categories_sizes":[],"default_left":[0,0,0,0,0,0,0,0,0,0,0,0,0,0,0],"id":94,"left_children":[1,3,5,7,9,11,13,-1,-1,-1,-1,-1,-1,-1,-1],"loss_changes":[1.7489059E4,1.9383258E4,2.5656182E4,7.714924E4,1.5578917E5,3.4707887E4,3.2310903E3,0E0,0E0,0E0,0E0,0E0,0E0,0E0,0E0],"parents":[2147483647,0,0,1,1,2,2,3,3,4,4,5,5,6,6],"right_children":[2,4,6,8,10,12,14,-1,-1,-1,-1,-1,-1,-1,-1],"split_conditions":[1.7344513E12,5E-1,5.2979E2,1.9116E7,1.9116E7,-8.660254E-1,5.4668E2,-5.727424E0,3.5172787E0,5.069126E0,-1.0202379E1,-2.491172E0,5.2766566E0,-4.3057904E0,1.0129455E0],"split_indices":[1,8,7,4,4,8,7,0,0,0,0,0,0,0,0],"split_type":[0,0,0,0,0,0,0,0,0,0,0,0,0,0,0],"sum_hessian":[1.04E2,6.9E1,3.5E1,3.6E1,3.3E1,2.9E1,6E0,2.2E1,1.4E1,2.5E1,8E0,7E0,2.2E1,5E0,1E0],"tree_param":{"num_deleted":"0","num_feature":"10","num_nodes":"15","size_leaf_vector":"1"}},{"base_weights":[-6.788559E0,1.0707499E1,-1.4862872E1,-7.368386E-1,1.3302605E2,-1.0698194E1,-9.538717E0,1.0901141E0,-4.552093E0,3.2628906E0,1.6691015E1,-4.548738E-1,-9.323119E0],"categories":[],"categories_nodes":[],"categories_segments":[],"categories_sizes":[],"default_left":[0,0,0,0,0,0,0,0,0,0,0,0,0],"id":95,"left_children":[1,3,5,7,9,-1,11,-1,-1,-1,-1,-1,-1],"loss_changes":[1.5557424E4,4.909293E4,3.576374E4,1.7695709E4,4.759508E3,0E0,2.964482E4,0E0,0E0,0E0,0E0,0E0,0E0],"parents":[2147483647,0,0,1,1,2,2,3,3,4,4,6,6],"right_children":[2,4,6,8,10,-1,12,-1,-1,-1,-1,-1,-1],"split_conditions":[2.4775E2,1E0,2.4874E2,8.660254E-1,2.1591E3,-1.0698194E1,1E0,1.0901141E0,-4.552093E0,3.2628906E0,1.6691015E1,-4.548738E-1,-9.323119E0],"split_indices":[7,8,7,8,0,0,8,0,0,0,0,0,0],"split_type":[0,0,0,0,0,0,0,0,0,0,0,0,0],"sum_hessian":[1.08E2,3.4E1,7.4E1,3.2E1,2E0,3E0,7.1E1,2.6E1,6E0,1E0,1E0,6.8E1,3E0],"tree_param":{"num_deleted":"0","num_feature":"10",