{"learner":{"attributes":{"scikit_learn":"{\"_estimator_type\": \"regressor\"}"},"feature_names":["distance_km","gdp_usd","gdp_growth_pct","population","tourism_arrivals_baseline","competitor_count","competitor_avg_fare_usd","avg_fare_usd","month_sin","month_cos"],"feature_types":["float","float","float","float","float","int","float","float","float","float"],"gradient_booster":{"model":{"gbtree_model_param":{"num_parallel_tree":"1","num_trees":"150"},"iteration_indptr":[0,1,2,3,4,5,6,7,8,9,10,11,12,13,14,15,16,17,18,19,20,21,22,23,24,25,26,27,28,29,30,31,32,33,34,35,36,37,38,39,40,41,42,43,44,45,46,47,48,49,50,51,52,53,54,55,56,57,58,59,60,61,62,63,64,65,66,67,68,69,70,71,72,73,74,75,76,77,78,79,80,81,82,83,84,85,86,87,88,89,90,91,92,93,94,95,96,97,98,99,100,101,102,103,104,105,106,107,108,109,110,111,112,113,114,115,116,117,118,119,120,121,122,123,124,125,126,127,128,129,130,131,132,133,134,135,136,137,138,139,140,141,142,143,144,145,146,147,148,149,150],"tree_info":[0,0,0,0,0,0,0,0,0,0,0,0,0,0,0,0,0,0,0,0,0,0,0,0,0,0,0,0,0,0,0,0,0,0,0,0,0,0,0,0,0,0,0,0,0,0,0,0,0,0,0,0,0,0,0,0,0,0,0,0,0,0,0,0,0,0,0,0,0,0,0,0,0,0,0,0,0,0,0,0,0,0,0,0,0,0,0,0,0,0,0,0,0,0,0,0,0,0,0,0,0,0,0,0,0,0,0,0,0,0,0,0,0,0,0,0,0,0,0,0,0,0,0,0,0,0,0,0,0,0,0,0,0,0,0,0,0,0,0,0,0,0,0,0,0,0,0,0,0,0],"trees":[{"base_weights":[-6.8021034E1,2.068189E3,-2.5873884E3,3.879399E2,6.2231696E2,-3.1550406E2,-1.9869796E3,-1.6721424E1,1.7621626E2,-1.3846846E2,-2.3765031E2],"categories":[],"categories_nodes":[],"categories_segments":[],"categories_sizes":[],"default_left":[0,0,0,0,0,0,0,0,0,0,0],"id":0,"left_children":[1,3,5,-1,7,-1,9,-1,-1,-1,-1],"loss_changes":[5.8659616E8,1.5209368E8,1.077216E7,0E0,3.0892744E7,0E0,3.04372E6,0E0,0E0,0E0,0E0],"parents":[2147483647,0,0,1,1,2,2,4,4,6,6],"right_children":[2,4,6,-1,8,-1,10,-1,-1,-1,-1],"split_conditions":[7.1831E3,2.1591E3,7.8178E3,3.879399E2,4.2369E2,-3.1550406E2,4.2624633E12,-1.6721424E1,1.7621626E2,-1.3846846E2,-2.3765031E2],"split_indices":[0,0,0,0,7,0,1,0,0,0,0],"split_type":[0,0,0,0,0,0,0,0,0,0,0],"sum_hessian":[1.07E2,5.8E1,4.9E1,2.5E1,3.3E1,2.3E1,2.6E1,2E1,1.3E1,1.2E1,1.4E1],"tree_param":{"num_deleted":"0","num_feature":"10","num_nodes":"11","size_leaf_vector":"1"}},{"base_weights":[-7.330515E1,1.9822789E3,-2.3178635E3,3.5187646E2,7.490171E2,-2.8654623E2,-1.7469868E3,-1.4181999E1,1.6481964E2,-1.2933342E2,-2.1406621E2],"categories":[],"categories_nodes":[],"categories_segments":[],"categories_sizes":[],"default_left":[0,0,0,0,0,0,0,0,0,0,0],"id":1,"left_children":[1,3,5,-1,7,-1,9,-1,-1,-1,-1],"loss_changes":[5.2134906E8,1.0916288E8,1.1875072E7,0E0,2.7468506E7,0E0,2.410576E6,0E0,0E0,0E0,0E0],"parents":[2147483647,0,0,1,1,2,2,4,4,6,6],"right_children":[2,4,6,-1,8,-1,10,-1,-1,-1,-1],"split_conditions":[7.1831E3,2.1591E3,7.8178E3,3.5187646E2,4.2369E2,-2.8654623E2,4.2624633E12,-1.4181999E1,1.6481964E2,-1.2933342E2,-2.1406621E2],"split_indices":[0,0,0,0,7,0,1,0,0,0,0],"split_type":[0,0,0,0,0,0,0,0,0,0,0],"sum_hessian":[1.11E2,5.8E1,5.3E1,2.5E1,3.3E1,2.5E1,2.8E1,1.7E1,1.6E1,1.5E1,1.3E1],"tree_param":{"num_deleted":"0","num_feature":"10","num_nodes":"11","size_leaf_vector":"1"}},{"base_weights":[8.95891E1,1.8409183E3,-2.1379248E3,3.1892343E2,7.4819135E2,-2.5820758E2,-1.6260231E3,-5.164821E0,1.5064647E2,-1.1387904E2,-1.988177E2],"categories":[],"categories_nodes":[],"categories_segments":[],"categories_sizes":[],"default_left":[0,0,0,0,0,0,0,0,0,0,0],"id":2,"left_children":[1,3,5,-1,7,-1,9,-1,-1,-1,-1],"loss_changes":[4.2525568E8,8.748763E7,6.714848E6,0E0,2.1305202E7,0E0,2.147216E6,0E0,0E0,0E0,0E0],"parents":[2147483647,0,0,1,1,2,2,4,4,6,6],"right_children":[2,4,6,-1,8,-1,10,-1,-1,-1,-1],"split_conditions":[7.1831E3,2.1591E3,7.8178E3,3.1892343E2,6.2934E3,-2.5820758E2,4.2624633E12,-5.164821E0,1.5064647E2,-1.1387904E2,-1.988177E2],"split_indices":[0,0,0,0,0,0,1,0,0,0,0],"split_type":[0,0,0,0,0,0,0,0,0,0,0],"sum_hessian":[1.07E2,6E1,4.7E1,2.6E1,3.4E1,2.3E1,2.4E1,1.7E1,1.7E1,1.2E1,1.2E1],"tree_param":{"num_deleted":"0","num_feature":"10","num_nodes":"11","size_leaf_vector":"1"}},{"base_weights":[2.22387E1,1.5913208E3,-1.9315623E3,2.8820724E2,6.149081E2,-2.3342102E2,-1.4855963E3,-3.725956E0,1.3459932E2,-1.0090558E2,-1.8219843E2],"categories":[],"categories_nodes":[],"categories_segments":[],"categories_sizes":[],"default_left":[0,0,0,0,0,0,0,0,0,0,0],"id":3,"left_children":[1,3,5,-1,7,-1,9,-1,-1,-1,-1],"loss_changes":[3.372322E8,7.510646E7,5.33112E6,0E0,1.7214592E7,0E0,2.32938E6,0E0,0E0,0E0,0E0],"parents":[2147483647,0,0,1,1,2,2,4,4,6,6],"right_children":[2,4,6,-1,8,-1,10,-1,-1,-1,-1],"split_conditions":[7.1831E3,2.1591E3,7.8178E3,2.8820724E2,4.2226E2,-2.3342102E2,4.2624633E12,-3.725956E0,1.3459932E2,-1.0090558E2,-1.8219843E2],"split_indices":[0,0,0,0,7,0,1,0,0,0,0],"split_type":[0,0,0,0,0,0,0,0,0,0,0],"sum_hessian":[1.08E2,6E1,4.8E1,2.5E1,3.5E1,2.3E1,2.5E1,1.9E1,1.6E1,1.2E1,1.3E1],"tree_param":{"num_deleted":"0","num_feature":"10","num_nodes":"11","size_leaf_vector":"1"}},{"base_weights":[2.9000063E1,1.3858518E3,-1.7161154E3,1.6625179E2,2.2383748E3,-2.1127483E2,-1.3146831E3,6.1624294E1,-5.4430286E1,2.5501085E2,1.26972145E2,-9.4815575E1,-1.6364699E2],"categories":[],"categories_nodes":[],"categories_segments":[],"categories_sizes":[],"default_left":[0,0,0,0,0,0,0,0,0,0,0,0,0],"id":4,"left_children":[1,3,5,7,9,-1,11,-1,-1,-1,-1,-1,-1],"loss_changes":[2.6521107E8,6.5131296E7,5.02424E6,8.968491E6,7.934656E6,0E0,1.632852E6,0E0,0E0,0E0,0E0,0E0,0E0],"parents":[2147483647,0,0,1,1,2,2,3,3,4,4,6,6],"right_children":[2,4,6,8,10,-1,12,-1,-1,-1,-1,-1,-1],"split_conditions":[7.1831E3,5.917648E6,7.8178E3,1.2246469E-16,2.1591E3,-2.1127483E2,4.2624633E12,6.1624294E1,-5.4430286E1,2.5501085E2,1.26972145E2,-9.4815575E1,-1.6364699E2],"split_indices":[0,3,0,8,0,0,1,0,0,0,0,0,0],"split_type":[0,0,0,0,0,0,0,0,0,0,0,0,0],"sum_hessian":[1.1E2,6.2E1,4.8E1,2.6E1,3.6E1,2.2E1,2.6E1,1.6E1,1E1,2.6E1,1E1,1.4E1,1.2E1],"tree_param":{"num_deleted":"0","num_feature":"10","num_nodes":"13","size_leaf_vector":"1"}},{"base_weights":[1.2146535E1,1.2378596E3,-1.5324949E3,1.3258963E2,2.0631292E3,-1.9023563E2,-1.1179169E3,5.5824352E1,-4.814692E1,2.3626704E2,1.1675649E2,-1.3103537E2,-6.0883022E1],"categories":[],"categories_nodes":[],"categories_segments":[],"categories_sizes":[],"default_left":[0,0,0,0,0,0,0,0,0,0,0,0,0],"id":5,"left_children":[1,3,5,7,9,-1,11,-1,-1,-1,-1,-1,-1],"loss_changes":[2.1394517E8,5.7191616E7,5.540144E6,7.5873195E6,6.898736E6,0E0,1.74936E6,0E0,0E0,0E0,0E0,0E0,0E0],"parents":[2147483647,0,0,1,1,2,2,3,3,4,4,6,6],"right_children":[2,4,6,8,10,-1,12,-1,-1,-1,-1,-1,-1],"split_conditions":[7.1831E3,5.917648E6,7.8178E3,1.2246469E-16,2.1591E3,-1.9023563E2,8.660254E-1,5.5824352E1,-4.814692E1,2.3626704E2,1.1675649E2,-1.3103537E2,-6.0883022E1],"split_indices":[0,3,0,8,0,0,9,0,0,0,0,0,0],"split_type":[0,0,0,0,0,0,0,0,0,0,0,0,0],"sum_hessian":[1.11E2,6.2E1,4.9E1,2.7E1,3.5E1,2.4E1,2.5E1,1.6E1,1.1E1,2.5E1,1E1,1.7E1,8E0],"tree_param":{"num_deleted":"0","num_feature":"10","num_nodes":"13","size_leaf_vector":"1"}},{"base_weights":[-3.0054736E0,1.1783108E3,-1.4390565E3,-6.560126E1,1.6886749E3,-1.7311496E2,-1.0916152E3,1.8565502E1,-3.654032E1,1.0206811E2,2.1118753E2,-7.7086876E1,-1.4015807E2],"categories":[],"categories_nodes":[],"categories_segments":[],"categories_sizes":[],"default_left":[0,0,0,0,0,0,0,0,0,0,0,0,0],"id":6,"left_children":[1,3,5,7,9,-1,11,-1,-1,-1,-1,-1,-1],"loss_changes":[1.9169589E8,3.947136E7,3.285984E6,1.4990541E6,1.028304E7,0E0,1.504494E6,0E0,0E0,0E0,0E0,0E0,0E0],"parents":[2147483647,0,0,1,1,2,2,3,3,4,4,6,6],"right_children":[2,4,6,8,10,-1,12,-1,-1,-1,-1,-1,-1],"split_conditions":[9.968066E7,4.1344523E11,5.0543952E11,1.2246469E-16,1.6956275E12,-1.7311496E2,4.2624633E12,1.8565502E1,-3.654032E1,1.0206811E2,2.1118753E2,-7.7086876E1,-1.4015807E2],"split_indices":[3,1,1,8,1,0,1,0,0,0,0,0,0],"split_type":[0,0,0,0,0,0,0,0,0,0,0,0,0],"sum_hessian":[1.11E2,6.1E1,5E1,1.8E1,4.3E1,2.5E1,2.5E1,1E1,8E0,1.8E1,2.5E1,1.4E1,1.1E1],"tree_param":{"num_deleted":"0","num_feature":"10","num_nodes":"13","size_leaf_vector":"1"}},{"base_weights":[-3.4043705E1,1.0386051E3,-1.2990884E3,6.762458E1,1.6570752E3,-1.5632906E2,-1.0161276E3,4.074706E1,-4.4890686E1,1.9554393E2,9.78782E1,-7.043209E1,-1.297741E2],"categories":[],"categories_nodes":[],"categories_segments":[],"categories_sizes":[],"default_left":[0,0,0,0,0,0,0,0,0,0,0,0,0],"id":7,"left_children":[1,3,5,7,9,-1,11,-1,-1,-1,-1,-1,-1],"loss_changes":[1.478997E8,3.531876E7,2.14944E6,4.3959035E6,5.371672E6,0E0,1.456812E6,0E0,0E0,0E0,0E0,0E0,0E0],"parents":[2147483647,0,0,1,1,2,2,3,3,4,4,6,6],"right_children":[2,4,6,8,10,-1,12,-1,-1,-1,-1,-1,-1],"split_conditions":[7.1831E3,5.917648E6,7.8178E3,1.2246469E-16,2.1591E3,-1.5632906E2,4.2624633E12,4.074706E1,-4.4890686E1,1.9554393E2,9.78782E1,-7.043209E1,-1.297741E2],"split_indices":[0,3,0,8,0,0,1,0,0,0,0,0,0],"split_type":[0,0,0,0,0,0,0,0,0,0,0,0,0],"sum_hessian":[1.07E2,5.8E1,4.9E1,2.3E1,3.5E1,2.3E1,2.6E1,1.4E1,9E0,2.3E1,1.2E1,1.4E1,1.2E1],"tree_param":{"num_deleted":"0","num_feature":"10","num_nodes":"13","size_leaf_vector":"1"}},{"base_weights":[-6.3677677E1,8.909244E2,-1.1762009E3,7.353192E1,1.4633209E3,-1.4143764E2,-9.221056E2,4.2531986E1,-4.7682507E1,1.70373E2,8.884327E1,-3.367517E1,-1.0022921E2],"categories":[],"categories_nodes":[],"categories_segments":[],"categories_sizes":[],"default_left":[0,0,0,0,0,0,0,0,0,0,0,0,0],"id":8,"left_children":[1,3,5,7,9,-1,11,-1,-1,-1,-1,-1,-1],"loss_changes":[1.2424187E8,2.9368368E7,1.96384E6,5.4302445E6,3.600064E6,0E0,1.023664E6,0E0,0E0,0E0,0E0,0E0,0E0],"parents":[2147483647,0,0,1,1,2,2,3,3,4,4,6,6],"right_children":[2,4,6,8,10,-1,12,-1,-1,-1,-1,-1,-1],"split_conditions":[7.1831E3,5.917648E6,7.8178E3,1.2246469E-16,2.1591E3,-1.4143764E2,4.9753E2,4.2531986E1,-4.7682507E1,1.70373E2,8.884327E1,-3.367517E1,-1.0022921E2],"split_indices":[0,3,0,8,0,0,7,0,0,0,0,0,0],"split_type":[0,0,0,0,0,0,0,0,0,0,0,0,0],"sum_hessian":[1.15E2,6.2E1,5.3E1,2.6E1,3.6E1,2.5E1,2.8E1,1.6E1,1E1,2.4E1,1.2E1,4E0,2.4E1],"tree_param":{"num_deleted":"0","num_feature":"10","num_nodes":"13","size_leaf_vector":"1"}},{"base_weights":[9.487547E0,8.223469E2,-1.01111224E3,5.111541E1,1.349731E3,-1.2666227E2,-7.749333E2,-1.6712408E1,7.700611E1,1.6238054E2,8.7604454E1,-8.530624E1,-1.1242536E1],"categories":[],"categories_nodes":[],"categories_segments":[],"categories_sizes":[],"default_left":[0,0,0,0,0,0,0,0,0,0,0,0,0],"id":9,"left_children":[1,3,5,7,9,-1,11,-1,-1,-1,-1,-1,-1],"loss_changes":[8.793991E7,2.392838E7,1.854724E6,4.0512542E6,3.12136E6,0E0,1.301644E6,0E0,0E0,0E0,0E0,0E0,0E0],"parents":[2147483647,0,0,1,1,2,2,3,3,4,4,6,6],"right_children":[2,4,6,8,10,-1,12,-1,-1,-1,-1,-1,-1],"split_conditions":[9.968066E7,5.917648E6,5.0543952E11,4.2369E2,1.3549E2,-1.2666227E2,1E0,-1.6712408E1,7.700611E1,1.6238054E2,8.7604454E1,-8.530624E1,-1.1242536E1],"split_indices":[3,3,1,7,7,0,9,0,0,0,0,0,0],"split_type":[0,0,0,0,0,0,0,0,0,0,0,0,0],"sum_hessian":[1.04E2,5.8E1,4.6E1,2.4E1,3.4E1,2E1,2.6E1,1.9E1,5E0,2E1,1.4E1,2.3E1,3E0],"tree_param":{"num_deleted":"0","num_feature":"10","num_nodes":"13","size_leaf_vector":"1"}},{"base_weights":[-3.2304703E1,7.639493E2,-9.481384E2,1.4248778E2,2.967287E2,-1.01602527E3,-3.5687842E2,-1.2999728E1,7.543838E1,-1.0909778E2,-5.7833923E1,-9.874255E0,-3.83444E1],"categories":[],"categories_nodes":[],"categories_segments":[],"categories_sizes":[],"default_left":[0,0,0,0,0,0,0,0,0,0,0,0,0],"id":10,"left_children":[1,3,5,-1,7,9,11,-1,-1,-1,-1,-1,-1],"loss_changes":[8.3128024E7,1.841396E7,1.764756E6,0E0,7.32392E6,9.10916E5,1.01404375E4,0E0,0E0,0E0,0E0,0E0,0E0],"parents":[2147483647,0,0,1,1,2,2,4,4,5,5,6,6],"right_children":[2,4,6,-1,8,10,12,-1,-1,-1,-1,-1,-1],"split_conditions":[7.1831E3,2.1591E3,5.3148E2,1.4248778E2,4.2369E2,1E0,5.3607E2,-1.2999728E1,7.543838E1,-1.0909778E2,-5.7833923E1,-9.874255E0,-3.83444E1],"split_indices":[0,0,7,0,7,9,7,0,0,0,0,0,0],"split_type":[0,0,0,0,0,0,0,0,0,0,0,0,0],"sum_hessian":[1.12E2,6E1,5.2E1,2.4E1,3.6E1,4.6E1,6E0,1.9E1,1.7E1,3.8E1,8E0,1E0,5E0],"tree_param":{"num_deleted":"0","num_feature":"10","num_nodes":"13","size_leaf_vector":"1"}},{"base_weights":[-7.274556E0,7.550782E2,-8.557941E2,3.339314E2,1.3144804E2,-1.0569057E2,-6.529119E2,-2.3806448E0,7.141131E1,-7.375638E1,-9.907017E0],"categories":[],"categories_nodes":[],"categories_segments":[],"categories_sizes":[],"default_left":[0,0,0,0,0,0,0,0,0,0,0],"id":11,"left_children":[1,3,5,7,-1,-1,9,-1,-1,-1,-1],"loss_changes":[7.24489E7,1.3460892E7,1.47244E6,4.777187E6,0E0,0E0,1.286557E6,0E0,0E0,0E0,0E0],"parents":[2147483647,0,0,1,1,2,2,3,3,6,6],"right_children":[2,4,6,8,-1,-1,10,-1,-1,-1,-1],"split_conditions":[9.968066E7,1.6956275E12,5.0543952E11,4.2369E2,1.3144804E2,-1.0569057E2,1E0,-2.3806448E0,7.141131E1,-7.375638E1,-9.907017E0],"split_indices":[3,1,1,7,0,0,9,0,0,0,0],"split_type":[0,0,0,0,0,0,0,0,0,0,0],"sum_hessian":[1.1E2,5.8E1,5.2E1,3.4E1,2.4E1,2.4E1,2.8E1,1.8E1,1.6E1,2.4E1,4E0],"tree_param":{"num_deleted":"0","num_feature":"10","num_nodes":"11","size_leaf_vector":"1"}},{"base_weights":[-1.1811359E-1,6.2971466E2,-7.4804205E2,3.131593E1,1.00495624E3,-9.4412766E1,-5.8701605E2,5.0553417E1,-2.0775043E1,1.1509702E2,5.817467E1,-3.3188515E1,-8.030126E1],"categories":[],"categories_nodes":[],"categories_segments":[],"categories_sizes":[],"default_left":[0,0,0,0,0,0,0,0,0,0,0,0,0],"id":12,"left_children":[1,3,5,7,9,-1,11,-1,-1,-1,-1,-1,-1],"loss_changes":[4.9462024E7,1.2767542E7,9.61374E5,2.7125262E6,1.493236E6,0E0,1.331606E6,0E0,0E0,0E0,0E0,0E0,0E0],"parents":[2147483647,0,0,1,1,2,2,3,3,4,4,6,6],"right_children":[2,4,6,8,10,-1,12,-1,-1,-1,-1,-1,-1],"split_conditions":[7.1831E3,5.917648E6,7.8178E3,-5E-1,2.1591E3,-9.4412766E1,4.2624633E12,5.0553417E1,-2.0775043E1,1.1509702E2,5.817467E1,-3.3188515E1,-8.030126E1],"split_indices":[0,3,0,8,0,0,1,0,0,0,0,0,0],"split_type":[0,0,0,0,0,0,0,0,0,0,0,0,0],"sum_hessian":[1.03E2,5.6E1,4.7E1,2.2E1,3.4E1,1.9E1,2.8E1,7E0,1.5E1,2.4E1,1E1,1.4E1,1.4E1],"tree_param":{"num_deleted":"0","num_feature":"10","num_nodes":"13","size_leaf_vector":"1"}},{"base_weights":[2.7885306E0,5.9924976E2,-7.130207E2,1.04875694E2,2.7044614E2,-7.6218207E2,-2.2547331E2,-2.4095638E0,5.6632656E1,-8.1138466E1,-4.3319717E1,-4.033301E0,-2.5443478E1],"categories":[],"categories_nodes":[],"categories_segments":[],"categories_sizes":[],"default_left":[0,0,0,0,0,0,0,0,0,0,0,0,0],"id":13,"left_children":[1,3,5,-1,7,9,11,-1,-1,-1,-1,-1,-1],"loss_changes":[4.696509E7,8.584344E6,1.026574E6,0E0,3.151015E6,3.76922E5,2.1909469E4,0E0,0E0,0E0,0E0,0E0,0E0],"parents":[2147483647,0,0,1,1,2,2,4,4,5,5,6,6],"right_children":[2,4,6,-1,8,10,12,-1,-1,-1,-1,-1,-1],"split_conditions":[7.1831E3,2.1591E3,5.3148E2,1.04875694E2,4.2369E2,1E0,5.3607E2,-2.4095638E0,5.6632656E1,-8.1138466E1,-4.3319717E1,-4.033301E0,-2.5443478E1],"split_indices":[0,0,7,0,7,9,7,0,0,0,0,0,0],"split_type":[0,0,0,0,0,0,0,0,0,0,0,0,0],"sum_hessian":[1.08E2,5.9E1,4.9E1,2.4E1,3.5E1,4.4E1,5E0,1.8E1,1.7E1,3.7E1,7E0,1E0,4E0],"tree_param":{"num_deleted":"0","num_feature":"10","num_nodes":"13","size_leaf_vector":"1"}},{"base_weights":[-3.5200462E1,5.0667703E2,-6.4013806E2,5.9795788E1,8.0722034E2,-6.916313E2,-2.176619E2,2.7941563E1,-2.2515636E1,1.0094651E2,5.7136593E1,-7.373821E1,-3.3792927E1,-3.8316407E0,-2.4116674E1],"categories":[],"categories_nodes":[],"categories_segments":[],"categories_sizes":[],"default_left":[0,0,0,0,0,0,0,0,0,0,0,0,0,0,0],"id":14,"left_children":[1,3,5,7,9,11,13,-1,-1,-1,-1,-1,-1,-1,-1],"loss_changes":[3.5399164E7,7.60724E6,9.58946E5,1.5648598E6,1.045038E6,4.79016E5,2.026775E4,0E0,0E0,0E0,0E0,0E0,0E0,0E0,0E0],"parents":[2147483647,0,0,1,1,2,2,3,3,4,4,5,5,6,6],"right_children":[2,4,6,8,10,12,14,-1,-1,-1,-1,-1,-1,-1,-1],"split_conditions":[7.1831E3,5.917648E6,5.3148E2,1.2246469E-16,1.3212E2,1E0,5.3607E2,2.7941563E1,-2.2515636E1,1.0094651E2,5.7136593E1,-7.373821E1,-3.3792927E1,-3.8316407E0,-2.4116674E1],"split_indices":[0,3,7,8,7,9,7,0,0,0,0,0,0,0,0],"split_type":[0,0,0,0,0,0,0,0,0,0,0,0,0,0,0],"sum_hessian":[1.06E2,5.6E1,5E1,2.3E1,3.3E1,4.4E1,6E0,1.3E1,1E1,1.6E1,1.7E1,3.8E1,6E0,1E0,5E0],"tree_param":{"num_deleted":"0","num_feature":"10","num_nodes":"15","size_leaf_vector":"1"}},{"base_weights":[-1.5426048E1,4.7825082E2,-5.7401447E2,8.588398E2,1.6195226E2,-7.278978E1,-4.215629E2,7.4936844E1,1.3009578E2,-1.3080492E1,4.9947937E1,-2.0780565E1,-6.3574524E1],"categories":[],"categories_nodes":[],"categories_segments":[],"categories_sizes":[],"default_left":[0,0,0,0,0,0,0,0,0,0,0,0,0],"id":15,"left_children":[1,3,5,7,9,-1,11,-1,-1,-1,-1,-1,-1],"loss_changes":[3.1159888E7,7.083693E6,9.36512E5,3.31884E5,3.424993E6,0E0,1.195596E6,0E0,0E0,0E0,0E0,0E0,0E0],"parents":[2147483647,0,0,1,1,2,2,3,3,4,4,6,6],"right_children":[2,4,6,8,10,-1,12,-1,-1,-1,-1,-1,-1],"split_conditions":[7.1831E3,2.1591E3,7.8178E3,1E0,4.2369E2,-7.278978E1,4.2624633E12,7.4936844E1,1.3009578E2,-1.3080492E1,4.9947937E1,-2.0780565E1,-6.3574524E1],"split_indices":[0,0,0,9,7,0,1,0,0,0,0,0,0],"split_type":[0,0,0,0,0,0,0,0,0,0,0,0,0],"sum_hessian":[1.11E2,5.9E1,5.2E1,2.6E1,3.3E1,2.4E1,2.8E1,2.3E1,3E0,1.8E1,1.5E1,1.5E1,1.3E1],"tree_param":{"num_deleted":"0","num_feature":"10","num_nodes":"13","size_leaf_vector":"1"}},{"base_weights":[-4.615094E1,3.9029462E2,-5.1528174E2,2.7744328E1,6.8177893E2,-6.627396E1,-3.6522003E2,2.8955671E1,-3.0183317E1,9.002341E1,4.7399273E1,-4.401869E1,6.7664895E0],"categories":[],"categories_nodes":[],"categories_segments":[],"categories_sizes":[],"default_left":[0,0,0,0,0,0,0,0,0,0,0,0,0],"id":16,"left_children":[1,3,5,7,9,-1,11,-1,-1,-1,-1,-1,-1],"loss_changes":[2.2109368E7,5.899037E6,9.08599E5,2.3308715E6,9.80445E5,0E0,9.3844175E5,0E0,0E0,0E0,0E0,0E0,0E0],"parents":[2147483647,0,0,1,1,2,2,3,3,4,4,6,6],"right_children":[2,4,6,8,10,-1,12,-1,-1,-1,-1,-1,-1],"split_conditions":[7.1831E3,5.917648E6,7.8178E3,1.2246469E-16,1.2855E2,-6.627396E1,1E0,2.8955671E1,-3.0183317E1,9.002341E1,4.7399273E1,-4.401869E1,6.7664895E0],"split_indices":[0,3,0,8,7,0,9,0,0,0,0,0,0],"split_type":[0,0,0,0,0,0,0,0,0,0,0,0,0],"sum_hessian":[1.06E2,5.5E1,5.1E1,2.5E1,3E1,2.4E1,2.7E1,1.4E1,1.1E1,1.3E1,1.7E1,2.3E1,4E0],"tree_param":{"num_deleted":"0","num_feature":"10","num_nodes":"13","size_leaf_vector":"1"}},{"base_weights":[1.0722591E1,3.717118E2,-4.682136E2,1.8861153E1,6.000781E2,-5.1318506E2,-1.4434605E2,2.330818E1,-2.7497257E1,5.1939465E1,1.13586845E2,-4.085494E1,-6.990785E1,-4.0009767E-1,-1.6707006E1],"categories":[],"categories_nodes":[],"categories_segments":[],"categories_sizes":[],"default_left":[0,0,0,0,0,0,0,0,0,0,0,0,0,0,0],"id":17,"left_children":[1,3,5,7,9,11,13,-1,-1,-1,-1,-1,-1,-1,-1],"loss_changes":[1.8500464E7,4.904015E6,5.95904E5,1.6377224E6,1.009525E6,4.92435E5,2.1655984E4,0E0,0E0,0E0,0E0,0E0,0E0,0E0,0E0],"parents":[2147483647,0,0,1,1,2,2,3,3,4,4,5,5,6,6],"right_children":[2,4,6,8,10,12,14,-1,-1,-1,-1,-1,-1,-1,-1],"split_conditions":[7.1831E3,5.917648E6,5.3148E2,1.2246469E-16,1E0,5E-1,5.3607E2,2.330818E1,-2.7497257E1,5.1939465E1,1.13586845E2,-4.085494E1,-6.990785E1,-4.0009767E-1,-1.6707006E1],"split_indices":[0,3,7,8,9,8,7,0,0,0,0,0,0,0,0],"split_type":[0,0,0,0,0,0,0,0,0,0,0,0,0,0,0],"sum_hessian":[1.05E2,6E1,4.5E1,2.4E1,3.6E1,3.9E1,6E0,1.4E1,1E1,3.3E1,3E0,2.7E1,1.2E1,1E0,5E0],"tree_param":{"num_deleted":"0","num_feature":"10","num_nodes":"15","size_leaf_vector":"1"}},{"base_weights":[-1.0852188E1,6.196007E2,-2.406544E2,7.757029E2,4.0137823E2,6.5789474E1,-4.1779422E2,1.0295492E2,5.436459E1,4.8649036E1,2.3460865E1,-2.0200535E1,3.4620964E1,-5.5008522E1,-2.9362522E1],"categories":[],"categories_nodes":[],"categories_segments":[],"categories_sizes":[],"default_left":[0,0,0,0,0,0,0,0,0,0,0,0,0,0,0],"id":18,"left_children":[1,3,5,7,9,11,13,-1,-1,-1,-1,-1,-1,-1,-1],"loss_changes":[1.6810248E7,7.44665E5,4.641576E6,4.41706E5,9.877675E4,2.472978E6,7.25508E5,0E0,0E0,0E0,0E0,0E0,0E0,0E0,0E0],"parents":[2147483647,0,0,1,1,2,2,3,3,4,4,5,5,6,6],"right_children":[2,4,6,8,10,12,14,-1,-1,-1,-1,-1,-1,-1,-1],"split_conditions":[2.3296E2,1.2855E2,7.1831E3,1.2246469E-16,5E-1,4.2369E2,7.8178E3,1.0295492E2,5.436459E1,4.8649036E1,2.3460865E1,-2.0200535E1,3.4620964E1,-5.5008522E1,-2.9362522E1],"split_indices":[7,7,0,8,9,7,0,0,0,0,0,0,0,0,0],"split_type":[0,0,0,0,0,0,0,0,0,0,0,0,0,0,0],"sum_hessian":[1.14E2,3E1,8.4E1,1.6E1,1.4E1,3.1E1,5.3E1,6E0,1E1,8E0,6E0,1.6E1,1.5E1,2.4E1,2.9E1],"tree_param":{"num_deleted":"0","num_feature":"10","num_nodes":"15","size_leaf_vector":"1"}},{"base_weights":[-1.79694E1,2.9953146E2,-3.9618256E2,6.1815393E2,1.2125769E2,-4.9873123E1,-2.8275858E2,1.078617E1,6.930495E1,-3.5492647E0,3.235216E1,-7.780591E0,-4.6751423E1],"categories":[],"categories_nodes":[],"categories_segments":[],"categories_sizes":[],"default_left":[0,0,0,0,0,0,0,0,0,0,0,0,0],"id":19,"left_children":[1,3,5,7,9,-1,11,-1,-1,-1,-1,-1,-1],"loss_changes":[1.3688049E7,3.4467695E6,4.638165E5,7.66056E5,1.311385E6,0E0,9.86011E5,0E0,0E0,0E0,0E0,0E0,0E0],"parents":[2147483647,0,0,1,1,2,2,3,3,4,4,6,6],"right_children":[2,4,6,8,10,-1,12,-1,-1,-1,-1,-1,-1],"split_conditions":[7.1831E3,1.3549E2,7.8178E3,1.2134E2,4.2369E2,-4.9873123E1,4.2624633E12,1.078617E1,6.930495E1,-3.5492647E0,3.235216E1,-7.780591E0,-4.6751423E1],"split_indices":[0,7,0,7,7,0,1,0,0,0,0,0,0],"split_type":[0,0,0,0,0,0,0,0,0,0,0,0,0],"sum_hessian":[1.12E2,6.1E1,5.1E1,2.1E1,4E1,2.5E1,2.6E1,3E0,1.8E1,2.3E1,1.7E1,1.3E1,1.3E1],"tree_param":{"num_deleted":"0","num_feature":"10","num_nodes":"13","size_leaf_vector":"1"}},{"base_weights":[-9.815136E0,2.71038E2,-3.502154E2,4.9486734E2,1.2672454E2,-3.8430478E2,-1.0051838E2,1.43053055E1,5.228961E1,-7.5089115E-1,2.7719187E1,-3.039598E1,-5.5314175E1,1.4770631E0,-1.2219499E1],"categories":[],"categories_nodes":[],"categories_segments":[],"categories_sizes":[],"default_left":[0,0,0,0,0,0,0,0,0,0,0,0,0,0,0],"id":20,"left_children":[1,3,5,7,9,11,13,-1,-1,-1,-1,-1,-1,-1,-1],"loss_changes":[9.941977E6,1.7784785E6,3.61435E5,1.421385E5,7.292003E5,3.880395E5,1.9298422E4,0E0,0E0,0E0,0E0,0E0,0E0,0E0,0E0],"parents":[2147483647,0,0,1,1,2,2,3,3,4,4,5,5,6,6],"right_children":[2,4,6,8,10,12,14,-1,-1,-1,-1,-1,-1,-1,-1],"split_conditions":[7.1831E3,2.1591E3,5.3148E2,-8.660254E-1,4.2369E2,5E-1,5.3607E2,1.43053055E1,5.228961E1,-7.5089115E-1,2.7719187E1,-3.039598E1,-5.5314175E1,1.4770631E0,-1.2219499E1],"split_indices":[0,0,7,8,7,8,7,0,0,0,0,0,0,0,0],"split_type":[0,0,0,0,0,0,0,0,0,0,0,0,0,0,0],"sum_hessian":[1.02E2,5.6E1,4.6E1,2.1E1,3.5E1,4E1,6E0,2E0,1.9E1,1.9E1,1.6E1,2.9E1,1.1E1,1E0,5E0],"tree_param":{"num_deleted":"0","num_feature":"10","num_nodes":"15","size_leaf_vector":"1"}},{"base_weights":[-2.9082644E1,2.3259624E2,-3.320485E2,4.7958972E2,5.6583664E1,-4.190834E1,-2.4238602E2,4.1247475E1,8.11903E1,1.911579E1,-1.3559252E1,-1.0369409E1,-4.071098E1],"categories":[],"categories_nodes":[],"categories_segments":[],"categories_sizes":[],"default_left":[0,0,0,0,0,0,0,0,0,0,0,0,0],"id":21,"left_children":[1,3,5,7,9,-1,11,-1,-1,-1,-1,-1,-1],"loss_changes":[8.560167E6,2.494353E6,2.886085E5,2.003875E5,9.3108825E5,0E0,5.7462325E5,0E0,0E0,0E0,0E0,0E0,0E0],"parents":[2147483647,0,0,1,1,2,2,3,3,4,4,6,6],"right_children":[2,4,6,8,10,-1,12,-1,-1,-1,-1,-1,-1],"split_conditions":[7.1831E3,2.1591E3,7.8178E3,1E0,3.4963868E0,-4.190834E1,5E-1,4.1247475E1,8.11903E1,1.911579E1,-1.3559252E1,-1.0369409E1,-4.071098E1],"split_indices":[0,0,0,9,2,0,8,0,0,0,0,0,0],"split_type":[0,0,0,0,0,0,0,0,0,0,0,0,0],"sum_hessian":[1.06E2,5.7E1,4.9E1,2.3E1,3.4E1,2.3E1,2.6E1,2.1E1,2E0,2E1,1.4E1,1.5E1,1.1E1],"tree_param":{"num_deleted":"0","num_feature":"10","num_nodes":"13","size_leaf_vector":"1"}},{"base_weights":[2.5272364E1,2.680388E2,-2.8111877E2,8.4815125E1,4.1219443E2,-3.6848698E1,-1.993121E2,-9.165116E0,1.9774738E1,4.844152E1,5.41092E0,-1.3665802E0,-3.186323E1],"categories":[],"categories_nodes":[],"categories_segments":[],"categories_sizes":[],"default_left":[0,0,0,0,0,0,0,0,0,0,0,0,0],"id":22,"left_children":[1,3,5,7,9,-1,11,-1,-1,-1,-1,-1,-1],"loss_changes":[8.406076E6,1.6290415E6,2.83921E5,5.9605706E5,8.7893E5,0E0,6.158835E5,0E0,0E0,0E0,0E0,0E0,0E0],"parents":[2147483647,0,0,1,1,2,2,3,3,4,4,6,6],"right_children":[2,4,6,8,10,-1,12,-1,-1,-1,-1,-1,-1],"split_conditions":[7.1831E3,5.0901785E11,7.8178E3,2.4181E2,8.660254E-1,-3.6848698E1,1.2246469E-16,-9.165116E0,1.9774738E1,4.844152E1,5.41092E0,-1.3665802E0,-3.186323E1],"split_indices":[0,1,0,7,8,0,8,0,0,0,0,0,0],"split_type":[0,0,0,0,0,0,0,0,0,0,0,0,0],"sum_hessian":[1.11E2,6.2E1,4.9E1,2.8E1,3.4E1,2.2E1,2.7E1,1.1E1,1.7E1,2.8E1,6E0,1.1E1,1.6E1],"tree_param":{"num_deleted":"0","num_feature":"10","num_nodes":"13","size_leaf_vector":"1"}},{"base_weights":[-3.1606188E1,3.4099506E2,-1.8519328E2,2.8946213E2,7.254818E1,-9.422289E1,-3.4342868E2,3.101742E1,8.246808E0,5.539608E0,-3.3337894E1,-2.3401768E1,-6.8736435E1],"categories":[],"categories_nodes":[],"categories_segments":[],"categories_sizes":[],"default_left":[0,0,0,0,0,0,0,0,0,0,0,0,0],"id":23,"left_children":[1,3,5,7,-1,9,11,-1,-1,-1,-1,-1,-1],"loss_changes":[6.071958E6,4.04226E5,1.0472465E6,9.87515E4,0E0,1.7717998E6,8.5516375E5,0E0,0E0,0E0,0E0,0E0,0E0],"parents":[2147483647,0,0,1,1,2,2,3,3,5,5,6,6],"right_children":[2,4,6,8,-1,10,12,-1,-1,-1,-1,-1,-1],"split_conditions":[2.3477E2,1E0,5E-1,2.3296E2,7.254818E1,4.2530456E0,4.2624633E12,3.101742E1,8.246808E0,5.539608E0,-3.3337894E1,-2.3401768E1,-6.8736435E1],"split_indices":[7,9,8,7,0,2,1,0,0,0,0,0,0],"split_type":[0,0,0,0,0,0,0,0,0,0,0,0,0],"sum_hessian":[1.04E2,3E1,7.4E1,2.8E1,2E0,4.8E1,2.6E1,2.5E1,3E0,3E1,1.8E1,2.1E1,5E0],"tree_param":{"num_deleted":"0","num_feature":"10","num_nodes":"13","size_leaf_vector":"1"}},{"base_weights":[-1.2914432E1,3.3111456E2,-1.4774968E2,2.622153E2,7.306307E1,2.1487238E1,-2.4108539E2,2.8147587E1,7.628296E0,1.0405344E1,-7.28771E1,-2.6422352E1,-2.3512084E0],"categories":[],"categories_nodes":[],"categories_segments":[],"categories_sizes":[],"default_left":[0,0,0,0,0,0,0,0,0,0,0,0,0],"id":24,"left_children":[1,3,5,7,-1,9,11,-1,-1,-1,-1,-1,-1],"loss_changes":[5.1051305E6,6.6173475E5,1.253052E6,7.880075E4,0E0,1.8722644E6,2.50534E5,0E0,0E0,0E0,0E0,0E0,0E0],"parents":[2147483647,0,0,1,1,2,2,3,3,5,5,6,6],"right_children":[2,4,6,8,-1,10,12,-1,-1,-1,-1,-1,-1],"split_conditions":[2.3477E2,1E0,7.1831E3,2.3296E2,7.306307E1,1E0,5.3148E2,2.8147587E1,7.628296E0,1.0405344E1,-7.28771E1,-2.6422352E1,-2.3512084E0],"split_indices":[7,9,0,7,0,8,7,0,0,0,0,0,0],"split_type":[0,0,0,0,0,0,0,0,0,0,0,0,0],"sum_hessian":[1.08E2,3E1,7.8E1,2.7E1,3E0,2.8E1,5E1,2.4E1,3E0,2.6E1,2E0,4.5E1,5E0],"tree_param":{"num_deleted":"0","num_feature":"10","num_nodes":"13","size_leaf_vector":"1"}},{"base_weights":[3.6317413E1,2.08666E2,-1.8927461E2,4.1676178E2,1.1670345E2,-2.8233555E1,-1.13330414E2,1.7103119E1,5.5758747E1,4.9918118E0,2.0668764E1,-2.1949247E1,8.909434E0],"categories":[],"categories_nodes":[],"categories_segments":[],"categories_sizes":[],"default_left":[0,0,0,0,0,0,0,0,0,0,0,0,0],"id":25,"left_children":[1,3,5,7,9,-1,11,-1,-1,-1,-1,-1,-1],"loss_changes":[4.1219442E6,1.0995835E6,2.93105E5,5.2752825E5,2.4809638E5,0E0,5.99781E5,0E0,0E0,0E0,0E0,0E0,0E0],"parents":[2147483647,0,0,1,1,2,2,3,3,4,4,6,6],"right_children":[2,4,6,8,10,-1,12,-1,-1,-1,-1,-1,-1],"split_conditions":[7.1831E3,1.2855E2,7.8178E3,1.2529E2,4.2369E2,-2.8233555E1,8.660254E-1,1.7103119E1,5.5758747E1,4.9918118E0,2.0668764E1,-2.1949247E1,8.909434E0],"split_indices":[0,7,0,7,7,0,9,0,0,0,0,0,0],"split_type":[0,0,0,0,0,0,0,0,0,0,0,0,0],"sum_hessian":[1.04E2,5.9E1,4.5E1,1.7E1,4.2E1,1.9E1,2.6E1,7E0,1E1,2.5E1,1.7E1,1.7E1,9E0],"tree_param":{"num_deleted":"0","num_feature":"10","num_nodes":"13","size_leaf_vector":"1"}},{"base_weights":[8.503651E0,2.8809766E2,-9.645039E1,2.2618044E2,6.340144E1,-1.25243025E1,-2.096291E2,2.6915367E0,2.4104504E1,7.5938373E0,-2.2646765E1,-5.038226E0,-4.0798294E1],"categories":[],"categories_nodes":[],"categories_segments":[],"categories_sizes":[],"default_left":[0,0,0,0,0,0,0,0,0,0,0,0,0],"id":26,"left_children":[1,3,5,7,-1,9,11,-1,-1,-1,-1,-1,-1],"loss_changes":[3.22634E6,4.9914425E5,7.572663E5,7.3485875E4,0E0,9.067195E5,1.0534105E6,0E0,0E0,0E0,0E0,0E0,0E0],"parents":[2147483647,0,0,1,1,2,2,3,3,5,5,6,6],"right_children":[2,4,6,8,-1,10,12,-1,-1,-1,-1,-1,-1],"split_conditions":[2.3296E2,1E0,3.4963868E0,-8.660254E-1,6.340144E1,4.2624633E12,-2.4492937E-16,2.6915367E0,2.4104504E1,7.5938373E0,-2.2646765E1,-5.038226E0,-4.0798294E1],"split_indices":[7,9,2,8,0,1,8,0,0,0,0,0,0],"split_type":[0,0,0,0,0,0,0,0,0,0,0,0,0],"sum_hessian":[1.08E2,2.9E1,7.9E1,2.6E1,3E0,4.6E1,3.3E1,2E0,2.4E1,3.3E1,1.3E1,1.9E1,1.4E1],"tree_param":{"num_deleted":"0","num_feature":"10","num_nodes":"13","size_leaf_vector":"1"}},{"base_weights":[1.9115094E0,1.5146236E2,-1.8656078E2,2.9527776E0,2.4908832E2,-2.3879251E2,-8.043813E1,1.5742259E1,-2.2199903E1,2.0341436E1,5.864634E1,-1.6955128E1,-4.3397747E1,-2.176532E1,8.096063E0],"categories":[],"categories_nodes":[],"categories_segments":[],"categories_sizes":[],"default_left":[0,0,0,0,0,0,0,0,0,0,0,0,0,0,0],"id":27,"left_children":[1,3,5,7,9,11,13,-1,-1,-1,-1,-1,-1,-1,-1],"loss_changes":[3.1851102E6,9.126631E5,2.579405E5,9.3840256E5,4.662565E5,3.7240825E5,4.1625547E5,0E0,0E0,0E0,0E0,0E0,0E0,0E0,0E0],"parents":[2147483647,0,0,1,1,2,2,3,3,4,4,5,5,6,6],"right_children":[2,4,6,8,10,12,14,-1,-1,-1,-1,-1,-1,-1,-1],"split_conditions":[7.1831E3,5.917648E6,8.660254E-1,1.2246469E-16,1E0,4.2624633E12,7.8178E3,1.5742259E1,-2.2199903E1,2.0341436E1,5.864634E1,-1.6955128E1,-4.3397747E1,-2.176532E1,8.096063E0],"split_indices":[0,3,9,8,9,1,0,0,0,0,0,0,0,0,0],"split_type":[0,0,0,0,0,0,0,0,0,0,0,0,0,0,0],"sum_hessian":[1.11E2,6.2E1,4.9E1,2.5E1,3.7E1,3.2E1,1.7E1,1.5E1,1E1,3.4E1,3E0,2.5E1,7E0,9E0,8E0],"tree_param":{"num_deleted":"0","num_feature":"10","num_nodes":"15","size_leaf_vector":"1"}},{"base_weights":[8.834498E0,2.7095587E2,-8.537362E1,2.1667401E2,5.4247852E1,-7.273762E0,-1.8111705E2,5.5543165E0,2.4472069E1,1.1017374E1,-1.830409E1,-3.740929E1,-1.1008372E1],"categories":[],"categories_nodes":[],"categories_segments":[],"categories_sizes":[],"default_left":[0,0,0,0,0,0,0,0,0,0,0,0,0],"id":28,"left_children":[1,3,5,7,-1,9,11,-1,-1,-1,-1,-1,-1],"loss_changes":[2.6159985E6,2.9514412E5,5.8193125E5,9.9387125E4,0E0,9.284763E5,4.385885E5,0E0,0E0,0E0,0E0,0E0,0E0],"parents":[2147483647,0,0,1,1,2,2,3,3,5,5,6,6],"right_children":[2,4,6,8,-1,10,12,-1,-1,-1,-1,-1,-1],"split_conditions":[2.3477E2,1E0,3.4963868E0,1.2134E2,5.4247852E1,5.179E2,4.2369E2,5.5543165E0,2.4472069E1,1.1017374E1,-1.830409E1,-3.740929E1,-1.1008372E1],"split_indices":[7,9,2,7,0,7,7,0,0,0,0,0,0],"split_type":[0,0,0,0,0,0,0,0,0,0,0,0,0],"sum_hessian":[1.04E2,2.7E1,7.7E1,2.4E1,3E0,4.3E1,3.4E1,4E0,2E1,2.6E1,1.7E1,8E0,2.6E1],"tree_param":{"num_deleted":"0","num_feature":"10","num_nodes":"13","size_leaf_vector":"1"}},{"base_weights":[4.5485015E0,1.27860146E2,-1.59121E2,3.0528662E2,6.3694633E1,-2.5518509E1,-1.21068184E2,8.933022E0,4.149601E1,-1.7293757E0,1.9248125E1,-5.8904777E0,-2.626449E1],"categories":[],"categories_nodes":[],"categories_segments":[],"categories_sizes":[],"default_left":[0,0,0,0,0,0,0,0,0,0,0,0,0],"id":29,"left_children":[1,3,5,7,9,-1,11,-1,-1,-1,-1,-1,-1],"loss_changes":[2.3009515E6,7.20558E5,1.4822512E5,3.6557125E5,5.144095E5,0E0,3.1016194E5,0E0,0E0,0E0,0E0,0E0,0E0],"parents":[2147483647,0,0,1,1,2,2,3,3,4,4,6,6],"right_children":[2,4,6,8,10,-1,12,-1,-1,-1,-1,-1,-1],"split_conditions":[7.1831E3,1.2855E2,4.338577E11,1.2529E2,4.2369E2,-2.5518509E1,4.2624633E12,8.933022E0,4.149601E1,-1.7293757E0,1.9248125E1,-5.8904777E0,-2.626449E1],"split_indices":[0,7,1,7,7,0,1,0,0,0,0,0,0],"split_type":[0,0,0,0,0,0,0,0,0,0,0,0,0],"sum_hessian":[1.12E2,6.4E1,4.8E1,1.6E1,4.8E1,1.2E1,3.6E1,6E0,1E1,3E1,1.8E1,2.6E1,1E1],"tree_param":{"num_deleted":"0","num_feature":"10","num_nodes":"13","size_leaf_vector":"1"}},{"base_weights":[6.527743E0,2.1759627E2,-7.637925E1,1.7367152E2,4.7067043E1,-1.7764135E1,-1.7682722E2,-8.497722E-2,1.8712893E1,8.146506E0,-1.8917463E1,-8.339225E0,-5.2109596E1],"categories":[],"categories_nodes":[],"categories_segments":[],"categories_sizes":[],"default_left":[0,0,0,0,0,0,0,0,0,0,0,0,0],"id":30,"left_children":[1,3,5,7,-1,9,11,-1,-1,-1,-1,-1,-1],"loss_changes":[1.924017E6,2.6286075E5,4.6199256E5,6.5919875E4,0E0,8.828662E5,8.8938025E5,0E0,0E0,0E0,0E0,0E0,0E0],"parents":[2147483647,0,0,1,1,2,2,3,3,5,5,6,6],"right_children":[2,4,6,8,-1,10,12,-1,-1,-1,-1,-1,-1],"split_conditions":[2.3296E2,1E0,5E-1,-8.660254E-1,4.7067043E1,4.2530456E0,4.2624633E12,-8.497722E-2,1.8712893E1,8.146506E0,-1.8917463E1,-8.339225E0,-5.2109596E1],"split_indices":[7,9,8,8,0,2,1,0,0,0,0,0,0],"split_type":[0,0,0,0,0,0,0,0,0,0,0,0,0],"sum_hessian":[1.08E2,3E1,7.8E1,2.7E1,3E0,5E1,2.8E1,2E0,2.5E1,3.2E1,1.8E1,2.3E1,5E0],"tree_param":{"num_deleted":"0","num_feature":"10","num_nodes":"13","size_leaf_vector":"1"}},{"base_weights":[1.720888E1,1.261897E2,-1.21036415E2,2.4740361E2,7.865E1,-1.8943439E2,-6.2972427E1,1.2546023E1,4.0368557E1,1.2087752E0,1.7260225E1,-2.1579472E1,-1.3622252E1,-1.0484598E1,2.1448034E1],"categories":[],"categories_nodes":[],"categories_segments":[],"categories_sizes":[],"default_left":[0,0,0,0,0,0,0,0,0,0,0,0,0,0,0],"id":31,"left_children":[1,3,5,7,9,11,13,-1,-1,-1,-1,-1,-1,-1,-1],"loss_changes":[1.672543E6,3.3781506E5,1.8267244E5,2.733318E5,2.8558262E5,1.4628125E3,3.477895E5,0E0,0E0,0E0,0E0,0E0,0E0,0E0,0E0],"parents":[2147483647,0,0,1,1,2,2,3,3,4,4,5,5,6,6],"right_children":[2,4,6,8,10,12,14,-1,-1,-1,-1,-1,-1,-1,-1],"split_conditions":[7.1831E3,1.2855E2,7.8178E3,5E-1,4.2369E2,4.338577E11,1E0,1.2546023E1,4.0368557E1,1.2087752E0,1.7260225E1,-2.1579472E1,-1.3622252E1,-1.0484598E1,2.1448034E1],"split_indices":[0,7,0,9,7,1,9,0,0,0,0,0,0,0,0],"split_type":[0,0,0,0,0,0,0,0,0,0,0,0,0,0,0],"sum_hessian":[1.09E2,6.1E1,4.8E1,1.6E1,4.5E1,2.1E1,2.7E1,1E1,6E0,2.7E1,1.8E1,1.2E1,9E0,2.4E1,3E0],"tree_param":{"num_deleted":"0","num_feature":"10","num_nodes":"15","size_leaf_vector":"1"}},{"base_weights":[7.98951E0,1.7256679E2,-5.555823E1,1.4529623E2,3.8775E1,-3.5310928E2,-3.1957401E1,-4.361206E-1,1.6208637E1,-1.1692998E1,-7.6700294E1,1.0654434E1,-9.929869E0],"categories":[],"categories_nodes":[],"categories_segments":[],"categories_sizes":[],"default_left":[0,0,0,0,0,0,0,0,0,0,0,0,0],"id":32,"left_children":[1,3,5,7,-1,9,11,-1,-1,-1,-1,-1,-1],"loss_changes":[1.2018581E6,1.3144262E5,5.71579E5,7.6089875E4,0E0,4.9683312E5,7.3807675E5,0E0,0E0,0E0,0E0,0E0,0E0],"parents":[2147483647,0,0,1,1,2,2,3,3,5,5,6,6],"right_children":[2,4,6,8,-1,10,12,-1,-1,-1,-1,-1,-1],"split_conditions":[2.3477E2,1E0,2.4181E2,1.2134E2,3.8775E1,2.396E2,7.1831E3,-4.361206E-1,1.6208637E1,-1.1692998E1,-7.6700294E1,1.0654434E1,-9.929869E0],"split_indices":[7,9,7,7,0,7,0,0,0,0,0,0,0],"split_type":[0,0,0,0,0,0,0,0,0,0,0,0,0],"sum_hessian":[1.13E2,3.1E1,8.2E1,2.9E1,2E0,5E0,7.7E1,3E0,2.6E1,4E0,1E0,2.5E1,5.2E1],"tree_param":{"num_deleted":"0","num_feature":"10","num_nodes":"13","size_leaf_vector":"1"}},{"base_weights":[3.380934E0,1.6723886E2,-5.7130695E1,1.3144124E2,3.7601257E1,-2.4144592E1,-2.203366E2,1.7490138E0,1.4970433E1,2.5199556E0,-1.4283065E1,-7.286529E1,-1.2518513E1],"categories":[],"categories_nodes":[],"categories_segments":[],"categories_sizes":[],"default_left":[0,0,0,0,0,0,0,0,0,0,0,0,0],"id":33,"left_children":[1,3,5,7,-1,9,11,-1,-1,-1,-1,-1,-1],"loss_changes":[1.1398998E6,1.8225819E5,4.468963E5,5.5652438E4,0E0,4.1940803E5,5.85922E5,0E0,0E0,0E0,0E0,0E0,0E0],"parents":[2147483647,0,0,1,1,2,2,3,3,5,5,6,6],"right_children":[2,4,6,8,-1,10,12,-1,-1,-1,-1,-1,-1],"split_conditions":[2.3296E2,1E0,8.660254E-1,1.2134E2,3.7601257E1,4.2530456E0,6.2934E3,1.7490138E0,1.4970433E1,2.5199556E0,-1.4283065E1,-7.286529E1,-1.2518513E1],"split_indices":[7,9,8,7,0,2,0,0,0,0,0,0,0],"split_type":[0,0,0,0,0,0,0,0,0,0,0,0,0],"sum_hessian":[1.13E2,3E1,8.3E1,2.7E1,3E0,7E1,1.3E1,4E0,2.3E1,5E1,2E1,1E0,1.2E1],"tree_param":{"num_deleted":"0","num_feature":"10","num_nodes":"13","size_leaf_vector":"1"}},{"base_weights":[-1.5625533E1,1.4199403E2,-6.797937E1,1.6090918E1,1.6230743E2,-1.5341696E0,-1.8152974E2,1.970778E1,-1.702596E1,2.2532963E1,8.050777E0,8.010497E0,-1.3363876E1,-1.1080554E1,-4.577464E1],"categories":[],"categories_nodes":[],"categories_segments":[],"categories_sizes":[],"default_left":[0,0,0,0,0,0,0,0,0,0,0,0,0,0,0],"id":34,"left_children":[1,3,5,7,9,11,13,-1,-1,-1,-1,-1,-1,-1,-1],"loss_changes":[9.256235E5,6.8998875E4,6.3349125E5,2.0218938E5,1.05583875E5,5.930899E5,5.548704E5,0E0,0E0,0E0,0E0,0E0,0E0,0E0,0E0],"parents":[2147483647,0,0,1,1,2,2,3,3,4,4,5,5,6,6],"right_children":[2,4,6,8,10,12,14,-1,-1,-1,-1,-1,-1,-1,-1],"split_conditions":[2.3296E2,1.2134E2,5E-1,1.1981E2,1.2855E2,4.2530456E0,4.2624633E12,1.970778E1,-1.702596E1,2.2532963E1,8.050777E0,8.010497E0,-1.3363876E1,-1.1080554E1,-4.577464E1],"split_indices":[7,7,8,7,7,2,1,0,0,0,0,0,0,0,0],"split_type":[0,0,0,0,0,0,0,0,0,0,0,0,0,0,0],"sum_hessian":[1.1E2,2.7E1,8.3E1,4E0,2.3E1,5.3E1,3E1,2E0,2E0,1.2E1,1.1E1,3.3E1,2E1,2.5E1,5E0],"tree_param":{"num_deleted":"0","num_feature":"10","num_nodes":"15","size_leaf_vector":"1"}},{"base_weights":[1.8849927E0,1.3641656E2,-4.858791E1,1.0254999E2,3.3091187E1,1.6458815E1,-1.2091479E2,1.5666689E1,7.1518297E0,-7.9922013E0,1.3129287E1,-8.156515E0,-5.528056E1],"categories":[],"categories_nodes":[],"categories_segments":[],"categories_sizes":[],"default_left":[0,0,0,0,0,0,0,0,0,0,0,0,0],"id":35,"left_children":[1,3,5,7,-1,9,11,-1,-1,-1,-1,-1,-1],"loss_changes":[7.467599E5,1.6367175E5,3.7836025E5,3.4137625E4,0E0,4.8640862E5,6.007107E5,0E0,0E0,0E0,0E0,0E0,0E0],"parents":[2147483647,0,0,1,1,2,2,3,3,5,5,6,6],"right_children":[2,4,6,8,-1,10,12,-1,-1,-1,-1,-1,-1],"split_conditions":[2.3296E2,1E0,3.4963868E0,-5E-1,3.3091187E1,5E-1,1E0,1.5666689E1,7.1518297E0,-7.9922013E0,1.3129287E1,-8.156515E0,-5.528056E1],"split_indices":[7,9,2,9,0,9,8,0,0,0,0,0,0],"split_type":[0,0,0,0,0,0,0,0,0,0,0,0,0],"sum_hessian":[1.08E2,2.9E1,7.9E1,2.6E1,3E0,4.2E1,3.7E1,8E0,1.8E1,2.3E1,1.9E1,3.5E1,2E0],"tree_param":{"num_deleted":"0","num_feature":"10","num_nodes":"13","size_leaf_vector":"1"}},{"base_weights":[-3.5905414E0,6.508043E1,-8.834898E1,-9.8217995E1,9.4115685E1,-5.1101833E1,-1.8313774E2,3.732216E0,-6.590397E1,7.828754E0,2.3357403E1,-1.2192034E1,6.561457E0,-4.8935142E-1,-4.1998116E1],"categories":[],"categories_nodes":[],"categories_segments":[],"categories_sizes":[],"default_left":[0,0,0,0,0,0,0,0,0,0,0,0,0,0,0],"id":36,"left_children":[1,3,5,7,9,11,13,-1,-1,-1,-1,-1,-1,-1,-1],"loss_changes":[6.6345994E5,3.0795278E5,1.7070247E5,7.847353E5,1.00911875E5,3.2209562E5,5.889683E5,0E0,0E0,0E0,0E0,0E0,0E0,0E0,0E0],"parents":[2147483647,0,0,1,1,2,2,3,3,4,4,5,5,6,6],"right_children":[2,4,6,8,10,12,14,-1,-1,-1,-1,-1,-1,-1,-1],"split_conditions":[7.1831E3,2.5519497E11,4.2624633E12,8.660254E-1,1E0,7.8178E3,1.2246469E-16,3.732216E0,-6.590397E1,7.828754E0,2.3357403E1,-1.2192034E1,6.561457E0,-4.8935142E-1,-4.1998116E1],"split_indices":[0,1,1,8,9,0,8,0,0,0,0,0,0,0,0],"split_type":[0,0,0,0,0,0,0,0,0,0,0,0,0,0,0],"sum_hessian":[1.12E2,6.2E1,5E1,9E0,5.3E1,3.7E1,1.3E1,8E0,1E0,4.9E1,4E0,2.3E1,1.4E1,8E0,5E0],"tree_param":{"num_deleted":"0","num_feature":"10","num_nodes":"15","size_leaf_vector":"1"}},{"base_weights":[-9.9054575E0,1.02667725E2,-5.3954357E1,7.2442795E1,2.8857533E1,1.0838269E1,-1.357176E2,2.2735327E1,5.828488E0,-9.046776E0,1.0325053E1,-8.134067E0,-3.8498272E1],"categories":[],"categories_nodes":[],"categories_segments":[],"categories_sizes":[],"default_left":[0,0,0,0,0,0,0,0,0,0,0,0,0],"id":37,"left_children":[1,3,5,7,-1,9,11,-1,-1,-1,-1,-1,-1],"loss_changes":[5.4604044E5,1.5328516E5,4.1998575E5,4.8158625E4,0E0,4.3062722E5,4.4308494E5,0E0,0E0,0E0,0E0,0E0,0E0],"parents":[2147483647,0,0,1,1,2,2,3,3,5,5,6,6],"right_children":[2,4,6,8,-1,10,12,-1,-1,-1,-1,-1,-1],"split_conditions":[2.3477E2,1E0,1.2246469E-16,1.1981E2,2.8857533E1,5.0543952E11,4.2624633E12,2.2735327E1,5.828488E0,-9.046776E0,1.0325053E1,-8.134067E0,-3.8498272E1],"split_indices":[7,9,8,7,0,1,1,0,0,0,0,0,0],"split_type":[0,0,0,0,0,0,0,0,0,0,0,0,0],"sum_hessian":[1.08E2,3E1,7.8E1,2.7E1,3E0,4.4E1,3.4E1,1E0,2.6E1,2.1E1,2.3E1,2.9E1,5E0],"tree_param":{"num_deleted":"0","num_feature":"10","num_nodes":"13","size_leaf_vector":"1"}},{"base_weights":[-3.536461E0,1.1245808E2,-5.1696056E1,8.727343E1,2.6693226E1,-2.5992114E2,-3.0438707E1,-1.0094824E0,1.0325614E1,-9.590113E0,-6.2202065E1,6.2588973E0,-8.2357855E0],"categories":[],"categories_nodes":[],"categories_segments":[],"categories_sizes":[],"default_left":[0,0,0,0,0,0,0,0,0,0,0,0,0],"id":38,"left_children":[1,3,5,7,-1,9,11,-1,-1,-1,-1,-1,-1],"loss_changes":[6.091287E5,1.0119597E5,3.3291444E5,4.617242E4,0E0,3.5608844E5,3.4807888E5,0E0,0E0,0E0,0E0,0E0,0E0],"parents":[2147483647,0,0,1,1,2,2,3,3,5,5,6,6],"right_children":[2,4,6,8,-1,10,12,-1,-1,-1,-1,-1,-1],"split_conditions":[2.3477E2,1E0,2.4181E2,1.2134E2,2.6693226E1,2.396E2,7.1831E3,-1.0094824E0,1.0325614E1,-9.590113E0,-6.2202065E1,6.2588973E0,-8.2357855E0],"split_indices":[7,9,7,7,0,7,0,0,0,0,0,0,0],"split_type":[0,0,0,0,0,0,0,0,0,0,0,0,0],"sum_hessian":[1.07E2,3.1E1,7.6E1,2.8E1,3E0,6E0,7E1,4E0,2.4E1,5E0,1E0,2.5E1,4.5E1],"tree_param":{"num_deleted":"0","num_feature":"10","num_nodes":"13","size_leaf_vector":"1"}},{"base_weights":[-4.988171E0,9.508195E1,-4.854453E1,1.4054144E2,4.1355297E1,-2.7973486E2,-2.8877588E1,1.92567E1,-3.323838E0,1.6450958E0,2.1991236E1,-9.931401E0,-5.9091957E1,-1.7321344E-1,-1.3372454E1],"categories":[],"categories_nodes":[],"categories_segments":[],"categories_sizes":[],"default_left":[0,0,0,0,0,0,0,0,0,0,0,0,0,0,0],"id":39,"left_children":[1,3,5,7,9,11,13,-1,-1,-1,-1,-1,-1,-1,-1],"loss_changes":[4.8843025E5,7.722903E4,3.4657275E5,1.6913844E5,7.19786E4,2.7817866E5,2.0753502E5,0E0,0E0,0E0,0E0,0E0,0E0,0E0,0E0],"parents":[2147483647,0,0,1,1,2,2,3,3,4,4,5,5,6,6],"right_children":[2,4,6,8,10,12,14,-1,-1,-1,-1,-1,-1,-1,-1],"split_conditions":[2.3477E2,1.2855E2,2.4181E2,8.660254E-1,8.660254E-1,2.396E2,4.2624633E12,1.92567E1,-3.323838E0,1.6450958E0,2.1991236E1,-9.931401E0,-5.9091957E1,-1.7321344E-1,-1.3372454E1],"split_indices":[7,7,7,8,8,7,1,0,0,0,0,0,0,0,0],"split_type":[0,0,0,0,0,0,0,0,0,0,0,0,0,0,0],"sum_hessian":[1.1E2,3.3E1,7.7E1,1.7E1,1.6E1,5E0,7.2E1,1.3E1,4E0,1.5E1,1E0,4E0,1E0,5.8E1,1.4E1],"tree_param":{"num_deleted":"0","num_feature":"10","num_nodes":"15","size_leaf_vector":"1"}},{"base_weights":[8.3428335E0,-7.8569046E1,5.4917236E1,4.295764E1,-1.0938438E2,1.11564514E2,-9.40635E1,-1.0596052E0,2.0891676E1,-7.319285E0,-5.6137356E1,1.760994E1,2.4358106E0,4.3414083E0,-2.8852194E1],"categories":[],"categories_nodes":[],"categories_segments":[],"categories_sizes":[],"default_left":[0,0,0,0,0,0,0,0,0,0,0,0,0,0,0],"id":40,"left_children":[1,3,5,7,9,11,13,-1,-1,-1,-1,-1,-1,-1,-1],"loss_changes":[4.1719744E5,1.3951475E5,5.759309E5,7.331548E4,4.3329856E5,2.7147544E5,5.2046578E5,0E0,0E0,0E0,0E0,0E0,0E0,0E0,0E0],"parents":[2147483647,0,0,1,1,2,2,3,3,4,4,5,5,6,6],"right_children":[2,4,6,8,10,12,14,-1,-1,-1,-1,-1,-1,-1,-1],"split_conditions":[5.0543952E11,2.3477E2,5.179E2,8.660254E-1,1E0,1.2246469E-16,4.2624633E12,-1.0596052E0,2.0891676E1,-7.319285E0,-5.6137356E1,1.760994E1,2.4358106E0,4.3414083E0,-2.8852194E1],"split_indices":[1,7,7,8,8,8,1,0,0,0,0,0,0,0,0],"split_type":[0,0,0,0,0,0,0,0,0,0,0,0,0,0,0],"sum_hessian":[1.01E2,3.5E1,6.6E1,7E0,2.8E1,4.8E1,1.8E1,6E0,1E0,2.7E1,1E0,2.7E1,2.1E1,1.1E1,7E0],"tree_param":{"num_deleted":"0","num_feature":"10","num_nodes":"15","size_leaf_vector":"1"}},{"base_weights":[-3.1740877E-1,8.547305E1,-3.643553E1,6.407203E1,2.1926222E1,-2.4902946E2,-1.795667E1,1.123466E1,2.8329427E0,-8.551343E0,-5.3330482E1,4.0429688E1,-2.9764535E0],"categories":[],"categories_nodes":[],"categories_segments":[],"categories_sizes":[],"default_left":[0,0,0,0,0,0,0,0,0,0,0,0,0],"id":41,"left_children":[1,3,5,7,-1,9,11,-1,-1,-1,-1,-1,-1],"loss_changes":[3.3466344E5,7.7574625E4,2.9409375E5,4.6855586E4,0E0,2.3329678E5,3.660335E5,0E0,0E0,0E0,0E0,0E0,0E0],"parents":[2147483647,0,0,1,1,2,2,3,3,5,5,6,6],"right_children":[2,4,6,8,-1,10,12,-1,-1,-1,-1,-1,-1],"split_conditions":[2.3477E2,1E0,2.4181E2,-5E-1,2.1926222E1,2.396E2,2.4775E2,1.123466E1,2.8329427E0,-8.551343E0,-5.3330482E1,4.0429688E1,-2.9764535E0],"split_indices":[7,9,7,9,0,7,7,0,0,0,0,0,0],"split_type":[0,0,0,0,0,0,0,0,0,0,0,0,0],"sum_hessian":[1.06E2,3.1E1,7.5E1,2.8E1,3E0,5E0,7E1,1.1E1,1.7E1,4E0,1E0,1E0,6.9E1],"tree_param":{"num_deleted":"0","num_feature":"10","num_nodes":"13","size_leaf_vector":"1"}},{"base_weights":[9.8964596E-1,8.895253E1,-2.20119E1,4.3056778E1,2.1181438E2,-5.5397544E0,-1.1661737E2,-1.3849756E1,8.860082E0,2.5428186E1,8.458627E0,5.078805E0,-5.2347693E0,-9.365954E-1,-2.8634644E1],"categories":[],"categories_nodes":[],"categories_segments":[],"categories_sizes":[],"default_left":[0,0,0,0,0,0,0,0,0,0,0,0,0,0,0],"id":42,"left_children":[1,3,5,7,9,11,13,-1,-1,-1,-1,-1,-1,-1,-1],"loss_changes":[2.2451908E5,1.2057319E5,1.364892E5,1.6110792E5,1.0909594E4,2.0303933E5,2.33966E5,0E0,0E0,0E0,0E0,0E0,0E0,0E0,0E0],"parents":[2147483647,0,0,1,1,2,2,3,3,4,4,5,5,6,6],"right_children":[2,4,6,8,10,12,14,-1,-1,-1,-1,-1,-1,-1,-1],"split_conditions":[1.3549E2,5E-1,4.2624633E12,1.2134E2,1.2246469E-16,3.4963868E0,1.2246469E-16,-1.3849756E1,8.860082E0,2.5428186E1,8.458627E0,5.078805E0,-5.2347693E0,-9.365954E-1,-2.8634644E1],"split_indices":[7,9,1,7,8,2,8,0,0,0,0,0,0,0,0],"split_type":[0,0,0,0,0,0,0,0,0,0,0,0,0,0,0],"sum_hessian":[1.09E2,2.2E1,8.7E1,1.7E1,5E0,7.5E1,1.2E1,3E0,1.4E1,3E0,2E0,3.4E1,4.1E1,8E0,4E0],"tree_param":{"num_deleted":"0","num_feature":"10","num_nodes":"15","size_leaf_vector":"1"}},{"base_weights":[-7.5208387E0,-1.4290788E2,1.1084976E1,-1.1022385E1,-2.9493723E1,3.7433884E1,-7.804703E1,1.4595865E1,-1.3440274E1,9.047196E0,-1.804938E0,-4.0681133E0,-1.1171465E1],"categories":[],"categories_nodes":[],"categories_segments":[],"categories_sizes":[],"default_left":[0,0,0,0,0,0,0,0,0,0,0,0,0],"id":43,"left_children":[1,3,5,7,-1,9,11,-1,-1,-1,-1,-1,-1],"loss_changes":[2.7111566E5,2.5740516E5,2.2603205E5,1.7456425E5,0E0,2.1939466E5,2.3131781E4,0E0,0E0,0E0,0E0,0E0,0E0],"parents":[2147483647,0,0,1,1,2,2,3,3,5,5,6,6],"right_children":[2,4,6,8,-1,10,12,-1,-1,-1,-1,-1,-1],"split_conditions":[1.3942518E0,1.2246469E-16,5.065024E0,5.179E2,-2.9493723E1,1.2246469E-16,8.5375E0,1.4595865E1,-1.3440274E1,9.047196E0,-1.804938E0,-4.0681133E0,-1.1171465E1],"split_indices":[2,8,2,7,0,8,2,0,0,0,0,0,0],"split_type":[0,0,0,0,0,0,0,0,0,0,0,0,0],"sum_hessian":[1.06E2,1.2E1,9.4E1,7E0,5E0,7.3E1,2.1E1,3E0,4E0,3.7E1,3.6E1,1.1E1,1E1],"tree_param":{"num_deleted":"0","num_feature":"10","num_nodes":"13","size_leaf_vector":"1"}},{"base_weights":[1.5582318E1,3.7022083E1,-6.887688E1,-2.1374697E1,8.318858E1,-1.063425E2,-3.7640915E1,-1.3771326E1,5.5848074E-1,2.45853E0,1.27322445E1,-6.186081E0,-1.2955569E1,-5.5487013E0,-2.3544095E0],"categories":[],"categories_nodes":[],"categories_segments":[],"categories_sizes":[],"default_left":[0,0,0,0,0,0,0,0,0,0,0,0,0,0,0],"id":44,"left_children":[1,3,5,7,9,11,13,-1,-1,-1,-1,-1,-1,-1,-1],"loss_changes":[1.8725008E5,2.2284805E5,2.0572938E4,1.16817016E5,1.15843625E5,1.2786406E3,1.9640586E3,0E0,0E0,0E0,0E0,0E0,0E0,0E0,0E0],"parents":[2147483647,0,0,1,1,2,2,3,3,4,4,5,5,6,6],"right_children":[2,4,6,8,10,12,14,-1,-1,-1,-1,-1,-1,-1,-1],"split_conditions":[5.065024E0,-1.8369701E-16,4.9285E2,1.4750348E0,4.2369E2,4.7798E2,4.338577E11,-1.3771326E1,5.5848074E-1,2.45853E0,1.27322445E1,-6.186081E0,-1.2955569E1,-5.5487013E0,-2.3544095E0],"split_indices":[2,9,7,2,7,7,1,0,0,0,0,0,0,0,0],"split_type":[0,0,0,0,0,0,0,0,0,0,0,0,0,0,0],"sum_hessian":[1.01E2,8.1E1,2E1,3.6E1,4.5E1,8E0,1.2E1,6E0,3E1,2E1,2.5E1,4E0,4E0,4E0,8E0],"tree_param":{"num_deleted":"0","num_feature":"10","num_nodes":"15","size_leaf_vector":"1"}},{"base_weights":[-1.3737354E1,1.1291614E2,-2.9591087E1,1.0440674E1,1.8462137E2,-9.879863E0,-1.0791599E2,-8.257911E0,7.759534E0,2.113629E1,7.851172E0,-6.652875E0,2.974284E0,-1.3400239E0,-2.3620012E1],"categories":[],"categories_nodes":[],"categories_segments":[],"categories_sizes":[],"default_left":[0,0,0,0,0,0,0,0,0,0,0,0,0,0,0],"id":45,"left_children":[1,3,5,7,9,11,13,-1,-1,-1,-1,-1,-1,-1,-1],"loss_changes":[2.1618194E5,8.6248766E4,1.4560239E5,4.3888023E4,3.26825E3,1.7481156E5,2.2720738E5,0E0,0E0,0E0,0E0,0E0,0E0,0E0,0E0],"parents":[2147483647,0,0,1,1,2,2,3,3,4,4,5,5,6,6],"right_children":[2,4,6,8,10,12,14,-1,-1,-1,-1,-1,-1,-1,-1],"split_conditions":[1.2797E2,5E-1,5.1882E2,1.2134E2,1.2246469E-16,4.2369E2,4.2624633E12,-8.257911E0,7.759534E0,2.113629E1,7.851172E0,-6.652875E0,2.974284E0,-1.3400239E0,-2.3620012E1],"split_indices":[7,9,7,7,8,7,1,0,0,0,0,0,0,0,0],"split_type":[0,0,0,0,0,0,0,0,0,0,0,0,0,0,0],"sum_hessian":[1.05E2,1.1E1,9.4E1,5E0,6E0,7.6E1,1.8E1,2E0,3E0,4E0,2E0,3.1E1,4.5E1,1.1E1,7E0],"tree_param":{"num_deleted":"0","num_feature":"10","num_nodes":"15","size_leaf_vector":"1"}},{"base_weights":[-1.314641E1,1.8461946E1,-5.5235348E1,-4.762871E1,9.758991E1,-2.4480087E1,-2.6131626E1,7.4696007E0,-7.0506034E0,7.100525E-1,1.9403566E1,7.850364E0,-1.129668E1],"categories":[],"categories_nodes":[],"categories_segments":[],"categories_sizes":[],"default_left":[0,0,0,0,0,0,0,0,0,0,0,0,0],"id":46,"left_children":[1,3,5,7,9,11,-1,-1,-1,-1,-1,-1,-1],"loss_changes":[1.4602922E5,3.3411412E5,2.914923E5,1.0321267E5,2.5171444E5,3.9160134E5,0E0,0E0,0E0,0E0,0E0,0E0,0E0],"parents":[2147483647,0,0,1,1,2,2,3,3,4,4,5,5],"right_children":[2,4,6,8,10,12,-1,-1,-1,-1,-1,-1,-1],"split_conditions":[1.2246469E-16,5.0901785E11,4.2624633E12,2.5519497E11,6.123234E-17,3.4963868E0,-2.6131626E1,7.4696007E0,-7.0506034E0,7.100525E-1,1.9403566E1,7.850364E0,-1.129668E1],"split_indices":[8,1,1,1,9,2,0,0,0,0,0,0,0],"split_type":[0,0,0,0,0,0,0,0,0,0,0,0,0],"sum_hessian":[1.08E2,6.2E1,4.6E1,3.4E1,2.8E1,4.1E1,5E0,5E0,2.9E1,1.5E1,1.3E1,1.9E1,2.2E1],"tree_param":{"num_deleted":"0","num_feature":"10","num_nodes":"13","size_leaf_vector":"1"}},{"base_weights":[-2.660384E0,3.0985558E1,-4.466665E1,5.1122448E1,-7.2515755E1,-7.078049E1,4.414249E0,2.830921E0,1.1007048E1,-4.9537415E1,1.9307495E0,-4.4084325E0,-1.3044284E1,-5.8069153E0,8.029239E0],"categories":[],"categories_nodes":[],"categories_segments":[],"categories_sizes":[],"default_left":[0,0,0,0,0,0,0,0,0,0,0,0,0,0,0],"id":47,"left_children":[1,3,5,7,9,11,13,-1,-1,-1,-1,-1,-1,-1,-1],"loss_changes":[1.6533152E5,1.3917983E5,6.696034E4,7.0847766E4,4.36675E5,4.840322E4,9.474387E4,0E0,0E0,0E0,0E0,0E0,0E0,0E0,0E0],"parents":[2147483647,0,0,1,1,2,2,3,3,4,4,5,5,6,6],"right_children":[2,4,6,8,10,12,14,-1,-1,-1,-1,-1,-1,-1,-1],"split_conditions":[7.1831E3,8.660254E-1,8.660254E-1,1.7344513E12,2.5519497E11,4.2624633E12,7.8178E3,2.830921E0,1.1007048E1,-4.9537415E1,1.9307495E0,-4.4084325E0,-1.3044284E1,-5.8069153E0,8.029239E0],"split_indices":[0,8,9,1,1,1,0,0,0,0,0,0,0,0,0],"split_type":[0,0,0,0,0,0,0,0,0,0,0,0,0,0,0],"sum_hessian":[1.15E2,6.4E1,5.1E1,5.4E1,1E1,3.3E1,1.8E1,4E1,1.4E1,1E0,9E0,2.4E1,9E0,1E1,8E0],"tree_param":{"num_deleted":"0","num_feature":"10","num_nodes":"15","size_leaf_vector":"1"}},{"base_weights":[2.2887497E0,1.18099335E2,-1.7036856E1,-9.629534E0,1.9569962E2,8.273623E0,-6.791637E1,-1.2059741E1,1.0374573E1,8.882361E0,2.2881453E1,-3.9393997E0,6.5198984E0,3.0152442E0,-2.135671E1],"categories":[],"categories_nodes":[],"categories_segments":[],"categories_sizes":[],"default_left":[0,0,0,0,0,0,0,0,0,0,0,0,0,0,0],"id":48,"left_children":[1,3,5,7,9,11,13,-1,-1,-1,-1,-1,-1,-1,-1],"loss_changes":[2.5044222E5,1.6047322E5,1.2418926E5,1.0057855E5,1.506775E4,1.7894572E5,4.63521E5,0E0,0E0,0E0,0E0,0E0,0E0,0E0,0E0],"parents":[2147483647,0,0,1,1,2,2,3,3,4,4,5,5,6,6],"right_children":[2,4,6,8,10,12,14,-1,-1,-1,-1,-1,-1,-1,-1],"split_conditions":[1.2855E2,1.2529E2,5E-1,6.123234E-17,1.7344513E12,5.0901785E11,3.4963868E0,-1.2059741E1,1.0374573E1,8.882361E0,2.2881453E1,-3.9393997E0,6.5198984E0,3.0152442E0,-2.135671E1],"split_indices":[7,7,8,9,1,1,2,0,0,0,0,0,0,0,0],"split_type":[0,0,0,0,0,0,0,0,0,0,0,0,0,0,0],"sum_hessian":[1.1E2,1.5E1,9.5E1,6E0,9E0,6.4E1,3.1E1,3E0,3E0,3E0,6E0,3.5E1,2.9E1,1.9E1,1.2E1],"tree_param":{"num_deleted":"0","num_feature":"10","num_nodes":"15","size_leaf_vector":"1"}},{"base_weights":[3.9569414E-1,1.7465876E1,-7.64399E1,3.248789E1,-6.640276E1,6.5228434E0,-2.0169939E2,1.1573641E1,1.5338373E0,-4.5992714E1,-7.526492E-2,-2.839009E0,2.1273901E1,-9.96874E0,-2.7878952E1],"categories":[],"categories_nodes":[],"categories_segments":[],"categories_sizes":[],"default_left":[0,0,0,0,0,0,0,0,0,0,0,0,0,0,0],"id":49,"left_children":[1,3,5,7,9,11,13,-1,-1,-1,-1,-1,-1,-1,-1],"loss_changes":[1.4429923E5,1.1554611E5,2.0915306E5,1.0815552E5,3.6134272E5,9.9634625E4,3.5121125E4,0E0,0E0,0E0,0E0,0E0,0E0,0E0,0E0],"parents":[2147483647,0,0,1,1,2,2,3,3,4,4,5,5,6,6],"right_children":[2,4,6,8,10,12,14,-1,-1,-1,-1,-1,-1,-1,-1],"split_conditions":[5.179E2,8.660254E-1,4.2624633E12,1.2855E2,2.5519497E11,1E0,-2.4492937E-16,1.1573641E1,1.5338373E0,-4.5992714E1,-7.526492E-2,-2.839009E0,2.1273901E1,-9.96874E0,-2.7878952E1],"split_indices":[7,8,1,7,1,9,8,0,0,0,0,0,0,0,0],"split_type":[0,0,0,0,0,0,0,0,0,0,0,0,0,0,0],"sum_hessian":[1.08E2,8.9E1,1.9E1,7.6E1,1.3E1,1.2E1,7E0,1.2E1,6.4E1,1E0,1.2E1,1.1E1,1E0,4E0,3E0],"tree_param":{"num_deleted":"0","num_feature":"10","num_nodes":"15","size_leaf_vector":"1"}},{"base_weights":[-8.057916E0,1.74128E1,-4.094421E1,-3.6060013E1,7.7660736E1,2.713307E1,-1.1953808E2,6.7597938E0,-6.159874E0,2.4533936E1,3.2505214E0,7.6593165E0,-1.9591795E1,1.3276018E-1,-2.9426935E1],"categories":[],"categories_nodes":[],"categories_segments":[],"categories_sizes":[],"default_left":[0,0,0,0,0,0,0,0,0,0,0,0,0,0,0],"id":50,"left_children":[1,3,5,7,9,11,13,-1,-1,-1,-1,-1,-1,-1,-1],"loss_changes":[9.0340164E4,1.9931966E5,2.5471488E5,9.152459E4,2.1160203E5,3.018412E5,4.6500897E5,0E0,0E0,0E0,0E0,0E0,0E0,0E0,0E0],"parents":[2147483647,0,0,1,1,2,2,3,3,4,4,5,5,6,6],"right_children":[2,4,6,8,10,12,14,-1,-1,-1,-1,-1,-1,-1,-1],"split_conditions":[1.2246469E-16,5.0901785E11,3.4963868E0,2.5519497E11,1.6956275E12,4.2624633E12,2.396E2,6.7597938E0,-6.159874E0,2.4533936E1,3.2505214E0,7.6593165E0,-1.9591795E1,1.3276018E-1,-2.9426935E1],"split_indices":[8,1,2,1,1,1,7,0,0,0,0,0,0,0,0],"split_type":[0,0,0,0,0,0,0,0,0,0,0,0,0,0,0],"sum_hessian":[1.06E2,6E1,4.6E1,3.2E1,2.8E1,2.5E1,2.1E1,6E0,2.6E1,5E0,2.3E1,2.1E1,4E0,1.3E1,8E0],"tree_param":{"num_deleted":"0","num_feature":"10","num_nodes":"15","size_leaf_vector":"1"}},{"base_weights":[-3.138326E0,2.600358E1,-4.0542446E1,-3.3478046E1,8.467259E1,-1.7203192E1,-2.049399E2,6.180385E0,-5.7843246E0,2.2489437E1,5.037618E0,6.4728312E0,-8.817645E0,-8.563119E0,-2.4318645E1],"categories":[],"categories_nodes":[],"categories_segments":[],"categories_sizes":[],"default_left":[0,0,0,0,0,0,0,0,0,0,0,0,0,0,0],"id":51,"left_children":[1,3,5,7,9,11,13,-1,-1,-1,-1,-1,-1,-1,-1],"loss_changes":[1.2204728E5,2.2268758E5,1.8448312E5,7.7864945E4,1.4256198E5,2.6156511E5,6.554547E3,0E0,0E0,0E0,0E0,0E0,0E0,0E0,0E0],"parents":[2147483647,0,0,1,1,2,2,3,3,4,4,5,5,6,6],"right_children":[2,4,6,8,10,12,14,-1,-1,-1,-1,-1,-1,-1,-1],"split_conditions":[1.2246469E-16,5.0901785E11,4.2624633E12,2.5519497E11,1.6956275E12,3.4963868E0,5.0763E2,6.180385E0,-5.7843246E0,2.2489437E1,5.037618E0,6.4728312E0,-8.817645E0,-8.563119E0,-2.4318645E1],"split_indices":[8,1,1,1,1,2,7,0,0,0,0,0,0,0,0],"split_type":[0,0,0,0,0,0,0,0,0,0,0,0,0,0,0],"sum_hessian":[1.1E2,6.2E1,4.8E1,3.1E1,3.1E1,4.3E1,5E0,6E0,2.5E1,5E0,2.6E1,2E1,2.3E1,2E0,3E0],"tree_param":{"num_deleted":"0","num_feature":"10","num_nodes":"15","size_leaf_vector":"1"}},{"base_weights":[-5.5971346E0,6.786008E1,-1.990836E1,-1.3840113E1,8.813434E1,2.311079E0,-5.154417E1,1.9347046E1,2.8121746E0,-3.3282666E0,6.1523933E0,9.2118216E-1,-1.839498E1],"categories":[],"categories_nodes":[],"categories_segments":[],"categories_sizes":[],"default_left":[0,0,0,0,0,0,0,0,0,0,0,0,0],"id":52,"left_children":[1,3,5,-1,7,9,11,-1,-1,-1,-1,-1,-1],"loss_changes":[1.15938625E5,8.747014E4,6.478867E4,0E0,1.0202467E5,1.1796607E5,3.0738306E5,0E0,0E0,0E0,0E0,0E0,0E0],"parents":[2147483647,0,0,1,1,2,2,4,4,5,5,6,6],"right_children":[2,4,6,-1,8,10,12,-1,-1,-1,-1,-1,-1],"split_conditions":[1.3272E2,-8.660254E-1,1.2246469E-16,-1.3840113E1,1.2246469E-16,1.9116E7,3.4963868E0,1.9347046E1,2.8121746E0,-3.3282666E0,6.1523933E0,9.2118216E-1,-1.839498E1],"split_indices":[7,8,8,0,8,4,2,0,0,0,0,0,0],"split_type":[0,0,0,0,0,0,0,0,0,0,0,0,0],"sum_hessian":[1.08E2,1.7E1,9.1E1,1E0,1.6E1,5.4E1,3.7E1,5E0,1.1E1,3.4E1,2E1,2.6E1,1.1E1],"tree_param":{"num_deleted":"0","num_feature":"10","num_nodes":"13","size_leaf_vector":"1"}},{"base_weights":[-3.5192516E0,7.8700833E0,-8.299322E1,-1.3943205E1,4.1227192E1,-1.9713271E0,-1.9069386E2,1.04427185E1,-2.6602826E0,2.3262644E0,1.587336E1,-1.0326485E1,9.971645E0,-8.0536585E0,-2.2563835E1],"categories":[],"categories_nodes":[],"categories_segments":[],"categories_sizes":[],"default_left":[0,0,0,0,0,0,0,0,0,0,0,0,0,0,0],"id":53,"left_children":[1,3,5,7,9,11,13,-1,-1,-1,-1,-1,-1,-1,-1],"loss_changes":[1.01125445E5,7.188241E4,1.2178959E5,9.268951E4,7.863448E4,1.03000016E5,4.924203E3,0E0,0E0,0E0,0E0,0E0,0E0,0E0,0E0],"parents":[2147483647,0,0,1,1,2,2,3,3,4,4,5,5,6,6],"right_children":[2,4,6,8,10,12,14,-1,-1,-1,-1,-1,-1,-1,-1],"split_conditions":[4.2624633E12,1.6956275E12,1.2246469E-16,-8.660254E-1,1E0,6.123234E-17,-5E-1,1.04427185E1,-2.6602826E0,2.3262644E0,1.587336E1,-1.0326485E1,9.971645E0,-8.0536585E0,-2.2563835E1],"split_indices":[1,1,8,8,9,9,9,0,0,0,0,0,0,0,0],"split_type":[0,0,0,0,0,0,0,0,0,0,0,0,0,0,0],"sum_hessian":[1.1E2,9.7E1,1.3E1,5.9E1,3.8E1,8E0,5E0,5E0,5.4E1,3.4E1,4E0,4E0,4E0,2E0,3E0],"tree_param":{"num_deleted":"0","num_feature":"10","num_nodes":"15","size_leaf_vector":"1"}},{"base_weights":[3.0163817E0,2.9323086E1,-3.0331211E1,-1.5543951E1,8.091468E1,2.7305603E1,-9.667307E1,4.806885E0,-2.8169222E0,2.0105932E1,4.750707E0,1.889982E1,-9.03216E-1,-4.3589283E1,-4.360963E0],"categories":[],"categories_nodes":[],"categories_segments":[],"categories_sizes":[],"default_left":[0,0,0,0,0,0,0,0,0,0,0,0,0,0,0],"id":54,"left_children":[1,3,5,7,9,11,13,-1,-1,-1,-1,-1,-1,-1,-1],"loss_changes":[9.738858E4,1.4477297E5,1.9000266E5,2.8660438E4,1.06846875E5,1.6034684E5,3.949948E5,0E0,0E0,0E0,0E0,0E0,0E0,0E0,0E0],"parents":[2147483647,0,0,1,1,2,2,3,3,4,4,5,5,6,6],"right_children":[2,4,6,8,10,12,14,-1,-1,-1,-1,-1,-1,-1,-1],"split_conditions":[1.2246469E-16,5.0901785E11,1.9116E7,2.5519497E11,1.6956275E12,1.4750348E0,4.2369E2,4.806885E0,-2.8169222E0,2.0105932E1,4.750707E0,1.889982E1,-9.03216E-1,-4.3589283E1,-4.360963E0],"split_indices":[8,1,4,1,1,2,7,0,0,0,0,0,0,0,0],"split_type":[0,0,0,0,0,0,0,0,0,0,0,0,0,0,0],"sum_hessian":[1.09E2,6.1E1,4.8E1,3.3E1,2.8E1,2.6E1,2.2E1,5E0,2.8E1,5E0,2.3E1,4E0,2.2E1,2E0,2E1],"tree_param":{"num_deleted":"0","num_feature":"10","num_nodes":"15","size_leaf_vector":"1"}},{"base_weights":[-1.9541234E0,1.0337409E1,-6.5351814E1,2.0768658E1,-5.5452473E1,4.7675376E0,-1.7622044E2,-1.0815002E0,5.86199E0,-6.632936E0,-1.4397137E0,-2.83572E0,1.8456984E1,-4.1128573E0,-1.91881E1],"categories":[],"categories_nodes":[],"categories_segments":[],"categories_sizes":[],"default_left":[0,0,0,0,0,0,0,0,0,0,0,0,0,0,0],"id":55,"left_children":[1,3,5,7,9,11,13,-1,-1,-1,-1,-1,-1,-1,-1],"loss_changes":[8.639359E4,6.4974832E4,1.4077278E5,9.7467914E4,4.850254E3,7.670473E4,6.9175156E3,0E0,0E0,0E0,0E0,0E0,0E0,0E0,0E0],"parents":[2147483647,0,0,1,1,2,2,3,3,4,4,5,5,6,6],"right_children":[2,4,6,8,10,12,14,-1,-1,-1,-1,-1,-1,-1,-1],"split_conditions":[5.1882E2,8.5375E0,4.2624633E12,4.2369E2,5.0983E2,1E0,-8.660254E-1,-1.0815002E0,5.86199E0,-6.632936E0,-1.4397137E0,-2.83572E0,1.8456984E1,-4.1128573E0,-1.91881E1],"split_indices":[7,2,1,7,7,9,8,0,0,0,0,0,0,0,0],"split_type":[0,0,0,0,0,0,0,0,0,0,0,0,0,0,0],"sum_hessian":[1.09E2,9.2E1,1.7E1,8E1,1.2E1,1.1E1,6E0,4.4E1,3.6E1,9E0,3E0,1E1,1E0,1E0,5E0],"tree_param":{"num_deleted":"0","num_feature":"10","num_nodes":"15","size_leaf_vector":"1"}},{"base_weights":[-4.125317E0,5.761743E1,-1.7502813E1,-1.3447852E1,7.4805565E1,-5.54716E1,8.5538304E-1,1.5434871E1,2.6220367E0,-1.7514982E0,-2.9781086E1,1.9219288E1,-1.1914706E0],"categories":[],"categories_nodes":[],"categories_segments":[],"categories_sizes":[],"default_left":[0,0,0,0,0,0,0,0,0,0,0,0,0],"id":56,"left_children":[1,3,5,-1,7,9,11,-1,-1,-1,-1,-1,-1],"loss_changes":[9.269041E4,7.609513E4,6.4174984E4,0E0,6.938069E4,2.707352E5,1.5622392E5,0E0,0E0,0E0,0E0,0E0,0E0],"parents":[2147483647,0,0,1,1,2,2,4,4,5,5,6,6],"right_children":[2,4,6,-1,8,10,12,-1,-1,-1,-1,-1,-1],"split_conditions":[1.3272E2,-8.660254E-1,4.2859E2,-1.3447852E1,1.2246469E-16,4.2226E2,5.917648E6,1.5434871E1,2.6220367E0,-1.7514982E0,-2.9781086E1,1.9219288E1,-1.1914706E0],"split_indices":[7,8,7,0,8,7,3,0,0,0,0,0,0],"split_type":[0,0,0,0,0,0,0,0,0,0,0,0,0],"sum_hessian":[1.1E2,1.9E1,9.1E1,1E0,1.8E1,2.9E1,6.2E1,6E0,1.2E1,2.6E1,3E0,3E0,5.9E1],"tree_param":{"num_deleted":"0","num_feature":"10","num_nodes":"13","size_leaf_vector":"1"}},{"base_weights":[1.630849E1,3.4320286E1,-5.4098392E1,4.72769E1,-3.846708E1,-2.5605812E0,-1.5041171E2,5.760593E-1,8.074819E0,-4.054126E1,2.0945086E0,-2.6189554E0,1.7593702E1,-6.787479E0,-1.8635893E1],"categories":[],"categories_nodes":[],"categories_segments":[],"categories_sizes":[],"default_left":[0,0,0,0,0,0,0,0,0,0,0,0,0,0,0],"id":57,"left_children":[1,3,5,7,9,11,13,-1,-1,-1,-1,-1,-1,-1,-1],"loss_changes":[1.4262181E5,8.5752555E4,1.1378175E5,1.05144766E5,3.1370578E5,7.209115E4,1.1086703E4,0E0,0E0,0E0,0E0,0E0,0E0,0E0,0E0],"parents":[2147483647,0,0,1,1,2,2,3,3,4,4,5,5,6,6],"right_children":[2,4,6,8,10,12,14,-1,-1,-1,-1,-1,-1,-1,-1],"split_conditions":[5.179E2,8.660254E-1,4.2624633E12,-1.8369701E-16,2.5519497E11,1E0,5.2559E2,5.760593E-1,8.074819E0,-4.054126E1,2.0945086E0,-2.6189554E0,1.7593702E1,-6.787479E0,-1.8635893E1],"split_indices":[7,8,1,9,1,9,7,0,0,0,0,0,0,0,0],"split_type":[0,0,0,0,0,0,0,0,0,0,0,0,0,0,0],"sum_hessian":[1.1E2,8.8E1,2.2E1,7.5E1,1.3E1,1.5E1,7E0,3.4E1,4.1E1,1E0,1.2E1,1.4E1,1E0,3E0,4E0],"tree_param":{"num_deleted":"0","num_feature":"10","num_nodes":"15","size_leaf_vector":"1"}},{"base_weights":[-5.566809E0,5.6246094E1,-1.4056181E1,-2.1311462E1,1.5028182E1,-5.7704525E1,7.305615E0,1.0767856E1,-8.225455E0,-2.2707438E0,-5.538086E1,1.2407915E1,-1.6616875E0],"categories":[],"categories_nodes":[],"categories_segments":[],"categories_sizes":[],"default_left":[0,0,0,0,0,0,0,0,0,0,0,0,0],"id":58,"left_children":[1,3,5,7,-1,9,11,-1,-1,-1,-1,-1,-1],"loss_changes":[5.6414395E4,9.801407E4,8.8067836E4,7.174545E4,0E0,5.2565256E5,1.8084669E5,0E0,0E0,0E0,0E0,0E0,0E0],"parents":[2147483647,0,0,1,1,2,2,3,3,5,5,6,6],"right_children":[2,4,6,8,-1,10,12,-1,-1,-1,-1,-1,-1],"split_conditions":[1.2797E2,1.7344513E12,4.2369E2,1.1981E2,1.5028182E1,4.2226E2,4.5462E2,1.0767856E1,-8.225455E0,-2.2707438E0,-5.538086E1,1.2407915E1,-1.6616875E0],"split_indices":[7,1,7,7,0,7,7,0,0,0,0,0,0],"split_type":[0,0,0,0,0,0,0,0,0,0,0,0,0],"sum_hessian":[1.05E2,1.2E1,9.3E1,7E0,5E0,3E1,6.3E1,2E0,5E0,2.9E1,1E0,1E1,5.3E1],"tree_param":{"num_deleted":"0","num_feature":"10","num_nodes":"13","size_leaf_vector":"1"}},{"base_weights":[-4.3205605E0,4.5638733E0,-6.0300606E1,-9.458566E0,4.022996E1,3.103723E0,-1.5592438E2,2.2726796E0,-2.305926E0,2.0899866E0,1.8790413E1,-7.703201E0,6.936621E0,-8.327367E0,-2.0081722E1],"categories":[],"categories_nodes":[],"categories_segments":[],"categories_sizes":[],"default_left":[0,0,0,0,0,0,0,0,0,0,0,0,0,0,0],"id":59,"left_children":[1,3,5,7,9,11,13,-1,-1,-1,-1,-1,-1,-1,-1],"loss_changes":[5.448646E4,4.7892445E4,9.1428375E4,3.0728348E4,7.314586E4,5.8443344E4,2.8461875E3,0E0,0E0,0E0,0E0,0E0,0E0,0E0,0E0],"parents":[2147483647,0,0,1,1,2,2,3,3,4,4,5,5,6,6],"right_children":[2,4,6,8,10,12,14,-1,-1,-1,-1,-1,-1,-1,-1],"split_conditions":[4.2624633E12,1.7344513E12,1.2246469E-16,3.4963868E0,1E0,6.123234E-17,5E-1,2.2726796E0,-2.305926E0,2.0899866E0,1.8790413E1,-7.703201E0,6.936621E0,-8.327367E0,-2.0081722E1],"split_indices":[1,1,8,2,9,9,9,0,0,0,0,0,0,0,0],"split_type":[0,0,0,0,0,0,0,0,0,0,0,0,0,0,0],"sum_hessian":[1.08E2,9.4E1,1.4E1,6.8E1,2.6E1,9E0,5E0,2E1,4.8E1,2.4E1,2E0,4E0,5E0,3E0,2E0],"tree_param":{"num_deleted":"0","num_feature":"10","num_nodes":"15","size_leaf_vector":"1"}},{"base_weights":[3.525883E0,9.003099E1,-9.887545E0,2.9595753E1,1.7575123E1,6.0888283E1,-1.7817894E1,-6.6900063E0,6.2082214E0,1.5182455E0,7.041693E0,-6.919423E0,-2.667973E-1],"categories":[],"categories_nodes":[],"categories_segments":[],"categories_sizes":[],"default_left":[0,0,0,0,0,0,0,0,0,0,0,0,0],"id":60,"left_children":[1,3,5,7,-1,9,11,-1,-1,-1,-1,-1,-1],"loss_changes":[1.29686805E5,7.250635E4,5.5528773E4,3.5501383E4,0E0,3.2860469E3,6.830996E4,0E0,0E0,0E0,0E0,0E0,0E0],"parents":[2147483647,0,0,1,1,2,2,3,3,5,5,6,6],"right_children":[2,4,6,8,-1,10,12,-1,-1,-1,-1,-1,-1],"split_conditions":[1.2855E2,1.7344513E12,2.5519497E11,-5E-1,1.7575123E1,2.3183E2,4.2369E2,-6.6900063E0,6.2082214E0,1.5182455E0,7.041693E0,-6.919423E0,-2.667973E-1],"split_indices":[7,1,1,9,0,7,7,0,0,0,0,0,0],"split_type":[0,0,0,0,0,0,0,0,0,0,0,0,0],"sum_hessian":[1.1E2,1.4E1,9.6E1,9E0,5E0,9E0,8.7E1,2E0,7E0,2E0,7E0,1.9E1,6.8E1],"tree_param":{"num_deleted":"0","num_feature":"10","num_nodes":"13","size_leaf_vector":"1"}},{"base_weights":[-2.8603864E0,6.581182E0,-6.8747055E1,1.422892E1,-3.350278E1,7.58946E0,-1.2694812E2,6.1297565E0,2.0737576E-1,-3.863745E1,1.5780301E0,-2.7375915E0,1.0869086E1,-7.563839E0,-1.8725155E1],"categories":[],"categories_nodes":[],"categories_segments":[],"categories_sizes":[],"default_left":[0,0,0,0,0,0,0,0,0,0,0,0,0,0,0],"id":61,"left_children":[1,3,5,7,9,11,13,-1,-1,-1,-1,-1,-1,-1,-1],"loss_changes":[6.950259E4,3.0518771E4,6.31636E4,4.735943E4,2.8434684E5,2.772085E4,1.0589805E4,0E0,0E0,0E0,0E0,0E0,0E0,0E0,0E0],"parents":[2147483647,0,0,1,1,2,2,3,3,4,4,5,5,6,6],"right_children":[2,4,6,8,10,12,14,-1,-1,-1,-1,-1,-1,-1,-1],"split_conditions":[4.2624633E12,8.660254E-1,5.179E2,1.3272E2,2.5519497E11,5.0763E2,5.258E2,6.1297565E0,2.0737576E-1,-3.863745E1,1.5780301E0,-2.7375915E0,1.0869086E1,-7.563839E0,-1.8725155E1],"split_indices":[1,8,7,7,1,7,7,0,0,0,0,0,0,0,0],"split_type":[0,0,0,0,0,0,0,0,0,0,0,0,0,0,0],"sum_hessian":[1.1E2,9.7E1,1.3E1,8.2E1,1.5E1,6E0,7E0,1.6E1,6.6E1,1E0,1.4E1,5E0,1E0,5E0,2E0],"tree_param":{"num_deleted":"0","num_feature":"10","num_nodes":"15","size_leaf_vector":"1"}},{"base_weights":[1.4756819E0,-1.1704175E2,6.108957E0,3.6450195E0,-1.803558E1,1.0245153E2,-5.476665E0,1.55997E1,3.1830812E0,-4.0575914E0,1.0513253E0],"categories":[],"categories_nodes":[],"categories_segments":[],"categories_sizes":[],"default_left":[0,0,0,0,0,0,0,0,0,0,0],"id":62,"left_children":[1,3,5,-1,-1,7,9,-1,-1,-1,-1],"loss_changes":[5.8373004E4,4.5446785E4,1.1441233E5,0E0,0E0,3.6630094E4,5.2060125E4,0E0,0E0,0E0,0E0],"parents":[2147483647,0,0,1,1,2,2,5,5,6,6],"right_children":[2,4,6,-1,-1,8,10,-1,-1,-1,-1],"split_conditions":[1.2134E2,1.1934E2,1.2855E2,3.6450195E0,-1.803558E1,4.1080003E0,4.2369E2,1.55997E1,3.1830812E0,-4.0575914E0,1.0513253E0],"split_indices":[7,7,7,0,0,2,7,0,0,0,0],"split_type":[0,0,0,0,0,0,0,0,0,0,0],"sum_hessian":[1.04E2,3E0,1.01E2,1E0,2E0,1E1,9.1E1,5E0,5E0,2.8E1,6.3E1],"tree_param":{"num_deleted":"0","num_feature":"10","num_nodes":"11","size_leaf_vector":"1"}},{"base_weights":[7.514168E0,2.0124712E1,-4.8347935E1,3.7886186E0,6.114012E1,-6.753255E1,1.5807983E1,1.0012614E1,-9.3398124E-2,-1.2312638E0,9.038913E0,-1.0061469E1,4.522041E0],"categories":[],"categories_nodes":[],"categories_segments":[],"categories_sizes":[],"default_left":[0,0,0,0,0,0,0,0,0,0,0,0,0],"id":63,"left_children":[1,3,5,7,9,11,-1,-1,-1,-1,-1,-1,-1],"loss_changes":[7.6349305E4,5.8731137E4,8.9880266E4,2.9211184E4,5.482342E4,7.542192E4,0E0,0E0,0E0,0E0,0E0,0E0,0E0],"parents":[2147483647,0,0,1,1,2,2,3,3,4,4,5,5],"right_children":[2,4,6,8,10,12,-1,-1,-1,-1,-1,-1,-1],"split_conditions":[5.1882E2,1.9116E7,1E0,1.1981E2,-1.8369701E-16,5.4668E2,1.5807983E1,1.0012614E1,-9.3398124E-2,-1.2312638E0,9.038913E0,-1.0061469E1,4.522041E0],"split_indices":[7,4,9,7,9,7,0,0,0,0,0,0,0],"split_type":[0,0,0,0,0,0,0,0,0,0,0,0,0],"sum_hessian":[1.06E2,8.7E1,1.9E1,6.3E1,2.4E1,1.8E1,1E0,2E0,6.1E1,7E0,1.7E1,1.4E1,4E0],"tree_param":{"num_deleted":"0","num_feature":"10","num_nodes":"13","size_leaf_vector":"1"}},{"base_weights":[-1.0609312E1,3.342663E1,-1.7597805E1,-1.2363062E1,5.347576E1,-1.9068043E1,-1.3643859E1,1.6146376E0,1.0055721E1,5.37452E0,-1.9825842E0],"categories":[],"categories_nodes":[],"categories_segments":[],"categories_sizes":[],"default_left":[0,0,0,0,0,0,0,0,0,0,0],"id":64,"left_children":[1,3,5,-1,7,-1,9,-1,-1,-1,-1],"loss_changes":[3.3516934E4,5.3844156E4,6.1043805E4,0E0,2.2981668E4,0E0,3.9392562E4,0E0,0E0,0E0,0E0],"parents":[2147483647,0,0,1,1,2,2,4,4,6,6],"right_children":[2,4,6,-1,8,-1,10,-1,-1,-1,-1],"split_conditions":[1.2797E2,-8.660254E-1,1.2821E2,-1.2363062E1,1.7344513E12,-1.9068043E1,-8.660254E-1,1.6146376E0,1.0055721E1,5.37452E0,-1.9825842E0],"split_indices":[7,8,7,0,1,0,8,0,0,0,0],"split_type":[0,0,0,0,0,0,0,0,0,0,0],"sum_hessian":[1.06E2,1.4E1,9.2E1,1E0,1.3E1,1E0,9.1E1,8E0,5E0,7E0,8.4E1],"tree_param":{"num_deleted":"0","num_feature":"10","num_nodes":"11","size_leaf_vector":"1"}},{"base_weights":[3.7478322E-1,-1.0910828E2,4.707035E0,2.8813965E0,-1.6468702E1,1.4076076E1,-4.2415054E1,9.936235E0,2.668986E-1,-3.639889E1,4.3261815E-2],"categories":[],"categories_nodes":[],"categories_segments":[],"categories_sizes":[],"default_left":[0,0,0,0,0,0,0,0,0,0,0],"id":65,"left_children":[1,3,5,-1,-1,7,9,-1,-1,-1,-1],"loss_changes":[4.984163E4,3.5407465E4,4.5187402E4,0E0,0E0,8.24286E4,2.3439519E5,0E0,0E0,0E0,0E0],"parents":[2147483647,0,0,1,1,2,2,5,5,6,6],"right_children":[2,4,6,-1,-1,8,10,-1,-1,-1,-1],"split_conditions":[1.2134E2,1.1934E2,8.660254E-1,2.8813965E0,-1.6468702E1,1.2855E2,2.5519497E11,9.936235E0,2.668986E-1,-3.639889E1,4.3261815E-2],"split_indices":[7,7,8,0,0,7,1,0,0,0,0],"split_type":[0,0,0,0,0,0,0,0,0,0,0],"sum_hessian":[1.03E2,3E0,1E2,1E0,2E0,8.4E1,1.6E1,9E0,7.5E1,1E0,1.5E1],"tree_param":{"num_deleted":"0","num_feature":"10","num_nodes":"11","size_leaf_vector":"1"}},{"base_weights":[1.0400504E1,5.6346462E1,-3.4500186E0,-2.4461588E1,1.52661E2,6.0581884E0,-5.8039673E1,3.4552877E0,-1.953896E1,3.649484E1,1.0018501E1,-4.7884374E0,1.7093031E0,2.0830984E0,-1.0993771E1],"categories":[],"categories_nodes":[],"categories_segments":[],"categories_sizes":[],"default_left":[0,0,0,0,0,0,0,0,0,0,0,0,0,0,0],"id":66,"left_children":[1,3,5,7,9,11,13,-1,-1,-1,-1,-1,-1,-1,-1],"loss_changes":[7.146845E4,2.0609205E5,4.5508945E4,1.5805962E5,9.71175E4,4.5462062E4,5.550212E4,0E0,0E0,0E0,0E0,0E0,0E0,0E0,0E0],"parents":[2147483647,0,0,1,1,2,2,3,3,4,4,5,5,6,6],"right_children":[2,4,6,8,10,12,14,-1,-1,-1,-1,-1,-1,-1,-1],"split_conditions":[5.917648E6,2.4349E2,4.2624633E12,2.396E2,2.4775E2,4.338577E11,5.179E2,3.4552877E0,-1.953896E1,3.649484E1,1.0018501E1,-4.7884374E0,1.7093031E0,2.0830984E0,-1.0993771E1],"split_indices":[3,7,1,7,7,1,7,0,0,0,0,0,0,0,0],"split_type":[0,0,0,0,0,0,0,0,0,0,0,0,0,0,0],"sum_hessian":[1.11E2,2.5E1,8.6E1,1.4E1,1.1E1,7.4E1,1.2E1,1.1E1,3E0,1E0,1E1,1.2E1,6.2E1,5E0,7E0],"tree_param":{"num_deleted":"0","num_feature":"10","num_nodes":"15","size_leaf_vector":"1"}},{"base_weights":[-3.1230292E0,3.4731503E0,-4.954437E1,1.0446867E1,-4.3464275E1,6.6361217E0,-1.2555771E2,-1.4704338E0,3.7744691E0,-5.519171E0,-3.2796136E-1,6.211714E0,-5.017212E0,-1.3646062E1,-3.5521576E0],"categories":[],"categories_nodes":[],"categories_segments":[],"categories_sizes":[],"default_left":[0,0,0,0,0,0,0,0,0,0,0,0,0,0,0],"id":67,"left_children":[1,3,5,7,9,11,13,-1,-1,-1,-1,-1,-1,-1,-1],"loss_changes":[3.4466867E4,3.2859566E4,6.061975E4,6.0286875E4,5.945412E3,3.1482559E4,1.0426406E3,0E0,0E0,0E0,0E0,0E0,0E0,0E0,0E0],"parents":[2147483647,0,0,1,1,2,2,3,3,4,4,5,5,6,6],"right_children":[2,4,6,8,10,12,14,-1,-1,-1,-1,-1,-1,-1,-1],"split_conditions":[4.2624633E12,8.5375E0,1.2246469E-16,4.2369E2,5.0983E2,5.179E2,1E0,-1.4704338E0,3.7744691E0,-5.519171E0,-3.2796136E-1,6.211714E0,-5.017212E0,-1.3646062E1,-3.5521576E0],"split_indices":[1,2,8,7,7,7,8,0,0,0,0,0,0,0,0],"split_type":[0,0,0,0,0,0,0,0,0,0,0,0,0,0,0],"sum_hessian":[1.11E2,9.8E1,1.3E1,8.6E1,1.2E1,8E0,5E0,4.5E1,4.1E1,9E0,3E0,4E0,4E0,4E0,1E0],"tree_param":{"num_deleted":"0","num_feature":"10","num_nodes":"15","size_leaf_vector":"1"}},{"base_weights":[-9.264141E0,1.2960224E1,-3.810282E1,-1.9267107E1,4.788826E1,-1.4291351E2,-1.09475765E1,5.006299E0,-3.5911522E0,1.5902962E1,2.0398395E0,7.674215E0,-3.779176E1,7.351624E-1,-1.1586831E1],"categories":[],"categories_nodes":[],"categories_segments":[],"categories_sizes":[],"default_left":[0,0,0,0,0,0,0,0,0,0,0,0,0,0,0],"id":68,"left_children":[1,3,5,7,9,11,13,-1,-1,-1,-1,-1,-1,-1,-1],"loss_changes":[7.2277016E4,7.296346E4,1.3789728E5,4.1032438E4,9.1469125E4,5.45202E5,7.765044E4,0E0,0E0,0E0,0E0,0E0,0E0,0E0,0E0],"parents":[2147483647,0,0,1,1,2,2,3,3,4,4,5,5,6,6],"right_children":[2,4,6,8,10,12,14,-1,-1,-1,-1,-1,-1,-1,-1],"split_conditions":[1.2246469E-16,5.0901785E11,5.917648E6,2.5519497E11,1.6956275E12,2.396E2,4.2624633E12,5.006299E0,-3.5911522E0,1.5902962E1,2.0398395E0,7.674215E0,-3.779176E1,7.351624E-1,-1.1586831E1],"split_indices":[8,1,3,1,1,7,1,0,0,0,0,0,0,0,0],"split_type":[0,0,0,0,0,0,0,0,0,0,0,0,0,0,0],"sum_hessian":[1.11E2,6.3E1,4.8E1,3.3E1,3E1,9E0,3.9E1,6E0,2.7E1,5E0,2.5E1,5E0,4E0,3.4E1,5E0],"tree_param":{"num_deleted":"0","num_feature":"10","num_nodes":"15","size_leaf_vector":"1"}},{"base_weights":[-1.4938955E0,1.370723E1,-1.934828E1,-7.093062E0,5.2674107E1,1.88501E1,-5.9828598E1,1.1684253E1,-1.326686E0,1.4468292E0,1.4577727E1,1.8625118E1,-1.8361006E0,-3.5682545E1,-1.8488638E0],"categories":[],"categories_nodes":[],"categories_segments":[],"categories_sizes":[],"default_left":[0,0,0,0,0,0,0,0,0,0,0,0,0,0,0],"id":69,"left_children":[1,3,5,7,9,11,13,-1,-1,-1,-1,-1,-1,-1,-1],"loss_changes":[3.0119951E4,4.9004965E4,7.998819E4,3.2156266E4,7.258958E4,1.716076E5,3.0034872E5,0E0,0E0,0E0,0E0,0E0,0E0,0E0,0E0],"parents":[2147483647,0,0,1,1,2,2,3,3,4,4,5,5,6,6],"right_children":[2,4,6,8,10,12,14,-1,-1,-1,-1,-1,-1,-1,-1],"split_conditions":[1.2246469E-16,1.9116E7,1.9116E7,1.1981E2,3.4963868E0,1.4750348E0,4.2369E2,1.1684253E1,-1.326686E0,1.4468292E0,1.4577727E1,1.8625118E1,-1.8361006E0,-3.5682545E1,-1.8488638E0],"split_indices":[8,4,4,7,2,2,7,0,0,0,0,0,0,0,0],"split_type":[0,0,0,0,0,0,0,0,0,0,0,0,0,0,0],"sum_hessian":[1.09E2,5.9E1,5E1,3.9E1,2E1,2.6E1,2.4E1,1E0,3.8E1,1.5E1,5E0,4E0,2.2E1,2E0,2.2E1],"tree_param":{"num_deleted":"0","num_feature":"10","num_nodes":"15","size_leaf_vector":"1"}},{"base_weights":[-1.0852206E1,9.253629E1,-1.3730219E1,2.7803955E0,1.1100049E1,-1.5373828E1,-9.477725E0,6.108006E0,-1.5319667E0],"categories":[],"categories_nodes":[],"categories_segments":[],"categories_sizes":[],"default_left":[0,0,0,0,0,0,0,0,0],"id":70,"left_children":[1,3,5,-1,-1,-1,7,-1,-1],"loss_changes":[3.2811207E4,4.994375E2,6.046279E4,0E0,0E0,0E0,4.2979562E4,0E0,0E0],"parents":[2147483647,0,0,1,1,2,2,6,6],"right_children":[2,4,6,-1,-1,-1,8,-1,-1],"split_conditions":[1.1981E2,1.1934E2,1.2134E2,2.7803955E0,1.1100049E1,-1.5373828E1,-8.660254E-1,6.108006E0,-1.5319667E0],"split_indices":[7,7,7,0,0,0,8,0,0],"split_type":[0,0,0,0,0,0,0,0,0],"sum_hessian":[1.05E2,2E0,1.03E2,1E0,1E0,2E0,1.01E2,7E0,9.4E1],"tree_param":{"num_deleted":"0","num_feature":"10","num_nodes":"9","size_leaf_vector":"1"}},{"base_weights":[-1.4760199E0,1.0545044E1,-3.5581462E0,-1.4348894E1,6.753587E-1,6.357471E0,-4.01582E-1],"categories":[],"categories_nodes":[],"categories_segments":[],"categories_sizes":[],"default_left":[0,0,0,0,0,0,0],"id":71,"left_children":[1,-1,3,-1,5,-1,-1],"loss_changes":[2.3306553E4,0E0,6.052147E4,0E0,2.9762512E4,0E0,0E0],"parents":[2147483647,0,0,2,2,4,4],"right_children":[2,-1,4,-1,6,-1,-1],"split_conditions":[1.1981E2,1.0545044E1,1.2134E2,-1.4348894E1,1.2797E2,6.357471E0,-4.01582E-1],"split_indices":[7,0,7,0,7,0,0],"split_type":[0,0,0,0,0,0,0],"sum_hessian":[1.02E2,1E0,1.01E2,2E0,9.9E1,6E0,9.3E1],"tree_param":{"num_deleted":"0","num_feature":"10","num_nodes":"7","size_leaf_vector":"1"}},{"base_weights":[7.4255574E-1,4.5841896E1,-8.860948E0,-9.803174E0,9.226087E1,-3.6939102E1,2.4180386E0,-8.987146E0,3.7350585E0,1.1579032E1,4.086748E0,-6.819975E-2,-4.898119E1,1.33966875E1,-1.0148804E0],"categories":[],"categories_nodes":[],"categories_segments":[],"categories_sizes":[],"default_left":[0,0,0,0,0,0,0,0,0,0,0,0,0,0,0],"id":72,"left_children":[1,3,5,7,9,11,13,-1,-1,-1,-1,-1,-1,-1,-1],"loss_changes":[4.9347816E4,5.2564195E4,2.985847E4,4.1111957E4,8.569789E3,4.4300206E5,1.1377405E5,0E0,0E0,0E0,0E0,0E0,0E0,0E0,0E0],"parents":[2147483647,0,0,1,1,2,2,3,3,4,4,5,5,6,6],"right_children":[2,4,6,8,10,12,14,-1,-1,-1,-1,-1,-1,-1,-1],"split_conditions":[1.3272E2,1.2618E2,4.2369E2,6.123234E-17,1.2824E2,4.2226E2,5.917648E6,-8.987146E0,3.7350585E0,1.1579032E1,4.086748E0,-6.819975E-2,-4.898119E1,1.33966875E1,-1.0148804E0],"split_indices":[7,7,7,9,7,7,3,0,0,0,0,0,0,0,0],"split_type":[0,0,0,0,0,0,0,0,0,0,0,0,0,0,0],"sum_hessian":[1.12E2,1.9E1,9.3E1,9E0,1E1,2.6E1,6.7E1,3E0,6E0,6E0,4E0,2.5E1,1E0,5E0,6.2E1],"tree_param":{"num_deleted":"0","num_feature":"10","num_nodes":"15","size_leaf_vector":"1"}},{"base_weights":[4.523788E0,1.6366306E1,-5.3057022E1,-8.89011E0,3.5965282E1,-8.121123E1,4.201699E1,7.218105E-1,-2.1533354E1,3.580204E1,2.2630467E0,-6.2206707E0,-1.1792197E1,4.508057E-2,5.2295837E0],"categories":[],"categories_nodes":[],"categories_segments":[],"categories_sizes":[],"default_left":[0,0,0,0,0,0,0,0,0,0,0,0,0,0,0],"id":73,"left_children":[1,3,5,7,9,11,13,-1,-1,-1,-1,-1,-1,-1,-1],"loss_changes":[7.587754E4,4.585972E4,5.4270184E4,1.3789714E5,2.1521416E5,3.1295078E3,2.1126855E3,0E0,0E0,0E0,0E0,0E0,0E0,0E0,0E0],"parents":[2147483647,0,0,1,1,2,2,3,3,4,4,5,5,6,6],"right_children":[2,4,6,8,10,12,14,-1,-1,-1,-1,-1,-1,-1,-1],"split_conditions":[5.1882E2,2.4349E2,5.4668E2,2.396E2,2.4775E2,5E-1,5.5861E2,7.218105E-1,-2.1533354E1,3.580204E1,2.2630467E0,-6.2206707E0,-1.1792197E1,4.508057E-2,5.2295837E0],"split_indices":[7,7,7,7,7,8,7,0,0,0,0,0,0,0,0],"split_type":[0,0,0,0,0,0,0,0,0,0,0,0,0,0,0],"sum_hessian":[1.09E2,9.1E1,1.8E1,4E1,5.1E1,1.4E1,4E0,3.8E1,2E0,1E0,5E1,1.1E1,3E0,1E0,3E0],"tree_param":{"num_deleted":"0","num_feature":"10","num_nodes":"15","size_leaf_vector":"1"}},{"base_weights":[-2.6851356E0,2.9222075E1,-2.294904E1,1.1476473E1,1.5824423E2,-3.1690683E2,-8.811191E0,1.13459125E-1,9.909882E0,3.401194E1,2.7745607E0,-8.907471E-1,-4.6645275E1,5.084921E0,-2.0801065E0],"categories":[],"categories_nodes":[],"categories_segments":[],"categories_sizes":[],"default_left":[0,0,0,0,0,0,0,0,0,0,0,0,0,0,0],"id":74,"left_children":[1,3,5,7,9,11,13,-1,-1,-1,-1,-1,-1,-1,-1],"loss_changes":[6.985303E4,9.4346125E4,2.714991E5,3.43224E4,1.0923547E5,1.3402525E5,4.6838242E4,0E0,0E0,0E0,0E0,0E0,0E0,0E0,0E0],"parents":[2147483647,0,0,1,1,2,2,3,3,4,4,5,5,6,6],"right_children":[2,4,6,8,10,12,14,-1,-1,-1,-1,-1,-1,-1,-1],"split_conditions":[6.2934E3,2.4349E2,4.2369E2,1E0,2.4775E2,4.2226E2,4.5462E2,1.13459125E-1,9.909882E0,3.401194E1,2.7745607E0,-8.907471E-1,-4.6645275E1,5.084921E0,-2.0801065E0],"split_indices":[0,7,7,8,7,7,7,0,0,0,0,0,0,0,0],"split_type":[0,0,0,0,0,0,0,0,0,0,0,0,0,0,0],"sum_hessian":[1.06E2,4.1E1,6.5E1,3.7E1,4E0,2E0,6.3E1,3.4E1,3E0,1E0,3E0,1E0,1E0,1E1,5.3E1],"tree_param":{"num_deleted":"0","num_feature":"10","num_nodes":"15","size_leaf_vector":"1"}},{"base_weights":[-3.1427884E-1,8.207373E1,-2.5182946E0,2.521753E0,9.789307E0,-1.2848796E1,9.4013536E-1,5.6495028E0,-3.3839354E-1],"categories":[],"categories_nodes":[],"categories_segments":[],"categories_sizes":[],"default_left":[0,0,0,0,0,0,0,0,0],"id":75,"left_children":[1,3,5,-1,-1,-1,7,-1,-1],"loss_changes":[2.0907314E4,2.2966211E2,4.8914406E4,0E0,0E0,0E0,2.6615734E4,0E0,0E0],"parents":[2147483647,0,0,1,1,2,2,6,6],"right_children":[2,4,6,-1,-1,-1,8,-1,-1],"split_conditions":[1.1981E2,1.1934E2,1.2134E2,2.521753E0,9.789307E0,-1.2848796E1,-8.660254E-1,5.6495028E0,-3.3839354E-1],"split_indices":[7,7,7,0,0,0,8,0,0],"split_type":[0,0,0,0,0,0,0,0,0],"sum_hessian":[1.13E2,2E0,1.11E2,1E0,1E0,2E0,1.09E2,7E0,1.02E2],"tree_param":{"num_deleted":"0","num_feature":"10","num_nodes":"9","size_leaf_vector":"1"}},{"base_weights":[4.376288E0,1.0299971E1,-3.655584E1,1.05023155E2,3.9412994E0,2.7787538E0,-1.07913864E2,-3.285254E-1,3.232826E1,-2.2346046E0,2.2366815E0,-4.273679E0,5.6841655E0,-4.9136558E0,-1.3071988E1],"categories":[],"categories_nodes":[],"categories_segments":[],"categories_sizes":[],"default_left":[0,0,0,0,0,0,0,0,0,0,0,0,0,0,0],"id":76,"left_children":[1,3,5,7,9,11,13,-1,-1,-1,-1,-1,-1,-1,-1],"loss_changes":[2.6805639E4,5.7408176E4,3.959561E4,1.4289806E5,4.457637E4,2.7036248E4,2.792578E2,0E0,0E0,0E0,0E0,0E0,0E0,0E0,0E0],"parents":[2147483647,0,0,1,1,2,2,3,3,4,4,5,5,6,6],"right_children":[2,4,6,8,10,12,14,-1,-1,-1,-1,-1,-1,-1,-1],"split_conditions":[4.2624633E12,1.4750348E0,5.2559E2,2.4349E2,4.2369E2,5E-1,5.258E2,-3.285254E-1,3.232826E1,-2.2346046E0,2.2366815E0,-4.273679E0,5.6841655E0,-4.9136558E0,-1.3071988E1],"split_indices":[1,2,7,7,7,9,7,0,0,0,0,0,0,0,0],"split_type":[0,0,0,0,0,0,0,0,0,0,0,0,0,0,0],"sum_hessian":[1.08E2,9.5E1,1.3E1,5E0,9E1,9E0,4E0,4E0,1E0,3.7E1,5.3E1,5E0,4E0,2E0,2E0],"tree_param":{"num_deleted":"0","num_feature":"10","num_nodes":"15","size_leaf_vector":"1"}},{"base_weights":[2.0244846E0,-2.2851987E0,6.4533516E1,3.0545003E0,-7.5188896E1,1.5122413E1,2.4881063E1,-3.0840313E-1,4.6281223E0,-4.656572E0,-1.23464E1,-1.4917806E0,4.850995E0],"categories":[],"categories_nodes":[],"categories_segments":[],"categories_sizes":[],"default_left":[0,0,0,0,0,0,0,0,0,0,0,0,0],"id":77,"left_children":[1,3,5,7,9,-1,11,-1,-1,-1,-1,-1,-1],"loss_changes":[2.9242041E4,3.9936613E4,2.0299846E4,2.5616201E4,3.9233203E3,0E0,6.36608E3,0E0,0E0,0E0,0E0,0E0,0E0],"parents":[2147483647,0,0,1,1,2,2,3,3,4,4,6,6],"right_children":[2,4,6,8,10,-1,12,-1,-1,-1,-1,-1,-1],"split_conditions":[5.2593E2,5.2381E2,5.2979E2,5.0763E2,5.2559E2,1.5122413E1,5.5861E2,-3.0840313E-1,4.6281223E0,-4.656572E0,-1.23464E1,-1.4917806E0,4.850995E0],"split_indices":[7,7,7,7,7,0,7,0,0,0,0,0,0],"split_type":[0,0,0,0,0,0,0,0,0,0,0,0,0],"sum_hessian":[1.07E2,1.01E2,6E0,9.5E1,6E0,1E0,5E0,8.4E1,1.1E1,5E0,1E0,2E0,3E0],"tree_param":{"num_deleted":"0","num_feature":"10","num_nodes":"13","size_leaf_vector":"1"}},{"base_weights":[1.1760208E-2,1.4716633E1,-1.7394247E1,-1.8240051E1,4.8302284E1,2.696414E1,-4.6386696E1,4.3404865E0,-3.2305229E0,1.3518059E0,9.007379E0,-1.2710556E0,1.4853034E1,-2.1787146E1,-1.9263521E0],"categories":[],"categories_nodes":[],"categories_segments":[],"categories_sizes":[],"default_left":[0,0,0,0,0,0,0,0,0,0,0,0,0,0,0],"id":78,"left_children":[1,3,5,7,9,11,13,-1,-1,-1,-1,-1,-1,-1,-1],"loss_changes":[2.7387016E4,6.507959E4,6.426763E4,2.741361E4,4.091908E4,9.8349945E4,1.3533938E5,0E0,0E0,0E0,0E0,0E0,0E0,0E0,0E0],"parents":[2147483647,0,0,1,1,2,2,3,3,4,4,5,5,6,6],"right_children":[2,4,6,8,10,12,14,-1,-1,-1,-1,-1,-1,-1,-1],"split_conditions":[1.2246469E-16,5.0901785E11,5.0901785E11,2.5519497E11,6.123234E-17,8.660254E-1,1.6956275E12,4.3404865E0,-3.2305229E0,1.3518059E0,9.007379E0,-1.2710556E0,1.4853034E1,-2.1787146E1,-1.9263521E0],"split_indices":[8,1,1,1,9,9,1,0,0,0,0,0,0,0,0],"split_type":[0,0,0,0,0,0,0,0,0,0,0,0,0,0,0],"sum_hessian":[1.05E2,5.7E1,4.8E1,2.9E1,2.8E1,1.9E1,2.9E1,5E0,2.4E1,1.6E1,1.2E1,1.5E1,4E0,3E0,2.6E1],"tree_param":{"num_deleted":"0","num_feature":"10","num_nodes":"15","size_leaf_vector":"1"}},{"base_weights":[-1.1352392E1,-4.413579E1,-1.9623446E0,-7.551756E1,1.3165247E2,-7.1737084E0,4.9093746E1,-3.1801147E0,-2.5336206E1,1.5962891E1,2.3861573E0,-9.901851E-2,-5.4470706E0,6.1153464E0,-1.7662125E0],"categories":[],"categories_nodes":[],"categories_segments":[],"categories_sizes":[],"default_left":[0,0,0,0,0,0,0,0,0,0,0,0,0,0,0],"id":79,"left_children":[1,3,5,7,9,11,13,-1,-1,-1,-1,-1,-1,-1,-1],"loss_changes":[3.315986E4,1.423392E5,2.2968291E4,1.55212E5,8.25343E3,2.2758105E4,7.5205527E3,0E0,0E0,0E0,0E0,0E0,0E0,0E0,0E0],"parents":[2147483647,0,0,1,1,2,2,3,3,4,4,5,5,6,6],"right_children":[2,4,6,8,10,12,14,-1,-1,-1,-1,-1,-1,-1,-1],"split_conditions":[5.917648E6,4.2859E2,1E0,4.2226E2,-2.4492937E-16,8.660254E-1,4.2624633E12,-3.1801147E0,-2.5336206E1,1.5962891E1,2.3861573E0,-9.901851E-2,-5.4470706E0,6.1153464E0,-1.7662125E0],"split_indices":[3,7,8,7,8,8,1,0,0,0,0,0,0,0,0],"split_type":[0,0,0,0,0,0,0,0,0,0,0,0,0,0,0],"sum_hessian":[1.07E2,2.3E1,8.4E1,2E1,3E0,7.7E1,7E0,1.7E1,3E0,2E0,1E0,6.9E1,8E0,6E0,1E0],"tree_param":{"num_deleted":"0","num_feature":"10","num_nodes":"15","size_leaf_vector":"1"}},{"base_weights":[-6.3002734E0,-2.6444384E1,5.5884237E0,-6.199103E0,-4.1812782E1,1.0764174E2,-5.660977E0,1.9053881E0,-1.8678076E1,-1.396167E0,2.0233473E1,-3.0130699E0,1.4207994E0],"categories":[],"categories_nodes":[],"categories_segments":[],"categories_sizes":[],"default_left":[0,0,0,0,0,0,0,0,0,0,0,0,0],"id":80,"left_children":[1,3,5,7,-1,9,11,-1,-1,-1,-1,-1,-1],"loss_changes":[2.6491377E4,3.2252734E5,8.097206E4,1.8596792E5,0E0,8.342985E4,3.1544139E4,0E0,0E0,0E0,0E0,0E0,0E0],"parents":[2147483647,0,0,1,1,2,2,3,3,5,5,6,6],"right_children":[2,4,6,8,-1,10,12,-1,-1,-1,-1,-1,-1],"split_conditions":[4.2369E2,1.8009E7,5.917648E6,8.660254E-1,-4.1812782E1,-1.8369701E-16,6.123234E-17,1.9053881E0,-1.8678076E1,-1.396167E0,2.0233473E1,-3.0130699E0,1.4207994E0],"split_indices":[7,4,3,8,0,9,9,0,0,0,0,0,0],"split_type":[0,0,0,0,0,0,0,0,0,0,0,0,0],"sum_hessian":[1.09E2,4E1,6.9E1,3.9E1,1E0,6E0,6.3E1,3.5E1,4E0,3E0,3E0,2.8E1,3.5E1],"tree_param":{"num_deleted":"0","num_feature":"10","num_nodes":"13","size_leaf_vector":"1"}},{"base_weights":[-5.743502E0,1.009198E1,-2.651066E1,-1.4628085E1,3.694765E1,2.2749512E1,-5.5183075E1,4.4573684E0,-2.433087E0,1.0913281E1,2.1644828E0,-1.0680338E-1,1.0637794E1,-2.8379505E1,-9.096808E-1],"categories":[],"categories_nodes":[],"categories_segments":[],"categories_sizes":[],"default_left":[0,0,0,0,0,0,0,0,0,0,0,0,0,0,0],"id":81,"left_children":[1,3,5,7,9,11,13,-1,-1,-1,-1,-1,-1,-1,-1],"loss_changes":[3.5784203E4,4.170066E4,6.763856E4,2.004044E4,3.077695E4,3.5966438E4,3.1349453E5,0E0,0E0,0E0,0E0,0E0,0E0,0E0,0E0],"parents":[2147483647,0,0,1,1,2,2,3,3,4,4,5,5,6,6],"right_children":[2,4,6,8,10,12,14,-1,-1,-1,-1,-1,-1,-1,-1],"split_conditions":[1.2246469E-16,5.0901785E11,2.396E2,2.5519497E11,1.6956275E12,1E0,4.2369E2,4.4573684E0,-2.433087E0,1.0913281E1,2.1644828E0,-1.0680338E-1,1.0637794E1,-2.8379505E1,-9.096808E-1],"split_indices":[8,1,7,1,1,8,7,0,0,0,0,0,0,0,0],"split_type":[0,0,0,0,0,0,0,0,0,0,0,0,0,0,0],"sum_hessian":[1.07E2,6.1E1,4.6E1,3.2E1,2.9E1,1.7E1,2.9E1,4E0,2.8E1,4E0,2.5E1,1.4E1,3E0,4E0,2.5E1],"tree_param":{"num_deleted":"0","num_feature":"10","num_nodes":"15","size_leaf_vector":"1"}},{"base_weights":[-1.0813653E0,8.405892E0,-3.3727121E0,-1.199253E1,-1.3390063E-1,1.7127411E0,-9.995594E-1],"categories":[],"categories_nodes":[],"categories_segments":[],"categories_sizes":[],"default_left":[0,0,0,0,0,0,0],"id":82,"left_children":[1,-1,3,-1,5,-1,-1],"loss_changes":[2.2328215E4,0E0,4.1885535E4,0E0,1.8725807E4,0E0,0E0],"parents":[2147483647,0,0,2,2,4,4],"right_children":[2,-1,4,-1,6,-1,-1],"split_conditions":[1.1981E2,8.405892E0,1.2134E2,-1.199253E1,4.2226E2,1.7127411E0,-9.995594E-1],"split_indices":[7,0,7,0,7,0,0],"split_type":[0,0,0,0,0,0,0],"sum_hessian":[1.12E2,2E0,1.1E2,2E0,1.08E2,3.9E1,6.9E1],"tree_param":{"num_deleted":"0","num_feature":"10","num_nodes":"7","size_leaf_vector":"1"}},{"base_weights":[1.577263E0,7.845508E0,-6.9931257E-1,-1.1193018E1,2.6446066E0,3.3008442E0,-2.2719255E-1],"categories":[],"categories_nodes":[],"categories_segments":[],"categories_sizes":[],"default_left":[0,0,0,0,0,0,0],"id":83,"left_children":[1,-1,3,-1,5,-1,-1],"loss_changes":[1.8256754E4,0E0,3.8234605E4,0E0,1.5003469E4,0E0,0E0],"parents":[2147483647,0,0,2,2,4,4],"right_children":[2,-1,4,-1,6,-1,-1],"split_conditions":[1.1981E2,7.845508E0,1.2134E2,-1.1193018E1,1.3272E2,3.3008442E0,-2.2719255E-1],"split_indices":[7,0,7,0,7,0,0],"split_type":[0,0,0,0,0,0,0],"sum_hessian":[1.03E2,2E0,1.01E2,2E0,9.9E1,1.3E1,8.6E1],"tree_param":{"num_deleted":"0","num_feature":"10","num_nodes":"7","size_leaf_vector":"1"}},{"base_weights":[8.188782E-1,5.7923613E0,-3.1397572E1,1.1090241E1,-3.663563E1,-1.6701438E0,-9.0518394E1,-8.197467E-1,3.1950822E0,-4.537258E0,1.787089E-1,-3.4891279E0,3.1829345E0,-3.7081544E0,-1.1378245E1],"categories":[],"categories_nodes":[],"categories_segments":[],"categories_sizes":[],"default_left":[0,0,0,0,0,0,0,0,0,0,0,0,0,0,0],"id":84,"left_children":[1,3,5,7,9,11,13,-1,-1,-1,-1,-1,-1,-1,-1],"loss_changes":[1.796717E4,2.2209807E4,2.621147E4,3.5266605E4,3.7737559E3,1.3352366E4,1.9965625E3,0E0,0E0,0E0,0E0,0E0,0E0,0E0,0E0],"parents":[2147483647,0,0,1,1,2,2,3,3,4,4,5,5,6,6],"right_children":[2,4,6,8,10,12,14,-1,-1,-1,-1,-1,-1,-1,-1],"split_conditions":[4.2624633E12,8.5375E0,5.2559E2,4.2369E2,5.0983E2,5E-1,5.258E2,-8.197467E-1,3.1950822E0,-4.537258E0,1.787089E-1,-3.4891279E0,3.1829345E0,-3.7081544E0,-1.1378245E1],"split_indices":[1,2,7,7,7,9,7,0,0,0,0,0,0,0,0],"split_type":[0,0,0,0,0,0,0,0,0,0,0,0,0,0,0],"sum_hessian":[1.1E2,9.6E1,1.4E1,8.6E1,1E1,1E1,4E0,4.5E1,4.1E1,8E0,2E0,5E0,5E0,2E0,2E0],"tree_param":{"num_deleted":"0","num_feature":"10","num_nodes":"15","size_leaf_vector":"1"}},{"base_weights":[-1.5262507E0,-5.1712246E1,1.834018E0,3.3601074E1,-2.817961E1,-6.11202E0,7.793258E1,1.1406413E0,4.1846805E0,-2.4961617E0,3.2618126E-1,1.74424E1,3.2006729E0],"categories":[],"categories_nodes":[],"categories_segments":[],"categories_sizes":[],"default_left":[0,0,0,0,0,0,0,0,0,0,0,0,0],"id":85,"left_children":[1,3,5,7,-1,9,11,-1,-1,-1,-1,-1,-1],"loss_changes":[1.8813705E4,1.4687316E5,6.3967938E4,6.207446E2,0E0,1.7043943E4,3.8731766E4,0E0,0E0,0E0,0E0,0E0,0E0],"parents":[2147483647,0,0,1,1,2,2,3,3,5,5,6,6],"right_children":[2,4,6,8,-1,10,12,-1,-1,-1,-1,-1,-1],"split_conditions":[2.5519497E11,2.396E2,1E0,2.3183E2,-2.817961E1,4.2369E2,5.0901785E11,1.1406413E0,4.1846805E0,-2.4961617E0,3.2618126E-1,1.74424E1,3.2006729E0],"split_indices":[1,7,8,7,0,7,1,0,0,0,0,0,0],"split_type":[0,0,0,0,0,0,0,0,0,0,0,0,0],"sum_hessian":[1.1E2,6E0,1.04E2,5E0,1E0,9.5E1,9E0,2E0,3E0,3.1E1,6.4E1,2E0,7E0],"tree_param":{"num_deleted":"0","num_feature":"10","num_nodes":"13","size_leaf_vector":"1"}},{"base_weights":[3.3343985E0,4.3304276E1,-4.8673444E0,3.6068034E0,1.5373584E2,7.543522E0,-7.461194E0,-1.0071973E1,1.8252964E0,3.1558851E1,3.437555E0,-1.0225765E1,-4.1819745E-1],"categories":[],"categories_nodes":[],"categories_segments":[],"categories_sizes":[],"default_left":[0,0,0,0,0,0,0,0,0,0,0,0,0],"id":86,"left_children":[1,3,5,7,9,-1,11,-1,-1,-1,-1,-1,-1],"loss_changes":[3.6599094E4,8.273872E4,1.993407E4,2.4758182E4,8.574538E4,0E0,2.7860477E4,0E0,0E0,0E0,0E0,0E0,0E0],"parents":[2147483647,0,0,1,1,2,2,3,3,4,4,6,6],"right_children":[2,4,6,8,10,-1,12,-1,-1,-1,-1,-1,-1],"split_conditions":[4.1344523E11,2.4349E2,1.1981E2,2.3109E2,2.4775E2,7.543522E0,1.2134E2,-1.0071973E1,1.8252964E0,3.1558851E1,3.437555E0,-1.0225765E1,-4.1819745E-1],"split_indices":[1,7,7,7,7,0,7,0,0,0,0,0,0],"split_type":[0,0,0,0,0,0,0,0,0,0,0,0,0],"sum_hessian":[1.1E2,1.8E1,9.2E1,1.4E1,4E0,2E0,9E1,1E0,1.3E1,1E0,3E0,2E0,8.8E1],"tree_param":{"num_deleted":"0","num_feature":"10","num_nodes":"13","size_leaf_vector":"1"}},{"base_weights":[7.946828E0,-1.5029823E1,2.2447927E1,-6.3442368E1,1.1442247E1,-8.315198E1,3.0601984E1,-1.4027913E1,-4.0830626E0,4.83926E0,-3.4915283E0,3.0369508E0,-2.6861897E1,1.4017482E1,6.834614E-1],"categories":[],"categories_nodes":[],"categories_segments":[],"categories_sizes":[],"default_left":[0,0,0,0,0,0,0,0,0,0,0,0,0,0,0],"id":87,"left_children":[1,3,5,7,9,11,13,-1,-1,-1,-1,-1,-1,-1,-1],"loss_changes":[3.5988367E4,5.4552297E4,5.9375086E4,2.0333516E4,4.9651598E4,1.1343026E5,1.6050597E5,0E0,0E0,0E0,0E0,0E0,0E0,0E0,0E0],"parents":[2147483647,0,0,1,1,2,2,3,3,4,4,5,5,6,6],"right_children":[2,4,6,8,10,12,14,-1,-1,-1,-1,-1,-1,-1,-1],"split_conditions":[-1.8369701E-16,1.821407E0,2.5519497E11,2.3899E2,-5E-1,-5E-1,5.917648E6,-1.4027913E1,-4.0830626E0,4.83926E0,-3.4915283E0,3.0369508E0,-2.6861897E1,1.4017482E1,6.834614E-1],"split_indices":[9,2,1,7,9,8,3,0,0,0,0,0,0,0,0],"split_type":[0,0,0,0,0,0,0,0,0,0,0,0,0,0,0],"sum_hessian":[1.06E2,4.1E1,6.5E1,1.4E1,2.7E1,4E0,6.1E1,2E0,1.2E1,1.5E1,1.2E1,3E0,1E0,1E1,5.1E1],"tree_param":{"num_deleted":"0","num_feature":"10","num_nodes":"15","size_leaf_vector":"1"}},{"base_weights":[2.4361057E0,7.387744E0,-2.8756569E1,3.595589E0,5.400516E1,-8.582672E0,-1.0659127E1,7.1342287E0,1.1905228E-1,1.3613635E1,1.7627238E0,-3.5459843E0,2.8684E0],"categories":[],"categories_nodes":[],"categories_segments":[],"categories_sizes":[],"default_left":[0,0,0,0,0,0,0,0,0,0,0,0,0],"id":88,"left_children":[1,3,5,7,9,11,-1,-1,-1,-1,-1,-1,-1],"loss_changes":[1.689357E4,1.6423186E4,2.2638602E4,1.425337E4,1.8514629E4,1.4038225E4,0E0,0E0,0E0,0E0,0E0,0E0,0E0],"parents":[2147483647,0,0,1,1,2,2,3,3,4,4,5,5],"right_children":[2,4,6,8,10,12,-1,-1,-1,-1,-1,-1,-1],"split_conditions":[4.2624633E12,5.2476E2,5.258E2,1.1981E2,5.2979E2,5E-1,-1.0659127E1,7.1342287E0,1.1905228E-1,1.3613635E1,1.7627238E0,-3.5459843E0,2.8684E0],"split_indices":[1,7,7,7,7,9,0,0,0,0,0,0,0],"split_type":[0,0,0,0,0,0,0,0,0,0,0,0,0],"sum_hessian":[1.07E2,9.3E1,1.4E1,8.7E1,6E0,1.2E1,2E0,2E0,8.5E1,1E0,5E0,7E0,5E0],"tree_param":{"num_deleted":"0","num_feature":"10","num_nodes":"13","size_leaf_vector":"1"}},{"base_weights":[-5.482364E-1,5.5862503E1,-5.055613E0,1.1184102E2,-2.8076267E0,-6.523997E1,-1.2012788E0,6.099683E0,1.5760889E1,2.3811035E0,-2.552475E1,-9.331626E-1,6.8839836E0],"categories":[],"categories_nodes":[],"categories_segments":[],"categories_sizes":[],"default_left":[0,0,0,0,0,0,0,0,0,0,0,0,0],"id":89,"left_children":[1,3,5,7,-1,9,11,-1,-1,-1,-1,-1,-1],"loss_changes":[2.7488715E4,4.073022E4,2.3118691E4,2.0215078E3,0E0,1.0759987E5,5.4740957E4,0E0,0E0,0E0,0E0,0E0,0E0],"parents":[2147483647,0,0,1,1,2,2,3,3,5,5,6,6],"right_children":[2,4,6,8,-1,10,12,-1,-1,-1,-1,-1,-1],"split_conditions":[-8.660254E-1,7.1831E3,2.5519497E11,6.2934E3,-2.8076267E0,2.396E2,1E0,6.099683E0,1.5760889E1,2.3811035E0,-2.552475E1,-9.331626E-1,6.8839836E0],"split_indices":[8,0,1,0,0,7,8,0,0,0,0,0,0],"split_type":[0,0,0,0,0,0,0,0,0,0,0,0,0],"sum_hessian":[1.06E2,7E0,9.9E1,4E0,3E0,5E0,9.4E1,3E0,1E0,4E0,1E0,8.5E1,9E0],"tree_param":{"num_deleted":"0","num_feature":"10","num_nodes":"13","size_leaf_vector":"1"}},{"base_weights":[-1.3543485E1,-4.599928E1,-4.4488482E0,1.2779728E1,-6.97688E1,6.720817E0,-7.147851E0,-8.4777385E-1,-1.3021209E1,-9.908317E0,-3.4247747E-1],"categories":[],"categories_nodes":[],"categories_segments":[],"categories_sizes":[],"default_left":[0,0,0,0,0,0,0,0,0,0,0],"id":90,"left_children":[1,3,5,-1,7,-1,9,-1,-1,-1,-1],"loss_changes":[2.9607893E4,9.97996E4,1.5952593E4,0E0,7.2988766E4,0E0,2.6358676E4,0E0,0E0,0E0,0E0],"parents":[2147483647,0,0,1,1,2,2,4,4,6,6],"right_children":[2,4,6,-1,8,-1,10,-1,-1,-1,-1],"split_conditions":[5.917648E6,-8.660254E-1,1.1981E2,1.2779728E1,2.396E2,6.720817E0,1.2134E2,-8.4777385E-1,-1.3021209E1,-9.908317E0,-3.4247747E-1],"split_indices":[3,8,7,0,7,0,7,0,0,0,0],"split_type":[0,0,0,0,0,0,0,0,0,0,0],"sum_hessian":[1E2,2.1E1,7.9E1,2E0,1.9E1,2E0,7.7E1,1E1,9E0,2E0,7.5E1],"tree_param":{"num_deleted":"0","num_feature":"10","num_nodes":"11","size_leaf_vector":"1"}},{"base_weights":[2.2940946E0,7.8150578E0,-2.706948E1,-1.4697807E0,4.5036064E1,-4.614602E1,2.7943409E1,5.153242E-1,-3.5566247E0,2.1569037E0,8.837528E0,-1.318042E0,-5.0941544E0,7.7729493E-1,3.1042786E0],"categories":[],"categories_nodes":[],"categories_segments":[],"categories_sizes":[],"default_left":[0,0,0,0,0,0,0,0,0,0,0,0,0,0,0],"id":91,"left_children":[1,3,5,7,9,11,13,-1,-1,-1,-1,-1,-1,-1,-1],"loss_changes":[1.7395764E4,3.116939E4,1.9130219E4,1.6668262E4,1.6400594E4,1.3837051E3,7.128516E1,0E0,0E0,0E0,0E0,0E0,0E0,0E0,0E0],"parents":[2147483647,0,0,1,1,2,2,3,3,4,4,5,5,6,6],"right_children":[2,4,6,8,10,12,14,-1,-1,-1,-1,-1,-1,-1,-1],"split_conditions":[5.1882E2,4.9295E2,5.4668E2,4.6367E2,7.8178E3,-8.660254E-1,5.5861E2,5.153242E-1,-3.5566247E0,2.1569037E0,8.837528E0,-1.318042E0,-5.0941544E0,7.7729493E-1,3.1042786E0],"split_indices":[7,7,7,7,0,8,7,0,0,0,0,0,0,0,0],"split_type":[0,0,0,0,0,0,0,0,0,0,0,0,0,0,0],"sum_hessian":[1.05E2,8.9E1,1.6E1,7.2E1,1.7E1,1.2E1,4E0,6.1E1,1.1E1,1.2E1,5E0,2E0,1E1,1E0,3E0],"tree_param":{"num_deleted":"0","num_feature":"10","num_nodes":"15","size_leaf_vector":"1"}},{"base_weights":[5.611982E0,9.304014E0,-2.6853294E1,6.2384276E0,7.651614E0,-3.6107784E1,6.826287E-2,-9.282113E0,1.058928E0,-6.848267E-1,-4.3489323E0],"categories":[],"categories_nodes":[],"categories_segments":[],"categories_sizes":[],"default_left":[0,0,0,0,0,0,0,0,0,0,0],"id":92,"left_children":[1,3,5,-1,7,9,-1,-1,-1,-1,-1],"loss_changes":[1.4034068E4,8.644482E3,3.08262E3,0E0,3.1088756E4,1.6459961E3,0E0,0E0,0E0,0E0,0E0],"parents":[2147483647,0,0,1,1,2,2,4,4,5,5],"right_children":[2,4,6,-1,8,10,-1,-1,-1,-1,-1],"split_conditions":[8.5375E0,1.1981E2,5.0983E2,6.2384276E0,1.2134E2,4.5778E2,6.826287E-2,-9.282113E0,1.058928E0,-6.848267E-1,-4.3489323E0],"split_indices":[2,7,7,0,7,7,0,0,0,0,0],"split_type":[0,0,0,0,0,0,0,0,0,0,0],"sum_hessian":[1.14E2,1.03E2,1.1E1,2E0,1.01E2,8E0,3E0,2E0,9.9E1,2E0,6E0],"tree_param":{"num_deleted":"0","num_feature":"10","num_nodes":"11","size_leaf_vector":"1"}},{"base_weights":[-7.828179E0,-3.6912928E0,-3.9926178E1,2.0829557E1,-1.1366474E1,-9.835327E0,-8.008631E0,-6.0001955E0,8.762318E0,-1.6306536E-1,-6.609286E0,4.793274E-1,-1.9571142E0],"categories":[],"categories_nodes":[],"categories_segments":[],"categories_sizes":[],"default_left":[0,0,0,0,0,0,0,0,0,0,0,0,0],"id":93,"left_children":[1,3,5,7,9,11,-1,-1,-1,-1,-1,-1,-1],"loss_changes":[1.3927912E4,1.8115947E4,1.3713756E4,1.2943523E5,3.8787082E4,1.2331807E3,0E0,0E0,0E0,0E0,0E0,0E0,0E0],"parents":[2147483647,0,0,1,1,2,2,3,3,4,4,5,5],"right_children":[2,4,6,8,10,12,-1,-1,-1,-1,-1,-1,-1],"split_conditions":[4.2624633E12,1.821407E0,1.2246469E-16,-1.8369701E-16,8.660254E-1,-5E-1,-8.008631E0,-6.0001955E0,8.762318E0,-1.6306536E-1,-6.609286E0,4.793274E-1,-1.9571142E0],"split_indices":[1,2,8,9,8,8,0,0,0,0,0,0,0],"split_type":[0,0,0,0,0,0,0,0,0,0,0,0,0],"sum_hessian":[1.05E2,9.4E1,1.1E1,2.2E1,7.2E1,7E0,4E0,1E1,1.2E1,6.2E1,1E1,3E0,4E0],"tree_param":{"num_deleted":"0","num_feature":"10","num_nodes":"13","size_leaf_vector":"1"}},{"base_weights":[-4.393784E0,1.7429599E0,-3.3877293E1,-5.2680354E0,4.475347E1,-4.9918194E1,2.1020875E0,2.157893E0,-1.3983959E0,-4.3475556E-1,6.705921E0,-3.337254E0,-7.6335E0],"categories":[],"categories_nodes":[],"categories_segments":[],"categories_sizes":[],"default_left":[0,0,0,0,0,0,0,0,0,0,0,0,0],"id":94,"left_children":[1,3,5,7,9,11,-1,-1,-1,-1,-1,-1,-1],"loss_changes":[1.9961646E4,2.797804E4,1.7781031E4,1.9021445E4,1.4529598E4,4.0087578E3,0E0,0E0,0E0,0E0,0E0,0E0,0E0],"parents":[2147483647,0,0,1,1,2,2,3,3,4,4,5,5],"right_children":[2,4,6,8,10,12,-1,-1,-1,-1,-1,-1,-1],"split_conditions":[5.1882E2,5.0763E2,5.4668E2,1.3272E2,4.338577E11,5.258E2,2.1020875E0,2.157893E0,-1.3983959E0,-4.3475556E-1,6.705921E0,-3.337254E0,-7.6335E0],"split_indices":[7,7,7,7,1,7,0,0,0,0,0,0,0],"split_type":[0,0,0,0,0,0,0,0,0,0,0,0,0],"sum_hessian":[1.09E2,9.1E1,1.8E1,7.9E1,1.2E1,1.4E1,4E0,1.9E1,6E1,4E0,8E0,1E1,4E0],"tree_param":{"num_deleted":"0","num_feature":"10","num_nodes":"13","size_leaf_vector":"1"}},{"base_weights":[3.205694E0,3.8276367E1,-4.4902654E0,-1.3691243E1,7.731565E1,-5.9102554E1,8.649159E0,5.9044433E0,-4.2907786E0,1.1816223E1,4.7227907E0,-3.3701737E0,-2.3275782E1,1.4920343E1,2.5406748E-2],"categories":[],"categories_nodes":[],"categories_segments":[],"categories_sizes":[],"default_left":[0,0,0,0,0,0,0,0,0,0,0,0,0,0,0],"id":95,"left_children":[1,3,5,7,9,11,13,-1,-1,-1,-1,-1,-1,-1,-1],"loss_changes":[2.8511633E4,3.9605344E4,6.294013E4,2.165923E4,7.9382344E3,6.714241E4,8.373968E4,0E0,0E0,0E0,0E0,0E0,0E0,0E0,0E0],"parents":[2147483647,0,0,1,1,2,2,3,3,4,4,5,5,6,6],"right_children":[2,4,6,8,10,12,14,-1,-1,-1,-1,-1,-1,-1,-1],"split_conditions":[1.3272E2,1.2618E2,2.4181E2,1.1981E2,1.2246469E-16,2.396E2,2.4775E2,5.9044433E0,-4.2907786E0,1.1816223E1,4.7227907E0,-3.3701737E0,-2.3275782E1,1.4920343E1,2.5406748E-2],"split_indices":[7,7,7,7,8,7,7,0,0,0,0,0,0,0,0],"split_type":[0,0,0,0,0,0,0,0,0,0,0,0,0,0,0],"sum_hessian":[1.04E2,1.8E1,8.6E1,8E0,1E1,1.6E1,7E1,2E0,6E0,3E0,7E0,1.5E1,1E0,3E0,6.7E1],"tree_param":{"num_deleted":"0","num_feature":"10","num_nodes":"15","size_leaf_vector":"1"}},{"base_weights":[1.3486263E1,5.1866783E1,2.172319E0,2.361325E1,1.3740076E2,-4.1574062E1,4.8132896E0,1.0721827E1,2.5524688E-1,4.976543E0,2.877887E1,-5.8170843E0,-1.1119263E0,9.756631E-1,-2.2174957E0],