{"learner":{"attributes":{"scikit_learn":"{\"_estimator_type\": \"regressor\"}"},"feature_names":["distance_km","gdp_usd","gdp_growth_pct","population","tourism_arrivals_baseline","competitor_count","competitor_avg_fare_usd","avg_fare_usd","month_sin","month_cos"],"feature_types":["float","float","float","float","float","int","float","float","float","float"],"gradient_booster":{"model":{"gbtree_model_param":{"num_parallel_tree":"1","num_trees":"150"},"iteration_indptr":[0,1,2,3,4,5,6,7,8,9,10,11,12,13,14,15,16,17,18,19,20,21,22,23,24,25,26,27,28,29,30,31,32,33,34,35,36,37,38,39,40,41,42,43,44,45,46,47,48,49,50,51,52,53,54,55,56,57,58,59,60,61,62,63,64,65,66,67,68,69,70,71,72,73,74,75,76,77,78,79,80,81,82,83,84,85,86,87,88,89,90,91,92,93,94,95,96,97,98,99,100,101,102,103,104,105,106,107,108,109,110,111,112,113,114,115,116,117,118,119,120,121,122,123,124,125,126,127,128,129,130,131,132,133,134,135,136,137,138,139,140,141,142,143,144,145,146,147,148,149,150],"tree_info":[0,0,0,0,0,0,0,0,0,0,0,0,0,0,0,0,0,0,0,0,0,0,0,0,0,0,0,0,0,0,0,0,0,0,0,0,0,0,0,0,0,0,0,0,0,0,0,0,0,0,0,0,0,0,0,0,0,0,0,0,0,0,0,0,0,0,0,0,0,0,0,0,0,0,0,0,0,0,0,0,0,0,0,0,0,0,0,0,0,0,0,0,0,0,0,0,0,0,0,0,0,0,0,0,0,0,0,0,0,0,0,0,0,0,0,0,0,0,0,0,0,0,0,0,0,0,0,0,0,0,0,0,0,0,0,0,0,0,0,0,0,0,0,0,0,0,0,0,0,0],"trees":[{"base_weights":[-1.3140675E2,1.568118E3,-2.7584949E3,-1.3257631E2,2.9418044E3,-3.2743817E2,-2.2351475E3,-7.6138535E1,1.0227652E2,3.6001083E2,1.7801723E2,-1.535423E2,-2.8069202E2],"categories":[],"categories_nodes":[],"categories_segments":[],"categories_sizes":[],"default_left":[0,0,0,0,0,0,0,0,0,0,0,0,0],"id":0,"left_children":[1,3,5,7,9,-1,11,-1,-1,-1,-1,-1,-1],"loss_changes":[4.7759462E8,1.5224435E8,4.020768E6,2.2573394E7,2.112064E7,0E0,5.292184E6,0E0,0E0,0E0,0E0,0E0,0E0],"parents":[2147483647,0,0,1,1,2,2,3,3,4,4,6,6],"right_children":[2,4,6,8,10,-1,12,-1,-1,-1,-1,-1,-1],"split_conditions":[7.1831E3,5.917648E6,7.8178E3,4.2545E2,2.1591E3,-3.2743817E2,4.2624633E12,-7.6138535E1,1.0227652E2,3.6001083E2,1.7801723E2,-1.535423E2,-2.8069202E2],"split_indices":[0,3,0,7,0,0,1,0,0,0,0,0,0],"split_type":[0,0,0,0,0,0,0,0,0,0,0,0,0],"sum_hessian":[1.05E2,6.4E1,4.1E1,2.9E1,3.5E1,1.8E1,2.3E1,1.9E1,1E1,2.1E1,1.4E1,1.2E1,1.1E1],"tree_param":{"num_deleted":"0","num_feature":"10","num_nodes":"13","size_leaf_vector":"1"}},{"base_weights":[-1.26112434E2,1.3825634E3,-2.5298066E3,7.162985E1,2.5790845E3,-2.6946298E2,-1.0917633E2,-6.757332E1,1.2733986E2,3.2077048E2,1.6321167E2],"categories":[],"categories_nodes":[],"categories_segments":[],"categories_sizes":[],"default_left":[0,0,0,0,0,0,0,0,0,0,0],"id":1,"left_children":[1,3,5,7,9,-1,-1,-1,-1,-1,-1],"loss_changes":[3.9514832E8,1.0490876E8,7.013056E6,3.0499676E7,1.5599552E7,0E0,0E0,0E0,0E0,0E0,0E0],"parents":[2147483647,0,0,1,1,2,2,3,3,4,4],"right_children":[2,4,6,8,10,-1,-1,-1,-1,-1,-1],"split_conditions":[7.1831E3,5.917648E6,5.3148E2,4.2545E2,2.1591E3,-2.6946298E2,-1.0917633E2,-6.757332E1,1.2733986E2,3.2077048E2,1.6321167E2],"split_indices":[0,3,7,7,0,0,0,0,0,0,0],"split_type":[0,0,0,0,0,0,0,0,0,0,0],"sum_hessian":[1.07E2,6.6E1,4.1E1,3.2E1,3.4E1,3.6E1,5E0,2E1,1.2E1,1.9E1,1.5E1],"tree_param":{"num_deleted":"0","num_feature":"10","num_nodes":"11","size_leaf_vector":"1"}},{"base_weights":[-1.6440845E0,1.3008729E3,-2.2726572E3,2.9862057E2,4.2992664E2,-2.3989907E3,-9.337918E1,-6.1137768E1,1.2544445E2,-1.06530235E2,-2.4907335E2],"categories":[],"categories_nodes":[],"categories_segments":[],"categories_sizes":[],"default_left":[0,0,0,0,0,0,0,0,0,0,0],"id":2,"left_children":[1,3,5,-1,7,9,-1,-1,-1,-1,-1],"loss_changes":[3.1650797E8,9.852889E7,4.356448E6,0E0,4.0261344E7,1.629072E6,0E0,0E0,0E0,0E0,0E0],"parents":[2147483647,0,0,1,1,2,2,4,4,5,5],"right_children":[2,4,6,-1,8,10,-1,-1,-1,-1,-1],"split_conditions":[7.1831E3,2.1591E3,5.3148E2,2.9862057E2,4.2545E2,-8.660254E-1,-9.337918E1,-6.1137768E1,1.2544445E2,-1.06530235E2,-2.4907335E2],"split_indices":[0,0,7,0,7,8,0,0,0,0,0],"split_type":[0,0,0,0,0,0,0,0,0,0,0],"sum_hessian":[1.05E2,6.7E1,3.8E1,2.2E1,4.5E1,3.4E1,4E0,2E1,2.5E1,3E0,3.1E1],"tree_param":{"num_deleted":"0","num_feature":"10","num_nodes":"11","size_leaf_vector":"1"}},{"base_weights":[2.2015696E1,1.2698392E3,-2.0388562E3,4.6225082E1,2.2169846E3,-2.4843095E2,-1.5826925E3,6.3707336E1,-9.9161156E1,2.6788144E2,1.356814E2,-9.96196E1,-2.086173E2],"categories":[],"categories_nodes":[],"categories_segments":[],"categories_sizes":[],"default_left":[0,0,0,0,0,0,0,0,0,0,0,0,0],"id":3,"left_children":[1,3,5,7,9,-1,11,-1,-1,-1,-1,-1,-1],"loss_changes":[2.931803E8,8.21823E7,4.80568E6,2.0254256E7,1.225544E7,0E0,5.008708E6,0E0,0E0,0E0,0E0,0E0,0E0],"parents":[2147483647,0,0,1,1,2,2,3,3,4,4,6,6],"right_children":[2,4,6,8,10,-1,12,-1,-1,-1,-1,-1,-1],"split_conditions":[7.1831E3,5.917648E6,7.8178E3,5E-1,2.1591E3,-2.4843095E2,4.2624633E12,6.3707336E1,-9.9161156E1,2.6788144E2,1.356814E2,-9.96196E1,-2.086173E2],"split_indices":[0,3,0,8,0,0,1,0,0,0,0,0,0],"split_type":[0,0,0,0,0,0,0,0,0,0,0,0,0],"sum_hessian":[1.12E2,7E1,4.2E1,3.1E1,3.9E1,1.9E1,2.3E1,2E1,1.1E1,2.4E1,1.5E1,1.2E1,1.1E1],"tree_param":{"num_deleted":"0","num_feature":"10","num_nodes":"13","size_leaf_vector":"1"}},{"base_weights":[-4.364562E0,1.0926932E3,-1.80657E3,7.010919E1,1.9751954E3,-2.2447005E2,-1.3470405E3,5.964622E1,-9.007138E1,2.4276561E2,1.22961235E2,-9.336338E1,-1.7911058E2],"categories":[],"categories_nodes":[],"categories_segments":[],"categories_sizes":[],"default_left":[0,0,0,0,0,0,0,0,0,0,0,0,0],"id":4,"left_children":[1,3,5,7,9,-1,11,-1,-1,-1,-1,-1,-1],"loss_changes":[2.1945762E8,6.2129376E7,5.43232E6,1.74001E7,9.496768E6,0E0,2.550092E6,0E0,0E0,0E0,0E0,0E0,0E0],"parents":[2147483647,0,0,1,1,2,2,3,3,4,4,6,6],"right_children":[2,4,6,8,10,-1,12,-1,-1,-1,-1,-1,-1],"split_conditions":[7.1831E3,5.917648E6,7.8178E3,5E-1,2.1591E3,-2.2447005E2,4.2624633E12,5.964622E1,-9.007138E1,2.4276561E2,1.22961235E2,-9.336338E1,-1.7911058E2],"split_indices":[0,3,0,8,0,0,1,0,0,0,0,0,0],"split_type":[0,0,0,0,0,0,0,0,0,0,0,0,0],"sum_hessian":[1.09E2,6.8E1,4.1E1,3.2E1,3.6E1,1.9E1,2.2E1,2.1E1,1.1E1,2.1E1,1.5E1,1.3E1,9E0],"tree_param":{"num_deleted":"0","num_feature":"10","num_nodes":"13","size_leaf_vector":"1"}},{"base_weights":[-3.423481E1,9.8036383E2,-1.6761031E3,-1.08599335E2,1.7928903E3,-2.0269208E2,-1.328535E3,4.7095436E1,-9.027045E1,2.1698059E2,1.11546104E2,-1.7307556E2,-8.550594E1],"categories":[],"categories_nodes":[],"categories_segments":[],"categories_sizes":[],"default_left":[0,0,0,0,0,0,0,0,0,0,0,0,0],"id":5,"left_children":[1,3,5,7,9,-1,11,-1,-1,-1,-1,-1,-1],"loss_changes":[1.8321947E8,6.0361884E7,2.428352E6,1.423193E7,7.537672E6,0E0,3.0907E6,0E0,0E0,0E0,0E0,0E0,0E0],"parents":[2147483647,0,0,1,1,2,2,3,3,4,4,6,6],"right_children":[2,4,6,8,10,-1,12,-1,-1,-1,-1,-1,-1],"split_conditions":[7.1831E3,5.917648E6,7.8178E3,5E-1,2.1591E3,-2.0269208E2,1.3942518E0,4.7095436E1,-9.027045E1,2.1698059E2,1.11546104E2,-1.7307556E2,-8.550594E1],"split_indices":[0,3,0,8,0,0,2,0,0,0,0,0,0],"split_type":[0,0,0,0,0,0,0,0,0,0,0,0,0],"sum_hessian":[1.08E2,6.7E1,4.1E1,2.9E1,3.8E1,1.8E1,2.3E1,1.7E1,1.2E1,2.3E1,1.5E1,1.1E1,1.2E1],"tree_param":{"num_deleted":"0","num_feature":"10","num_nodes":"13","size_leaf_vector":"1"}},{"base_weights":[7.236767E1,9.4147815E2,-1.4980359E3,3.056665E1,1.6347782E3,-1.8459464E2,-1.113661E3,-4.476902E1,8.0078415E1,1.0131099E2,1.9783775E2,-7.507046E1,-1.4741385E2],"categories":[],"categories_nodes":[],"categories_segments":[],"categories_sizes":[],"default_left":[0,0,0,0,0,0,0,0,0,0,0,0,0],"id":6,"left_children":[1,3,5,7,9,-1,11,-1,-1,-1,-1,-1,-1],"loss_changes":[1.5700374E8,4.668362E7,3.42708E6,1.2514441E7,6.967088E6,0E0,1.771784E6,0E0,0E0,0E0,0E0,0E0,0E0],"parents":[2147483647,0,0,1,1,2,2,3,3,4,4,6,6],"right_children":[2,4,6,8,10,-1,12,-1,-1,-1,-1,-1,-1],"split_conditions":[9.968066E7,5.917648E6,5.0543952E11,4.2545E2,5.0901785E11,-1.8459464E2,4.2624633E12,-4.476902E1,8.0078415E1,1.0131099E2,1.9783775E2,-7.507046E1,-1.4741385E2],"split_indices":[3,3,1,7,1,0,1,0,0,0,0,0,0],"split_type":[0,0,0,0,0,0,0,0,0,0,0,0,0],"sum_hessian":[1.13E2,7.3E1,4E1,3.2E1,4.1E1,1.9E1,2.1E1,2E1,1.2E1,1.6E1,2.5E1,1.2E1,9E0],"tree_param":{"num_deleted":"0","num_feature":"10","num_nodes":"13","size_leaf_vector":"1"}},{"base_weights":[3.5447243E1,8.2896466E2,-1.3782654E3,4.6464324E0,1.4722216E3,-1.6745964E2,-1.0735455E3,5.1273357E1,-8.164672E1,1.7903679E2,9.177583E1,-6.8222115E1,-1.4384248E2],"categories":[],"categories_nodes":[],"categories_segments":[],"categories_sizes":[],"default_left":[0,0,0,0,0,0,0,0,0,0,0,0,0],"id":7,"left_children":[1,3,5,7,9,-1,11,-1,-1,-1,-1,-1,-1],"loss_changes":[1.2790656E8,3.8701296E7,1.904456E6,1.418614E7,5.589296E6,0E0,2.302758E6,0E0,0E0,0E0,0E0,0E0,0E0],"parents":[2147483647,0,0,1,1,2,2,3,3,4,4,6,6],"right_children":[2,4,6,8,10,-1,12,-1,-1,-1,-1,-1,-1],"split_conditions":[7.1831E3,5.917648E6,7.8178E3,5E-1,2.1591E3,-1.6745964E2,4.2624633E12,5.1273357E1,-8.164672E1,1.7903679E2,9.177583E1,-6.8222115E1,-1.4384248E2],"split_indices":[0,3,0,8,0,0,1,0,0,0,0,0,0],"split_type":[0,0,0,0,0,0,0,0,0,0,0,0,0],"sum_hessian":[1.12E2,7.2E1,4E1,3.2E1,4E1,1.8E1,2.2E1,2E1,1.2E1,2.4E1,1.6E1,1.2E1,1E1],"tree_param":{"num_deleted":"0","num_feature":"10","num_nodes":"13","size_leaf_vector":"1"}},{"base_weights":[-3.307644E1,7.1621423E2,-1.2346573E3,-4.6135144E2,1.1100597E3,-1.5030559E2,-9.812882E2,-1.9320679E-1,-1.1830202E2,1.61148E2,6.8863556E1,-6.336277E1,-1.3051183E2],"categories":[],"categories_nodes":[],"categories_segments":[],"categories_sizes":[],"default_left":[0,0,0,0,0,0,0,0,0,0,0,0,0],"id":8,"left_children":[1,3,5,7,9,-1,11,-1,-1,-1,-1,-1,-1],"loss_changes":[1.0082128E8,3.251288E7,1.449236E6,5.965589E6,9.878432E6,0E0,1.987612E6,0E0,0E0,0E0,0E0,0E0,0E0],"parents":[2147483647,0,0,1,1,2,2,3,3,4,4,6,6],"right_children":[2,4,6,8,10,-1,12,-1,-1,-1,-1,-1,-1],"split_conditions":[7.1831E3,4.1344523E11,7.8178E3,5E-1,2.1591E3,-1.5030559E2,4.2624633E12,-1.9320679E-1,-1.1830202E2,1.61148E2,6.8863556E1,-6.336277E1,-1.3051183E2],"split_indices":[0,1,0,8,0,0,1,0,0,0,0,0,0],"split_type":[0,0,0,0,0,0,0,0,0,0,0,0,0],"sum_hessian":[1.1E2,6.8E1,4.2E1,1.7E1,5.1E1,1.8E1,2.4E1,1.1E1,6E0,2.2E1,2.9E1,1.3E1,1.1E1],"tree_param":{"num_deleted":"0","num_feature":"10","num_nodes":"13","size_leaf_vector":"1"}},{"base_weights":[1.2742799E1,6.6085333E2,-1.0782906E3,-8.574468E1,1.237358E3,-1.3593822E2,-8.4401666E2,3.590643E1,-8.199475E1,7.6914665E1,1.4687907E2,-5.656192E1,-1.1469208E2],"categories":[],"categories_nodes":[],"categories_segments":[],"categories_sizes":[],"default_left":[0,0,0,0,0,0,0,0,0,0,0,0,0],"id":9,"left_children":[1,3,5,7,9,-1,11,-1,-1,-1,-1,-1,-1],"loss_changes":[7.778762E7,2.9804892E7,1.552608E6,1.0418393E7,3.0963E6,0E0,1.459472E6,0E0,0E0,0E0,0E0,0E0,0E0],"parents":[2147483647,0,0,1,1,2,2,3,3,4,4,6,6],"right_children":[2,4,6,8,10,-1,12,-1,-1,-1,-1,-1,-1],"split_conditions":[9.968066E7,5.917648E6,5.0543952E11,5E-1,5.0901785E11,-1.3593822E2,4.2624633E12,3.590643E1,-8.199475E1,7.6914665E1,1.4687907E2,-5.656192E1,-1.1469208E2],"split_indices":[3,3,1,8,1,0,1,0,0,0,0,0,0],"split_type":[0,0,0,0,0,0,0,0,0,0,0,0,0],"sum_hessian":[1.08E2,6.8E1,4E1,3E1,3.8E1,1.6E1,2.4E1,1.9E1,1.1E1,1.4E1,2.4E1,1.4E1,1E1],"tree_param":{"num_deleted":"0","num_feature":"10","num_nodes":"13","size_leaf_vector":"1"}},{"base_weights":[8.365693E1,6.7068646E2,-1.0292006E3,-3.9249655E2,9.4349115E2,-6.851941E2,-1.2088047E3,9.138382E0,-8.273149E1,1.3326268E2,6.0999477E1,-9.616947E1,-5.3592773E1,-1.2319025E2,-3.5032715E1],"categories":[],"categories_nodes":[],"categories_segments":[],"categories_sizes":[],"default_left":[0,0,0,0,0,0,0,0,0,0,0,0,0,0,0],"id":10,"left_children":[1,3,5,7,9,11,13,-1,-1,-1,-1,-1,-1,-1,-1],"loss_changes":[6.9937976E7,2.0673206E7,1.45778E6,3.2316042E6,6.454524E6,1.03684E5,2.4496E4,0E0,0E0,0E0,0E0,0E0,0E0,0E0,0E0],"parents":[2147483647,0,0,1,1,2,2,3,3,4,4,5,5,6,6],"right_children":[2,4,6,8,10,12,14,-1,-1,-1,-1,-1,-1,-1,-1],"split_conditions":[7.1831E3,4.1344523E11,-2.4492937E-16,1.2246469E-16,2.1591E3,7.8178E3,5.3148E2,9.138382E0,-8.273149E1,1.3326268E2,6.0999477E1,-9.616947E1,-5.3592773E1,-1.2319025E2,-3.5032715E1],"split_indices":[0,1,8,8,0,0,7,0,0,0,0,0,0,0,0],"split_type":[0,0,0,0,0,0,0,0,0,0,0,0,0,0,0],"sum_hessian":[1.05E2,6.9E1,3.6E1,1.4E1,5.5E1,1.4E1,2.2E1,7E0,7E0,2.4E1,3.1E1,3E0,1.1E1,2.1E1,1E0],"tree_param":{"num_deleted":"0","num_feature":"10","num_nodes":"15","size_leaf_vector":"1"}},{"base_weights":[-3.5258804E1,5.16979E2,-9.0222156E2,-4.8343357E1,9.894238E2,-1.1292877E2,-6.655458E2,2.7760626E1,-6.66216E1,6.229706E1,1.1694639E2,-4.440025E1,-9.091518E1],"categories":[],"categories_nodes":[],"categories_segments":[],"categories_sizes":[],"default_left":[0,0,0,0,0,0,0,0,0,0,0,0,0],"id":11,"left_children":[1,3,5,7,9,-1,11,-1,-1,-1,-1,-1,-1],"loss_changes":[5.169478E7,1.767535E7,1.505532E6,6.428201E6,1.646604E6,0E0,8.37628E5,0E0,0E0,0E0,0E0,0E0,0E0],"parents":[2147483647,0,0,1,1,2,2,3,3,4,4,6,6],"right_children":[2,4,6,8,10,-1,12,-1,-1,-1,-1,-1,-1],"split_conditions":[9.968066E7,5.917648E6,5.0543952E11,5E-1,5.0901785E11,-1.1292877E2,4.2624633E12,2.7760626E1,-6.66216E1,6.229706E1,1.1694639E2,-4.440025E1,-9.091518E1],"split_indices":[3,3,1,8,1,0,1,0,0,0,0,0,0],"split_type":[0,0,0,0,0,0,0,0,0,0,0,0,0],"sum_hessian":[1.06E2,6.5E1,4.1E1,3E1,3.5E1,1.9E1,2.2E1,2E1,1E1,1.3E1,2.2E1,1.3E1,9E0],"tree_param":{"num_deleted":"0","num_feature":"10","num_nodes":"13","size_leaf_vector":"1"}},{"base_weights":[-3.7050529E0,4.6585287E2,-8.562259E2,-4.4135724E2,7.709284E2,-1.0214522E2,-6.738307E2,-4.278675E0,-1.2313671E2,1.0937931E2,5.1693E1,-3.6304028E1,-9.233638E1],"categories":[],"categories_nodes":[],"categories_segments":[],"categories_sizes":[],"default_left":[0,0,0,0,0,0,0,0,0,0,0,0,0],"id":12,"left_children":[1,3,5,7,9,-1,11,-1,-1,-1,-1,-1,-1],"loss_changes":[4.283151E7,1.9437224E7,4.56902E5,5.615057E6,3.698958E6,0E0,1.293384E6,0E0,0E0,0E0,0E0,0E0,0E0],"parents":[2147483647,0,0,1,1,2,2,3,3,4,4,6,6],"right_children":[2,4,6,8,10,-1,12,-1,-1,-1,-1,-1,-1],"split_conditions":[7.1831E3,4.1344523E11,7.8178E3,5E-1,2.1591E3,-1.0214522E2,4.2624633E12,-4.278675E0,-1.2313671E2,1.0937931E2,5.1693E1,-3.6304028E1,-9.233638E1],"split_indices":[0,1,0,8,0,0,1,0,0,0,0,0,0],"split_type":[0,0,0,0,0,0,0,0,0,0,0,0,0],"sum_hessian":[1.05E2,6.8E1,3.7E1,1.7E1,5.1E1,1.7E1,2E1,1.2E1,5E0,2.1E1,3E1,1E1,1E1],"tree_param":{"num_deleted":"0","num_feature":"10","num_nodes":"13","size_leaf_vector":"1"}},{"base_weights":[-1.9585367E1,4.5845883E2,-7.481131E2,-3.2845587E2,6.9984735E2,-9.081495E1,-5.9034064E2,9.098028E0,-8.2080864E1,9.540718E1,4.9326393E1,-3.6709423E1,-8.4385155E1],"categories":[],"categories_nodes":[],"categories_segments":[],"categories_sizes":[],"default_left":[0,0,0,0,0,0,0,0,0,0,0,0,0],"id":13,"left_children":[1,3,5,7,9,-1,11,-1,-1,-1,-1,-1,-1],"loss_changes":[3.5169824E7,1.1816952E7,4.73856E5,3.1723352E6,1.997762E6,0E0,9.9192E5,0E0,0E0,0E0,0E0,0E0,0E0],"parents":[2147483647,0,0,1,1,2,2,3,3,4,4,6,6],"right_children":[2,4,6,8,10,-1,12,-1,-1,-1,-1,-1,-1],"split_conditions":[7.1831E3,4.1344523E11,7.8178E3,2.396E2,2.1591E3,-9.081495E1,4.2624633E12,9.098028E0,-8.2080864E1,9.540718E1,4.9326393E1,-3.6709423E1,-8.4385155E1],"split_indices":[0,1,0,7,0,0,1,0,0,0,0,0,0],"split_type":[0,0,0,0,0,0,0,0,0,0,0,0,0],"sum_hessian":[9.9E1,6E1,3.9E1,1.4E1,4.6E1,1.7E1,2.2E1,8E0,6E0,1.9E1,2.7E1,1.3E1,9E0],"tree_param":{"num_deleted":"0","num_feature":"10","num_nodes":"13","size_leaf_vector":"1"}},{"base_weights":[-3.5908134E1,3.8905173E2,-6.8733704E2,-1.977041E1,7.100142E2,-8.358068E1,-5.470065E2,-2.8560211E1,4.6535725E1,8.3645134E1,4.9178722E1,-3.3300686E1,-7.510889E1],"categories":[],"categories_nodes":[],"categories_segments":[],"categories_sizes":[],"default_left":[0,0,0,0,0,0,0,0,0,0,0,0,0],"id":14,"left_children":[1,3,5,7,9,-1,11,-1,-1,-1,-1,-1,-1],"loss_changes":[3.016517E7,8.674331E6,4.38706E5,4.0017762E6,6.09548E5,0E0,8.41721E5,0E0,0E0,0E0,0E0,0E0,0E0],"parents":[2147483647,0,0,1,1,2,2,3,3,4,4,6,6],"right_children":[2,4,6,8,10,-1,12,-1,-1,-1,-1,-1,-1],"split_conditions":[7.1831E3,5.917648E6,7.8178E3,4.2545E2,1.3549E2,-8.358068E1,4.2624633E12,-2.8560211E1,4.6535725E1,8.3645134E1,4.9178722E1,-3.3300686E1,-7.510889E1],"split_indices":[0,3,0,7,7,0,1,0,0,0,0,0,0],"split_type":[0,0,0,0,0,0,0,0,0,0,0,0,0],"sum_hessian":[1.07E2,6.5E1,4.2E1,2.9E1,3.6E1,1.8E1,2.4E1,1.9E1,1E1,2.1E1,1.5E1,1.3E1,1.1E1],"tree_param":{"num_deleted":"0","num_feature":"10","num_nodes":"13","size_leaf_vector":"1"}},{"base_weights":[-1.8706501E1,3.505021E2,-6.0723676E2,-3.657002E2,6.013249E2,-7.554905E1,-4.5191885E2,-1.3917875E0,-1.0669452E2,8.033811E1,4.2730553E1,-1.795162E1,-5.375012E1],"categories":[],"categories_nodes":[],"categories_segments":[],"categories_sizes":[],"default_left":[0,0,0,0,0,0,0,0,0,0,0,0,0],"id":15,"left_children":[1,3,5,7,9,-1,11,-1,-1,-1,-1,-1,-1],"loss_changes":[2.3680206E7,1.2255776E7,6.2569E5,4.425491E6,1.414794E6,0E0,4.39706E5,0E0,0E0,0E0,0E0,0E0,0E0],"parents":[2147483647,0,0,1,1,2,2,3,3,4,4,6,6],"right_children":[2,4,6,8,10,-1,12,-1,-1,-1,-1,-1,-1],"split_conditions":[7.1831E3,4.1344523E11,7.8178E3,5E-1,1.3549E2,-7.554905E1,5.1581E2,-1.3917875E0,-1.0669452E2,8.033811E1,4.2730553E1,-1.795162E1,-5.375012E1],"split_indices":[0,1,0,8,7,0,7,0,0,0,0,0,0],"split_type":[0,0,0,0,0,0,0,0,0,0,0,0,0],"sum_hessian":[1.07E2,6.6E1,4.1E1,1.7E1,4.9E1,1.9E1,2.2E1,1.2E1,5E0,2.1E1,2.8E1,6E0,1.6E1],"tree_param":{"num_deleted":"0","num_feature":"10","num_nodes":"13","size_leaf_vector":"1"}},{"base_weights":[1.4485266E0,3.5736255E2,-5.8098914E2,7.480582E2,1.3362956E2,-6.1553784E2,-2.5959097E2,2.854746E1,7.959833E1,-3.276376E1,4.3123116E1,-2.1658415E1,-6.427678E1,-8.173144E0,-3.280879E1],"categories":[],"categories_nodes":[],"categories_segments":[],"categories_sizes":[],"default_left":[0,0,0,0,0,0,0,0,0,0,0,0,0,0,0],"id":16,"left_children":[1,3,5,7,9,11,13,-1,-1,-1,-1,-1,-1,-1,-1],"loss_changes":[2.4046862E7,6.193667E6,3.28783E5,3.4917E5,6.5931575E6,2.84463E5,4.6281875E4,0E0,0E0,0E0,0E0,0E0,0E0,0E0,0E0],"parents":[2147483647,0,0,1,1,2,2,3,3,4,4,5,5,6,6],"right_children":[2,4,6,8,10,12,14,-1,-1,-1,-1,-1,-1,-1,-1],"split_conditions":[7.1831E3,2.3069E2,5.3148E2,-8.660254E-1,4.2545E2,-8.660254E-1,5.3607E2,2.854746E1,7.959833E1,-3.276376E1,4.3123116E1,-2.1658415E1,-6.427678E1,-8.173144E0,-3.280879E1],"split_indices":[0,7,7,8,7,8,7,0,0,0,0,0,0,0,0],"split_type":[0,0,0,0,0,0,0,0,0,0,0,0,0,0,0],"sum_hessian":[1.14E2,7.1E1,4.3E1,2.5E1,4.6E1,3.8E1,5E0,3E0,2.2E1,1.8E1,2.8E1,3E0,3.5E1,2E0,3E0],"tree_param":{"num_deleted":"0","num_feature":"10","num_nodes":"15","size_leaf_vector":"1"}},{"base_weights":[-9.535676E0,2.888784E2,-4.9245523E2,-2.5204762E2,4.7412918E2,-6.1650696E1,-3.6317307E2,2.060654E0,-8.007903E1,6.404074E1,2.6038248E1,-2.1677069E1,-5.6682446E1],"categories":[],"categories_nodes":[],"categories_segments":[],"categories_sizes":[],"default_left":[0,0,0,0,0,0,0,0,0,0,0,0,0],"id":17,"left_children":[1,3,5,7,9,-1,11,-1,-1,-1,-1,-1,-1],"loss_changes":[1.5850249E7,6.9335765E6,4.49684E5,2.7096075E6,1.645862E6,0E0,5.628755E5,0E0,0E0,0E0,0E0,0E0,0E0],"parents":[2147483647,0,0,1,1,2,2,3,3,4,4,6,6],"right_children":[2,4,6,8,10,-1,12,-1,-1,-1,-1,-1,-1],"split_conditions":[7.1831E3,4.1344523E11,7.8178E3,5E-1,1.2246469E-16,-6.1650696E1,4.2624633E12,2.060654E0,-8.007903E1,6.404074E1,2.6038248E1,-2.1677069E1,-5.6682446E1],"split_indices":[0,1,0,8,8,0,1,0,0,0,0,0,0],"split_type":[0,0,0,0,0,0,0,0,0,0,0,0,0],"sum_hessian":[1.08E2,6.7E1,4.1E1,1.7E1,5E1,1.9E1,2.2E1,1.2E1,5E0,2.7E1,2.3E1,1.4E1,8E0],"tree_param":{"num_deleted":"0","num_feature":"10","num_nodes":"13","size_leaf_vector":"1"}},{"base_weights":[-6.6422606E0,2.645372E2,-4.8781973E2,-4.2678467E2,3.848651E2,-5.193829E1,-2.2239803E2,1.0155888E1,-8.839974E1,6.6136665E1,2.0010454E1,-6.183138E0,-2.8722351E1],"categories":[],"categories_nodes":[],"categories_segments":[],"categories_sizes":[],"default_left":[0,0,0,0,0,0,0,0,0,0,0,0,0],"id":18,"left_children":[1,3,5,7,9,-1,11,-1,-1,-1,-1,-1,-1],"loss_changes":[1.4482445E7,6.0704135E6,2.19592E5,2.7469968E6,2.983938E6,0E0,4.4693438E4,0E0,0E0,0E0,0E0,0E0,0E0],"parents":[2147483647,0,0,1,1,2,2,3,3,4,4,6,6],"right_children":[2,4,6,8,10,-1,12,-1,-1,-1,-1,-1,-1],"split_conditions":[7.1831E3,2.5519497E11,5.3148E2,5E-1,2.3069E2,-5.193829E1,5.3607E2,1.0155888E1,-8.839974E1,6.6136665E1,2.0010454E1,-6.183138E0,-2.8722351E1],"split_indices":[0,1,7,8,7,0,7,0,0,0,0,0,0],"split_type":[0,0,0,0,0,0,0,0,0,0,0,0,0],"sum_hessian":[1.09E2,7E1,3.9E1,1E1,6E1,3.4E1,5E0,5E0,5E0,2.3E1,3.7E1,2E0,3E0],"tree_param":{"num_deleted":"0","num_feature":"10","num_nodes":"13","size_leaf_vector":"1"}},{"base_weights":[-5.9461105E-1,2.5228162E2,-4.280617E2,-3.2658743E2,3.5253207E2,-3.0804773E2,-5.3340674E2,2.1158741E1,-8.1033104E1,5.747407E1,1.9286324E1,-4.4737667E1,-1.7717564E1,-4.379141E1,-6.991527E1],"categories":[],"categories_nodes":[],"categories_segments":[],"categories_sizes":[],"default_left":[0,0,0,0,0,0,0,0,0,0,0,0,0,0,0],"id":19,"left_children":[1,3,5,7,9,11,13,-1,-1,-1,-1,-1,-1,-1,-1],"loss_changes":[1.2214774E7,4.2353965E6,3.666865E5,3.035181E6,2.053421E6,3.2188962E5,2.6209E4,0E0,0E0,0E0,0E0,0E0,0E0,0E0,0E0],"parents":[2147483647,0,0,1,1,2,2,3,3,4,4,5,5,6,6],"right_children":[2,4,6,8,10,12,14,-1,-1,-1,-1,-1,-1,-1,-1],"split_conditions":[7.1831E3,2.5519497E11,5E-1,1.2246469E-16,2.3069E2,7.8178E3,4.2624633E12,2.1158741E1,-8.1033104E1,5.747407E1,1.9286324E1,-4.4737667E1,-1.7717564E1,-4.379141E1,-6.991527E1],"split_indices":[0,1,8,8,7,0,1,0,0,0,0,0,0,0,0],"split_type":[0,0,0,0,0,0,0,0,0,0,0,0,0,0,0],"sum_hessian":[1.11E2,7E1,4.1E1,1E1,6E1,2.1E1,2E1,5E0,5E0,2.4E1,3.6E1,9E0,1.2E1,1.5E1,5E0],"tree_param":{"num_deleted":"0","num_feature":"10","num_nodes":"15","size_leaf_vector":"1"}},{"base_weights":[2.0444E0,2.2066676E2,-3.659309E2,4.4784674E2,7.288707E1,-4.7276775E1,-2.416688E2,1.2332557E1,4.8327335E1,-3.5262905E1,2.904683E1,4.6344404E0,-3.3456947E1],"categories":[],"categories_nodes":[],"categories_segments":[],"categories_sizes":[],"default_left":[0,0,0,0,0,0,0,0,0,0,0,0,0],"id":20,"left_children":[1,3,5,7,9,-1,11,-1,-1,-1,-1,-1,-1],"loss_changes":[8.84954E6,2.2838665E6,4.300535E5,2.5081E5,4.0835535E6,0E0,5.773944E5,0E0,0E0,0E0,0E0,0E0,0E0],"parents":[2147483647,0,0,1,1,2,2,3,3,4,4,6,6],"right_children":[2,4,6,8,10,-1,12,-1,-1,-1,-1,-1,-1],"split_conditions":[7.1831E3,2.3227E2,7.8178E3,-8.660254E-1,4.2545E2,-4.7276775E1,5.1581E2,1.2332557E1,4.8327335E1,-3.5262905E1,2.904683E1,4.6344404E0,-3.3456947E1],"split_indices":[0,7,0,8,7,0,7,0,0,0,0,0,0],"split_type":[0,0,0,0,0,0,0,0,0,0,0,0,0],"sum_hessian":[1.08E2,6.8E1,4E1,2.6E1,4.2E1,2E1,2E1,3E0,2.3E1,1.4E1,2.8E1,5E0,1.5E1],"tree_param":{"num_deleted":"0","num_feature":"10","num_nodes":"13","size_leaf_vector":"1"}},{"base_weights":[4.381622E0,2.047308E2,-3.5635645E2,-1.3629106E2,3.2092868E2,-2.5595293E2,-4.6485226E2,2.768461E0,-3.6521816E1,4.6276924E1,1.5037851E1,-3.6456367E1,-1.6009148E1,-3.6071434E1,-6.130091E1],"categories":[],"categories_nodes":[],"categories_segments":[],"categories_sizes":[],"default_left":[0,0,0,0,0,0,0,0,0,0,0,0,0,0,0],"id":21,"left_children":[1,3,5,7,9,11,13,-1,-1,-1,-1,-1,-1,-1,-1],"loss_changes":[8.095325E6,2.8968128E6,3.16754E5,7.23342E5,1.2367195E6,1.81103E5,5.65965E4,0E0,0E0,0E0,0E0,0E0,0E0,0E0,0E0],"parents":[2147483647,0,0,1,1,2,2,3,3,4,4,5,5,6,6],"right_children":[2,4,6,8,10,12,14,-1,-1,-1,-1,-1,-1,-1,-1],"split_conditions":[7.1831E3,4.1344523E11,5E-1,1.2246469E-16,1.2246469E-16,7.8178E3,4.2624633E12,2.768461E0,-3.6521816E1,4.6276924E1,1.5037851E1,-3.6456367E1,-1.6009148E1,-3.6071434E1,-6.130091E1],"split_indices":[0,1,8,8,8,0,1,0,0,0,0,0,0,0,0],"split_type":[0,0,0,0,0,0,0,0,0,0,0,0,0,0,0],"sum_hessian":[1.1E2,7.1E1,3.9E1,1.8E1,5.3E1,2.2E1,1.7E1,1.1E1,7E0,2.8E1,2.5E1,9E0,1.3E1,1.2E1,5E0],"tree_param":{"num_deleted":"0","num_feature":"10","num_nodes":"15","size_leaf_vector":"1"}},{"base_weights":[-1.5718832E1,4.5952188E2,-1.5595224E2,7.936853E0,5.0565628E2,-9.8558515E-1,-3.695283E2,1.9858448E1,5.4178783E1,1.9407063E1,-2.3663744E1,-1.04537315E2,-2.3125961E1],"categories":[],"categories_nodes":[],"categories_segments":[],"categories_sizes":[],"default_left":[0,0,0,0,0,0,0,0,0,0,0,0,0],"id":22,"left_children":[1,3,5,-1,7,9,11,-1,-1,-1,-1,-1,-1],"loss_changes":[7.602506E6,4.15859E5,2.9121858E6,0E0,1.475935E5,2.436123E6,3.21583E6,0E0,0E0,0E0,0E0,0E0,0E0],"parents":[2147483647,0,0,1,1,2,2,4,4,5,5,6,6],"right_children":[2,4,6,-1,8,10,12,-1,-1,-1,-1,-1,-1],"split_conditions":[2.3069E2,-8.660254E-1,5E-1,7.936853E0,1.1893E2,7.1831E3,4.2545E2,1.9858448E1,5.4178783E1,1.9407063E1,-2.3663744E1,-1.04537315E2,-2.3125961E1],"split_indices":[7,8,8,0,7,0,7,0,0,0,0,0,0],"split_type":[0,0,0,0,0,0,0,0,0,0,0,0,0],"sum_hessian":[1.12E2,2.5E1,8.7E1,3E0,2.2E1,5.1E1,3.6E1,3E0,1.9E1,2.8E1,2.3E1,5E0,3.1E1],"tree_param":{"num_deleted":"0","num_feature":"10","num_nodes":"13","size_leaf_vector":"1"}},{"base_weights":[5.075225E0,3.9576074E2,-1.1556938E2,2.9530817E2,6.6464264E1,4.4286873E1,-2.5100049E2,5.897337E1,2.2983122E1,1.9719076E1,-1.5619385E1,-3.8890595E0,-4.2613827E1],"categories":[],"categories_nodes":[],"categories_segments":[],"categories_sizes":[],"default_left":[0,0,0,0,0,0,0,0,0,0,0,0,0],"id":23,"left_children":[1,3,5,7,-1,9,11,-1,-1,-1,-1,-1,-1],"loss_changes":[4.9948185E6,4.7897275E5,1.7647264E6,2.5002225E5,0E0,1.1956626E6,1.6179592E6,0E0,0E0,0E0,0E0,0E0,0E0],"parents":[2147483647,0,0,1,1,2,2,3,3,5,5,6,6],"right_children":[2,4,6,8,-1,10,12,-1,-1,-1,-1,-1,-1],"split_conditions":[2.3069E2,5E-1,1.2246469E-16,-5E-1,6.6464264E1,7.1831E3,3.4963868E0,5.897337E1,2.2983122E1,1.9719076E1,-1.5619385E1,-3.8890595E0,-4.2613827E1],"split_indices":[7,9,8,9,0,0,2,0,0,0,0,0,0],"split_type":[0,0,0,0,0,0,0,0,0,0,0,0,0],"sum_hessian":[1.04E2,2.4E1,8E1,1.9E1,5E0,3.7E1,4.3E1,2E0,1.7E1,2.1E1,1.6E1,2E1,2.3E1],"tree_param":{"num_deleted":"0","num_feature":"10","num_nodes":"13","size_leaf_vector":"1"}},{"base_weights":[-1.2824917E1,1.399561E2,-2.598793E2,-1.21869194E2,2.2962079E2,-3.770606E1,-1.878222E2,5.9933704E1,-1.9954823E1,3.2318176E1,9.160034E0,-1.2125155E1,-2.9552423E1],"categories":[],"categories_nodes":[],"categories_segments":[],"categories_sizes":[],"default_left":[0,0,0,0,0,0,0,0,0,0,0,0,0],"id":24,"left_children":[1,3,5,7,9,-1,11,-1,-1,-1,-1,-1,-1],"loss_changes":[4.1506005E6,1.6243848E6,2.8381675E5,1.1280032E6,6.2897575E5,0E0,1.6492144E5,0E0,0E0,0E0,0E0,0E0,0E0],"parents":[2147483647,0,0,1,1,2,2,3,3,4,4,6,6],"right_children":[2,4,6,8,10,-1,12,-1,-1,-1,-1,-1,-1],"split_conditions":[7.1831E3,4.1344523E11,4.338577E11,2.3069E2,5E-1,-3.770606E1,4.2624633E12,5.9933704E1,-1.9954823E1,3.2318176E1,9.160034E0,-1.2125155E1,-2.9552423E1],"split_indices":[0,1,1,7,8,0,1,0,0,0,0,0,0],"split_type":[0,0,0,0,0,0,0,0,0,0,0,0,0],"sum_hessian":[1.08E2,6.7E1,4.1E1,1.7E1,5E1,1.4E1,2.7E1,1E0,1.6E1,2.9E1,2.1E1,1.8E1,9E0],"tree_param":{"num_deleted":"0","num_feature":"10","num_nodes":"13","size_leaf_vector":"1"}},{"base_weights":[-5.087245E0,3.5394406E2,-1.1357244E2,2.531066E2,5.4919006E2,8.823262E0,-2.9217255E2,5.2887276E1,1.8955336E1,2.8563185E1,6.501986E1,1.5667986E1,-1.8441679E1,-7.4447694E0,-5.183255E1],"categories":[],"categories_nodes":[],"categories_segments":[],"categories_sizes":[],"default_left":[0,0,0,0,0,0,0,0,0,0,0,0,0,0,0],"id":25,"left_children":[1,3,5,7,9,11,13,-1,-1,-1,-1,-1,-1,-1,-1],"loss_changes":[4.363602E6,3.72887E5,1.8825281E6,2.3274112E5,2.725575E4,1.5146288E6,1.684781E6,0E0,0E0,0E0,0E0,0E0,0E0,0E0,0E0],"parents":[2147483647,0,0,1,1,2,2,3,3,4,4,5,5,6,6],"right_children":[2,4,6,8,10,12,14,-1,-1,-1,-1,-1,-1,-1,-1],"split_conditions":[2.3069E2,5E-1,5E-1,-5E-1,-2.4492937E-16,7.1831E3,5E-1,5.2887276E1,1.8955336E1,2.8563185E1,6.501986E1,1.5667986E1,-1.8441679E1,-7.4447694E0,-5.183255E1],"split_indices":[7,9,8,9,8,0,9,0,0,0,0,0,0,0,0],"split_type":[0,0,0,0,0,0,0,0,0,0,0,0,0,0,0],"sum_hessian":[1.1E2,2.5E1,8.5E1,1.8E1,7E0,5.1E1,3.4E1,2E0,1.6E1,3E0,4E0,2.9E1,2.2E1,1.8E1,1.6E1],"tree_param":{"num_deleted":"0","num_feature":"10","num_nodes":"15","size_leaf_vector":"1"}},{"base_weights":[9.465175E-2,3.1809097E2,-9.8594955E1,2.2703525E2,5.0596893E2,-2.574981E2,1.862096E1,4.936146E1,1.699923E1,2.642096E1,5.9818264E1,-1.2537447E1,-4.230745E1,1.6259249E1,-2.5435976E1],"categories":[],"categories_nodes":[],"categories_segments":[],"categories_sizes":[],"default_left":[0,0,0,0,0,0,0,0,0,0,0,0,0,0,0],"id":26,"left_children":[1,3,5,7,9,11,13,-1,-1,-1,-1,-1,-1,-1,-1],"loss_changes":[3.5776335E6,3.47026E5,1.625255E6,2.2021875E5,2.0302625E4,7.5638975E5,2.045731E6,0E0,0E0,0E0,0E0,0E0,0E0,0E0,0E0],"parents":[2147483647,0,0,1,1,2,2,3,3,4,4,5,5,6,6],"right_children":[2,4,6,8,10,12,14,-1,-1,-1,-1,-1,-1,-1,-1],"split_conditions":[2.3069E2,5E-1,5.0543952E11,-5E-1,-2.4492937E-16,5E-1,5.1581E2,4.936146E1,1.699923E1,2.642096E1,5.9818264E1,-1.2537447E1,-4.230745E1,1.6259249E1,-2.5435976E1],"split_indices":[7,9,1,9,8,8,7,0,0,0,0,0,0,0,0],"split_type":[0,0,0,0,0,0,0,0,0,0,0,0,0,0,0],"sum_hessian":[1.12E2,2.6E1,8.6E1,1.9E1,7E0,3.6E1,5E1,2E0,1.7E1,3E0,4E0,2.1E1,1.5E1,3.3E1,1.7E1],"tree_param":{"num_deleted":"0","num_feature":"10","num_nodes":"15","size_leaf_vector":"1"}},{"base_weights":[7.076169E0,1.3354472E2,-2.068844E2,-9.253166E0,2.3825668E2,-1.3226854E2,-3.088331E2,2.2354656E1,-2.7247599E1,1.2503287E1,2.9233448E1,-2.369982E1,-6.288236E0,-2.1231604E1,-4.503951E1],"categories":[],"categories_nodes":[],"categories_segments":[],"categories_sizes":[],"default_left":[0,0,0,0,0,0,0,0,0,0,0,0,0,0,0],"id":27,"left_children":[1,3,5,7,9,11,13,-1,-1,-1,-1,-1,-1,-1,-1],"loss_changes":[3.0582685E6,1.0638424E6,2.7864462E5,1.9605352E6,2.1448725E5,1.7403356E5,1.366475E5,0E0,0E0,0E0,0E0,0E0,0E0,0E0,0E0],"parents":[2147483647,0,0,1,1,2,2,3,3,4,4,5,5,6,6],"right_children":[2,4,6,8,10,12,14,-1,-1,-1,-1,-1,-1,-1,-1],"split_conditions":[7.1831E3,5.917648E6,5E-1,1.2246469E-16,-5E-1,7.8178E3,4.2624633E12,2.2354656E1,-2.7247599E1,1.2503287E1,2.9233448E1,-2.369982E1,-6.288236E0,-2.1231604E1,-4.503951E1],"split_indices":[0,3,8,8,8,0,1,0,0,0,0,0,0,0,0],"split_type":[0,0,0,0,0,0,0,0,0,0,0,0,0,0,0],"sum_hessian":[1.11E2,7E1,4.1E1,3E1,4E1,2.5E1,1.6E1,1.6E1,1.4E1,1.4E1,2.6E1,9E0,1.6E1,1.1E1,5E0],"tree_param":{"num_deleted":"0","num_feature":"10","num_nodes":"15","size_leaf_vector":"1"}},{"base_weights":[-7.6615014E0,2.68016E2,-8.9959816E1,1.7740125E2,4.4972406E2,-8.093918E1,-7.21828E1,4.412181E1,1.2040996E1,5.6989258E1,2.6364445E1,3.1201658E0,-1.7629288E1],"categories":[],"categories_nodes":[],"categories_segments":[],"categories_sizes":[],"default_left":[0,0,0,0,0,0,0,0,0,0,0,0,0],"id":28,"left_children":[1,3,5,7,9,-1,11,-1,-1,-1,-1,-1,-1],"loss_changes":[2.5651435E6,3.4831988E5,1.0542499E6,2.3254294E5,2.8638375E4,0E0,9.311499E5,0E0,0E0,0E0,0E0,0E0,0E0],"parents":[2147483647,0,0,1,1,2,2,3,3,4,4,6,6],"right_children":[2,4,6,8,10,-1,12,-1,-1,-1,-1,-1,-1],"split_conditions":[2.3069E2,5E-1,2.3097E2,-5E-1,4.1080003E0,-8.093918E1,7.1831E3,4.412181E1,1.2040996E1,5.6989258E1,2.6364445E1,3.1201658E0,-1.7629288E1],"split_indices":[7,9,7,9,2,0,0,0,0,0,0,0,0],"split_type":[0,0,0,0,0,0,0,0,0,0,0,0,0],"sum_hessian":[1.11E2,2.5E1,8.6E1,1.8E1,7E0,1E0,8.5E1,2E0,1.6E1,3E0,4E0,4.3E1,4.2E1],"tree_param":{"num_deleted":"0","num_feature":"10","num_nodes":"13","size_leaf_vector":"1"}},{"base_weights":[1.2931564E1,-1.9182323E2,1.1115229E2,4.9208035E1,-2.2448946E2,1.9366356E2,-1.700604E2,-7.689222E1,-1.8696503E1,1.6133692E1,4.153743E1,-3.9843895E0,-2.958498E1],"categories":[],"categories_nodes":[],"categories_segments":[],"categories_sizes":[],"default_left":[0,0,0,0,0,0,0,0,0,0,0,0,0],"id":29,"left_children":[1,3,5,-1,7,9,11,-1,-1,-1,-1,-1,-1],"loss_changes":[2.2938832E6,9.370669E5,1.8195822E6,0E0,5.917015E5,3.630145E5,2.830496E5,0E0,0E0,0E0,0E0,0E0,0E0],"parents":[2147483647,0,0,1,1,2,2,4,4,5,5,6,6],"right_children":[2,4,6,-1,8,10,12,-1,-1,-1,-1,-1,-1],"split_conditions":[5.0543952E11,2.3069E2,5.1581E2,4.9208035E1,2.3097E2,1E0,4.2624633E12,-7.689222E1,-1.8696503E1,1.6133692E1,4.153743E1,-3.9843895E0,-2.958498E1],"split_indices":[1,7,7,0,7,9,1,0,0,0,0,0,0],"split_type":[0,0,0,0,0,0,0,0,0,0,0,0,0],"sum_hessian":[1.12E2,3.6E1,7.6E1,1E0,3.5E1,5.9E1,1.7E1,1E0,3.4E1,5.3E1,6E0,9E0,8E0],"tree_param":{"num_deleted":"0","num_feature":"10","num_nodes":"13","size_leaf_vector":"1"}},{"base_weights":[-1.2369968E1,2.3866486E2,-8.875413E1,1.4733241E2,4.5247223E2,2.376833E1,-1.9136212E2,4.0104786E1,9.38925E0,1.8712158E1,6.0470486E1,1.3658223E1,-5.7131867E0,-2.253492E0,-3.5149105E1],"categories":[],"categories_nodes":[],"categories_segments":[],"categories_sizes":[],"default_left":[0,0,0,0,0,0,0,0,0,0,0,0,0,0,0],"id":30,"left_children":[1,3,5,7,9,11,13,-1,-1,-1,-1,-1,-1,-1,-1],"loss_changes":[2.0537412E6,4.21525E5,9.512961E5,2.1995678E5,1.6961188E5,3.7286984E5,1.1545461E6,0E0,0E0,0E0,0E0,0E0,0E0,0E0,0E0],"parents":[2147483647,0,0,1,1,2,2,3,3,4,4,5,5,6,6],"right_children":[2,4,6,8,10,12,14,-1,-1,-1,-1,-1,-1,-1,-1],"split_conditions":[2.3069E2,5E-1,1.2246469E-16,-5E-1,-2.4492937E-16,5.917648E6,3.4963868E0,4.0104786E1,9.38925E0,1.8712158E1,6.0470486E1,1.3658223E1,-5.7131867E0,-2.253492E0,-3.5149105E1],"split_indices":[7,9,8,9,8,3,2,0,0,0,0,0,0,0,0],"split_type":[0,0,0,0,0,0,0,0,0,0,0,0,0,0,0],"sum_hessian":[1.05E2,2.4E1,8.1E1,1.8E1,6E0,3.9E1,4.2E1,2E0,1.6E1,3E0,3E0,1.6E1,2.3E1,2.1E1,2.1E1],"tree_param":{"num_deleted":"0","num_feature":"10","num_nodes":"15","size_leaf_vector":"1"}},{"base_weights":[-4.8706E0,2.2939943E2,-7.136924E1,1.476436E2,4.185367E2,-2.1382248E2,2.2742667E0,3.7431118E1,9.895853E0,1.730874E1,5.593519E1,-7.129015E1,-1.7203005E1,2.0034643E1,-8.957075E0],"categories":[],"categories_nodes":[],"categories_segments":[],"categories_sizes":[],"default_left":[0,0,0,0,0,0,0,0,0,0,0,0,0,0,0],"id":31,"left_children":[1,3,5,7,9,11,13,-1,-1,-1,-1,-1,-1,-1,-1],"loss_changes":[1.7611794E6,3.2478262E5,9.2367275E5,1.7263E5,1.45124E5,5.0309138E5,1.0912698E6,0E0,0E0,0E0,0E0,0E0,0E0,0E0,0E0],"parents":[2147483647,0,0,1,1,2,2,3,3,4,4,5,5,6,6],"right_children":[2,4,6,8,10,12,14,-1,-1,-1,-1,-1,-1,-1,-1],"split_conditions":[2.3069E2,5E-1,4.338577E11,-5E-1,-2.4492937E-16,2.3097E2,4.5462E2,3.7431118E1,9.895853E0,1.730874E1,5.593519E1,-7.129015E1,-1.7203005E1,2.0034643E1,-8.957075E0],"split_indices":[7,9,1,9,8,7,7,0,0,0,0,0,0,0,0],"split_type":[0,0,0,0,0,0,0,0,0,0,0,0,0,0,0],"sum_hessian":[1.11E2,2.4E1,8.7E1,1.8E1,6E0,2.9E1,5.8E1,2E0,1.6E1,3E0,3E0,1E0,2.8E1,1.8E1,4E1],"tree_param":{"num_deleted":"0","num_feature":"10","num_nodes":"15","size_leaf_vector":"1"}},{"base_weights":[-1.0686204E1,9.364571E1,-1.26627655E2,1.2128784E1,2.9432703E2,-5.764761E2,-9.768309E1,1.2458016E1,-4.265298E1,9.445874E0,3.304089E1,-7.5563515E1,-1.0907897E1,6.374165E0,-1.3379176E1],"categories":[],"categories_nodes":[],"categories_segments":[],"categories_sizes":[],"default_left":[0,0,0,0,0,0,0,0,0,0,0,0,0,0,0],"id":32,"left_children":[1,3,5,7,9,11,13,-1,-1,-1,-1,-1,-1,-1,-1],"loss_changes":[1.3545579E6,9.6160675E5,6.337834E5,2.174231E6,9.13875E4,1.6879144E5,3.057986E5,0E0,0E0,0E0,0E0,0E0,0E0,0E0,0E0],"parents":[2147483647,0,0,1,1,2,2,3,3,4,4,5,5,6,6],"right_children":[2,4,6,8,10,12,14,-1,-1,-1,-1,-1,-1,-1,-1],"split_conditions":[4.5462E2,4.2545E2,4.5787E2,2.396E2,-5E-1,7.1831E3,7.1831E3,1.2458016E1,-4.265298E1,9.445874E0,3.304089E1,-7.5563515E1,-1.0907897E1,6.374165E0,-1.3379176E1],"split_indices":[7,7,7,7,9,0,0,0,0,0,0,0,0,0,0],"split_type":[0,0,0,0,0,0,0,0,0,0,0,0,0,0,0],"sum_hessian":[1.1E2,5.8E1,5.2E1,4.2E1,1.6E1,2E0,5E1,3.4E1,8E0,3E0,1.3E1,1E0,1E0,9E0,4.1E1],"tree_param":{"num_deleted":"0","num_feature":"10","num_nodes":"15","size_leaf_vector":"1"}},{"base_weights":[6.363978E0,1.9168773E2,-5.176592E1,1.5710101E2,5.2817776E1,3.2514248E1,-1.8044843E2,1.3005986E1,4.0304443E1,-3.8383672E0,1.4432521E1,8.809542E0,-3.3809708E1],"categories":[],"categories_nodes":[],"categories_segments":[],"categories_sizes":[],"default_left":[0,0,0,0,0,0,0,0,0,0,0,0,0],"id":33,"left_children":[1,3,5,7,-1,9,11,-1,-1,-1,-1,-1,-1],"loss_changes":[1.1733908E6,2.19613E5,9.0603406E5,1.13845E5,0E0,4.0982512E5,1.4268585E6,0E0,0E0,0E0,0E0,0E0,0E0],"parents":[2147483647,0,0,1,1,2,2,3,3,5,5,6,6],"right_children":[2,4,6,8,-1,10,12,-1,-1,-1,-1,-1,-1],"split_conditions":[2.3069E2,1E0,5E-1,2.1591E3,5.2817776E1,6.123234E-17,-1.8369701E-16,1.3005986E1,4.0304443E1,-3.8383672E0,1.4432521E1,8.809542E0,-3.3809708E1],"split_indices":[7,9,8,0,0,9,9,0,0,0,0,0,0],"split_type":[0,0,0,0,0,0,0,0,0,0,0,0,0],"sum_hessian":[1.07E2,2.5E1,8.2E1,2.4E1,1E0,5E1,3.2E1,2.3E1,1E0,3.1E1,1.9E1,1.2E1,2E1],"tree_param":{"num_deleted":"0","num_feature":"10","num_nodes":"13","size_leaf_vector":"1"}},{"base_weights":[-4.649046E0,1.6965042E2,-5.9858032E1,5.7924805E1,2.6127774E2,-6.6658066E1,-4.413824E1,1.581132E1,-2.4457092E0,1.4434241E1,3.5759274E1,5.0148993E0,-1.0673702E1],"categories":[],"categories_nodes":[],"categories_segments":[],"categories_sizes":[],"default_left":[0,0,0,0,0,0,0,0,0,0,0,0,0],"id":34,"left_children":[1,3,5,7,9,-1,11,-1,-1,-1,-1,-1,-1],"loss_changes":[1.03980494E6,2.5103069E5,7.526576E5,1.1116521E5,1.06061E5,0E0,4.8343625E5,0E0,0E0,0E0,0E0,0E0,0E0],"parents":[2147483647,0,0,1,1,2,2,3,3,4,4,6,6],"right_children":[2,4,6,8,10,-1,12,-1,-1,-1,-1,-1,-1],"split_conditions":[2.3069E2,1.2417E2,2.3097E2,1.1981E2,-1.8369701E-16,-6.6658066E1,4.5462E2,1.581132E1,-2.4457092E0,1.4434241E1,3.5759274E1,5.0148993E0,-1.0673702E1],"split_indices":[7,7,7,7,9,0,7,0,0,0,0,0,0],"split_type":[0,0,0,0,0,0,0,0,0,0,0,0,0],"sum_hessian":[1.06E2,2.5E1,8.1E1,1.2E1,1.3E1,1E0,8E1,5E0,7E0,7E0,6E0,3.2E1,4.8E1],"tree_param":{"num_deleted":"0","num_feature":"10","num_nodes":"13","size_leaf_vector":"1"}},{"base_weights":[8.723057E0,-1.2770669E2,7.502802E1,3.650126E1,-1.5153258E2,1.2710954E2,-1.2822202E2,-6.332516E1,-1.1967628E1,8.37367E0,2.34443E1,-1.6015816E0,-2.3842627E1],"categories":[],"categories_nodes":[],"categories_segments":[],"categories_sizes":[],"default_left":[0,0,0,0,0,0,0,0,0,0,0,0,0],"id":35,"left_children":[1,3,5,-1,7,9,11,-1,-1,-1,-1,-1,-1],"loss_changes":[1.02273025E6,4.896717E5,8.2080175E5,0E0,4.766632E5,2.6434525E5,1.94031E5,0E0,0E0,0E0,0E0,0E0,0E0],"parents":[2147483647,0,0,1,1,2,2,4,4,5,5,6,6],"right_children":[2,4,6,-1,8,10,12,-1,-1,-1,-1,-1,-1],"split_conditions":[5.0543952E11,2.3069E2,5.1581E2,3.650126E1,2.3097E2,8.660254E-1,4.2624633E12,-6.332516E1,-1.1967628E1,8.37367E0,2.34443E1,-1.6015816E0,-2.3842627E1],"split_indices":[1,7,7,0,7,9,1,0,0,0,0,0,0],"split_type":[0,0,0,0,0,0,0,0,0,0,0,0,0],"sum_hessian":[1.11E2,3.6E1,7.5E1,1E0,3.5E1,6E1,1.5E1,1E0,3.4E1,4.4E1,1.6E1,8E0,7E0],"tree_param":{"num_deleted":"0","num_feature":"10","num_nodes":"13","size_leaf_vector":"1"}},{"base_weights":[1.7101627E1,9.2932724E1,-1.0321503E2,6.8431206E1,2.459503E2,-2.4315195E1,-1.446144E2,-7.4283206E-1,1.1921058E1,1.2695312E-4,4.427093E1,-8.823614E0,1.339581E1,-8.633593E0,-3.0711613E1],"categories":[],"categories_nodes":[],"categories_segments":[],"categories_sizes":[],"default_left":[0,0,0,0,0,0,0,0,0,0,0,0,0,0,0],"id":36,"left_children":[1,3,5,7,9,11,13,-1,-1,-1,-1,-1,-1,-1,-1],"loss_changes":[1.0132039E6,2.3811231E5,1.3693903E5,2.3201144E5,4.3553356E5,1.7369161E5,2.3865469E5,0E0,0E0,0E0,0E0,0E0,0E0,0E0,0E0],"parents":[2147483647,0,0,1,1,2,2,3,3,4,4,5,5,6,6],"right_children":[2,4,6,8,10,12,14,-1,-1,-1,-1,-1,-1,-1,-1],"split_conditions":[7.1831E3,1E0,-2.4492937E-16,5.917648E6,5.0901785E11,6.123234E-17,4.2624633E12,-7.4283206E-1,1.1921058E1,1.2695312E-4,4.427093E1,-8.823614E0,1.339581E1,-8.633593E0,-3.0711613E1],"split_indices":[0,9,8,3,1,9,1,0,0,0,0,0,0,0,0],"split_type":[0,0,0,0,0,0,0,0,0,0,0,0,0,0,0],"sum_hessian":[1.09E2,6.7E1,4.2E1,5.9E1,8E0,1.5E1,2.7E1,2.4E1,3.5E1,4E0,4E0,1.1E1,4E0,2.1E1,6E0],"tree_param":{"num_deleted":"0","num_feature":"10","num_nodes":"15","size_leaf_vector":"1"}},{"base_weights":[-1.2014381E1,-1.2848293E2,4.1780533E1,-6.012176E1,-9.6896095E1,1.13962906E2,-5.073778E1,7.8588815E0,-1.8424057E1,7.3434424E0,4.0729248E1,-6.994271E1,-9.885768E-1],"categories":[],"categories_nodes":[],"categories_segments":[],"categories_sizes":[],"default_left":[0,0,0,0,0,0,0,0,0,0,0,0,0],"id":37,"left_children":[1,3,5,-1,7,9,11,-1,-1,-1,-1,-1,-1],"loss_changes":[6.9456375E5,4.64371E5,5.133248E5,0E0,5.3561894E5,4.8128338E5,8.9409475E5,0E0,0E0,0E0,0E0,0E0,0E0],"parents":[2147483647,0,0,1,1,2,2,4,4,5,5,6,6],"right_children":[2,4,6,-1,8,10,12,-1,-1,-1,-1,-1,-1],"split_conditions":[5.0543952E11,2.3097E2,4.5462E2,-6.012176E1,2.396E2,1E0,4.5787E2,7.8588815E0,-1.8424057E1,7.3434424E0,4.0729248E1,-6.994271E1,-9.885768E-1],"split_indices":[1,7,7,0,7,9,7,0,0,0,0,0,0],"split_type":[0,0,0,0,0,0,0,0,0,0,0,0,0],"sum_hessian":[1.09E2,3.4E1,7.5E1,1E0,3.3E1,4.2E1,3.3E1,1.1E1,2.2E1,3.8E1,4E0,1E0,3.2E1],"tree_param":{"num_deleted":"0","num_feature":"10","num_nodes":"13","size_leaf_vector":"1"}},{"base_weights":[6.8946624E-1,-9.8733406E1,5.442224E1,3.7719433E1,-1.2060833E2,1.0278171E2,-1.0173952E2,-5.7115673E1,-9.372135E0,8.128947E0,2.4468485E1,1.5481365E0,-1.9706436E1],"categories":[],"categories_nodes":[],"categories_segments":[],"categories_sizes":[],"default_left":[0,0,0,0,0,0,0,0,0,0,0,0,0],"id":38,"left_children":[1,3,5,-1,7,9,11,-1,-1,-1,-1,-1,-1],"loss_changes":[6.090495E5,4.6192812E5,5.692975E5,0E0,4.1891194E5,1.5394912E5,2.0418394E5,0E0,0E0,0E0,0E0,0E0,0E0],"parents":[2147483647,0,0,1,1,2,2,4,4,5,5,6,6],"right_children":[2,4,6,-1,8,10,12,-1,-1,-1,-1,-1,-1],"split_conditions":[5.0543952E11,2.3069E2,5.1581E2,3.7719433E1,2.3097E2,1E0,4.2624633E12,-5.7115673E1,-9.372135E0,8.128947E0,2.4468485E1,1.5481365E0,-1.9706436E1],"split_indices":[1,7,7,0,7,9,1,0,0,0,0,0,0],"split_type":[0,0,0,0,0,0,0,0,0,0,0,0,0],"sum_hessian":[1.12E2,3.9E1,7.3E1,1E0,3.8E1,5.6E1,1.7E1,1E0,3.7E1,5E1,6E0,8E0,9E0],"tree_param":{"num_deleted":"0","num_feature":"10","num_nodes":"13","size_leaf_vector":"1"}},{"base_weights":[-2.1946795E1,-1.9371188E2,1.0382363E1,-2.0218424E1,-2.6431595E1,-1.045797E2,6.584171E1,7.6242676E0,-5.475918E0,1.21351595E1,-1.7861755E1,1.0667126E1,-1.324252E0],"categories":[],"categories_nodes":[],"categories_segments":[],"categories_sizes":[],"default_left":[0,0,0,0,0,0,0,0,0,0,0,0,0],"id":39,"left_children":[1,3,5,7,-1,9,11,-1,-1,-1,-1,-1,-1],"loss_changes":[5.961844E5,2.0289475E5,5.870763E5,2.4166021E4,0E0,5.234996E5,2.0160894E5,0E0,0E0,0E0,0E0,0E0,0E0],"parents":[2147483647,0,0,1,1,2,2,3,3,5,5,6,6],"right_children":[2,4,6,8,-1,10,12,-1,-1,-1,-1,-1,-1],"split_conditions":[1.4750348E0,-5E-1,5.0543952E11,6.2934E3,-2.6431595E1,2.396E2,4.5462E2,7.6242676E0,-5.475918E0,1.21351595E1,-1.7861755E1,1.0667126E1,-1.324252E0],"split_indices":[2,8,1,0,0,7,7,0,0,0,0,0,0],"split_type":[0,0,0,0,0,0,0,0,0,0,0,0,0],"sum_hessian":[1.06E2,1.6E1,9E1,5E0,1.1E1,2.9E1,6.1E1,1E0,4E0,7E0,2.2E1,4E1,2.1E1],"tree_param":{"num_deleted":"0","num_feature":"10","num_nodes":"13","size_leaf_vector":"1"}},{"base_weights":[-1.7189841E0,5.2852642E1,-5.6259914E1,-3.4794964E1,1.1967569E2,6.075416E1,-1.3965622E2,1.2295215E1,-8.037935E0,3.51047E0,2.2590235E1,1.7603994E1,-2.4437414E1,2.9060903E0,-2.14275E1],"categories":[],"categories_nodes":[],"categories_segments":[],"categories_sizes":[],"default_left":[0,0,0,0,0,0,0,0,0,0,0,0,0,0,0],"id":40,"left_children":[1,3,5,7,9,11,13,-1,-1,-1,-1,-1,-1,-1,-1],"loss_changes":[3.3335247E5,3.321494E5,5.54963E5,1.8965295E5,2.795479E5,8.872665E5,4.2167944E5,0E0,0E0,0E0,0E0,0E0,0E0,0E0,0E0],"parents":[2147483647,0,0,1,1,2,2,3,3,4,4,5,5,6,6],"right_children":[2,4,6,8,10,12,14,-1,-1,-1,-1,-1,-1,-1,-1],"split_conditions":[1.2246469E-16,5.0901785E11,3.4963868E0,2.3457E2,-5E-1,4.2624633E12,2.396E2,1.2295215E1,-8.037935E0,3.51047E0,2.2590235E1,1.7603994E1,-2.4437414E1,2.9060903E0,-2.14275E1],"split_indices":[8,1,2,7,8,1,7,0,0,0,0,0,0,0,0],"split_type":[0,0,0,0,0,0,0,0,0,0,0,0,0,0,0],"sum_hessian":[1.1E2,5.5E1,5.5E1,2.4E1,3.1E1,2.3E1,3.2E1,5E0,1.9E1,1.8E1,1.3E1,1.7E1,6E0,1E1,2.2E1],"tree_param":{"num_deleted":"0","num_feature":"10","num_nodes":"15","size_leaf_vector":"1"}},{"base_weights":[1.4986769E1,6.68894E1,-4.7386703E1,1.2375833E1,2.194353E2,-4.775132E2,-2.008535E1,5.0288577E0,-2.4875721E1,5.4635987E0,2.5326315E1,-5.9125414E0,-6.571444E1,1.1094443E1,-5.2340665E0],"categories":[],"categories_nodes":[],"categories_segments":[],"categories_sizes":[],"default_left":[0,0,0,0,0,0,0,0,0,0,0,0,0,0,0],"id":41,"left_children":[1,3,5,7,9,11,13,-1,-1,-1,-1,-1,-1,-1,-1],"loss_changes":[3.625152E5,5.0454938E5,5.8930375E5,4.6792206E5,7.5359625E4,1.8661256E5,2.1290083E5,0E0,0E0,0E0,0E0,0E0,0E0,0E0,0E0],"parents":[2147483647,0,0,1,1,2,2,3,3,4,4,5,5,6,6],"right_children":[2,4,6,8,10,12,14,-1,-1,-1,-1,-1,-1,-1,-1],"split_conditions":[4.5462E2,4.3502E2,4.5787E2,1.8009E7,-5E-1,4.338577E11,2.601872E7,5.0288577E0,-2.4875721E1,5.4635987E0,2.5326315E1,-5.9125414E0,-6.571444E1,1.1094443E1,-5.2340665E0],"split_indices":[7,7,7,4,9,1,3,0,0,0,0,0,0,0,0],"split_type":[0,0,0,0,0,0,0,0,0,0,0,0,0,0,0],"sum_hessian":[1.1E2,6E1,5E1,4.5E1,1.5E1,2E0,4.8E1,4E1,5E0,3E0,1.2E1,1E0,1E0,9E0,3.9E1],"tree_param":{"num_deleted":"0","num_feature":"10","num_nodes":"15","size_leaf_vector":"1"}},{"base_weights":[3.3112102E0,5.613812E1,-5.245737E1,-3.372569E1,1.1615507E2,4.2928387E1,-2.0893567E2,1.387931E1,-8.643027E0,2.3677862E0,2.3787949E1,1.226097E1,-5.935627E0,6.7100425E0,-5.844394E1],"categories":[],"categories_nodes":[],"categories_segments":[],"categories_sizes":[],"default_left":[0,0,0,0,0,0,0,0,0,0,0,0,0,0,0],"id":42,"left_children":[1,3,5,7,9,11,13,-1,-1,-1,-1,-1,-1,-1,-1],"loss_changes":[3.3290603E5,3.167318E5,8.298883E5,2.3021662E5,3.8835322E5,2.9253375E5,2.2159205E6,0E0,0E0,0E0,0E0,0E0,0E0,0E0,0E0],"parents":[2147483647,0,0,1,1,2,2,3,3,4,4,5,5,6,6],"right_children":[2,4,6,8,10,12,14,-1,-1,-1,-1,-1,-1,-1,-1],"split_conditions":[1.2246469E-16,5.0901785E11,5E-1,2.5519497E11,-5E-1,7.1831E3,3.4963868E0,1.387931E1,-8.643027E0,2.3677862E0,2.3787949E1,1.226097E1,-5.935627E0,6.7100425E0,-5.844394E1],"split_indices":[8,1,9,1,8,0,2,0,0,0,0,0,0,0,0],"split_type":[0,0,0,0,0,0,0,0,0,0,0,0,0,0,0],"sum_hessian":[1.11E2,5.7E1,5.4E1,2.3E1,3.4E1,3.4E1,2E1,5E0,1.8E1,2E1,1.4E1,1.9E1,1.5E1,1.2E1,8E0],"tree_param":{"num_deleted":"0","num_feature":"10","num_nodes":"15","size_leaf_vector":"1"}},{"base_weights":[1.0730108E0,1.216463E2,-3.1953878E1,1.4191854E1,2.1896356E2,-5.2341194E1,-1.972653E1,-4.591443E0,1.0752354E1,7.6345496E0,3.488574E1,-1.3502146E1,7.6917845E-1],"categories":[],"categories_nodes":[],"categories_segments":[],"categories_sizes":[],"default_left":[0,0,0,0,0,0,0,0,0,0,0,0,0],"id":43,"left_children":[1,3,5,7,9,-1,11,-1,-1,-1,-1,-1,-1],"loss_changes":[4.2599616E5,2.3740744E5,4.9445012E5,7.225472E4,1.9566875E5,0E0,2.6341756E5,0E0,0E0,0E0,0E0,0E0,0E0],"parents":[2147483647,0,0,1,1,2,2,3,3,4,4,6,6],"right_children":[2,4,6,8,10,-1,12,-1,-1,-1,-1,-1,-1],"split_conditions":[2.3069E2,1.2417E2,2.3097E2,5E-1,-2.4492937E-16,-5.2341194E1,1.4750348E0,-4.591443E0,1.0752354E1,7.6345496E0,3.488574E1,-1.3502146E1,7.6917845E-1],"split_indices":[7,7,7,9,8,0,2,0,0,0,0,0,0],"split_type":[0,0,0,0,0,0,0,0,0,0,0,0,0],"sum_hessian":[1.05E2,2.2E1,8.3E1,1.1E1,1.1E1,1E0,8.2E1,7E0,4E0,6E0,5E0,1.5E1,6.7E1],"tree_param":{"num_deleted":"0","num_feature":"10","num_nodes":"13","size_leaf_vector":"1"}},{"base_weights":[7.199568E0,-7.001506E1,3.7995426E1,3.3943615E1,-9.417272E1,6.989272E1,-8.432355E1,-4.9724133E1,-6.4162383E0,2.1524136E-1,1.1926666E1,-3.503174E-1,-1.4054749E1],"categories":[],"categories_nodes":[],"categories_segments":[],"categories_sizes":[],"default_left":[0,0,0,0,0,0,0,0,0,0,0,0,0],"id":44,"left_children":[1,3,5,-1,7,9,11,-1,-1,-1,-1,-1,-1],"loss_changes":[2.6660612E5,3.4848988E5,3.1802516E5,0E0,3.4307872E5,2.137981E5,7.675632E4,0E0,0E0,0E0,0E0,0E0,0E0],"parents":[2147483647,0,0,1,1,2,2,4,4,5,5,6,6],"right_children":[2,4,6,-1,8,10,12,-1,-1,-1,-1,-1,-1],"split_conditions":[4.338577E11,2.3069E2,5.1581E2,3.3943615E1,2.3097E2,4.2545E2,4.2624633E12,-4.9724133E1,-6.4162383E0,2.1524136E-1,1.1926666E1,-3.503174E-1,-1.4054749E1],"split_indices":[1,7,7,0,7,7,1,0,0,0,0,0,0],"split_type":[0,0,0,0,0,0,0,0,0,0,0,0,0],"sum_hessian":[1.1E2,3.1E1,7.9E1,1E0,3E1,6.3E1,1.6E1,1E0,2.9E1,2.7E1,3.6E1,7E0,9E0],"tree_param":{"num_deleted":"0","num_feature":"10","num_nodes":"13","size_leaf_vector":"1"}},{"base_weights":[8.994642E0,-7.261287E1,3.7746143E1,5.042348E1,-1.6242815E2,6.960013E1,-7.153813E1,-3.4508302E0,5.3480244E1,-3.8760708E1,-8.648929E0,6.890046E-1,1.1232572E1,-1.605007E0,-1.4582797E1],"categories":[],"categories_nodes":[],"categories_segments":[],"categories_sizes":[],"default_left":[0,0,0,0,0,0,0,0,0,0,0,0,0,0,0],"id":45,"left_children":[1,3,5,7,9,11,13,-1,-1,-1,-1,-1,-1,-1,-1],"loss_changes":[2.6083808E5,3.2865594E5,2.9043256E5,5.5326425E5,2.5717325E5,1.7070288E5,7.598122E4,0E0,0E0,0E0,0E0,0E0,0E0,0E0,0E0],"parents":[2147483647,0,0,1,1,2,2,3,3,4,4,5,5,6,6],"right_children":[2,4,6,8,10,12,14,-1,-1,-1,-1,-1,-1,-1,-1],"split_conditions":[4.338577E11,2.396E2,5.1581E2,2.3946E2,2.5511E2,4.2545E2,5E-1,-3.4508302E0,5.3480244E1,-3.8760708E1,-8.648929E0,6.890046E-1,1.1232572E1,-1.605007E0,-1.4582797E1],"split_indices":[1,7,7,7,7,7,8,0,0,0,0,0,0,0,0],"split_type":[0,0,0,0,0,0,0,0,0,0,0,0,0,0,0],"sum_hessian":[1.09E2,2.8E1,8.1E1,1.2E1,1.6E1,6.3E1,1.8E1,1.1E1,1E0,3E0,1.3E1,2.6E1,3.7E1,1.1E1,7E0],"tree_param":{"num_deleted":"0","num_feature":"10","num_nodes":"15","size_leaf_vector":"1"}},{"base_weights":[-4.5091896E0,4.480472E1,-5.8305702E1,-2.6713778E1,9.817756E1,2.183646E1,-1.8528322E2,1.222809E1,-7.752623E0,1.8136281E0,2.1122679E1,1.5573476E1,-6.8468904E0,6.602833E0,-6.0191803E1],"categories":[],"categories_nodes":[],"categories_segments":[],"categories_sizes":[],"default_left":[0,0,0,0,0,0,0,0,0,0,0,0,0,0,0],"id":46,"left_children":[1,3,5,7,9,11,13,-1,-1,-1,-1,-1,-1,-1,-1],"loss_changes":[2.9973903E5,2.2783427E5,5.535636E5,2.0632038E5,3.038217E5,4.21782E5,2.2385515E6,0E0,0E0,0E0,0E0,0E0,0E0,0E0,0E0],"parents":[2147483647,0,0,1,1,2,2,3,3,4,4,5,5,6,6],"right_children":[2,4,6,8,10,12,14,-1,-1,-1,-1,-1,-1,-1,-1],"split_conditions":[1.2246469E-16,5.0901785E11,5E-1,2.3477E2,-5E-1,2.6659922E7,3.4963868E0,1.222809E1,-7.752623E0,1.8136281E0,2.1122679E1,1.5573476E1,-6.8468904E0,6.602833E0,-6.0191803E1],"split_indices":[8,1,9,7,8,3,2,0,0,0,0,0,0,0,0],"split_type":[0,0,0,0,0,0,0,0,0,0,0,0,0,0,0],"sum_hessian":[1.11E2,5.8E1,5.3E1,2.5E1,3.3E1,3.3E1,2E1,6E0,1.9E1,2E1,1.3E1,1.3E1,2E1,1.3E1,7E0],"tree_param":{"num_deleted":"0","num_feature":"10","num_nodes":"15","size_leaf_vector":"1"}},{"base_weights":[2.870537E0,2.9758022E1,-6.534011E1,2.7022928E2,9.017382E0,-3.1112158E2,-2.6508038E1,1.241649E1,5.0027557E1,3.5327072E0,-5.9838686E0,-4.4055798E1,-1.2112346E1,3.2088844E1,-5.2211304E0],"categories":[],"categories_nodes":[],"categories_segments":[],"categories_sizes":[],"default_left":[0,0,0,0,0,0,0,0,0,0,0,0,0,0,0],"id":47,"left_children":[1,3,5,7,9,11,13,-1,-1,-1,-1,-1,-1,-1,-1],"loss_changes":[1.9451573E5,3.7661534E5,2.780789E5,1.3949281E5,1.30736234E5,4.5008812E4,2.5784303E5,0E0,0E0,0E0,0E0,0E0,0E0,0E0,0E0],"parents":[2147483647,0,0,1,1,2,2,3,3,4,4,5,5,6,6],"right_children":[2,4,6,8,10,12,14,-1,-1,-1,-1,-1,-1,-1,-1],"split_conditions":[8.660254E-1,2.5519497E11,2.5519497E11,5E-1,1.2246469E-16,1E0,4.1344523E11,1.241649E1,5.0027557E1,3.5327072E0,-5.9838686E0,-4.4055798E1,-1.2112346E1,3.2088844E1,-5.2211304E0],"split_indices":[8,1,1,8,8,8,1,0,0,0,0,0,0,0,0],"split_type":[0,0,0,0,0,0,0,0,0,0,0,0,0,0,0],"sum_hessian":[1.04E2,7.5E1,2.9E1,5E0,7E1,3E0,2.6E1,4E0,1E0,5.1E1,1.9E1,1E0,2E0,1E0,2.5E1],"tree_param":{"num_deleted":"0","num_feature":"10","num_nodes":"15","size_leaf_vector":"1"}},{"base_weights":[-6.363825E0,4.0164604E1,-5.1178104E1,-1.0223163E1,1.1290458E2,1.4560713E1,-1.67697E2,-6.7234025E0,2.3929765E0,2.046334E0,1.959371E1,1.1637416E1,-5.6899104E0,4.9784217E0,-4.6320354E1],"categories":[],"categories_nodes":[],"categories_segments":[],"categories_sizes":[],"default_left":[0,0,0,0,0,0,0,0,0,0,0,0,0,0,0],"id":48,"left_children":[1,3,5,7,9,11,13,-1,-1,-1,-1,-1,-1,-1,-1],"loss_changes":[2.3767614E5,2.0640572E5,4.4671106E5,6.780988E4,1.725299E5,2.8309325E5,1.3726699E6,0E0,0E0,0E0,0E0,0E0,0E0,0E0,0E0],"parents":[2147483647,0,0,1,1,2,2,3,3,4,4,5,5,6,6],"right_children":[2,4,6,8,10,12,14,-1,-1,-1,-1,-1,-1,-1,-1],"split_conditions":[1.2246469E-16,6.123234E-17,5E-1,1.821407E0,5.0901785E11,2.6659922E7,3.4963868E0,-6.7234025E0,2.3929765E0,2.046334E0,1.959371E1,1.1637416E1,-5.6899104E0,4.9784217E0,-4.6320354E1],"split_indices":[8,9,9,2,1,3,2,0,0,0,0,0,0,0,0],"split_type":[0,0,0,0,0,0,0,0,0,0,0,0,0,0,0],"sum_hessian":[1.12E2,5.5E1,5.7E1,3.3E1,2.2E1,3.7E1,2E1,1.2E1,2.1E1,1.1E1,1.1E1,1.5E1,2.2E1,1.2E1,8E0],"tree_param":{"num_deleted":"0","num_feature":"10","num_nodes":"15","size_leaf_vector":"1"}},{"base_weights":[5.975866E0,8.030048E1,-2.825404E1,5.428274E1,4.6944305E1,-2.6500888E2,4.4588037E0,-1.8408031E0,1.2378041E1,-3.471623E0,-5.4419567E1,1.478599E1,-4.0617204E0],"categories":[],"categories_nodes":[],"categories_segments":[],"categories_sizes":[],"default_left":[0,0,0,0,0,0,0,0,0,0,0,0,0],"id":49,"left_children":[1,3,5,7,-1,9,11,-1,-1,-1,-1,-1,-1],"loss_changes":[2.7449016E5,3.1875416E5,5.74306E5,1.6898923E5,0E0,5.597595E5,4.3262622E5,0E0,0E0,0E0,0E0,0E0,0E0],"parents":[2147483647,0,0,1,1,2,2,3,3,5,5,6,6],"right_children":[2,4,6,8,-1,10,12,-1,-1,-1,-1,-1,-1],"split_conditions":[2.396E2,2.3946E2,4.2545E2,6.123234E-17,4.6944305E1,5E-1,4.5462E2,-1.8408031E0,1.2378041E1,-3.471623E0,-5.4419567E1,1.478599E1,-4.0617204E0],"split_indices":[7,7,7,9,0,9,7,0,0,0,0,0,0],"split_type":[0,0,0,0,0,0,0,0,0,0,0,0,0],"sum_hessian":[1.06E2,3.3E1,7.3E1,3.2E1,1E0,8E0,6.5E1,1.6E1,1.6E1,5E0,3E0,1.5E1,5E1],"tree_param":{"num_deleted":"0","num_feature":"10","num_nodes":"13","size_leaf_vector":"1"}},{"base_weights":[-1.020725E1,1.0420991E1,-6.951726E1,1.300191E2,-4.466734E0,-3.2695218E2,-3.713949E1,-4.37404E0,3.5815357E1,-6.8126802E0,2.255227E0,-4.0155895E1,-8.886932E0,2.9616577E1,-6.231833E0],"categories":[],"categories_nodes":[],"categories_segments":[],"categories_sizes":[],"default_left":[0,0,0,0,0,0,0,0,0,0,0,0,0,0,0],"id":50,"left_children":[1,3,5,7,9,11,13,-1,-1,-1,-1,-1,-1,-1,-1],"loss_changes":[1.3285823E5,1.448048E5,2.2124192E5,3.7243056E5,1.2709873E5,1.7601469E4,2.3665481E5,0E0,0E0,0E0,0E0,0E0,0E0,0E0,0E0],"parents":[2147483647,0,0,1,1,2,2,3,3,4,4,5,5,6,6],"right_children":[2,4,6,8,10,12,14,-1,-1,-1,-1,-1,-1,-1,-1],"split_conditions":[8.660254E-1,1.2824E2,2.5519497E11,1.2086E2,4.2545E2,2.3097E2,4.1344523E11,-4.37404E0,3.5815357E1,-6.8126802E0,2.255227E0,-4.0155895E1,-8.886932E0,2.9616577E1,-6.231833E0],"split_indices":[8,7,1,7,7,7,1,0,0,0,0,0,0,0,0],"split_type":[0,0,0,0,0,0,0,0,0,0,0,0,0,0,0],"sum_hessian":[1.07E2,8E1,2.7E1,8E0,7.2E1,2E0,2.5E1,5E0,3E0,2.1E1,5.1E1,1E0,1E0,1E0,2.4E1],"tree_param":{"num_deleted":"0","num_feature":"10","num_nodes":"15","size_leaf_vector":"1"}},{"base_weights":[3.1096287E0,8.937174E1,-2.2487907E1,2.0109104E1,2.5470828E2,-3.81481E1,-1.323198E1,2.2536589E1,-1.9633362E0,4.0242466E1,1.1513682E1,-1.045617E1,9.45275E-1],"categories":[],"categories_nodes":[],"categories_segments":[],"categories_sizes":[],"default_left":[0,0,0,0,0,0,0,0,0,0,0,0,0],"id":51,"left_children":[1,3,5,7,9,-1,11,-1,-1,-1,-1,-1,-1],"loss_changes":[2.3165195E5,2.6971756E5,2.6410016E5,1.5125808E5,9.7985E4,0E0,1.6673161E5,0E0,0E0,0E0,0E0,0E0,0E0],"parents":[2147483647,0,0,1,1,2,2,3,3,4,4,6,6],"right_children":[2,4,6,8,10,-1,12,-1,-1,-1,-1,-1,-1],"split_conditions":[2.3069E2,5E-1,2.3097E2,-5E-1,4.1080003E0,-3.81481E1,1.4750348E0,2.2536589E1,-1.9633362E0,4.0242466E1,1.1513682E1,-1.045617E1,9.45275E-1],"split_indices":[7,9,7,9,2,0,2,0,0,0,0,0,0],"split_type":[0,0,0,0,0,0,0,0,0,0,0,0,0],"sum_hessian":[1.03E2,2.3E1,8E1,1.7E1,6E0,1E0,7.9E1,2E0,1.5E1,2E0,4E0,1.5E1,6.4E1],"tree_param":{"num_deleted":"0","num_feature":"10","num_nodes":"13","size_leaf_vector":"1"}},{"base_weights":[-3.343773E-1,4.329414E1,-4.6522724E1,1.489044E2,2.1690086E1,2.1724203E1,-1.4505281E2,3.980357E0,3.5383823E1,-7.495758E0,5.0618815E0,-4.353419E0,7.1273828E0,5.4420767E0,-4.76E1],"categories":[],"categories_nodes":[],"categories_segments":[],"categories_sizes":[],"default_left":[0,0,0,0,0,0,0,0,0,0,0,0,0,0,0],"id":52,"left_children":[1,3,5,7,9,11,13,-1,-1,-1,-1,-1,-1,-1,-1],"loss_changes":[2.115876E5,1.1997718E5,3.460943E5,1.8714206E5,1.3240539E5,1.03342234E5,1.4122238E6,0E0,0E0,0E0,0E0,0E0,0E0,0E0,0E0],"parents":[2147483647,0,0,1,1,2,2,3,3,4,4,5,5,6,6],"right_children":[2,4,6,8,10,12,14,-1,-1,-1,-1,-1,-1,-1,-1],"split_conditions":[1.2246469E-16,1.2824E2,5E-1,1.7344513E12,1.7372667E2,1.7372667E2,3.4963868E0,3.980357E0,3.5383823E1,-7.495758E0,5.0618815E0,-4.353419E0,7.1273828E0,5.4420767E0,-4.76E1],"split_indices":[8,7,9,1,6,6,2,0,0,0,0,0,0,0,0],"split_type":[0,0,0,0,0,0,0,0,0,0,0,0,0,0,0],"sum_hessian":[1.03E2,5.3E1,5E1,8E0,4.5E1,3E1,2E1,6E0,2E0,1E1,3.5E1,1.3E1,1.7E1,1.3E1,7E0],"tree_param":{"num_deleted":"0","num_feature":"10","num_nodes":"15","size_leaf_vector":"1"}},{"base_weights":[-4.469977E0,-5.079017E1,1.4349214E1,7.561168E1,-7.154799E1,-4.991921E1,2.6605038E1,1.2312024E1,-5.721129E0,-5.992829E-1,-1.203398E1,1.1255316E1,-2.0526026E1,-1.3409514E0,7.079E0],"categories":[],"categories_nodes":[],"categories_segments":[],"categories_sizes":[],"default_left":[0,0,0,0,0,0,0,0,0,0,0,0,0,0,0],"id":53,"left_children":[1,3,5,7,9,11,13,-1,-1,-1,-1,-1,-1,-1,-1],"loss_changes":[9.6616734E4,8.937233E4,6.3553438E4,3.859501E4,8.8838375E4,3.512048E5,1.1940805E5,0E0,0E0,0E0,0E0,0E0,0E0,0E0,0E0],"parents":[2147483647,0,0,1,1,2,2,3,3,4,4,5,5,6,6],"right_children":[2,4,6,8,10,12,14,-1,-1,-1,-1,-1,-1,-1,-1],"split_conditions":[4.338577E11,-5E-1,5.917648E6,6.2934E3,-5E-1,5E-1,6.123234E-17,1.2312024E1,-5.721129E0,-5.992829E-1,-1.203398E1,1.1255316E1,-2.0526026E1,-1.3409514E0,7.079E0],"split_indices":[1,8,3,0,9,8,9,0,0,0,0,0,0,0,0],"split_type":[0,0,0,0,0,0,0,0,0,0,0,0,0,0,0],"sum_hessian":[1.09E2,3.1E1,7.8E1,4E0,2.7E1,1.2E1,6.6E1,3E0,1E0,1.2E1,1.5E1,6E0,6E0,3.5E1,3.1E1],"tree_param":{"num_deleted":"0","num_feature":"10","num_nodes":"15","size_leaf_vector":"1"}},{"base_weights":[6.8098884E0,1.724025E1,-8.7682434E1,-4.025522E1,4.1634872E1,-1.8781565E1,-1.6660717E1,2.645321E1,-5.9886923E0,-6.654012E-1,6.540718E0,2.9000428E0,-6.1868167E0],"categories":[],"categories_nodes":[],"categories_segments":[],"categories_sizes":[],"default_left":[0,0,0,0,0,0,0,0,0,0,0,0,0],"id":54,"left_children":[1,3,5,7,9,11,-1,-1,-1,-1,-1,-1,-1],"loss_changes":[1.0894087E5,1.4053147E5,5.6688664E4,1.9534684E5,8.07909E4,1.6205547E4,0E0,0E0,0E0,0E0,0E0,0E0,0E0],"parents":[2147483647,0,0,1,1,2,2,3,3,4,4,5,5],"right_children":[2,4,6,8,10,12,-1,-1,-1,-1,-1,-1,-1],"split_conditions":[5.258E2,4.338577E11,4.2624633E12,2.3069E2,4.2545E2,5.3607E2,-1.6660717E1,2.645321E1,-5.9886923E0,-6.654012E-1,6.540718E0,2.9000428E0,-6.1868167E0],"split_indices":[7,1,1,7,7,7,0,0,0,0,0,0,0],"split_type":[0,0,0,0,0,0,0,0,0,0,0,0,0],"sum_hessian":[1.08E2,9.8E1,1E1,2.9E1,6.9E1,6E0,4E0,1E0,2.8E1,2.3E1,4.6E1,3E0,3E0],"tree_param":{"num_deleted":"0","num_feature":"10","num_nodes":"13","size_leaf_vector":"1"}},{"base_weights":[-1.1348748E1,1.3389441E0,-1.3455325E2,6.932278E1,-1.8102398E1,-2.050563E1,-1.8050144E1,2.863708E1,1.9979893E0,-1.6256348E1,-1.3339542E-1,-2.8191366E0,1.2757874E-1],"categories":[],"categories_nodes":[],"categories_segments":[],"categories_sizes":[],"default_left":[0,0,0,0,0,0,0,0,0,0,0,0,0],"id":55,"left_children":[1,3,5,7,9,11,-1,-1,-1,-1,-1,-1,-1],"loss_changes":[1.674405E5,1.3078121E5,4.87015E4,2.2989338E5,1.8630698E5,7.0559106E2,0E0,0E0,0E0,0E0,0E0,0E0,0E0],"parents":[2147483647,0,0,1,1,2,2,3,3,4,4,5,5],"right_children":[2,4,6,8,10,12,-1,-1,-1,-1,-1,-1,-1],"split_conditions":[4.2624633E12,-5E-1,-5E-1,2.5519497E11,2.5519497E11,5.179E2,-1.8050144E1,2.863708E1,1.9979893E0,-1.6256348E1,-1.3339542E-1,-2.8191366E0,1.2757874E-1],"split_indices":[1,9,8,1,1,7,0,0,0,0,0,0,0],"split_type":[0,0,0,0,0,0,0,0,0,0,0,0,0],"sum_hessian":[1.06E2,9.7E1,9E0,2.1E1,7.6E1,3E0,6E0,3E0,1.8E1,7E0,6.9E1,2E0,1E0],"tree_param":{"num_deleted":"0","num_feature":"10","num_nodes":"13","size_leaf_vector":"1"}},{"base_weights":[6.2564726E0,1.4242905E2,-6.0616245E0,2.536266E2,-5.997455E1,2.563432E1,-3.4653015E1,1.3062545E1,4.343162E1,-9.509701E0,2.2696412E0,-1.5696429E0,1.27130165E1,-3.6862804E1,-1.4327952E0],"categories":[],"categories_nodes":[],"categories_segments":[],"categories_sizes":[],"default_left":[0,0,0,0,0,0,0,0,0,0,0,0,0,0,0],"id":56,"left_children":[1,3,5,7,9,11,13,-1,-1,-1,-1,-1,-1,-1,-1],"loss_changes":[1.8202116E5,2.1777222E5,9.1511414E4,7.661744E4,1.3772788E4,2.0335064E5,3.5448572E5,0E0,0E0,0E0,0E0,0E0,0E0,0E0,0E0],"parents":[2147483647,0,0,1,1,2,2,3,3,4,4,5,5,6,6],"right_children":[2,4,6,8,10,12,14,-1,-1,-1,-1,-1,-1,-1,-1],"split_conditions":[2.5519497E11,2.396E2,4.5462E2,2.3477E2,2.4074E2,4.3502E2,4.5787E2,1.3062545E1,4.343162E1,-9.509701E0,2.2696412E0,-1.5696429E0,1.27130165E1,-3.6862804E1,-1.4327952E0],"split_indices":[1,7,7,7,7,7,7,0,0,0,0,0,0,0,0],"split_type":[0,0,0,0,0,0,0,0,0,0,0,0,0,0,0],"sum_hessian":[1.07E2,8E0,9.9E1,5E0,3E0,4.7E1,5.2E1,4E0,1E0,2E0,1E0,3.4E1,1.3E1,2E0,5E1],"tree_param":{"num_deleted":"0","num_feature":"10","num_nodes":"15","size_leaf_vector":"1"}},{"base_weights":[-8.297976E0,2.2910364E-1,-8.273695E1,-3.1939383E1,1.4417713E1,-3.8153484E0,-1.4786906E1,2.5215698E1,-5.043088E0,6.005677E-1,1.0034115E1,2.7467103E0,-4.4253497E0],"categories":[],"categories_nodes":[],"categories_segments":[],"categories_sizes":[],"default_left":[0,0,0,0,0,0,0,0,0,0,0,0,0],"id":57,"left_children":[1,3,5,7,9,11,-1,-1,-1,-1,-1,-1,-1],"loss_changes":[6.79369E4,4.4733824E4,5.597947E4,1.703175E5,4.8547176E4,8.805543E3,0E0,0E0,0E0,0E0,0E0,0E0,0E0],"parents":[2147483647,0,0,1,1,2,2,3,3,4,4,5,5],"right_children":[2,4,6,8,10,12,-1,-1,-1,-1,-1,-1,-1],"split_conditions":[5.258E2,4.338577E11,4.2624633E12,2.3069E2,1E0,5.3607E2,-1.4786906E1,2.5215698E1,-5.043088E0,6.005677E-1,1.0034115E1,2.7467103E0,-4.4253497E0],"split_indices":[7,1,1,7,8,7,0,0,0,0,0,0,0],"split_type":[0,0,0,0,0,0,0,0,0,0,0,0,0],"sum_hessian":[1.06E2,9.6E1,1E1,2.9E1,6.7E1,5E0,5E0,1E0,2.8E1,6.2E1,5E0,3E0,2E0],"tree_param":{"num_deleted":"0","num_feature":"10","num_nodes":"13","size_leaf_vector":"1"}},{"base_weights":[-2.8061523E0,5.757205E1,-2.0888433E1,3.8108604E1,2.818108E1,-3.254772E1,-1.380904E1,2.016971E1,1.6072184E0,9.817784E0,-2.3087344E0],"categories":[],"categories_nodes":[],"categories_segments":[],"categories_sizes":[],"default_left":[0,0,0,0,0,0,0,0,0,0,0],"id":58,"left_children":[1,3,5,7,-1,-1,9,-1,-1,-1,-1],"loss_changes":[1.2784856E5,1.07100945E5,1.8957278E5,9.048581E4,0E0,0E0,9.4741945E4,0E0,0E0,0E0,0E0],"parents":[2147483647,0,0,1,1,2,2,3,3,6,6],"right_children":[2,4,6,8,-1,-1,10,-1,-1,-1,-1],"split_conditions":[2.3069E2,1E0,2.3097E2,-5E-1,2.818108E1,-3.254772E1,2.3477E2,2.016971E1,1.6072184E0,9.817784E0,-2.3087344E0],"split_indices":[7,9,7,9,0,0,7,0,0,0,0],"split_type":[0,0,0,0,0,0,0,0,0,0,0],"sum_hessian":[1.15E2,2.6E1,8.9E1,2.5E1,1E0,1E0,8.8E1,2E0,2.3E1,6E0,8.2E1],"tree_param":{"num_deleted":"0","num_feature":"10","num_nodes":"11","size_leaf_vector":"1"}},{"base_weights":[-1.3963202E1,-1.4596869E2,-1.442238E0,1.00908646E2,-3.6365228E2,1.1291194E1,-1.2578666E2,1.4241668E1,2.5764406E0,-5.222311E1,-8.385604E0,-1.4093995E0,3.9429593E0,-2.4217978E0,-1.5134658E1],"categories":[],"categories_nodes":[],"categories_segments":[],"categories_sizes":[],"default_left":[0,0,0,0,0,0,0,0,0,0,0,0,0,0,0],"id":59,"left_children":[1,3,5,7,9,11,13,-1,-1,-1,-1,-1,-1,-1,-1],"loss_changes":[1.7168442E5,5.203659E5,1.534201E5,1.192616E4,1.7805662E5,6.341399E4,1.9699469E4,0E0,0E0,0E0,0E0,0E0,0E0,0E0,0E0],"parents":[2147483647,0,0,1,1,2,2,3,3,4,4,5,5,6,6],"right_children":[2,4,6,8,10,12,14,-1,-1,-1,-1,-1,-1,-1,-1],"split_conditions":[2.5519497E11,5E-1,4.2624633E12,-5E-1,1E0,-1.8369701E-16,-5E-1,1.4241668E1,2.5764406E0,-5.222311E1,-8.385604E0,-1.4093995E0,3.9429593E0,-2.4217978E0,-1.5134658E1],"split_indices":[1,8,1,8,8,9,8,0,0,0,0,0,0,0,0],"split_type":[0,0,0,0,0,0,0,0,0,0,0,0,0,0,0],"sum_hessian":[1.03E2,8E0,9.5E1,4E0,4E0,8.7E1,8E0,2E0,2E0,2E0,2E0,4.6E1,4.1E1,2E0,6E0],"tree_param":{"num_deleted":"0","num_feature":"10","num_nodes":"15","size_leaf_vector":"1"}},{"base_weights":[-2.947116E-1,-5.2906845E1,2.2460464E1,1.3103374E2,-8.3863846E1,3.743853E1,-3.8949165E1,7.8995365E-1,1.5984241E1,2.3677404E1,-1.0450873E1,2.569077E0,1.954845E1,2.065337E0,-6.2500396E0],"categories":[],"categories_nodes":[],"categories_segments":[],"categories_sizes":[],"default_left":[0,0,0,0,0,0,0,0,0,0,0,0,0,0,0],"id":60,"left_children":[1,3,5,7,9,11,13,-1,-1,-1,-1,-1,-1,-1,-1],"loss_changes":[1.2689415E5,1.9320497E5,6.952322E4,1.6473984E4,2.1009189E5,1.0637902E5,2.234654E4,0E0,0E0,0E0,0E0,0E0,0E0,0E0,0E0],"parents":[2147483647,0,0,1,1,2,2,3,3,4,4,5,5,6,6],"right_children":[2,4,6,8,10,12,14,-1,-1,-1,-1,-1,-1,-1,-1],"split_conditions":[4.338577E11,-5E-1,5.1581E2,2.3109E2,2.3069E2,5.0983E2,-5E-1,7.8995365E-1,1.5984241E1,2.3677404E1,-1.0450873E1,2.569077E0,1.954845E1,2.065337E0,-6.2500396E0],"split_indices":[1,8,7,7,7,7,9,0,0,0,0,0,0,0,0],"split_type":[0,0,0,0,0,0,0,0,0,0,0,0,0,0,0],"sum_hessian":[1.04E2,3.1E1,7.3E1,4E0,2.7E1,5.9E1,1.4E1,1E0,3E0,1E0,2.6E1,5.6E1,3E0,4E0,1E1],"tree_param":{"num_deleted":"0","num_feature":"10","num_nodes":"15","size_leaf_vector":"1"}},{"base_weights":[6.0754056E0,5.5929626E1,-1.6238981E1,2.9701591E1,4.4761333E1,-1.9378767E2,8.21825E0,-3.0077093E0,9.136009E0,-4.8640138E-1,-4.2872627E1,1.0866252E1,-2.6097164E0],"categories":[],"categories_nodes":[],"categories_segments":[],"categories_sizes":[],"default_left":[0,0,0,0,0,0,0,0,0,0,0,0,0],"id":61,"left_children":[1,3,5,7,-1,9,11,-1,-1,-1,-1,-1,-1],"loss_changes":[1.1882967E5,3.2571725E5,3.2292647E5,1.20695484E5,0E0,3.9738378E5,2.303237E5,0E0,0E0,0E0,0E0,0E0,0E0],"parents":[2147483647,0,0,1,1,2,2,3,3,5,5,6,6],"right_children":[2,4,6,8,-1,10,12,-1,-1,-1,-1,-1,-1],"split_conditions":[2.396E2,2.3946E2,4.2545E2,6.123234E-17,4.4761333E1,5E-1,4.5462E2,-3.0077093E0,9.136009E0,-4.8640138E-1,-4.2872627E1,1.0866252E1,-2.6097164E0],"split_indices":[7,7,7,9,0,9,7,0,0,0,0,0,0],"split_type":[0,0,0,0,0,0,0,0,0,0,0,0,0],"sum_hessian":[1.05E2,3.2E1,7.3E1,3.1E1,1E0,8E0,6.5E1,1.6E1,1.5E1,5E0,3E0,1.6E1,4.9E1],"tree_param":{"num_deleted":"0","num_feature":"10","num_nodes":"13","size_leaf_vector":"1"}},{"base_weights":[-2.421762E0,1.34173975E1,-4.066419E1,5.516331E1,-9.859278E0,7.7558236E0,-1.808412E2,-6.652533E-1,2.7262754E1,-3.368117E1,2.6687865E0,7.12091E0,-4.2654305E0,3.1995935E0,-4.0167732E1],"categories":[],"categories_nodes":[],"categories_segments":[],"categories_sizes":[],"default_left":[0,0,0,0,0,0,0,0,0,0,0,0,0,0,0],"id":62,"left_children":[1,3,5,7,9,11,13,-1,-1,-1,-1,-1,-1,-1,-1],"loss_changes":[6.414704E4,7.342183E4,2.1181114E5,3.6476747E5,5.9449844E5,7.980588E4,3.8886906E5,0E0,0E0,0E0,0E0,0E0,0E0,0E0,0E0],"parents":[2147483647,0,0,1,1,2,2,3,3,4,4,5,5,6,6],"right_children":[2,4,6,8,10,12,14,-1,-1,-1,-1,-1,-1,-1,-1],"split_conditions":[8.660254E-1,2.4775E2,5E-1,-2.4492937E-16,4.2545E2,2.6659922E7,1.821407E0,-6.652533E-1,2.7262754E1,-3.368117E1,2.6687865E0,7.12091E0,-4.2654305E0,3.1995935E0,-4.0167732E1],"split_indices":[8,7,9,8,7,3,2,0,0,0,0,0,0,0,0],"split_type":[0,0,0,0,0,0,0,0,0,0,0,0,0,0,0],"sum_hessian":[1.04E2,7.4E1,3E1,2.6E1,4.8E1,2.3E1,7E0,2.1E1,5E0,4E0,4.4E1,1E1,1.3E1,4E0,3E0],"tree_param":{"num_deleted":"0","num_feature":"10","num_nodes":"15","size_leaf_vector":"1"}},{"base_weights":[-5.599824E0,2.8793364E1,-2.2053696E1,6.7264385E0,4.1160133E1,-1.6202335E2,-3.4771662E0,2.8642042E0,-1.3487871E1,4.5056152E-1,-3.7131096E1,6.9392357E0,-2.8634365E0],"categories":[],"categories_nodes":[],"categories_segments":[],"categories_sizes":[],"default_left":[0,0,0,0,0,0,0,0,0,0,0,0,0],"id":63,"left_children":[1,3,5,7,-1,9,11,-1,-1,-1,-1,-1,-1],"loss_changes":[6.4581824E4,3.0978497E5,1.9964819E5,1.1558424E5,0E0,3.15345E5,1.2847732E5,0E0,0E0,0E0,0E0,0E0,0E0],"parents":[2147483647,0,0,1,1,2,2,3,3,5,5,6,6],"right_children":[2,4,6,8,-1,10,12,-1,-1,-1,-1,-1,-1],"split_conditions":[2.396E2,2.3946E2,4.2545E2,2.3477E2,4.1160133E1,5E-1,4.5462E2,2.8642042E0,-1.3487871E1,4.5056152E-1,-3.7131096E1,6.9392357E0,-2.8634365E0],"split_indices":[7,7,7,7,0,9,7,0,0,0,0,0,0],"split_type":[0,0,0,0,0,0,0,0,0,0,0,0,0],"sum_hessian":[1.12E2,3.6E1,7.6E1,3.5E1,1E0,8E0,6.8E1,3.1E1,4E0,5E0,3E0,1.7E1,5.1E1],"tree_param":{"num_deleted":"0","num_feature":"10","num_nodes":"13","size_leaf_vector":"1"}},{"base_weights":[1.4245805E0,5.1673935E1,-1.1017997E1,8.50036E0,2.0539873E2,-2.2223536E1,-6.306555E0,1.8801643E1,-2.367897E0,-6.137207E-1,2.5981703E1,2.1733534E1,-1.1152458E0],"categories":[],"categories_nodes":[],"categories_segments":[],"categories_sizes":[],"default_left":[0,0,0,0,0,0,0,0,0,0,0,0,0],"id":64,"left_children":[1,3,5,7,9,-1,11,-1,-1,-1,-1,-1,-1],"loss_changes":[7.247097E4,1.5090156E5,9.1146336E4,1.1420946E5,5.915167E4,0E0,1.0212854E5,0E0,0E0,0E0,0E0,0E0,0E0],"parents":[2147483647,0,0,1,1,2,2,3,3,4,4,6,6],"right_children":[2,4,6,8,10,-1,12,-1,-1,-1,-1,-1,-1],"split_conditions":[1.3549E2,5E-1,2.1591E3,-5E-1,1.1934E2,-2.2223536E1,2.3069E2,1.8801643E1,-2.367897E0,-6.137207E-1,2.5981703E1,2.1733534E1,-1.1152458E0],"split_indices":[7,9,0,9,7,0,7,0,0,0,0,0,0],"split_type":[0,0,0,0,0,0,0,0,0,0,0,0,0],"sum_hessian":[1.14E2,2.2E1,9.2E1,1.8E1,4E0,1E0,9.1E1,2E0,1.6E1,1E0,3E0,1E0,9E1],"tree_param":{"num_deleted":"0","num_feature":"10","num_nodes":"13","size_leaf_vector":"1"}},{"base_weights":[-6.075322E0,1.5488872E1,-2.793738E1,-2.0699081E1,4.392294E1,1.9693222E1,-1.27158806E2,7.94928E0,-5.12492E0,-6.3819137E0,6.8024116E0,8.710544E0,-3.8591828E0,-3.480659E1,2.497833E0],"categories":[],"categories_nodes":[],"categories_segments":[],"categories_sizes":[],"default_left":[0,0,0,0,0,0,0,0,0,0,0,0,0,0,0],"id":65,"left_children":[1,3,5,7,9,11,13,-1,-1,-1,-1,-1,-1,-1,-1],"loss_changes":[4.946223E4,5.5444613E4,2.4825494E5,7.753491E4,8.224258E4,1.4481003E5,5.80033E5,0E0,0E0,0E0,0E0,0E0,0E0,0E0,0E0],"parents":[2147483647,0,0,1,1,2,2,3,3,4,4,5,5,6,6],"right_children":[2,4,6,8,10,12,14,-1,-1,-1,-1,-1,-1,-1,-1],"split_conditions":[1.2246469E-16,5.0901785E11,5E-1,2.5519497E11,-8.660254E-1,2.6659922E7,5.917648E6,7.94928E0,-5.12492E0,-6.3819137E0,6.8024116E0,8.710544E0,-3.8591828E0,-3.480659E1,2.497833E0],"split_indices":[8,1,9,1,8,3,3,0,0,0,0,0,0,0,0],"split_type":[0,0,0,0,0,0,0,0,0,0,0,0,0,0,0],"sum_hessian":[1.03E2,5.2E1,5.1E1,2.3E1,2.9E1,3.5E1,1.6E1,5E0,1.8E1,5E0,2.4E1,1.6E1,1.9E1,6E0,1E1],"tree_param":{"num_deleted":"0","num_feature":"10","num_nodes":"15","size_leaf_vector":"1"}},{"base_weights":[7.615717E-1,1.7839111E1,-4.7448685E1,1.17355225E2,3.3676794E0,-1.8372475E2,-2.3746569E1,-8.599772E0,1.7894318E1,-3.359406E0,1.9894017E0,-2.4582169E1,-8.1085205E0,7.6681933E0,-8.503022E0],"categories":[],"categories_nodes":[],"categories_segments":[],"categories_sizes":[],"default_left":[0,0,0,0,0,0,0,0,0,0,0,0,0,0,0],"id":66,"left_children":[1,3,5,7,9,11,13,-1,-1,-1,-1,-1,-1,-1,-1],"loss_changes":[8.811758E4,1.133759E5,8.607803E4,1.4062961E5,4.342727E4,5.5619062E3,1.603859E5,0E0,0E0,0E0,0E0,0E0,0E0,0E0,0E0],"parents":[2147483647,0,0,1,1,2,2,3,3,4,4,5,5,6,6],"right_children":[2,4,6,8,10,12,14,-1,-1,-1,-1,-1,-1,-1,-1],"split_conditions":[8.660254E-1,1.3272E2,2.5519497E11,-8.660254E-1,4.2545E2,2.3097E2,5.0901785E11,-8.599772E0,1.7894318E1,-3.359406E0,1.9894017E0,-2.4582169E1,-8.1085205E0,7.6681933E0,-8.503022E0],"split_indices":[8,7,1,8,7,7,1,0,0,0,0,0,0,0,0],"split_type":[0,0,0,0,0,0,0,0,0,0,0,0,0,0,0],"sum_hessian":[1.05E2,7.8E1,2.7E1,9E0,6.9E1,3E0,2.4E1,2E0,7E0,2.1E1,4.8E1,1E0,2E0,9E0,1.5E1],"tree_param":{"num_deleted":"0","num_feature":"10","num_nodes":"15","size_leaf_vector":"1"}},{"base_weights":[3.7980907E0,4.593845E1,-1.702882E1,2.4412916E1,3.889033E1,-1.3656352E2,3.1786358E-1,3.5033157E0,-9.700732E0,4.4891763E-1,-3.1400167E1,6.5478706E0,-1.793353E0],"categories":[],"categories_nodes":[],"categories_segments":[],"categories_sizes":[],"default_left":[0,0,0,0,0,0,0,0,0,0,0,0,0],"id":67,"left_children":[1,3,5,7,-1,9,11,-1,-1,-1,-1,-1,-1],"loss_changes":[9.29359E4,2.4889334E5,1.4726406E5,4.7241906E4,0E0,2.2666278E5,7.6098664E4,0E0,0E0,0E0,0E0,0E0,0E0],"parents":[2147483647,0,0,1,1,2,2,3,3,5,5,6,6],"right_children":[2,4,6,8,-1,10,12,-1,-1,-1,-1,-1,-1],"split_conditions":[2.396E2,2.3946E2,4.2545E2,2.3477E2,3.889033E1,5E-1,4.543E2,3.5033157E0,-9.700732E0,4.4891763E-1,-3.1400167E1,6.5478706E0,-1.793353E0],"split_indices":[7,7,7,7,0,9,7,0,0,0,0,0,0],"split_type":[0,0,0,0,0,0,0,0,0,0,0,0,0],"sum_hessian":[1.04E2,3.4E1,7E1,3.3E1,1E0,8E0,6.2E1,3.1E1,2E0,5E0,3E0,1.3E1,4.9E1],"tree_param":{"num_deleted":"0","num_feature":"10","num_nodes":"13","size_leaf_vector":"1"}},{"base_weights":[-9.260529E0,2.8821886E0,-3.9713394E1,-1.7988228E1,1.931735E1,8.430271E0,-1.5298532E2,2.911418E0,-1.3394542E1,1.2830802E1,4.848872E-1,-7.6299486E0,3.7838993E0,1.3504827E1,-2.5457323E1],"categories":[],"categories_nodes":[],"categories_segments":[],"categories_sizes":[],"default_left":[0,0,0,0,0,0,0,0,0,0,0,0,0,0,0],"id":68,"left_children":[1,3,5,7,9,11,13,-1,-1,-1,-1,-1,-1,-1,-1],"loss_changes":[3.8941418E4,2.6416145E4,1.6488948E5,1.8960306E5,6.71858E4,5.770656E4,2.9772625E5,0E0,0E0,0E0,0E0,0E0,0E0,0E0,0E0],"parents":[2147483647,0,0,1,1,2,2,3,3,4,4,5,5,6,6],"right_children":[2,4,6,8,10,12,14,-1,-1,-1,-1,-1,-1,-1,-1],"split_conditions":[8.660254E-1,4.3971E2,5E-1,8.660254E-1,4.543E2,4.338577E11,2.3069E2,2.911418E0,-1.3394542E1,1.2830802E1,4.848872E-1,-7.6299486E0,3.7838993E0,1.3504827E1,-2.5457323E1],"split_indices":[8,7,9,9,7,1,7,0,0,0,0,0,0,0,0],"split_type":[0,0,0,0,0,0,0,0,0,0,0,0,0,0,0],"sum_hessian":[1.04E2,7.5E1,2.9E1,3.3E1,4.2E1,2.1E1,8E0,2.4E1,9E0,4E0,3.8E1,5E0,1.6E1,2E0,6E0],"tree_param":{"num_deleted":"0","num_feature":"10","num_nodes":"15","size_leaf_vector":"1"}},{"base_weights":[7.673959E-2,1.5614707E1,-4.893057E1,5.4966152E1,-4.70266E0,9.562278E0,-1.8173476E2,2.198032E0,3.2252132E1,-2.8040567E1,1.65957E0,-2.570071E0,7.368464E0,-2.1147935E0,-4.4233017E1],"categories":[],"categories_nodes":[],"categories_segments":[],"categories_sizes":[],"default_left":[0,0,0,0,0,0,0,0,0,0,0,0,0,0,0],"id":69,"left_children":[1,3,5,7,9,11,13,-1,-1,-1,-1,-1,-1,-1,-1],"loss_changes":[8.224174E4,6.581894E4,2.0370828E5,2.4002572E5,3.2761475E5,4.485552E4,3.254312E5,0E0,0E0,0E0,0E0,0E0,0E0,0E0,0E0],"parents":[2147483647,0,0,1,1,2,2,3,3,4,4,5,5,6,6],"right_children":[2,4,6,8,10,12,14,-1,-1,-1,-1,-1,-1,-1,-1],"split_conditions":[8.660254E-1,2.4775E2,5E-1,2.3946E2,4.2545E2,1.9116E7,3.4963868E0,2.198032E0,3.2252132E1,-2.8040567E1,1.65957E0,-2.570071E0,7.368464E0,-2.1147935E0,-4.4233017E1],"split_indices":[8,7,9,7,7,4,2,0,0,0,0,0,0,0,0],"split_type":[0,0,0,0,0,0,0,0,0,0,0,0,0,0,0],"sum_hessian":[1.06E2,8.1E1,2.5E1,2.7E1,5.4E1,1.8E1,7E0,2.5E1,2E0,3E0,5.1E1,1.2E1,6E0,5E0,2E0],"tree_param":{"num_deleted":"0","num_feature":"10","num_nodes":"15","size_leaf_vector":"1"}},{"base_weights":[9.552554E0,5.6940517E1,-4.6647277E0,6.8098016E0,1.8487524E2,1.4178314E1,-6.186901E1,1.5327522E1,-1.9437615E0,-1.4332275E0,2.2046522E1,6.0584397E0,2.304133E-1,3.970644E-1,-1.6935478E1],"categories":[],"categories_nodes":[],"categories_segments":[],"categories_sizes":[],"default_left":[0,0,0,0,0,0,0,0,0,0,0,0,0,0,0],"id":70,"left_children":[1,3,5,7,9,11,13,-1,-1,-1,-1,-1,-1,-1,-1],"loss_changes":[7.3028234E4,1.5907753E5,9.142102E4,7.602174E4,5.2788312E4,3.5126598E4,1.4928578E5,0E0,0E0,0E0,0E0,0E0,0E0,0E0,0E0],"parents":[2147483647,0,0,1,1,2,2,3,3,4,4,5,5,6,6],"right_children":[2,4,6,8,10,12,14,-1,-1,-1,-1,-1,-1,-1,-1],"split_conditions":[2.3069E2,5E-1,8.660254E-1,-5E-1,1.1934E2,2.4775E2,5E-1,1.5327522E1,-1.9437615E0,-1.4332275E0,2.2046522E1,6.0584397E0,2.304133E-1,3.970644E-1,-1.6935478E1],"split_indices":[7,9,8,9,7,7,9,0,0,0,0,0,0,0,0],"split_type":[0,0,0,0,0,0,0,0,0,0,0,0,0,0,0],"sum_hessian":[1.07E2,2.4E1,8.3E1,1.8E1,6E0,6.3E1,2E1,2E0,1.6E1,1E0,5E0,1.2E1,5.1E1,1.3E1,7E0],"tree_param":{"num_deleted":"0","num_feature":"10","num_nodes":"15","size_leaf_vector":"1"}},{"base_weights":[6.957858E0,3.2574978E1,-7.0479765E0,1.288776E1,1.966944E2,-2.3478938E2,3.1030855E0,2.7875178E0,-1.1023353E1,2.9698095E1,-5.2082644E0,-3.3002075E1,-2.2163332E0,-2.8092785E0,2.075749E0],"categories":[],"categories_nodes":[],"categories_segments":[],"categories_sizes":[],"default_left":[0,0,0,0,0,0,0,0,0,0,0,0,0,0,0],"id":71,"left_children":[1,3,5,7,9,11,13,-1,-1,-1,-1,-1,-1,-1,-1],"loss_changes":[3.8620027E4,1.2024514E5,1.6255578E5,6.765723E4,1.152635E5,5.343164E4,3.8033758E4,0E0,0E0,0E0,0E0,0E0,0E0,0E0,0E0],"parents":[2147483647,0,0,1,1,2,2,3,3,4,4,5,5,6,6],"right_children":[2,4,6,8,10,12,14,-1,-1,-1,-1,-1,-1,-1,-1],"split_conditions":[2.4775E2,2.3946E2,2.5511E2,2.3477E2,8.660254E-1,2.5519497E11,4.6044E2,2.7875178E0,-1.1023353E1,2.9698095E1,-5.2082644E0,-3.3002075E1,-2.2163332E0,-2.8092785E0,2.075749E0],"split_indices":[7,7,7,7,8,1,7,0,0,0,0,0,0,0,0],"split_type":[0,0,0,0,0,0,0,0,0,0,0,0,0,0,0],"sum_hessian":[1.06E2,3.7E1,6.9E1,3.4E1,3E0,2E0,6.7E1,3.1E1,3E0,2E0,1E0,1E0,1E0,2.4E1,4.3E1],"tree_param":{"num_deleted":"0","num_feature":"10","num_nodes":"15","size_leaf_vector":"1"}},{"base_weights":[1.2167279E0,1.0466079E1,-3.8040844E1,1.9223713E0,1.9153928E2,2.150669E1,-5.3317127E1,1.9013042E0,-3.0613983E0,2.2685884E1,4.2790284E0,9.030762E-1,3.5705202E0,-3.1373146E0,-8.018379E0],"categories":[],"categories_nodes":[],"categories_segments":[],"categories_sizes":[],"default_left":[0,0,0,0,0,0,0,0,0,0,0,0,0,0,0],"id":72,"left_children":[1,3,5,7,9,11,13,-1,-1,-1,-1,-1,-1,-1,-1],"loss_changes":[3.997681E4,1.3731803E5,2.0249635E4,4.840392E4,1.1307656E4,5.632529E2,7.5069336E3,0E0,0E0,0E0,0E0,0E0,0E0,0E0,0E0],"parents":[2147483647,0,0,1,1,2,2,3,3,4,4,5,5,6,6],"right_children":[2,4,6,8,10,12,14,-1,-1,-1,-1,-1,-1,-1,-1],"split_conditions":[5.1581E2,5.0983E2,-5E-1,4.5462E2,8.660254E-1,5.2476E2,-2.4492937E-16,1.9013042E0,-3.0613983E0,2.2685884E1,4.2790284E0,9.030762E-1,3.5705202E0,-3.1373146E0,-8.018379E0],"split_indices":[7,7,9,7,8,7,8,0,0,0,0,0,0,0,0],"split_type":[0,0,0,0,0,0,0,0,0,0,0,0,0,0,0],"sum_hessian":[1.08E2,8.8E1,2E1,8.5E1,3E0,4E0,1.6E1,5.6E1,2.9E1,2E0,1E0,3E0,1E0,1E1,6E0],"tree_param":{"num_deleted":"0","num_feature":"10","num_nodes":"15","size_leaf_vector":"1"}},{"base_weights":[1.0030372E0,1.5194305E1,-1.571224E1,-5.414389E0,4.6332947E1,-4.088266E1,1.8455362E0,2.1762166E0,-1.2499422E1,1.2838074E0,1.0073129E1,2.0674372E-1,-6.747252E0,4.201779E0,-2.9502077E0],"categories":[],"categories_nodes":[],"categories_segments":[],"categories_sizes":[],"default_left":[0,0,0,0,0,0,0,0,0,0,0,0,0,0,0],"id":73,"left_children":[1,3,5,7,9,11,13,-1,-1,-1,-1,-1,-1,-1,-1],"loss_changes":[2.6331943E4,3.875447E4,2.2614219E4,1.22961555E5,4.243637E4,2.4122277E4,4.0278043E4,0E0,0E0,0E0,0E0,0E0,0E0,0E0,0E0],"parents":[2147483647,0,0,1,1,2,2,3,3,4,4,5,5,6,6],"right_children":[2,4,6,8,10,12,14,-1,-1,-1,-1,-1,-1,-1,-1],"split_conditions":[2.6659922E7,4.3461E2,1.0035219E8,2.4999E2,5.0901785E11,1.3549E2,5.1581E2,2.1762166E0,-1.2499422E1,1.2838074E0,1.0073129E1,2.0674372E-1,-6.747252E0,4.201779E0,-2.9502077E0],"split_indices":[3,7,3,7,1,7,7,0,0,0,0,0,0,0,0],"split_type":[0,0,0,0,0,0,0,0,0,0,0,0,0,0,0],"sum_hessian":[1.09E2,5.9E1,5E1,3.6E1,2.3E1,2E1,3E1,3E1,6E0,1.5E1,8E0,8E0,1.2E1,1.3E1,1.7E1],"tree_param":{"num_deleted":"0","num_feature":"10","num_nodes":"15","size_leaf_vector":"1"}},{"base_weights":[-1.5194427E0,3.8350864E1,-1.591209E1,1.9813501E1,2.6008823E1,-1.150002E2,2.454917E0,-8.928776E0,3.7856266E0,-4.0144534E0,-1.9564106E1,5.974675E0,-1.1416472E0],"categories":[],"categories_nodes":[],"categories_segments":[],"categories_sizes":[],"default_left":[0,0,0,0,0,0,0,0,0,0,0,0,0],"id":74,"left_children":[1,3,5,-1,7,9,11,-1,-1,-1,-1,-1,-1],"loss_changes":[6.488024E4,5.4008605E4,1.5133833E5,0E0,4.299322E4,7.061959E4,5.7107023E4,0E0,0E0,0E0,0E0,0E0,0E0],"parents":[2147483647,0,0,1,1,2,2,4,4,5,5,6,6],"right_children":[2,4,6,-1,8,10,12,-1,-1,-1,-1,-1,-1],"split_conditions":[2.3477E2,1.4750348E0,4.2545E2,1.9813501E1,-8.660254E-1,5E-1,4.543E2,-8.928776E0,3.7856266E0,-4.0144534E0,-1.9564106E1,5.974675E0,-1.1416472E0],"split_indices":[7,2,7,0,8,8,7,0,0,0,0,0,0],"split_type":[0,0,0,0,0,0,0,0,0,0,0,0,0],"sum_hessian":[1.11E2,2.9E1,8.2E1,1E0,2.8E1,1.2E1,7E1,2E0,2.6E1,7E0,5E0,1.3E1,5.7E1],"tree_param":{"num_deleted":"0","num_feature":"10","num_nodes":"13","size_leaf_vector":"1"}},{"base_weights":[5.2000504E0,1.6888103E1,-2.4753378E1,5.893445E1,9.219807E0,4.8653595E1,-5.699503E1,-3.488916E-1,2.4736752E1,-7.8333206E0,1.5915827E0,1.2982294E1,-5.8480334E0,-1.1204931E-2,-3.1294043E1],"categories":[],"categories_nodes":[],"categories_segments":[],"categories_sizes":[],"default_left":[0,0,0,0,0,0,0,0,0,0,0,0,0,0,0],"id":75,"left_children":[1,3,5,7,9,11,13,-1,-1,-1,-1,-1,-1,-1,-1],"loss_changes":[3.857864E4,2.4928121E4,7.6142625E4,1.4201455E5,4.1112188E4,9.4552E4,3.2026156E5,0E0,0E0,0E0,0E0,0E0,0E0,0E0,0E0],"parents":[2147483647,0,0,1,1,2,2,3,3,4,4,5,5,6,6],"right_children":[2,4,6,8,10,12,14,-1,-1,-1,-1,-1,-1,-1,-1],"split_conditions":[8.660254E-1,1.3272E2,3.4963868E0,1.7344513E12,2.1591E3,5.1391E2,5E-1,-3.488916E-1,2.4736752E1,-7.8333206E0,1.5915827E0,1.2982294E1,-5.8480334E0,-1.1204931E-2,-3.1294043E1],"split_indices":[8,7,2,1,0,7,9,0,0,0,0,0,0,0,0],"split_type":[0,0,0,0,0,0,0,0,0,0,0,0,0,0,0],"sum_hessian":[1.08E2,7.8E1,3E1,1.1E1,6.7E1,9E0,2.1E1,9E0,2E0,4E0,6.3E1,5E0,4E0,1.8E1,3E0],"tree_param":{"num_deleted":"0","num_feature":"10","num_nodes":"15","size_leaf_vector":"1"}},{"base_weights":[-1.1107967E1,3.0030579E1,-2.27296E1,-9.3572676E-1,1.2308545E2,-2.1696875E1,-1.7775288E1,1.2848357E1,-2.3719382E0,-1.8766602E0,1.5520919E1,1.817372E1,-2.2424676E0],"categories":[],"categories_nodes":[],"categories_segments":[],"categories_sizes":[],"default_left":[0,0,0,0,0,0,0,0,0,0,0,0,0],"id":76,"left_children":[1,3,5,7,9,-1,11,-1,-1,-1,-1,-1,-1],"loss_changes":[5.1838973E4,6.927274E4,7.6978305E4,5.9071793E4,3.0253656E4,0E0,8.106706E4,0E0,0E0,0E0,0E0,0E0,0E0],"parents":[2147483647,0,0,1,1,2,2,3,3,4,4,6,6],"right_children":[2,4,6,8,10,-1,12,-1,-1,-1,-1,-1,-1],"split_conditions":[1.3549E2,5E-1,2.3007E2,-5E-1,1.1934E2,-2.1696875E1,2.3069E2,1.2848357E1,-2.3719382E0,-1.8766602E0,1.5520919E1,1.817372E1,-2.2424676E0],"split_indices":[7,9,7,9,7,0,7,0,0,0,0,0,0],"split_type":[0,0,0,0,0,0,0,0,0,0,0,0,0],"sum_hessian":[1.06E2,2.3E1,8.3E1,1.8E1,5E0,1E0,8.2E1,2E0,1.6E1,1E0,4E0,1E0,8.1E1],"tree_param":{"num_deleted":"0","num_feature":"10","num_nodes":"13","size_leaf_vector":"1"}},{"base_weights":[-6.7244905E-1,1.5996511E1,-2.1069696E1,-1.8490833E-1,6.455309E1,-3.9511974E1,-5.045326E0,2.391807E0,-1.019325E1,-2.4789658E0,8.895459E0,-2.9559324E0,1.6834185E0],"categories":[],"categories_nodes":[],"categories_segments":[],"categories_sizes":[],"default_left":[0,0,0,0,0,0,0,0,0,0,0,0,0],"id":77,"left_children":[1,3,5,7,9,-1,11,-1,-1,-1,-1,-1,-1],"loss_changes":[3.705714E4,4.715481E4,2.917084E5,1.15249336E5,3.4906605E4,0E0,2.6242613E4,0E0,0E0,0E0,0E0,0E0,0E0],"parents":[2147483647,0,0,1,1,2,2,3,3,4,4,6,6],"right_children":[2,4,6,8,10,-1,12,-1,-1,-1,-1,-1,-1],"split_conditions":[4.5717E2,4.3502E2,5.917648E6,2.4775E2,-5E-1,-3.9511974E1,-1.8369701E-16,2.391807E0,-1.019325E1,-2.4789658E0,8.895459E0,-2.9559324E0,1.6834185E0],"split_indices":[7,7,3,7,9,0,9,0,0,0,0,0,0],"split_type":[0,0,0,0,0,0,0,0,0,0,0,0,0],"sum_hessian":[1.07E2,5.9E1,4.8E1,4.5E1,1.4E1,1E0,4.7E1,3.7E1,8E0,3E0,1.1E1,2.2E1,2.5E1],"tree_param":{"num_deleted":"0","num_feature":"10","num_nodes":"13","size_leaf_vector":"1"}},{"base_weights":[-5.6363254E0,6.6016895E-1,-6.488939E1,4.2325756E1,-1.1014998E1,-9.391333E0,-1.0032287E1,2.3203588E1,-2.183481E-1,-1.2659654E1,2.744815E-1,-1.8261292E0,1.3044251E0],"categories":[],"categories_nodes":[],"categories_segments":[],"categories_sizes":[],"default_left":[0,0,0,0,0,0,0,0,0,0,0,0,0],"id":78,"left_children":[1,3,5,7,9,11,-1,-1,-1,-1,-1,-1,-1],"loss_changes":[3.884384E4,4.6679223E4,1.872273E4,1.7782756E5,1.1962601E5,1.2332183E3,0E0,0E0,0E0,0E0,0E0,0E0,0E0],"parents":[2147483647,0,0,1,1,2,2,3,3,4,4,5,5],"right_children":[2,4,6,8,10,12,-1,-1,-1,-1,-1,-1,-1],"split_conditions":[4.2624633E12,-5E-1,-5E-1,2.5519497E11,2.5519497E11,5.179E2,-1.0032287E1,2.3203588E1,-2.183481E-1,-1.2659654E1,2.744815E-1,-1.8261292E0,1.3044251E0],"split_indices":[1,9,8,1,1,7,0,0,0,0,0,0,0],"split_type":[0,0,0,0,0,0,0,0,0,0,0,0,0],"sum_hessian":[1.03E2,9.4E1,9E0,2E1,7.4E1,4E0,5E0,3E0,1.7E1,7E0,6.7E1,3E0,1E0],"tree_param":{"num_deleted":"0","num_feature":"10","num_nodes":"13","size_leaf_vector":"1"}},{"base_weights":[-1.505674E0,2.851535E1,-1.0161685E1,-5.510017E1,1.3065848E2,2.8415907E1,-3.409122E1,-1.1566069E1,-1.875312E-1,1.9003773E1,9.519984E-1,7.426436E0,-3.7666318E0,-8.258052E0,-1.0837412E0],"categories":[],"categories_nodes":[],"categories_segments":[],"categories_sizes":[],"default_left":[0,0,0,0,0,0,0,0,0,0,0,0,0,0,0],"id":79,"left_children":[1,3,5,7,9,11,13,-1,-1,-1,-1,-1,-1,-1,-1],"loss_changes":[3.017393E4,2.2925883E5,8.405168E4,4.8132965E4,8.45082E4,1.0883914E5,6.2248445E4,0E0,0E0,0E0,0E0,0E0,0E0,0E0,0E0],"parents":[2147483647,0,0,1,1,2,2,3,3,4,4,5,5,6,6],"right_children":[2,4,6,8,10,12,14,-1,-1,-1,-1,-1,-1,-1,-1],"split_conditions":[-5E-1,3.4963868E0,3.4963868E0,1.4750348E0,4.2530456E0,5.1581E2,4.1080003E0,-1.1566069E1,-1.875312E-1,1.9003773E1,9.519984E-1,7.426436E0,-3.7666318E0,-8.258052E0,-1.0837412E0],"split_indices":[9,2,2,2,2,7,2,0,0,0,0,0,0,0,0],"split_type":[0,0,0,0,0,0,0,0,0,0,0,0,0,0,0],"sum_hessian":[1.14E2,2.5E1,8.9E1,1.4E1,1.1E1,3.4E1,5.5E1,6E0,8E0,7E0,4E0,2E1,1.4E1,1.7E1,3.8E1],"tree_param":{"num_deleted":"0","num_feature":"10","num_nodes":"15","size_leaf_vector":"1"}},{"base_weights":[5.7200727E0,4.8625145E1,-4.442534E0,-1.0741744E1,1.0906621E2,-1.7126343E1,-4.1772053E-1,-5.9205914E0,5.925645E0,1.541836E1,3.311211E0,-2.088964E0,1.7788824E0],"categories":[],"categories_nodes":[],"categories_segments":[],"categories_sizes":[],"default_left":[0,0,0,0,0,0,0,0,0,0,0,0,0],"id":80,"left_children":[1,3,5,7,9,-1,11,-1,-1,-1,-1,-1,-1],"loss_changes":[4.5562867E4,7.293553E4,5.699941E4,4.0824777E4,2.9163156E4,0E0,3.1680326E4,0E0,0E0,0E0,0E0,0E0,0E0],"parents":[2147483647,0,0,1,1,2,2,3,3,4,4,6,6],"right_children":[2,4,6,8,10,-1,12,-1,-1,-1,-1,-1,-1],"split_conditions":[1.3549E2,1.2417E2,2.3097E2,5E-1,1.2824E2,-1.7126343E1,4.6044E2,-5.9205914E0,5.925645E0,1.541836E1,3.311211E0,-2.088964E0,1.7788824E0],"split_indices":[7,7,7,9,7,0,7,0,0,0,0,0,0],"split_type":[0,0,0,0,0,0,0,0,0,0,0,0,0],"sum_hessian":[1.03E2,1.9E1,8.4E1,1E1,9E0,1E0,8.3E1,6E0,4E0,5E0,4E0,3.9E1,4.4E1],"tree_param":{"num_deleted":"0","num_feature":"10","num_nodes":"13","size_leaf_vector":"1"}},{"base_weights":[-2.7752407E0,9.400217E0,-3.71067E1,3.2667843E1,-7.9100364E-1,-2.5100243E0,-1.2760922E2,8.234014E-2,2.6591928E1,-1.9349413E1,9.5465034E-1,1.9553387E0,-5.25821E0,-3.577433E1,8.7260133E-1],"categories":[],"categories_nodes":[],"categories_segments":[],"categories_sizes":[],"default_left":[0,0,0,0,0,0,0,0,0,0,0,0,0,0,0],"id":81,"left_children":[1,3,5,7,9,11,13,-1,-1,-1,-1,-1,-1,-1,-1],"loss_changes":[4.632895E4,1.947013E4,9.04812E4,1.8547506E5,1.1738724E5,2.5332895E4,2.5412475E5,0E0,0E0,0E0,0E0,0E0,0E0,0E0,0E0],"parents":[2147483647,0,0,1,1,2,2,3,3,4,4,5,5,6,6],"right_children":[2,4,6,8,10,12,14,-1,-1,-1,-1,-1,-1,-1,-1],"split_conditions":[8.660254E-1,2.4775E2,5E-1,2.3946E2,2.5511E2,1.7344513E12,5.917648E6,8.234014E-2,2.6591928E1,-1.9349413E1,9.5465034E-1,1.9553387E0,-5.25821E0,-3.577433E1,8.7260133E-1],"split_indices":[8,7,9,7,7,1,3,0,0,0,0,0,0,0,0],"split_type":[0,0,0,0,0,0,0,0,0,0,0,0,0,0,0],"sum_hessian":[1.09E2,8.1E1,2.8E1,2.4E1,5.7E1,2.1E1,7E0,2.2E1,2E0,2E0,5.5E1,1.5E1,6E0,2E0,5E0],"tree_param":{"num_deleted":"0","num_feature":"10","num_nodes":"15","size_leaf_vector":"1"}},{"base_weights":[6.0592467E-1,-5.6449608E1,6.0862074E0,-8.851941E0,-3.005978E0,7.257301E1,-5.0625515E0,2.4597967E0,1.6360352E1,-5.361864E0,7.821175E-1],"categories":[],"categories_nodes":[],"categories_segments":[],"categories_sizes":[],"default_left":[0,0,0,0,0,0,0,0,0,0,0],"id":82,"left_children":[1,3,5,-1,-1,7,9,-1,-1,-1,-1],"loss_changes":[3.5676457E4,5.802291E3,7.745692E4,0E0,0E0,6.148357E4,5.6721867E4,0E0,0E0,0E0,0E0],"parents":[2147483647,0,0,1,1,2,2,5,5,6,6],"right_children":[2,4,6,-1,-1,8,10,-1,-1,-1,-1],"split_conditions":[1.2134E2,-8.660254E-1,2.3069E2,-8.851941E0,-3.005978E0,5E-1,4.2545E2,2.4597967E0,1.6360352E1,-5.361864E0,7.821175E-1],"split_indices":[7,8,7,0,0,9,7,0,0,0,0],"split_type":[0,0,0,0,0,0,0,0,0,0,0],"sum_hessian":[1.12E2,9E0,1.03E2,3E0,6E0,1.4E1,8.9E1,1E1,4E0,1.8E1,7.1E1],"tree_param":{"num_deleted":"0","num_feature":"10","num_nodes":"11","size_leaf_vector":"1"}},{"base_weights":[7.6254582E0,3.3822323E1,-5.2220097E0,1.7063152E1,3.1019667E1,-1.09574135E2,2.3063138E0,-3.208503E0,6.526338E0,-2.388916E-1,-2.691575E1,3.513975E0,-1.1529855E0],"categories":[],"categories_nodes":[],"categories_segments":[],"categories_sizes":[],"default_left":[0,0,0,0,0,0,0,0,0,0,0,0,0],"id":83,"left_children":[1,3,5,7,-1,9,11,-1,-1,-1,-1,-1,-1],"loss_changes":[3.6862027E4,1.6145205E5,5.838686E4,8.500735E4,0E0,8.488189E4,3.2205377E4,0E0,0E0,0E0,0E0,0E0,0E0],"parents":[2147483647,0,0,1,1,2,2,3,3,5,5,6,6],"right_children":[2,4,6,8,-1,10,12,-1,-1,-1,-1,-1,-1],"split_conditions":[2.396E2,2.3946E2,5.2E6,6.123234E-17,3.1019667E1,5E-1,4.543E2,-3.208503E0,6.526338E0,-2.388916E-1,-2.691575E1,3.513975E0,-1.1529855E0],"split_indices":[7,7,3,9,0,9,7,0,0,0,0,0,0],"split_type":[0,0,0,0,0,0,0,0,0,0,0,0,0],"sum_hessian":[1.08E2,3.5E1,7.3E1,3.4E1,1E0,4E0,6.9E1,1.7E1,1.7E1,3E0,1E0,2E1,4.9E1],"tree_param":{"num_deleted":"0","num_feature":"10","num_nodes":"13","size_leaf_vector":"1"}},{"base_weights":[-3.5859652E0,1.1398855E1,-2.581701E1,-1.8287956E1,3.4535843E1,-1.832206E2,-5.9917684E0,-5.3021803E0,3.8231297E0,6.8321457E0,-1.1218237E0,-2.6739664E1,-3.7971027E0,1.8261084E1,-1.5272105E0],"categories":[],"categories_nodes":[],"categories_segments":[],"categories_sizes":[],"default_left":[0,0,0,0,0,0,0,0,0,0,0,0,0,0,0],"id":84,"left_children":[1,3,5,7,9,11,13,-1,-1,-1,-1,-1,-1,-1,-1],"loss_changes":[3.7271516E4,4.6651438E4,1.3932756E5,6.092102E4,5.9507973E4,5.0979344E4,7.455097E4,0E0,0E0,0E0,0E0,0E0,0E0,0E0,0E0],"parents":[2147483647,0,0,1,1,2,2,3,3,4,4,5,5,6,6],"right_children":[2,4,6,8,10,12,14,-1,-1,-1,-1,-1,-1,-1,-1],"split_conditions":[5E-1,3.4963868E0,2.5519497E11,5.0983E2,4.2530456E0,1E0,4.1344523E11,-5.3021803E0,3.8231297E0,6.8321457E0,-1.1218237E0,-2.6739664E1,-3.7971027E0,1.8261084E1,-1.5272105E0],"split_indices":[8,2,1,7,2,8,1,0,0,0,0,0,0,0,0],"split_type":[0,0,0,0,0,0,0,0,0,0,0,0,0,0,0],"sum_hessian":[1.1E2,6.6E1,4.4E1,2.9E1,3.7E1,4E0,4E1,1.8E1,1.1E1,2.1E1,1.6E1,2E0,2E0,1E0,3.9E1],"tree_param":{"num_deleted":"0","num_feature":"10","num_nodes":"15","size_leaf_vector":"1"}},{"base_weights":[4.691834E0,3.1277584E1,-1.1894645E1,1.5103099E1,1.0768178E2,-4.738601E1,4.566515E0,2.6840441E0,-8.257141E0,3.0805664E1,2.2943199E0,-1.3338234E-1,-2.4277435E1,8.565905E0,-9.7388405E-1],"categories":[],"categories_nodes":[],"categories_segments":[],"categories_sizes":[],"default_left":[0,0,0,0,0,0,0,0,0,0,0,0,0,0,0],"id":85,"left_children":[1,3,5,7,9,11,13,-1,-1,-1,-1,-1,-1,-1,-1],"loss_changes":[4.7114215E4,4.904141E4,3.8775508E4,4.2341625E4,1.1178856E5,1.8863547E5,5.419686E4,0E0,0E0,0E0,0E0,0E0,0E0,0E0,0E0],"parents":[2147483647,0,0,1,1,2,2,3,3,4,4,5,5,6,6],"right_children":[2,4,6,8,10,12,14,-1,-1,-1,-1,-1,-1,-1,-1],"split_conditions":[6.2934E3,2.3946E2,4.5802E2,2.3477E2,2.396E2,4.5717E2,4.6367E2,2.6840441E0,-8.257141E0,3.0805664E1,2.2943199E0,-1.3338234E-1,-2.4277435E1,8.565905E0,-9.7388405E-1],"split_indices":[0,7,7,7,7,7,7,0,0,0,0,0,0,0,0],"split_type":[0,0,0,0,0,0,0,0,0,0,0,0,0,0,0],"sum_hessian":[1.05E2,4E1,6.5E1,3.4E1,6E0,2E1,4.5E1,3.1E1,3E0,1E0,5E0,1.7E1,3E0,6E0,3.9E1],"tree_param":{"num_deleted":"0","num_feature":"10","num_nodes":"15","size_leaf_vector":"1"}},{"base_weights":[2.5586517E0,2.9824501E1,-5.911238E0,-3.8136692E1,1.00719284E2,2.870222E1,-2.7763794E1,-6.52088E0,2.3634863E0,1.9781675E1,3.558522E0,6.401193E0,-3.0544412E0,-4.4549847E0,5.7386217E0],"categories":[],"categories_nodes":[],"categories_segments":[],"categories_sizes":[],"default_left":[0,0,0,0,0,0,0,0,0,0,0,0,0,0,0],"id":86,"left_children":[1,3,5,7,9,11,13,-1,-1,-1,-1,-1,-1,-1,-1],"loss_changes":[2.5348621E4,1.29111555E5,6.4333855E4,2.495321E4,7.517722E4,7.09906E4,7.6881836E4,0E0,0E0,0E0,0E0,0E0,0E0,0E0,0E0],"parents":[2147483647,0,0,1,1,2,2,3,3,4,4,5,5,6,6],"right_children":[2,4,6,8,10,12,14,-1,-1,-1,-1,-1,-1,-1,-1],"split_conditions":[-5E-1,3.4963868E0,3.4963868E0,5.0983E2,4.1080003E0,5.1581E2,1E0,-6.52088E0,2.3634863E0,1.9781675E1,3.558522E0,6.401193E0,-3.0544412E0,-4.4549847E0,5.7386217E0],"split_indices":[9,2,2,7,2,7,9,0,0,0,0,0,0,0,0],"split_type":[0,0,0,0,0,0,0,0,0,0,0,0,0,0,0],"sum_hessian":[1.08E2,2.5E1,8.3E1,1.3E1,1.2E1,3.2E1,5.1E1,9E0,4E0,4E0,8E0,2E1,1.2E1,4.3E1,8E0],"tree_param":{"num_deleted":"0","num_feature":"10","num_nodes":"15","size_leaf_vector":"1"}},{"base_weights":[-3.2024264E0,-5.0036133E1,6.5241156E0,5.146336E1,-6.594003E1,6.440479E1,-8.452689E0,6.3998413E0,1.3196625E0,-2.0639648E0,-7.9320183E0,2.1229029E1,2.067501E0,-2.4055564E0,1.8877392E0],"categories":[],"categories_nodes":[],"categories_segments":[],"categories_sizes":[],"default_left":[0,0,0,0,0,0,0,0,0,0,0,0,0,0,0],"id":87,"left_children":[1,3,5,7,9,11,13,-1,-1,-1,-1,-1,-1,-1,-1],"loss_changes":[4.7701562E4,3.2449766E4,7.5961875E4,5.9446387E2,8.060883E3,1.1201691E5,3.0304057E4,0E0,0E0,0E0,0E0,0E0,0E0,0E0,0E0],"parents":[2147483647,0,0,1,1,2,2,3,3,4,4,5,5,6,6],"right_children":[2,4,6,8,10,12,14,-1,-1,-1,-1,-1,-1,-1,-1],"split_conditions":[1.4750348E0,-8.660254E-1,-5E-1,6.2934E3,-5E-1,2.396E2,4.6044E2,6.3998413E0,1.3196625E0,-2.0639648E0,-7.9320183E0,2.1229029E1,2.067501E0,-2.4055564E0,1.8877392E0],"split_indices":[2,8,9,0,8,7,7,0,0,0,0,0,0,0,0],"split_type":[0,0,0,0,0,0,0,0,0,0,0,0,0,0,0],"sum_hessian":[1.03E2,1.7E1,8.6E1,2E0,1.5E1,1.7E1,6.9E1,1E0,1E0,4E0,1.1E1,3E0,1.4E1,4.4E1,2.5E1],"tree_param":{"num_deleted":"0","num_feature":"10","num_nodes":"15","size_leaf_vector":"1"}},{"base_weights":[-1.3174031E0,-4.7173634E1,3.0624037E0,-7.5500245E0,-2.4247909E0,8.203802E1,-2.552664E0,4.0702395E0,1.6502588E1,-4.387956E0,1.5626624E-1],"categories":[],"categories_nodes":[],"categories_segments":[],"categories_sizes":[],"default_left":[0,0,0,0,0,0,0,0,0,0,0],"id":88,"left_children":[1,3,5,-1,-1,7,9,-1,-1,-1,-1],"loss_changes":[2.3040385E4,4.6633594E3,4.6772023E4,0E0,0E0,1.729554E4,1.6905861E4,0E0,0E0,0E0,0E0],"parents":[2147483647,0,0,1,1,2,2,5,5,6,6],"right_children":[2,4,6,-1,-1,8,10,-1,-1,-1,-1],"split_conditions":[1.2134E2,-8.660254E-1,1.2797E2,-7.5500245E0,-2.4247909E0,1.7344513E12,2.1591E3,4.0702395E0,1.6502588E1,-4.387956E0,1.5626624E-1],"split_indices":[7,8,7,0,0,1,0,0,0,0,0],"split_type":[0,0,0,0,0,0,0,0,0,0,0],"sum_hessian":[1.13E2,9E0,1.04E2,3E0,6E0,6E0,9.8E1,5E0,1E0,8E0,9E1],"tree_param":{"num_deleted":"0","num_feature":"10","num_nodes":"11","size_leaf_vector":"1"}},{"base_weights":[3.8265202E0,9.840409E0,-2.2129505E1,4.640585E0,2.3631239E1,1.9965038E1,-3.320852E1,6.949858E-1,-9.928772E0,7.0824283E-1,3.5747743E0,1.245868E0,-3.6841385E0],"categories":[],"categories_nodes":[],"categories_segments":[],"categories_sizes":[],"default_left":[0,0,0,0,0,0,0,0,0,0,0,0,0],"id":89,"left_children":[1,3,5,7,-1,9,11,-1,-1,-1,-1,-1,-1],"loss_changes":[1.7388395E4,1.04888664E5,1.0456696E4,2.2049934E4,0E0,7.6343115E2,3.2793418E3,0E0,0E0,0E0,0E0,0E0,0E0],"parents":[2147483647,0,0,1,1,2,2,3,3,5,5,6,6],"right_children":[2,4,6,8,-1,10,12,-1,-1,-1,-1,-1,-1],"split_conditions":[5.1581E2,5.1391E2,-5E-1,4.2624633E12,2.3631239E1,5.2476E2,-8.660254E-1,6.949858E-1,-9.928772E0,7.0824283E-1,3.5747743E0,1.245868E0,-3.6841385E0],"split_indices":[7,7,9,1,0,7,8,0,0,0,0,0,0],"split_type":[0,0,0,0,0,0,0,0,0,0,0,0,0],"sum_hessian":[1.09E2,8.9E1,2E1,8.8E1,1E0,4E0,1.6E1,8.7E1,1E0,3E0,1E0,1E0,1.5E1],"tree_param":{"num_deleted":"0","num_feature":"10","num_nodes":"13","size_leaf_vector":"1"}},{"base_weights":[4.937477E0,5.5515198E1,-6.952936E-2,1.3068094E2,-8.9903656E1,-1.2405772E1,1.4630452E1,6.188684E0,2.7172277E1,-1.3036285E1,-3.296297E0,5.0538385E-1,-1.5874483E1,1.1156192E1,3.0191085E-1],"categories":[],"categories_nodes":[],"categories_segments":[],"categories_sizes":[],"default_left":[0,0,0,0,0,0,0,0,0,0,0,0,0,0,0],"id":90,"left_children":[1,3,5,7,9,11,13,-1,-1,-1,-1,-1,-1,-1,-1],"loss_changes":[2.811383E4,1.2105386E5,1.8678441E4,5.110386E4,4.917951E3,1.4388356E5,5.2561895E4,0E0,0E0,0E0,0E0,0E0,0E0,0E0,0E0],"parents":[2147483647,0,0,1,1,2,2,3,3,4,4,5,5,6,6],"right_children":[2,4,6,8,10,12,14,-1,-1,-1,-1,-1,-1,-1,-1],"split_conditions":[2.5519497E11,8.660254E-1,4.6044E2,5E-1,2.3097E2,4.5717E2,4.6367E2,6.188684E0,2.7172277E1,-1.3036285E1,-3.296297E0,5.0538385E-1,-1.5874483E1,1.1156192E1,3.0191085E-1],"split_indices":[1,8,7,8,7,7,7,0,0,0,0,0,0,0,0],"split_type":[0,0,0,0,0,0,0,0,0,0,0,0,0,0,0],"sum_hessian":[1.1E2,9E0,1.01E2,6E0,3E0,5.5E1,4.6E1,5E0,1E0,1E0,2E0,5E1,5E0,4E0,4.2E1],"tree_param":{"num_deleted":"0","num_feature":"10","num_nodes":"15","size_leaf_vector":"1"}},{"base_weights":[-3.7766948E0,2.3218431E1,-1.1444628E1,1.4999744E2,-2.0355892E0,-6.3864872E1,-5.08638E0,2.790552E0,2.581366E1,-4.6937423E0,6.3048787E0,5.466377E0,-1.6962055E1,1.5489705E1,-1.150346E0],"categories":[],"categories_nodes":[],"categories_segments":[],"categories_sizes":[],"default_left":[0,0,0,0,0,0,0,0,0,0,0,0,0,0,0],"id":91,"left_children":[1,3,5,7,9,11,13,-1,-1,-1,-1,-1,-1,-1,-1],"loss_changes":[2.2414385E4,7.714564E4,2.7672434E4,4.5608234E4,6.4329914E4,1.2208778E5,7.980546E4,0E0,0E0,0E0,0E0,0E0,0E0,0E0,0E0],"parents":[2147483647,0,0,1,1,2,2,3,3,4,4,5,5,6,6],"right_children":[2,4,6,8,10,12,14,-1,-1,-1,-1,-1,-1,-1,-1],"split_conditions":[-5E-1,2.5519497E11,2.5519497E11,5E-1,5.0901785E11,1.2246469E-16,4.1344523E11,2.790552E0,2.581366E1,-4.6937423E0,6.3048787E0,5.466377E0,-1.6962055E1,1.5489705E1,-1.150346E0],"split_indices":[9,1,1,8,1,8,1,0,0,0,0,0,0,0,0],"split_type":[0,0,0,0,0,0,0,0,0,0,0,0,0,0,0],"sum_hessian":[1.06E2,2.3E1,8.3E1,3E0,2E1,8E0,7.5E1,2E0,1E0,1.2E1,8E0,4E0,4E0,2E0,7.3E1],"tree_param":{"num_deleted":"0","num_feature":"10","num_nodes":"15","size_leaf_vector":"1"}},{"base_weights":[2.9805949E0,2.6469147E1,-8.965391E0,8.997574E1,8.65175E0,-2.4557743E1,-2.2683153E0,1.2969637E1,-1.9457438E0,-1.5115068E0,4.5561566E0,-3.3106384E0,1.1962562E0],"categories":[],"categories_nodes":[],"categories_segments":[],"categories_sizes":[],"default_left":[0,0,0,0,0,0,0,0,0,0,0,0,0],"id":92,"left_children":[1,3,5,7,9,-1,11,-1,-1,-1,-1,-1,-1],"loss_changes":[3.0822043E4,4.1087867E4,1.1511939E5,3.7297605E4,2.7005531E4,0E0,3.1993436E4,0E0,0E0,0E0,0E0,0E0,0E0],"parents":[2147483647,0,0,1,1,2,2,3,3,4,4,6,6],"right_children":[2,4,6,8,10,-1,12,-1,-1,-1,-1,-1,-1],"split_conditions":[2.4999E2,2.5519497E11,2.5511E2,2.396E2,-2.4492937E-16,-2.4557743E1,4.5802E2,1.2969637E1,-1.9457438E0,-1.5115068E0,4.5561566E0,-3.3106384E0,1.1962562E0],"split_indices":[7,1,7,7,8,0,7,0,0,0,0,0,0],"split_type":[0,0,0,0,0,0,0,0,0,0,0,0,0],"sum_hessian":[1.08E2,3.6E1,7.2E1,7E0,2.9E1,1E0,7.1E1,5E0,2E0,1.8E1,1.1E1,2.2E1,4.9E1],"tree_param":{"num_deleted":"0","num_feature":"10","num_nodes":"13","size_leaf_vector":"1"}},{"base_weights":[-2.5207624E0,2.045796E1,-9.519893E0,1.3649152E2,-6.112651E-1,2.2204462E1,-2.6345085E1,2.282544E0,2.3874487E1,-6.830786E0,1.72358E0,6.090616E0,-2.6376493E0,2.1809535E0,-4.789478E0],"categories":[],"categories_nodes":[],"categories_segments":[],"categories_sizes":[],"default_left":[0,0,0,0,0,0,0,0,0,0,0,0,0,0,0],"id":93,"left_children":[1,3,5,7,9,11,13,-1,-1,-1,-1,-1,-1,-1,-1],"loss_changes":[1.7886176E4,6.3646594E4,4.595529E4,4.1041492E4,2.896561E4,5.8011465E4,5.9156734E4,0E0,0E0,0E0,0E0,0E0,0E0,0E0,0E0],"parents":[2147483647,0,0,1,1,2,2,3,3,4,4,5,5,6,6],"right_children":[2,4,6,8,10,12,14,-1,-1,-1,-1,-1,-1,-1,-1],"split_conditions":[-5E-1,2.5519497E11,3.4963868E0,5E-1,1.4750348E0,5.1581E2,-5E-1,2.282544E0,2.3874487E1,-6.830786E0,1.72358E0,6.090616E0,-2.6376493E0,2.1809535E0,-4.789478E0],"split_indices":[9,1,2,8,2,7,8,0,0,0,0,0,0,0,0],"split_type":[0,0,0,0,0,0,0,0,0,0,0,0,0,0,0],"sum_hessian":[1.09E2,2.5E1,8.4E1,3E0,2.2E1,2.9E1,5.5E1,2E0,1E0,4E0,1.8E1,1.6E1,1.3E1,1.7E1,3.8E1],"tree_param":{"num_deleted":"0","num_feature":"10","num_nodes":"15","size_leaf_vector":"1"}},{"base_weights":[2.7691867E-2,3.2489082E1,-4.51718E0,-7.037732E0,6.69415E1,-6.24397E0,-2.0820537E0,-1.9734375E0,1.01911745E1,9.9390135E0,-4.1743693E-1],"categories":[],"categories_nodes":[],"categories_segments":[],"categories_sizes":[],"default_left":[0,0,0,0,0,0,0,0,0,0,0],