{"learner":{"attributes":{"scikit_learn":"{\"_estimator_type\": \"regressor\"}"},"feature_names":["distance_km","gdp_usd","gdp_growth_pct","population","tourism_arrivals_baseline","competitor_count","competitor_avg_fare_usd","avg_fare_usd","month_sin","month_cos"],"feature_types":["float","float","float","float","float","int","float","float","float","float"],"gradient_booster":{"model":{"gbtree_model_param":{"num_parallel_tree":"1","num_trees":"150"},"iteration_indptr":[0,1,2,3,4,5,6,7,8,9,10,11,12,13,14,15,16,17,18,19,20,21,22,23,24,25,26,27,28,29,30,31,32,33,34,35,36,37,38,39,40,41,42,43,44,45,46,47,48,49,50,51,52,53,54,55,56,57,58,59,60,61,62,63,64,65,66,67,68,69,70,71,72,73,74,75,76,77,78,79,80,81,82,83,84,85,86,87,88,89,90,91,92,93,94,95,96,97,98,99,100,101,102,103,104,105,106,107,108,109,110,111,112,113,114,115,116,117,118,119,120,121,122,123,124,125,126,127,128,129,130,131,132,133,134,135,136,137,138,139,140,141,142,143,144,145,146,147,148,149,150],"tree_info":[0,0,0,0,0,0,0,0,0,0,0,0,0,0,0,0,0,0,0,0,0,0,0,0,0,0,0,0,0,0,0,0,0,0,0,0,0,0,0,0,0,0,0,0,0,0,0,0,0,0,0,0,0,0,0,0,0,0,0,0,0,0,0,0,0,0,0,0,0,0,0,0,0,0,0,0,0,0,0,0,0,0,0,0,0,0,0,0,0,0,0,0,0,0,0,0,0,0,0,0,0,0,0,0,0,0,0,0,0,0,0,0,0,0,0,0,0,0,0,0,0,0,0,0,0,0,0,0,0,0,0,0,0,0,0,0,0,0,0,0,0,0,0,0,0,0,0,0,0,0],"trees":[{"base_weights":[4.8900787E1,3.624863E2,-1.2872887E3,7.327969E1,-2.9807866E3,-8.957001E1,1.548392E2,-3.2060406E2,-1.5574072E2],"categories":[],"categories_nodes":[],"categories_segments":[],"categories_sizes":[],"default_left":[0,0,0,0,0,0,0,0,0],"id":0,"left_children":[1,-1,3,5,7,-1,-1,-1,-1],"loss_changes":[5.4459866E8,0E0,1.9146037E8,6.8566536E7,6.869856E6,0E0,0E0,0E0,0E0],"parents":[2147483647,0,0,2,2,3,3,4,4],"right_children":[2,-1,4,6,8,-1,-1,-1,-1],"split_conditions":[2.1591E3,3.624863E2,7.1831E3,4.2369E2,5.2665E2,-8.957001E1,1.548392E2,-3.2060406E2,-1.5574072E2],"split_indices":[0,0,0,7,7,0,0,0,0],"split_type":[0,0,0,0,0,0,0,0,0],"sum_hessian":[1.12E2,3E1,8.2E1,4.6E1,3.6E1,2.8E1,1.8E1,3E1,6E0],"tree_param":{"num_deleted":"0","num_feature":"10","num_nodes":"9","size_leaf_vector":"1"}},{"base_weights":[9.482514E1,3.2924243E2,-1.1937515E3,1.44439E2,-2.721814E3,-7.512289E1,1.3803978E2,-2.894843E2,-1.3741954E2],"categories":[],"categories_nodes":[],"categories_segments":[],"categories_sizes":[],"default_left":[0,0,0,0,0,0,0,0,0],"id":1,"left_children":[1,-1,3,5,7,-1,-1,-1,-1],"loss_changes":[4.44808E8,0E0,1.5784573E8,4.7531344E7,4.416288E6,0E0,0E0,0E0,0E0],"parents":[2147483647,0,0,2,2,3,3,4,4],"right_children":[2,-1,4,6,8,-1,-1,-1,-1],"split_conditions":[2.1591E3,3.2924243E2,7.1831E3,4.2369E2,5.2665E2,-7.512289E1,1.3803978E2,-2.894843E2,-1.3741954E2],"split_indices":[0,0,0,7,7,0,0,0,0],"split_type":[0,0,0,0,0,0,0,0,0],"sum_hessian":[1.06E2,3E1,7.6E1,4.1E1,3.5E1,2.4E1,1.7E1,3E1,5E0],"tree_param":{"num_deleted":"0","num_feature":"10","num_nodes":"9","size_leaf_vector":"1"}},{"base_weights":[1.0690375E2,1.329867E3,-2.4439058E3,2.976086E2,2.2733557E2,-2.8735425E2,-1.7946915E3,-5.5456806E1,1.2715387E2,-1.22485146E2,-2.1651216E2],"categories":[],"categories_nodes":[],"categories_segments":[],"categories_sizes":[],"default_left":[0,0,0,0,0,0,0,0,0,0,0],"id":2,"left_children":[1,3,5,-1,7,-1,9,-1,-1,-1,-1],"loss_changes":[3.4640013E8,1.3544904E8,4.884224E6,0E0,3.82626E7,0E0,9.36504E5,0E0,0E0,0E0,0E0],"parents":[2147483647,0,0,1,1,2,2,4,4,6,6],"right_children":[2,4,6,-1,8,-1,10,-1,-1,-1,-1],"split_conditions":[7.1831E3,2.1591E3,7.8178E3,2.976086E2,4.2369E2,-2.8735425E2,4.2624633E12,-5.5456806E1,1.2715387E2,-1.22485146E2,-2.1651216E2],"split_indices":[0,0,0,0,7,0,1,0,0,0,0],"split_type":[0,0,0,0,0,0,0,0,0,0,0],"sum_hessian":[1.09E2,7.4E1,3.5E1,2.9E1,4.5E1,1.9E1,1.6E1,2.6E1,1.9E1,8E0,8E0],"tree_param":{"num_deleted":"0","num_feature":"10","num_nodes":"11","size_leaf_vector":"1"}},{"base_weights":[-4.308935E1,2.6328647E2,-1.058729E3,2.295373E1,-2.2264116E3,-7.761524E1,1.1315482E2,-2.3811145E2,-1.2011399E2],"categories":[],"categories_nodes":[],"categories_segments":[],"categories_sizes":[],"default_left":[0,0,0,0,0,0,0,0,0],"id":3,"left_children":[1,-1,3,5,7,-1,-1,-1,-1],"loss_changes":[2.963104E8,0E0,9.983302E7,3.8085412E7,3.167216E6,0E0,0E0,0E0,0E0],"parents":[2147483647,0,0,2,2,3,3,4,4],"right_children":[2,-1,4,6,8,-1,-1,-1,-1],"split_conditions":[2.1591E3,2.6328647E2,7.1831E3,4.2369E2,5.2665E2,-7.761524E1,1.1315482E2,-2.3811145E2,-1.2011399E2],"split_indices":[0,0,0,7,7,0,0,0,0],"split_type":[0,0,0,0,0,0,0,0,0],"sum_hessian":[1.07E2,2.9E1,7.8E1,4.1E1,3.7E1,2.4E1,1.7E1,3.1E1,6E0],"tree_param":{"num_deleted":"0","num_feature":"10","num_nodes":"9","size_leaf_vector":"1"}},{"base_weights":[-1.0208242E2,2.4437935E2,-9.29029E2,1.1028315E1,-2.0425449E3,-2.2039684E2,2.7445578E1,-2.3760677E2,-1.5399606E2],"categories":[],"categories_nodes":[],"categories_segments":[],"categories_sizes":[],"default_left":[0,0,0,0,0,0,0,0,0],"id":4,"left_children":[1,-1,3,5,7,-1,-1,-1,-1],"loss_changes":[2.3174842E8,0E0,8.6904344E7,2.7445476E7,2.710624E6,0E0,0E0,0E0,0E0],"parents":[2147483647,0,0,2,2,3,3,4,4],"right_children":[2,-1,4,6,8,-1,-1,-1,-1],"split_conditions":[2.1591E3,2.4437935E2,7.1831E3,2.3097E2,7.8178E3,-2.2039684E2,2.7445578E1,-2.3760677E2,-1.5399606E2],"split_indices":[0,0,0,7,0,0,0,0,0],"split_type":[0,0,0,0,0,0,0,0,0],"sum_hessian":[1.08E2,2.6E1,8.2E1,4.5E1,3.7E1,4E0,4.1E1,2E1,1.7E1],"tree_param":{"num_deleted":"0","num_feature":"10","num_nodes":"9","size_leaf_vector":"1"}},{"base_weights":[-1.3006079E1,2.2011636E2,-7.782375E2,3.734163E1,-1.8512084E3,-6.0213764E1,1.01142365E2,-1.9706398E2,-9.455164E1],"categories":[],"categories_nodes":[],"categories_segments":[],"categories_sizes":[],"default_left":[0,0,0,0,0,0,0,0,0],"id":5,"left_children":[1,-1,3,5,7,-1,-1,-1,-1],"loss_changes":[1.8470306E8,0E0,7.095163E7,2.9885566E7,1.922608E6,0E0,0E0,0E0,0E0],"parents":[2147483647,0,0,2,2,3,3,4,4],"right_children":[2,-1,4,6,8,-1,-1,-1,-1],"split_conditions":[2.1591E3,2.2011636E2,7.1831E3,4.2369E2,5.2665E2,-6.0213764E1,1.01142365E2,-1.9706398E2,-9.455164E1],"split_indices":[0,0,0,7,7,0,0,0,0],"split_type":[0,0,0,0,0,0,0,0,0],"sum_hessian":[1.07E2,2.7E1,8E1,4.6E1,3.4E1,2.8E1,1.8E1,2.9E1,5E0],"tree_param":{"num_deleted":"0","num_feature":"10","num_nodes":"9","size_leaf_vector":"1"}},{"base_weights":[-6.2521675E1,1.9638347E2,-7.631512E2,2.6554909E1,-1.6389486E3,-1.9794798E2,2.8980803E1,-1.9612383E2,-1.1444173E2],"categories":[],"categories_nodes":[],"categories_segments":[],"categories_sizes":[],"default_left":[0,0,0,0,0,0,0,0,0],"id":6,"left_children":[1,-1,3,5,7,-1,-1,-1,-1],"loss_changes":[1.4915011E8,0E0,5.399008E7,2.2753654E7,3.652672E6,0E0,0E0,0E0,0E0],"parents":[2147483647,0,0,2,2,3,3,4,4],"right_children":[2,-1,4,6,8,-1,-1,-1,-1],"split_conditions":[2.27E2,1.9638347E2,2.601872E7,2.3097E2,5.0543952E11,-1.9794798E2,2.8980803E1,-1.9612383E2,-1.1444173E2],"split_indices":[7,0,3,7,1,0,0,0,0],"split_type":[0,0,0,0,0,0,0,0,0],"sum_hessian":[1.03E2,2.6E1,7.7E1,4.1E1,3.6E1,4E0,3.7E1,2E1,1.6E1],"tree_param":{"num_deleted":"0","num_feature":"10","num_nodes":"9","size_leaf_vector":"1"}},{"base_weights":[-6.9590324E1,1.7458865E2,-6.443807E2,1.8412457E1,-1.4917944E3,-4.984724E1,8.788643E1,-1.7571725E2,-1.1287958E2],"categories":[],"categories_nodes":[],"categories_segments":[],"categories_sizes":[],"default_left":[0,0,0,0,0,0,0,0,0],"id":7,"left_children":[1,-1,3,5,7,-1,-1,-1,-1],"loss_changes":[1.12781496E8,0E0,4.608359E7,2.1341552E7,1.484456E6,0E0,0E0,0E0,0E0],"parents":[2147483647,0,0,2,2,3,3,4,4],"right_children":[2,-1,4,6,8,-1,-1,-1,-1],"split_conditions":[2.1591E3,1.7458865E2,7.1831E3,4.2369E2,7.8178E3,-4.984724E1,8.788643E1,-1.7571725E2,-1.1287958E2],"split_indices":[0,0,0,7,0,0,0,0,0],"split_type":[0,0,0,0,0,0,0,0,0],"sum_hessian":[1.06E2,2.5E1,8.1E1,4.6E1,3.5E1,2.9E1,1.7E1,1.8E1,1.7E1],"tree_param":{"num_deleted":"0","num_feature":"10","num_nodes":"9","size_leaf_vector":"1"}},{"base_weights":[4.5536198E1,7.179649E2,-1.373247E3,-3.380201E2,1.349834E3,-1.4705751E3,-6.252889E1,-1.7812436E2,-4.747638E0,1.645502E2,8.388403E1,-5.7060596E1,-1.5115529E2],"categories":[],"categories_nodes":[],"categories_segments":[],"categories_sizes":[],"default_left":[0,0,0,0,0,0,0,0,0,0,0,0,0],"id":8,"left_children":[1,3,5,7,9,11,-1,-1,-1,-1,-1,-1,-1],"loss_changes":[1.0974542E8,5.2501332E7,1.773968E6,1.2495018E7,6.022824E6,3.17624E5,0E0,0E0,0E0,0E0,0E0,0E0,0E0],"parents":[2147483647,0,0,1,1,2,2,3,3,4,4,5,5],"right_children":[2,4,6,8,10,12,-1,-1,-1,-1,-1,-1,-1],"split_conditions":[7.1831E3,4.1344523E11,5.3148E2,2.3097E2,1.3549E2,-8.660254E-1,-6.252889E1,-1.7812436E2,-4.747638E0,1.645502E2,8.388403E1,-5.7060596E1,-1.5115529E2],"split_indices":[0,1,7,7,7,8,0,0,0,0,0,0,0],"split_type":[0,0,0,0,0,0,0,0,0,0,0,0,0],"sum_hessian":[1.13E2,7.7E1,3.6E1,2.9E1,4.8E1,3.1E1,5E0,4E0,2.5E1,2.9E1,1.9E1,2E0,2.9E1],"tree_param":{"num_deleted":"0","num_feature":"10","num_nodes":"13","size_leaf_vector":"1"}},{"base_weights":[-3.955162E1,1.4331786E2,-5.1307916E2,3.2471714E1,-1.2174071E3,-4.1883476E1,7.3037315E1,-1.4589662E2,-8.9906044E1],"categories":[],"categories_nodes":[],"categories_segments":[],"categories_sizes":[],"default_left":[0,0,0,0,0,0,0,0,0],"id":9,"left_children":[1,-1,3,5,7,-1,-1,-1,-1],"loss_changes":[8.023646E7,0E0,3.3468998E7,1.6054276E7,1.610484E6,0E0,0E0,0E0,0E0],"parents":[2147483647,0,0,2,2,3,3,4,4],"right_children":[2,-1,4,6,8,-1,-1,-1,-1],"split_conditions":[2.27E2,1.4331786E2,2.601872E7,4.2369E2,5.0543952E11,-4.1883476E1,7.3037315E1,-1.4589662E2,-8.9906044E1],"split_indices":[7,0,3,7,1,0,0,0,0],"split_type":[0,0,0,0,0,0,0,0,0],"sum_hessian":[1.13E2,2.7E1,8.6E1,4.9E1,3.7E1,3E1,1.9E1,1.9E1,1.8E1],"tree_param":{"num_deleted":"0","num_feature":"10","num_nodes":"9","size_leaf_vector":"1"}},{"base_weights":[-2.2391727E1,1.3347516E3,-5.186345E2,1.1852035E2,1.845452E2,-2.4383614E1,-1.1190914E3,-1.0955664E2,3.4357574E1,-1.3263681E2,-7.64143E1],"categories":[],"categories_nodes":[],"categories_segments":[],"categories_sizes":[],"default_left":[0,0,0,0,0,0,0,0,0,0,0],"id":10,"left_children":[1,3,5,-1,-1,7,9,-1,-1,-1,-1],"loss_changes":[7.5447704E7,1.03996E5,2.4308374E7,0E0,0E0,1.8507388E7,1.708652E6,0E0,0E0,0E0,0E0],"parents":[2147483647,0,0,1,1,2,2,5,5,6,6],"right_children":[2,4,6,-1,-1,8,10,-1,-1,-1,-1],"split_conditions":[2.1591E3,1E0,7.1831E3,1.1852035E2,1.845452E2,2.5519497E11,7.8178E3,-1.0955664E2,3.4357574E1,-1.3263681E2,-7.64143E1],"split_indices":[0,9,0,0,0,1,0,0,0,0,0],"split_type":[0,0,0,0,0,0,0,0,0,0,0],"sum_hessian":[1.1E2,2.9E1,8.1E1,2.5E1,4E0,4.5E1,3.6E1,1.1E1,3.4E1,2.1E1,1.5E1],"tree_param":{"num_deleted":"0","num_feature":"10","num_nodes":"11","size_leaf_vector":"1"}},{"base_weights":[2.2885826E1,1.1956389E3,-4.5244308E2,9.471253E1,1.4141459E3,-3.5767686E0,-1.01662994E3,1.493341E2,5.9958496E1,4.983514E1,-6.0093994E1,-1.18294365E2,-4.8255135E1],"categories":[],"categories_nodes":[],"categories_segments":[],"categories_sizes":[],"default_left":[0,0,0,0,0,0,0,0,0,0,0,0,0],"id":11,"left_children":[1,3,5,-1,7,9,11,-1,-1,-1,-1,-1,-1],"loss_changes":[6.1859732E7,3.98288E5,2.0002678E7,0E0,7.2256E4,1.3791981E7,2.538028E6,0E0,0E0,0E0,0E0,0E0,0E0],"parents":[2147483647,0,0,1,1,2,2,4,4,5,5,6,6],"right_children":[2,4,6,-1,8,10,12,-1,-1,-1,-1,-1,-1],"split_conditions":[2.27E2,5E-1,2.601872E7,9.471253E1,1.2791E2,1.2246469E-16,5.1391E2,1.493341E2,5.9958496E1,4.983514E1,-6.0093994E1,-1.18294365E2,-4.8255135E1],"split_indices":[7,9,3,0,7,8,7,0,0,0,0,0,0],"split_type":[0,0,0,0,0,0,0,0,0,0,0,0,0],"sum_hessian":[1.09E2,3.1E1,7.8E1,1.7E1,1.4E1,4.4E1,3.4E1,1.2E1,2E0,2.4E1,2E1,2.5E1,9E0],"tree_param":{"num_deleted":"0","num_feature":"10","num_nodes":"13","size_leaf_vector":"1"}},{"base_weights":[-6.918471E0,4.789519E2,-9.1775244E2,-1.0602799E2,9.9346E2,-1.0868429E2,-6.7366077E2,3.643458E1,-7.167669E1,8.8462944E1,1.5783484E2,-2.4416243E1,-9.638267E1],"categories":[],"categories_nodes":[],"categories_segments":[],"categories_sizes":[],"default_left":[0,0,0,0,0,0,0,0,0,0,0,0,0],"id":12,"left_children":[1,3,5,7,9,-1,11,-1,-1,-1,-1,-1,-1],"loss_changes":[5.0889948E7,2.26786E7,9.1878E5,1.0603071E7,1.149896E6,0E0,2.13256E6,0E0,0E0,0E0,0E0,0E0,0E0],"parents":[2147483647,0,0,1,1,2,2,3,3,4,4,6,6],"right_children":[2,4,6,8,10,-1,12,-1,-1,-1,-1,-1,-1],"split_conditions":[7.1831E3,5.917648E6,7.8178E3,1.2246469E-16,1E0,-1.0868429E2,1.2246469E-16,3.643458E1,-7.167669E1,8.8462944E1,1.5783484E2,-2.4416243E1,-9.638267E1],"split_indices":[0,3,0,8,9,0,8,0,0,0,0,0,0],"split_type":[0,0,0,0,0,0,0,0,0,0,0,0,0],"sum_hessian":[1.13E2,7.4E1,3.9E1,3.5E1,3.9E1,2.1E1,1.8E1,2E1,1.5E1,3.5E1,4E0,8E0,1E1],"tree_param":{"num_deleted":"0","num_feature":"10","num_nodes":"13","size_leaf_vector":"1"}},{"base_weights":[-3.6138462E1,1.0313427E3,-3.5723352E2,7.259217E1,1.2194647E2,1.571281E1,-8.4457214E2,-1.4121754E2,1.7761572E1,-9.252711E1,-3.780665E1],"categories":[],"categories_nodes":[],"categories_segments":[],"categories_sizes":[],"default_left":[0,0,0,0,0,0,0,0,0,0,0],"id":13,"left_children":[1,3,5,-1,-1,7,9,-1,-1,-1,-1],"loss_changes":[3.704406E7,5.51174E5,1.5098614E7,0E0,0E0,1.1347429E7,1.005462E6,0E0,0E0,0E0,0E0],"parents":[2147483647,0,0,1,1,2,2,5,5,6,6],"right_children":[2,4,6,-1,-1,8,10,-1,-1,-1,-1],"split_conditions":[2.1591E3,5E-1,7.1831E3,7.259217E1,1.2194647E2,2.3097E2,5.2665E2,-1.4121754E2,1.7761572E1,-9.252711E1,-3.780665E1],"split_indices":[0,9,0,0,0,7,7,0,0,0,0],"split_type":[0,0,0,0,0,0,0,0,0,0,0],"sum_hessian":[1.06E2,2.4E1,8.2E1,1.1E1,1.3E1,4.7E1,3.5E1,4E0,4.3E1,2.9E1,6E0],"tree_param":{"num_deleted":"0","num_feature":"10","num_nodes":"11","size_leaf_vector":"1"}},{"base_weights":[3.494759E0,8.779096E2,-3.1044257E2,9.56655E1,5.0500874E1,5.093313E1,-6.731242E2,3.8415115E1,-4.7290337E1,-3.6378006E1,-1.5338445E2],"categories":[],"categories_nodes":[],"categories_segments":[],"categories_sizes":[],"default_left":[0,0,0,0,0,0,0,0,0,0,0],"id":14,"left_children":[1,3,5,-1,-1,7,9,-1,-1,-1,-1],"loss_changes":[2.9096244E7,3.3908E5,1.0257302E7,0E0,0E0,7.1637365E6,9.82611E6,0E0,0E0,0E0,0E0],"parents":[2147483647,0,0,1,1,2,2,5,5,6,6],"right_children":[2,4,6,-1,-1,8,10,-1,-1,-1,-1],"split_conditions":[2.1591E3,8.660254E-1,1.2246469E-16,9.56655E1,5.0500874E1,7.1831E3,5E-1,3.8415115E1,-4.7290337E1,-3.6378006E1,-1.5338445E2],"split_indices":[0,8,8,0,0,0,9,0,0,0,0],"split_type":[0,0,0,0,0,0,0,0,0,0,0],"sum_hessian":[1.04E2,2.7E1,7.7E1,2.1E1,6E0,3.9E1,3.8E1,2.4E1,1.5E1,2.9E1,9E0],"tree_param":{"num_deleted":"0","num_feature":"10","num_nodes":"11","size_leaf_vector":"1"}},{"base_weights":[-8.684437E0,8.435245E2,-2.9595624E2,7.2289024E1,1.27799095E2,2.3082535E1,-6.810307E2,-6.617601E1,2.9636007E1,-8.396334E1,-4.4934788E1],"categories":[],"categories_nodes":[],"categories_segments":[],"categories_sizes":[],"default_left":[0,0,0,0,0,0,0,0,0,0,0],"id":15,"left_children":[1,3,5,-1,-1,7,9,-1,-1,-1,-1],"loss_changes":[2.8158622E7,5.96088E5,1.0581135E7,0E0,0E0,9.179419E6,1.05579E6,0E0,0E0,0E0,0E0],"parents":[2147483647,0,0,1,1,2,2,5,5,6,6],"right_children":[2,4,6,-1,-1,8,10,-1,-1,-1,-1],"split_conditions":[2.1591E3,1E0,7.1831E3,7.2289024E1,1.27799095E2,2.5519497E11,7.8178E3,-6.617601E1,2.9636007E1,-8.396334E1,-4.4934788E1],"split_indices":[0,9,0,0,0,1,0,0,0,0,0],"split_type":[0,0,0,0,0,0,0,0,0,0,0],"sum_hessian":[1.13E2,2.8E1,8.5E1,2.4E1,4E0,4.7E1,3.8E1,1.3E1,3.4E1,2.1E1,1.7E1],"tree_param":{"num_deleted":"0","num_feature":"10","num_nodes":"11","size_leaf_vector":"1"}},{"base_weights":[-3.771752E1,7.421313E2,-3.2608475E2,6.3019928E1,1.1757516E2,-7.593961E0,-6.216454E2,2.0995117E1,-6.812245E1,-3.8433388E1,-1.3426091E2],"categories":[],"categories_nodes":[],"categories_segments":[],"categories_sizes":[],"default_left":[0,0,0,0,0,0,0,0,0,0,0],"id":16,"left_children":[1,3,5,-1,-1,7,9,-1,-1,-1,-1],"loss_changes":[2.497911E7,7.15123E5,7.620081E6,0E0,0E0,6.004826E6,6.669893E6,0E0,0E0,0E0,0E0],"parents":[2147483647,0,0,1,1,2,2,5,5,6,6],"right_children":[2,4,6,-1,-1,8,10,-1,-1,-1,-1],"split_conditions":[2.1591E3,1E0,1.2246469E-16,6.3019928E1,1.1757516E2,4.2530456E0,5E-1,2.0995117E1,-6.812245E1,-3.8433388E1,-1.3426091E2],"split_indices":[0,9,8,0,0,2,9,0,0,0,0],"split_type":[0,0,0,0,0,0,0,0,0,0,0],"sum_hessian":[1.09E2,2.9E1,8E1,2.5E1,4E0,3.9E1,4.1E1,3E1,9E0,3.2E1,9E0],"tree_param":{"num_deleted":"0","num_feature":"10","num_nodes":"11","size_leaf_vector":"1"}},{"base_weights":[-5.2220054E0,2.876131E2,-6.39553E2,-2.481171E2,5.9258435E2,-7.0752423E2,-2.5688303E2,1.3102134E1,-6.107144E1,2.411698E1,6.537783E1,-7.461947E1,-1.107591E1,-2.9056528E1,-2.7394776E0],"categories":[],"categories_nodes":[],"categories_segments":[],"categories_sizes":[],"default_left":[0,0,0,0,0,0,0,0,0,0,0,0,0,0,0],"id":17,"left_children":[1,3,5,7,9,11,13,-1,-1,-1,-1,-1,-1,-1,-1],"loss_changes":[2.1174188E7,1.289085E7,7.54628E5,4.0667795E6,9.1755E5,6.09667E5,4.614775E4,0E0,0E0,0E0,0E0,0E0,0E0,0E0,0E0],"parents":[2147483647,0,0,1,1,2,2,3,3,4,4,5,5,6,6],"right_children":[2,4,6,8,10,12,14,-1,-1,-1,-1,-1,-1,-1,-1],"split_conditions":[7.1831E3,4.1344523E11,5.2665E2,1.2246469E-16,5.917648E6,1E0,5E-1,1.3102134E1,-6.107144E1,2.411698E1,6.537783E1,-7.461947E1,-1.107591E1,-2.9056528E1,-2.7394776E0],"split_indices":[0,1,7,8,3,9,9,0,0,0,0,0,0,0,0],"split_type":[0,0,0,0,0,0,0,0,0,0,0,0,0,0,0],"sum_hessian":[1.12E2,7.7E1,3.5E1,2.8E1,4.9E1,2.9E1,6E0,1.4E1,1.4E1,8E0,4.1E1,2.7E1,2E0,5E0,1E0],"tree_param":{"num_deleted":"0","num_feature":"10","num_nodes":"15","size_leaf_vector":"1"}},{"base_weights":[-1.5585483E1,6.3799146E2,-2.4938976E2,5.341923E2,1.029389E2,3.2228806E1,-5.689115E2,5.793092E1,3.35419E1,2.0026226E1,-5.5911114E1,-3.6014538E1,-1.3067665E2],"categories":[],"categories_nodes":[],"categories_segments":[],"categories_sizes":[],"default_left":[0,0,0,0,0,0,0,0,0,0,0,0,0],"id":18,"left_children":[1,3,5,7,-1,9,11,-1,-1,-1,-1,-1,-1],"loss_changes":[1.68153E7,6.28284E5,7.3069795E6,2.989E4,0E0,4.484024E6,5.382862E6,0E0,0E0,0E0,0E0,0E0,0E0],"parents":[2147483647,0,0,1,1,2,2,3,3,5,5,6,6],"right_children":[2,4,6,8,-1,10,12,-1,-1,-1,-1,-1,-1],"split_conditions":[2.1591E3,1E0,1.2246469E-16,8.660254E-1,1.029389E2,4.2530456E0,5E-1,5.793092E1,3.35419E1,2.0026226E1,-5.5911114E1,-3.6014538E1,-1.3067665E2],"split_indices":[0,9,8,8,0,2,9,0,0,0,0,0,0],"split_type":[0,0,0,0,0,0,0,0,0,0,0,0,0],"sum_hessian":[1.08E2,2.8E1,8E1,2.4E1,4E0,4.3E1,3.7E1,1.8E1,6E0,3.4E1,9E0,3E1,7E0],"tree_param":{"num_deleted":"0","num_feature":"10","num_nodes":"13","size_leaf_vector":"1"}},{"base_weights":[7.0182157E0,2.4922072E2,-4.7119775E2,-1.01484566E2,5.425247E2,-5.9872455E2,-2.3574167E2,2.1033318E1,-4.8491394E1,4.7319798E1,9.470379E1,-6.542275E1,-2.5696802E1,-4.9066204E1,4.8646393E0],"categories":[],"categories_nodes":[],"categories_segments":[],"categories_sizes":[],"default_left":[0,0,0,0,0,0,0,0,0,0,0,0,0,0,0],"id":19,"left_children":[1,3,5,7,9,11,13,-1,-1,-1,-1,-1,-1,-1,-1],"loss_changes":[1.3089844E7,7.769803E6,9.9988E5,4.2865965E6,7.01651E5,2.87128E5,1.1113135E6,0E0,0E0,0E0,0E0,0E0,0E0,0E0,0E0],"parents":[2147483647,0,0,1,1,2,2,3,3,4,4,5,5,6,6],"right_children":[2,4,6,8,10,12,14,-1,-1,-1,-1,-1,-1,-1,-1],"split_conditions":[7.1831E3,5.917648E6,-1.8369701E-16,1.2246469E-16,1E0,5.258E2,7.8178E3,2.1033318E1,-4.8491394E1,4.7319798E1,9.470379E1,-6.542275E1,-2.5696802E1,-4.9066204E1,4.8646393E0],"split_indices":[0,3,9,8,9,7,0,0,0,0,0,0,0,0,0],"split_type":[0,0,0,0,0,0,0,0,0,0,0,0,0,0,0],"sum_hessian":[1.11E2,7.4E1,3.7E1,3.4E1,4E1,2.3E1,1.4E1,1.9E1,1.5E1,3.6E1,4E0,1.9E1,4E0,7E0,7E0],"tree_param":{"num_deleted":"0","num_feature":"10","num_nodes":"15","size_leaf_vector":"1"}},{"base_weights":[4.4404037E1,2.696628E2,-4.39562E2,-1.2712751E1,5.0413797E2,-5.257963E2,-1.7139659E2,2.0278532E1,-3.1356256E1,4.408995E1,8.71275E1,-5.8545483E1,-2.2935894E1,7.7582498E0,-4.358922E1],"categories":[],"categories_nodes":[],"categories_segments":[],"categories_sizes":[],"default_left":[0,0,0,0,0,0,0,0,0,0,0,0,0,0,0],"id":20,"left_children":[1,3,5,7,9,11,13,-1,-1,-1,-1,-1,-1,-1,-1],"loss_changes":[1.2001451E7,4.972163E6,7.192575E5,2.3327252E6,5.6776E5,3.25531E5,6.9235625E5,0E0,0E0,0E0,0E0,0E0,0E0,0E0,0E0],"parents":[2147483647,0,0,1,1,2,2,3,3,4,4,5,5,6,6],"right_children":[2,4,6,8,10,12,14,-1,-1,-1,-1,-1,-1,-1,-1],"split_conditions":[7.1831E3,5.917648E6,5E-1,1.2246469E-16,1E0,5.258E2,1.2246469E-16,2.0278532E1,-3.1356256E1,4.408995E1,8.71275E1,-5.8545483E1,-2.2935894E1,7.7582498E0,-4.358922E1],"split_indices":[0,3,9,8,9,7,8,0,0,0,0,0,0,0,0],"split_type":[0,0,0,0,0,0,0,0,0,0,0,0,0,0,0],"sum_hessian":[1.08E2,7.4E1,3.4E1,3.4E1,4E1,2.5E1,9E0,2E1,1.4E1,3.6E1,4E0,2E1,5E0,5E0,4E0],"tree_param":{"num_deleted":"0","num_feature":"10","num_nodes":"15","size_leaf_vector":"1"}},{"base_weights":[7.66566E0,-3.307126E2,2.6423425E2,9.654419E1,-4.760571E2,4.0701453E2,-1.7220355E2,-4.4213214E0,3.8911232E1,-1.3655995E1,-6.899023E1,3.5712433E1,6.634651E1,-4.2753887E1,1.806852E1],"categories":[],"categories_nodes":[],"categories_segments":[],"categories_sizes":[],"default_left":[0,0,0,0,0,0,0,0,0,0,0,0,0,0,0],"id":21,"left_children":[1,3,5,7,9,11,13,-1,-1,-1,-1,-1,-1,-1,-1],"loss_changes":[8.855926E6,2.7783355E6,3.684343E6,5.1137744E5,2.3015805E6,3.260125E5,1.4288242E6,0E0,0E0,0E0,0E0,0E0,0E0,0E0,0E0],"parents":[2147483647,0,0,1,1,2,2,3,3,4,4,5,5,6,6],"right_children":[2,4,6,8,10,12,14,-1,-1,-1,-1,-1,-1,-1,-1],"split_conditions":[5.0543952E11,1.4750348E0,7.1831E3,8.660254E-1,1.2246469E-16,1E0,-1.8369701E-16,-4.4213214E0,3.8911232E1,-1.3655995E1,-6.899023E1,3.5712433E1,6.634651E1,-4.2753887E1,1.806852E1],"split_indices":[1,2,0,8,8,9,9,0,0,0,0,0,0,0,0],"split_type":[0,0,0,0,0,0,0,0,0,0,0,0,0,0,0],"sum_hessian":[1E2,4.3E1,5.7E1,1.1E1,3.2E1,4.3E1,1.4E1,8E0,3E0,1.3E1,1.9E1,3.8E1,5E0,8E0,6E0],"tree_param":{"num_deleted":"0","num_feature":"10","num_nodes":"15","size_leaf_vector":"1"}},{"base_weights":[-1.7475279E1,1.5101587E2,-3.6358636E2,-4.1489474E2,2.8274017E2,-2.035013E2,-4.734751E2,3.273397E1,-1.012488E2,9.522754E0,4.0859947E1,-3.8099277E1,-2.3119848E0,-5.0621128E1,-1.1923291E1],"categories":[],"categories_nodes":[],"categories_segments":[],"categories_sizes":[],"default_left":[0,0,0,0,0,0,0,0,0,0,0,0,0,0,0],"id":22,"left_children":[1,3,5,7,9,11,13,-1,-1,-1,-1,-1,-1,-1,-1],"loss_changes":[6.2364725E6,5.484488E6,5.19351E5,6.541189E6,1.353503E6,5.0345025E5,1.71574E5,0E0,0E0,0E0,0E0,0E0,0E0,0E0,0E0],"parents":[2147483647,0,0,1,1,2,2,3,3,4,4,5,5,6,6],"right_children":[2,4,6,8,10,12,14,-1,-1,-1,-1,-1,-1,-1,-1],"split_conditions":[7.1831E3,2.5519497E11,1.2246469E-16,1.2246469E-16,5.917648E6,7.8178E3,5.2665E2,3.273397E1,-1.012488E2,9.522754E0,4.0859947E1,-3.8099277E1,-2.3119848E0,-5.0621128E1,-1.1923291E1],"split_indices":[0,1,8,8,3,0,7,0,0,0,0,0,0,0,0],"split_type":[0,0,0,0,0,0,0,0,0,0,0,0,0,0,0],"sum_hessian":[1.05E2,7.1E1,3.4E1,1.3E1,5.8E1,1.5E1,1.9E1,6E0,7E0,2.4E1,3.4E1,7E0,8E0,1.7E1,2E0],"tree_param":{"num_deleted":"0","num_feature":"10","num_nodes":"15","size_leaf_vector":"1"}},{"base_weights":[-1.3848727E1,1.5216504E2,-3.3677426E2,-3.5543298E2,2.6616843E2,-4.2756577E2,-1.6905623E2,2.9928207E1,-8.8387955E1,9.844324E0,3.7990974E1,-4.54633E1,-1.7857153E1,5.8794327E0,-3.7577477E1],"categories":[],"categories_nodes":[],"categories_segments":[],"categories_sizes":[],"default_left":[0,0,0,0,0,0,0,0,0,0,0,0,0,0,0],"id":23,"left_children":[1,3,5,7,9,11,13,-1,-1,-1,-1,-1,-1,-1,-1],"loss_changes":[6.0019645E6,4.376829E6,5.063575E5,5.1082765E6,1.126315E6,8.0565E4,7.286074E5,0E0,0E0,0E0,0E0,0E0,0E0,0E0,0E0],"parents":[2147483647,0,0,1,1,2,2,3,3,4,4,5,5,6,6],"right_children":[2,4,6,8,10,12,14,-1,-1,-1,-1,-1,-1,-1,-1],"split_conditions":[7.1831E3,2.5519497E11,-1.8369701E-16,1.2246469E-16,5.917648E6,5.258E2,1.2246469E-16,2.9928207E1,-8.8387955E1,9.844324E0,3.7990974E1,-4.54633E1,-1.7857153E1,5.8794327E0,-3.7577477E1],"split_indices":[0,1,9,8,3,7,8,0,0,0,0,0,0,0,0],"split_type":[0,0,0,0,0,0,0,0,0,0,0,0,0,0,0],"sum_hessian":[1.1E2,7.3E1,3.7E1,1.3E1,6E1,2.3E1,1.4E1,6E0,7E0,2.5E1,3.5E1,2E1,3E0,7E0,7E0],"tree_param":{"num_deleted":"0","num_feature":"10","num_nodes":"15","size_leaf_vector":"1"}},{"base_weights":[-5.146007E0,1.5148468E2,-3.3131702E2,-3.2940335E2,2.57629E2,-3.8863577E2,-1.6571654E2,2.6808409E1,-6.911279E1,9.755527E0,3.4953007E1,-4.160517E1,-1.3383527E1,3.501649E1,-2.5232119E1],"categories":[],"categories_nodes":[],"categories_segments":[],"categories_sizes":[],"default_left":[0,0,0,0,0,0,0,0,0,0,0,0,0,0,0],"id":24,"left_children":[1,3,5,7,9,11,13,-1,-1,-1,-1,-1,-1,-1,-1],"loss_changes":[5.669912E6,3.9131288E6,2.7730925E5,3.2110425E6,8.7798E5,1.25943E5,5.79809E5,0E0,0E0,0E0,0E0,0E0,0E0,0E0,0E0],"parents":[2147483647,0,0,1,1,2,2,3,3,4,4,5,5,6,6],"right_children":[2,4,6,8,10,12,14,-1,-1,-1,-1,-1,-1,-1,-1],"split_conditions":[7.1831E3,2.5519497E11,5E-1,1.2246469E-16,5.917648E6,5.258E2,-5E-1,2.6808409E1,-6.911279E1,9.755527E0,3.4953007E1,-4.160517E1,-1.3383527E1,3.501649E1,-2.5232119E1],"split_indices":[0,1,9,8,3,7,8,0,0,0,0,0,0,0,0],"split_type":[0,0,0,0,0,0,0,0,0,0,0,0,0,0,0],"sum_hessian":[1.09E2,7.4E1,3.5E1,1.3E1,6.1E1,2.5E1,1E1,5E0,8E0,2.3E1,3.8E1,2.2E1,3E0,1E0,9E0],"tree_param":{"num_deleted":"0","num_feature":"10","num_nodes":"15","size_leaf_vector":"1"}},{"base_weights":[1.7759281E1,1.4905457E2,-2.5626587E2,-5.9078842E1,2.7430594E2,-3.3702142E2,-8.746599E1,1.0136733E1,-2.3822598E1,2.1363205E1,5.90495E1,-2.6818388E1,-4.6588634E1,-2.6097809E1,9.854125E0],"categories":[],"categories_nodes":[],"categories_segments":[],"categories_sizes":[],"default_left":[0,0,0,0,0,0,0,0,0,0,0,0,0,0,0],"id":25,"left_children":[1,3,5,7,9,11,13,-1,-1,-1,-1,-1,-1,-1,-1],"loss_changes":[3.995801E6,1.9713804E6,4.61257E5,8.5770894E5,7.7551875E5,8.795475E4,4.452857E5,0E0,0E0,0E0,0E0,0E0,0E0,0E0,0E0],"parents":[2147483647,0,0,1,1,2,2,3,3,4,4,5,5,6,6],"right_children":[2,4,6,8,10,12,14,-1,-1,-1,-1,-1,-1,-1,-1],"split_conditions":[7.1831E3,4.1344523E11,-1.8369701E-16,5E-1,1E0,4.2624633E12,7.8178E3,1.0136733E1,-2.3822598E1,2.1363205E1,5.90495E1,-2.6818388E1,-4.6588634E1,-2.6097809E1,9.854125E0],"split_indices":[0,1,9,9,9,1,0,0,0,0,0,0,0,0,0],"split_type":[0,0,0,0,0,0,0,0,0,0,0,0,0,0,0],"sum_hessian":[1.09E2,7.4E1,3.5E1,2.8E1,4.6E1,2.3E1,1.2E1,1.5E1,1.3E1,4E1,6E0,1.7E1,6E0,6E0,6E0],"tree_param":{"num_deleted":"0","num_feature":"10","num_nodes":"15","size_leaf_vector":"1"}},{"base_weights":[8.68797E0,2.9765762E2,-1.0339637E2,1.3031644E2,4.1127533E2,-8.852041E1,-6.1440174E1,-1.7523329E0,3.303567E1,5.2238716E1,1.620443E1,7.299034E0,-2.4289268E1],"categories":[],"categories_nodes":[],"categories_segments":[],"categories_sizes":[],"default_left":[0,0,0,0,0,0,0,0,0,0,0,0,0],"id":26,"left_children":[1,3,5,7,9,-1,11,-1,-1,-1,-1,-1,-1],"loss_changes":[3.5935635E6,5.3580475E5,2.5697472E6,4.1982362E5,4.138155E5,0E0,1.8959711E6,0E0,0E0,0E0,0E0,0E0,0E0],"parents":[2147483647,0,0,1,1,2,2,3,3,4,4,6,6],"right_children":[2,4,6,8,10,-1,12,-1,-1,-1,-1,-1,-1],"split_conditions":[2.3069E2,1.2417E2,2.3097E2,5E-1,1.2936E2,-8.852041E1,7.1831E3,-1.7523329E0,3.303567E1,5.2238716E1,1.620443E1,7.299034E0,-2.4289268E1],"split_indices":[7,7,7,9,7,0,0,0,0,0,0,0,0],"split_type":[0,0,0,0,0,0,0,0,0,0,0,0,0],"sum_hessian":[1.09E2,3E1,7.9E1,1.3E1,1.7E1,3E0,7.6E1,8E0,5E0,1.1E1,6E0,4.4E1,3.2E1],"tree_param":{"num_deleted":"0","num_feature":"10","num_nodes":"13","size_leaf_vector":"1"}},{"base_weights":[-2.3417433E1,8.3507324E1,-2.3663403E2,-2.7788672E2,1.6508125E2,-1.6288786E2,-4.1945995E1,2.5511106E1,-7.095239E1,5.948118E0,2.2743177E1,-2.5269135E1,5.4774103E0],"categories":[],"categories_nodes":[],"categories_segments":[],"categories_sizes":[],"default_left":[0,0,0,0,0,0,0,0,0,0,0,0,0],"id":27,"left_children":[1,3,5,7,9,11,-1,-1,-1,-1,-1,-1,-1],"loss_changes":[2.5275555E6,2.2274185E6,4.3053525E5,3.401871E6,3.881095E5,5.6115144E5,0E0,0E0,0E0,0E0,0E0,0E0,0E0],"parents":[2147483647,0,0,1,1,2,2,3,3,4,4,5,5],"right_children":[2,4,6,8,10,12,-1,-1,-1,-1,-1,-1,-1],"split_conditions":[7.1831E3,2.5519497E11,4.2624633E12,1.2246469E-16,5.917648E6,7.8178E3,-4.1945995E1,2.5511106E1,-7.095239E1,5.948118E0,2.2743177E1,-2.5269135E1,5.4774103E0],"split_indices":[0,1,1,8,3,0,0,0,0,0,0,0,0],"split_type":[0,0,0,0,0,0,0,0,0,0,0,0,0],"sum_hessian":[1.09E2,7.3E1,3.6E1,1.3E1,6E1,2.7E1,9E0,6E0,7E0,2.3E1,3.7E1,1.9E1,8E0],"tree_param":{"num_deleted":"0","num_feature":"10","num_nodes":"13","size_leaf_vector":"1"}},{"base_weights":[-7.7651086E0,1.0152379E2,-2.349943E2,-1.12473724E2,2.2610345E2,-1.8204282E2,-3.5975897E2,9.603522E0,-2.6530563E1,1.7735634E1,4.932496E1,-2.3298168E1,4.05685E-1,1.5723285E1,-4.346728E1],"categories":[],"categories_nodes":[],"categories_segments":[],"categories_sizes":[],"default_left":[0,0,0,0,0,0,0,0,0,0,0,0,0,0,0],"id":28,"left_children":[1,3,5,7,9,11,13,-1,-1,-1,-1,-1,-1,-1,-1],"loss_changes":[2.8300572E6,2.0782305E6,1.78948E5,9.496165E5,5.5062675E5,2.6637688E5,4.5564338E5,0E0,0E0,0E0,0E0,0E0,0E0,0E0,0E0],"parents":[2147483647,0,0,1,1,2,2,3,3,4,4,5,5,6,6],"right_children":[2,4,6,8,10,12,14,-1,-1,-1,-1,-1,-1,-1,-1],"split_conditions":[7.1831E3,4.1344523E11,4.2624633E12,6.123234E-17,1E0,7.8178E3,4.8776E2,9.603522E0,-2.6530563E1,1.7735634E1,4.932496E1,-2.3298168E1,4.05685E-1,1.5723285E1,-4.346728E1],"split_indices":[0,1,1,9,9,0,7,0,0,0,0,0,0,0,0],"split_type":[0,0,0,0,0,0,0,0,0,0,0,0,0,0,0],"sum_hessian":[1.12E2,7.6E1,3.6E1,2.8E1,4.8E1,2.7E1,9E0,1.2E1,1.6E1,4.2E1,6E0,2.1E1,6E0,1E0,8E0],"tree_param":{"num_deleted":"0","num_feature":"10","num_nodes":"15","size_leaf_vector":"1"}},{"base_weights":[1.5451992E0,-1.6089229E2,1.1647719E2,-1.29934635E1,-2.64488E2,2.0411578E2,-1.892592E2,-4.652779E1,1.2915751E1,-6.3305977E1,-1.5194625E1,1.5805379E1,4.319423E1,1.7714461E0,-3.292099E1],"categories":[],"categories_nodes":[],"categories_segments":[],"categories_sizes":[],"default_left":[0,0,0,0,0,0,0,0,0,0,0,0,0,0,0],"id":29,"left_children":[1,3,5,7,9,11,13,-1,-1,-1,-1,-1,-1,-1,-1],"loss_changes":[2.0723592E6,7.013609E5,1.7802608E6,1.3459476E6,1.0237611E6,4.66931E5,4.4032344E5,0E0,0E0,0E0,0E0,0E0,0E0,0E0,0E0],"parents":[2147483647,0,0,1,1,2,2,3,3,4,4,5,5,6,6],"right_children":[2,4,6,8,10,12,14,-1,-1,-1,-1,-1,-1,-1,-1],"split_conditions":[5.0543952E11,2.396E2,5.019E2,2.3097E2,2.6237E2,1E0,4.2624633E12,-4.652779E1,1.2915751E1,-6.3305977E1,-1.5194625E1,1.5805379E1,4.319423E1,1.7714461E0,-3.292099E1],"split_indices":[1,7,7,7,7,9,1,0,0,0,0,0,0,0,0],"split_type":[0,0,0,0,0,0,0,0,0,0,0,0,0,0,0],"sum_hessian":[1.09E2,4.5E1,6.4E1,1.9E1,2.6E1,5E1,1.4E1,4E0,1.5E1,5E0,2.1E1,4.3E1,7E0,6E0,8E0],"tree_param":{"num_deleted":"0","num_feature":"10","num_nodes":"15","size_leaf_vector":"1"}},{"base_weights":[-2.3590097E1,2.0825496E2,-1.06305115E2,7.558502E1,3.657268E2,-7.1080574E1,-7.39422E1,-3.69549E0,2.416356E1,4.4143233E0,4.2018353E1,2.512962E0,-1.7888964E1],"categories":[],"categories_nodes":[],"categories_segments":[],"categories_sizes":[],"default_left":[0,0,0,0,0,0,0,0,0,0,0,0,0],"id":30,"left_children":[1,3,5,7,9,-1,11,-1,-1,-1,-1,-1,-1],"loss_changes":[2.112439E6,5.7821825E5,1.5320772E6,3.2661403E5,2.0911262E5,0E0,8.154874E5,0E0,0E0,0E0,0E0,0E0,0E0],"parents":[2147483647,0,0,1,1,2,2,3,3,4,4,6,6],"right_children":[2,4,6,8,10,-1,12,-1,-1,-1,-1,-1,-1],"split_conditions":[2.3069E2,1.2529E2,2.3097E2,5E-1,-5E-1,-7.1080574E1,7.1831E3,-3.69549E0,2.416356E1,4.4143233E0,4.2018353E1,2.512962E0,-1.7888964E1],"split_indices":[7,7,7,9,8,0,0,0,0,0,0,0,0],"split_type":[0,0,0,0,0,0,0,0,0,0,0,0,0],"sum_hessian":[1.08E2,2.8E1,8E1,1.6E1,1.2E1,3E0,7.7E1,1E1,6E0,2E0,1E1,4E1,3.7E1],"tree_param":{"num_deleted":"0","num_feature":"10","num_nodes":"13","size_leaf_vector":"1"}},{"base_weights":[2.0408451E1,9.849158E1,-1.4972658E2,1.8247548E2,1.0737101E-1,-2.8504225E1,-2.2918414E2,-5.695972E0,2.7216705E1,1.033602E1,-3.211356E1,-1.8699331E1,1.3354789E1,-1.5722608E1,-3.5063946E1],"categories":[],"categories_nodes":[],"categories_segments":[],"categories_sizes":[],"default_left":[0,0,0,0,0,0,0,0,0,0,0,0,0,0,0],"id":31,"left_children":[1,3,5,7,9,11,13,-1,-1,-1,-1,-1,-1,-1,-1],"loss_changes":[1.4760611E6,6.279447E5,3.3058844E5,8.9599075E5,1.2272855E6,4.1022488E5,1.2840375E5,0E0,0E0,0E0,0E0,0E0,0E0,0E0,0E0],"parents":[2147483647,0,0,1,1,2,2,3,3,4,4,5,5,6,6],"right_children":[2,4,6,8,10,12,14,-1,-1,-1,-1,-1,-1,-1,-1],"split_conditions":[7.1831E3,1.2246469E-16,1.2246469E-16,3.4963868E0,5E-1,-1.8369701E-16,4.2624633E12,-5.695972E0,2.7216705E1,1.033602E1,-3.211356E1,-1.8699331E1,1.3354789E1,-1.5722608E1,-3.5063946E1],"split_indices":[0,8,8,2,9,9,1,0,0,0,0,0,0,0,0],"split_type":[0,0,0,0,0,0,0,0,0,0,0,0,0,0,0],"sum_hessian":[1.09E2,7.5E1,3.4E1,4E1,3.5E1,1.4E1,2E1,1.1E1,2.9E1,2.7E1,8E0,7E0,7E0,1.4E1,6E0],"tree_param":{"num_deleted":"0","num_feature":"10","num_nodes":"15","size_leaf_vector":"1"}},{"base_weights":[1.2075558E-1,1.7100203E2,-7.126156E1,3.729951E1,2.6755655E2,-6.3341015E1,-4.0737137E1,-7.251465E0,2.1410652E1,3.4362675E1,8.806097E0,5.4147944E0,-1.422146E1],"categories":[],"categories_nodes":[],"categories_segments":[],"categories_sizes":[],"default_left":[0,0,0,0,0,0,0,0,0,0,0,0,0],"id":32,"left_children":[1,3,5,7,9,-1,11,-1,-1,-1,-1,-1,-1],"loss_changes":[1.3661529E6,4.1603638E5,1.3297782E6,3.0676456E5,2.2917088E5,0E0,7.394816E5,0E0,0E0,0E0,0E0,0E0,0E0],"parents":[2147483647,0,0,1,1,2,2,3,3,4,4,6,6],"right_children":[2,4,6,8,10,-1,12,-1,-1,-1,-1,-1,-1],"split_conditions":[2.3069E2,1.2134E2,2.3097E2,5E-1,1.2936E2,-6.3341015E1,7.1831E3,-7.251465E0,2.1410652E1,3.4362675E1,8.806097E0,5.4147944E0,-1.422146E1],"split_indices":[7,7,7,9,7,0,0,0,0,0,0,0,0],"split_type":[0,0,0,0,0,0,0,0,0,0,0,0,0],"sum_hessian":[1.1E2,3.2E1,7.8E1,1.4E1,1.8E1,3E0,7.5E1,9E0,5E0,1.2E1,6E0,3.9E1,3.6E1],"tree_param":{"num_deleted":"0","num_feature":"10","num_nodes":"13","size_leaf_vector":"1"}},{"base_weights":[5.663108E0,1.6113281E2,-5.6595562E1,4.4090786E1,2.49716E2,-5.8590435E1,-2.8363995E1,-7.1079974E0,1.858688E1,3.276082E1,8.051284E0,5.6606784E0,-1.2175422E1],"categories":[],"categories_nodes":[],"categories_segments":[],"categories_sizes":[],"default_left":[0,0,0,0,0,0,0,0,0,0,0,0,0],"id":33,"left_children":[1,3,5,7,9,-1,11,-1,-1,-1,-1,-1,-1],"loss_changes":[1.0835259E6,3.2076444E5,1.1788388E6,2.5814175E5,2.1085638E5,0E0,6.1792094E5,0E0,0E0,0E0,0E0,0E0,0E0],"parents":[2147483647,0,0,1,1,2,2,3,3,4,4,6,6],"right_children":[2,4,6,8,10,-1,12,-1,-1,-1,-1,-1,-1],"split_conditions":[2.3069E2,1.2417E2,2.3097E2,5E-1,1.2936E2,-5.8590435E1,7.1831E3,-7.1079974E0,1.858688E1,3.276082E1,8.051284E0,5.6606784E0,-1.2175422E1],"split_indices":[7,7,7,9,7,0,0,0,0,0,0,0,0],"split_type":[0,0,0,0,0,0,0,0,0,0,0,0,0],"sum_hessian":[1.1E2,3.1E1,7.9E1,1.4E1,1.7E1,3E0,7.6E1,8E0,6E0,1.1E1,6E0,4E1,3.6E1],"tree_param":{"num_deleted":"0","num_feature":"10","num_nodes":"13","size_leaf_vector":"1"}},{"base_weights":[1.0059463E1,-1.0507034E2,9.921088E1,1.3519851E1,-2.0048329E2,1.2114996E2,-2.272543E1,-3.0682264E1,1.0694294E1,-6.191448E1,-9.125518E0,1.951767E1,3.1074886E0],"categories":[],"categories_nodes":[],"categories_segments":[],"categories_sizes":[],"default_left":[0,0,0,0,0,0,0,0,0,0,0,0,0],"id":34,"left_children":[1,3,5,7,9,11,-1,-1,-1,-1,-1,-1,-1],"loss_changes":[1.0573506E6,5.118873E5,4.42948E5,6.612876E5,1.08674E6,3.6067294E5,0E0,0E0,0E0,0E0,0E0,0E0,0E0],"parents":[2147483647,0,0,1,1,2,2,3,3,4,4,5,5],"right_children":[2,4,6,8,10,12,-1,-1,-1,-1,-1,-1,-1],"split_conditions":[5.0543952E11,2.396E2,4.2624633E12,2.3097E2,2.6237E2,1.2246469E-16,-2.272543E1,-3.0682264E1,1.0694294E1,-6.191448E1,-9.125518E0,1.951767E1,3.1074886E0],"split_indices":[1,7,1,7,7,8,0,0,0,0,0,0,0],"split_type":[0,0,0,0,0,0,0,0,0,0,0,0,0],"sum_hessian":[1.01E2,4.4E1,5.7E1,2E1,2.4E1,5.4E1,3E0,4E0,1.6E1,4E0,2E1,2.9E1,2.5E1],"tree_param":{"num_deleted":"0","num_feature":"10","num_nodes":"13","size_leaf_vector":"1"}},{"base_weights":[-2.9052582E0,9.198554E1,-1.0119381E2,-5.445021E1,1.6096744E2,-9.127593E0,-3.979364E2,1.1760401E1,-1.2429843E1,5.866026E0,2.5522625E1,8.534028E0,-1.5862788E1,-8.0239075E1,-4.485357E0],"categories":[],"categories_nodes":[],"categories_segments":[],"categories_sizes":[],"default_left":[0,0,0,0,0,0,0,0,0,0,0,0,0,0,0],"id":35,"left_children":[1,3,5,7,9,11,13,-1,-1,-1,-1,-1,-1,-1,-1],"loss_changes":[1.0445698E6,5.845454E5,1.498966E6,2.429539E5,3.611192E5,6.208253E5,1.8204866E6,0E0,0E0,0E0,0E0,0E0,0E0,0E0,0E0],"parents":[2147483647,0,0,1,1,2,2,3,3,4,4,5,5,6,6],"right_children":[2,4,6,8,10,12,14,-1,-1,-1,-1,-1,-1,-1,-1],"split_conditions":[1.2246469E-16,-1.8369701E-16,5E-1,2.3575E2,5.0901785E11,7.1831E3,5.917648E6,1.1760401E1,-1.2429843E1,5.866026E0,2.5522625E1,8.534028E0,-1.5862788E1,-8.0239075E1,-4.485357E0],"split_indices":[8,9,9,7,1,0,3,0,0,0,0,0,0,0,0],"split_type":[0,0,0,0,0,0,0,0,0,0,0,0,0,0,0],"sum_hessian":[1.1E2,5.6E1,5.4E1,1.8E1,3.8E1,4.2E1,1.2E1,5E0,1.3E1,1.9E1,1.9E1,2.6E1,1.6E1,5E0,7E0],"tree_param":{"num_deleted":"0","num_feature":"10","num_nodes":"15","size_leaf_vector":"1"}},{"base_weights":[3.8217497E0,9.2356766E1,-8.8002205E1,-6.7125885E1,1.7386456E2,-3.7434277E2,-3.1298647E1,-2.3580452E1,4.8206303E-1,7.2203417E0,2.4451796E1,3.0853388E1,-7.6720345E1,8.23772E0,-1.5349853E1],"categories":[],"categories_nodes":[],"categories_segments":[],"categories_sizes":[],"default_left":[0,0,0,0,0,0,0,0,0,0,0,0,0,0,0],"id":36,"left_children":[1,3,5,7,9,11,13,-1,-1,-1,-1,-1,-1,-1,-1],"loss_changes":[9.105171E5,7.5261825E5,8.8129275E5,2.4385353E5,2.5528788E5,2.6511865E6,6.6552994E5,0E0,0E0,0E0,0E0,0E0,0E0,0E0,0E0],"parents":[2147483647,0,0,1,1,2,2,3,3,4,4,5,5,6,6],"right_children":[2,4,6,8,10,12,14,-1,-1,-1,-1,-1,-1,-1,-1],"split_conditions":[1.2246469E-16,-1.8369701E-16,2.5519497E11,1.821407E0,5.0901785E11,-1.8369701E-16,7.1831E3,-2.3580452E1,4.8206303E-1,7.2203417E0,2.4451796E1,3.0853388E1,-7.6720345E1,8.23772E0,-1.5349853E1],"split_indices":[8,9,1,2,1,9,0,0,0,0,0,0,0,0,0],"split_type":[0,0,0,0,0,0,0,0,0,0,0,0,0,0,0],"sum_hessian":[1.1E2,5.6E1,5.4E1,1.9E1,3.7E1,8E0,4.6E1,5E0,1.4E1,1.6E1,2.1E1,3E0,5E0,2.4E1,2.2E1],"tree_param":{"num_deleted":"0","num_feature":"10","num_nodes":"15","size_leaf_vector":"1"}},{"base_weights":[-1.387465E1,6.930225E1,-1.02955864E2,-5.126343E1,1.3410692E2,-2.739493E1,-2.9758798E2,8.5880375E0,-1.118463E1,1.5682139E1,-1.831692E1,1.2398451E1,-1.0487334E1,-6.8575096E1,-3.4931397E0],"categories":[],"categories_nodes":[],"categories_segments":[],"categories_sizes":[],"default_left":[0,0,0,0,0,0,0,0,0,0,0,0,0,0,0],"id":37,"left_children":[1,3,5,7,9,11,13,-1,-1,-1,-1,-1,-1,-1,-1],"loss_changes":[8.295896E5,4.6004147E5,7.860032E5,1.8408528E5,3.0258188E5,4.8214822E5,1.5053489E6,0E0,0E0,0E0,0E0,0E0,0E0,0E0,0E0],"parents":[2147483647,0,0,1,1,2,2,3,3,4,4,5,5,6,6],"right_children":[2,4,6,8,10,12,14,-1,-1,-1,-1,-1,-1,-1,-1],"split_conditions":[1.2246469E-16,-1.8369701E-16,5E-1,2.3575E2,5.065024E0,2.3227E2,5.917648E6,8.5880375E0,-1.118463E1,1.5682139E1,-1.831692E1,1.2398451E1,-1.0487334E1,-6.8575096E1,-3.4931397E0],"split_indices":[8,9,9,7,2,7,3,0,0,0,0,0,0,0,0],"split_type":[0,0,0,0,0,0,0,0,0,0,0,0,0,0,0],"sum_hessian":[1.1E2,5.7E1,5.3E1,2E1,3.7E1,3.9E1,1.4E1,6E0,1.4E1,3.5E1,2E0,1.3E1,2.6E1,5E0,9E0],"tree_param":{"num_deleted":"0","num_feature":"10","num_nodes":"15","size_leaf_vector":"1"}},{"base_weights":[5.477258E-1,7.391675E1,-7.28309E1,-7.252363E1,1.433642E2,4.3739624E0,-3.1027255E2,-2.302595E1,-1.5110099E0,4.93671E0,2.2158232E1,1.36686125E1,-8.399615E0,5.02893E0,-5.869801E1],"categories":[],"categories_nodes":[],"categories_segments":[],"categories_sizes":[],"default_left":[0,0,0,0,0,0,0,0,0,0,0,0,0,0,0],"id":38,"left_children":[1,3,5,7,9,11,13,-1,-1,-1,-1,-1,-1,-1,-1],"loss_changes":[6.137436E5,5.900822E5,1.04626125E6,1.6858805E5,2.7579988E5,5.2594844E5,1.4263014E6,0E0,0E0,0E0,0E0,0E0,0E0,0E0,0E0],"parents":[2147483647,0,0,1,1,2,2,3,3,4,4,5,5,6,6],"right_children":[2,4,6,8,10,12,14,-1,-1,-1,-1,-1,-1,-1,-1],"split_conditions":[1.2246469E-16,-1.8369701E-16,5E-1,1.4750348E0,5.0901785E11,2.601872E7,1.7372667E2,-2.302595E1,-1.5110099E0,4.93671E0,2.2158232E1,1.36686125E1,-8.399615E0,5.02893E0,-5.869801E1],"split_indices":[8,9,9,2,1,3,6,0,0,0,0,0,0,0,0],"split_type":[0,0,0,0,0,0,0,0,0,0,0,0,0,0,0],"sum_hessian":[1.12E2,5.6E1,5.6E1,1.8E1,3.8E1,4.3E1,1.3E1,4E0,1.4E1,1.8E1,2E1,1.7E1,2.6E1,6E0,7E0],"tree_param":{"num_deleted":"0","num_feature":"10","num_nodes":"15","size_leaf_vector":"1"}},{"base_weights":[-8.590024E0,4.9080345E1,-6.823726E1,-2.3776943E1,1.1301589E2,-3.5745682E2,-1.7556538E1,1.5076734E1,-7.029916E0,1.4009377E1,-9.8013735E0,-6.1508107E0,-8.3020195E1,-9.729566E0,8.580121E0],"categories":[],"categories_nodes":[],"categories_segments":[],"categories_sizes":[],"default_left":[0,0,0,0,0,0,0,0,0,0,0,0,0,0,0],"id":39,"left_children":[1,3,5,7,9,11,13,-1,-1,-1,-1,-1,-1,-1,-1],"loss_changes":[3.782958E5,2.6354475E5,7.852485E5,2.2984384E5,1.851581E5,1.0682025E6,3.957059E5,0E0,0E0,0E0,0E0,0E0,0E0,0E0,0E0],"parents":[2147483647,0,0,1,1,2,2,3,3,4,4,5,5,6,6],"right_children":[2,4,6,8,10,12,14,-1,-1,-1,-1,-1,-1,-1,-1],"split_conditions":[1.2246469E-16,5.0901785E11,2.5519497E11,2.5519497E11,5.2559E2,2.396E2,8.660254E-1,1.5076734E1,-7.029916E0,1.4009377E1,-9.8013735E0,-6.1508107E0,-8.3020195E1,-9.729566E0,8.580121E0],"split_indices":[8,1,1,1,7,7,8,0,0,0,0,0,0,0,0],"split_type":[0,0,0,0,0,0,0,0,0,0,0,0,0,0,0],"sum_hessian":[1.08E2,5.5E1,5.3E1,2.6E1,2.9E1,7E0,4.6E1,5E0,2.1E1,2.6E1,3E0,5E0,2E0,2.6E1,2E1],"tree_param":{"num_deleted":"0","num_feature":"10","num_nodes":"15","size_leaf_vector":"1"}},{"base_weights":[3.215156E0,6.0974148E1,-5.569429E1,8.668211E1,-1.2401964E2,8.791184E1,-1.25950294E2,-5.551971E0,1.3562494E1,-1.620825E1,-1.9241679E0,2.1793867E1,-1.01864E1,4.7730966E0,-2.3864431E1],"categories":[],"categories_nodes":[],"categories_segments":[],"categories_sizes":[],"default_left":[0,0,0,0,0,0,0,0,0,0,0,0,0,0,0],"id":40,"left_children":[1,3,5,7,9,11,13,-1,-1,-1,-1,-1,-1,-1,-1],"loss_changes":[3.6406625E5,2.6756425E5,5.4579975E5,3.4159825E5,2.4798305E4,4.6636716E5,7.1601294E5,0E0,0E0,0E0,0E0,0E0,0E0,0E0,0E0],"parents":[2147483647,0,0,1,1,2,2,3,3,4,4,5,5,6,6],"right_children":[2,4,6,8,10,12,14,-1,-1,-1,-1,-1,-1,-1,-1],"split_conditions":[1.2246469E-16,5.065024E0,3.4963868E0,1.4750348E0,4.9069E2,7.1831E3,2.3069E2,-5.551971E0,1.3562494E1,-1.620825E1,-1.9241679E0,2.1793867E1,-1.01864E1,4.7730966E0,-2.3864431E1],"split_indices":[8,2,2,2,7,0,7,0,0,0,0,0,0,0,0],"split_type":[0,0,0,0,0,0,0,0,0,0,0,0,0,0,0],"sum_hessian":[1.05E2,5.3E1,5.2E1,4.7E1,6E0,1.7E1,3.5E1,1.2E1,3.5E1,4E0,2E0,1E1,7E0,1.4E1,2.1E1],"tree_param":{"num_deleted":"0","num_feature":"10","num_nodes":"15","size_leaf_vector":"1"}},{"base_weights":[1.08061495E1,2.8339727E1,-1.6911696E2,-4.2497066E1,8.728597E1,1.0646631E1,-2.1156691E2,6.8871803E0,-1.1399746E1,-3.7249057E0,1.25802355E1,-4.405365E0,-2.2699936E1],"categories":[],"categories_nodes":[],"categories_segments":[],"categories_sizes":[],"default_left":[0,0,0,0,0,0,0,0,0,0,0,0,0],"id":41,"left_children":[1,3,5,7,9,-1,11,-1,-1,-1,-1,-1,-1],"loss_changes":[3.5496394E5,4.296168E5,1.3950972E5,3.821084E5,2.7329775E5,0E0,1.3266125E4,0E0,0E0,0E0,0E0,0E0,0E0],"parents":[2147483647,0,0,1,1,2,2,3,3,4,4,6,6],"right_children":[2,4,6,8,10,-1,12,-1,-1,-1,-1,-1,-1],"split_conditions":[4.2624633E12,5.0543952E11,4.8776E2,2.396E2,1.2134E2,1.0646631E1,-8.660254E-1,6.8871803E0,-1.1399746E1,-3.7249057E0,1.25802355E1,-4.405365E0,-2.2699936E1],"split_indices":[1,1,7,7,7,0,9,0,0,0,0,0,0],"split_type":[0,0,0,0,0,0,0,0,0,0,0,0,0],"sum_hessian":[1.1E2,1.01E2,9E0,4.6E1,5.5E1,1E0,8E0,1.8E1,2.8E1,1.3E1,4.2E1,1E0,7E0],"tree_param":{"num_deleted":"0","num_feature":"10","num_nodes":"13","size_leaf_vector":"1"}},{"base_weights":[1.5627804E1,4.8801598E1,-3.873948E1,2.5968206E1,2.0067589E2,4.429754E0,-8.417533E1,5.7449703E0,-1.6580614E1,2.3801283E1,4.6664386E0,-5.805535E0,1.080794E1,-4.766606E0,-1.6750418E1],"categories":[],"categories_nodes":[],"categories_segments":[],"categories_sizes":[],"default_left":[0,0,0,0,0,0,0,0,0,0,0,0,0,0,0],"id":42,"left_children":[1,3,5,7,9,11,13,-1,-1,-1,-1,-1,-1,-1,-1],"loss_changes":[2.038903E5,2.3753516E5,8.471441E4,3.838408E5,4.0646125E4,1.5523542E5,5.590353E4,0E0,0E0,0E0,0E0,0E0,0E0,0E0,0E0],"parents":[2147483647,0,0,1,1,2,2,3,3,4,4,5,5,6,6],"right_children":[2,4,6,8,10,12,14,-1,-1,-1,-1,-1,-1,-1,-1],"split_conditions":[4.5462E2,4.2859E2,1.2246469E-16,2.4999E2,1E0,5.0901785E11,4.2624633E12,5.7449703E0,-1.6580614E1,2.3801283E1,4.6664386E0,-5.805535E0,1.080794E1,-4.766606E0,-1.6750418E1],"split_indices":[7,7,8,7,9,1,1,0,0,0,0,0,0,0,0],"split_type":[0,0,0,0,0,0,0,0,0,0,0,0,0,0,0],"sum_hessian":[1.11E2,6.9E1,4.2E1,6.1E1,8E0,2.2E1,2E1,5.3E1,8E0,6E0,2E0,1.4E1,8E0,1.5E1,5E0],"tree_param":{"num_deleted":"0","num_feature":"10","num_nodes":"15","size_leaf_vector":"1"}},{"base_weights":[-4.364487E0,9.2954926E1,-3.1349161E1,-1.6090559E1,2.3320287E2,-8.029104E0,-1.1806995E2,-8.050391E0,6.9025254E0,2.8520319E1,-1.4340014E1,-1.3911834E1,5.9959525E-1,1.6719478E0,-4.129003E1],"categories":[],"categories_nodes":[],"categories_segments":[],"categories_sizes":[],"default_left":[0,0,0,0,0,0,0,0,0,0,0,0,0,0,0],"id":43,"left_children":[1,3,5,7,9,11,13,-1,-1,-1,-1,-1,-1,-1,-1],"loss_changes":[3.022932E5,3.8608744E5,1.8106205E5,8.779572E4,2.5631638E5,1.332086E5,7.6196375E5,0E0,0E0,0E0,0E0,0E0,0E0,0E0,0E0],"parents":[2147483647,0,0,1,1,2,2,3,3,4,4,5,5,6,6],"right_children":[2,4,6,8,10,12,14,-1,-1,-1,-1,-1,-1,-1,-1],"split_conditions":[1.2936E2,1.2417E2,8.660254E-1,5E-1,8.660254E-1,1.3942518E0,1.2246469E-16,-8.050391E0,6.9025254E0,2.8520319E1,-1.4340014E1,-1.3911834E1,5.9959525E-1,1.6719478E0,-4.129003E1],"split_indices":[7,7,9,9,8,2,8,0,0,0,0,0,0,0,0],"split_type":[0,0,0,0,0,0,0,0,0,0,0,0,0,0,0],"sum_hessian":[1.13E2,2.4E1,8.9E1,1.4E1,1E1,7.1E1,1.8E1,8E0,6E0,9E0,1E0,6E0,6.5E1,1.3E1,5E0],"tree_param":{"num_deleted":"0","num_feature":"10","num_nodes":"15","size_leaf_vector":"1"}},{"base_weights":[1.2938515E1,9.003574E1,-2.5249392E1,-3.6989746E1,1.667776E2,-1.2975229E2,7.5105834E0,1.7494673E0,-1.7757446E1,2.4181656E1,9.62263E0,-2.3979633E0,-4.6751854E1,1.1083687E1,-3.4007695E0],"categories":[],"categories_nodes":[],"categories_segments":[],"categories_sizes":[],"default_left":[0,0,0,0,0,0,0,0,0,0,0,0,0,0,0],"id":44,"left_children":[1,3,5,7,9,11,13,-1,-1,-1,-1,-1,-1,-1,-1],"loss_changes":[3.114124E5,3.4735512E5,2.4404394E5,1.1034208E5,9.3201E4,5.9613844E5,2.3971542E5,0E0,0E0,0E0,0E0,0E0,0E0,0E0,0E0],"parents":[2147483647,0,0,1,1,2,2,3,3,4,4,5,5,6,6],"right_children":[2,4,6,8,10,12,14,-1,-1,-1,-1,-1,-1,-1,-1],"split_conditions":[2.3296E2,1.2134E2,2.6237E2,1.2087E2,1.2936E2,2.4999E2,4.5462E2,1.7494673E0,-1.7757446E1,2.4181656E1,9.62263E0,-2.3979633E0,-4.6751854E1,1.1083687E1,-3.4007695E0],"split_indices":[7,7,7,7,7,7,7,0,0,0,0,0,0,0,0],"split_type":[0,0,0,0,0,0,0,0,0,0,0,0,0,0,0],"sum_hessian":[1.04E2,3.4E1,7E1,1.3E1,2.1E1,1.6E1,5.4E1,1E1,3E0,9E0,1.2E1,1.3E1,3E0,1.5E1,3.9E1],"tree_param":{"num_deleted":"0","num_feature":"10","num_nodes":"15","size_leaf_vector":"1"}},{"base_weights":[-1.969269E1,2.237757E1,-6.293473E1,-5.0916973E1,6.3372375E1,-6.647607E0,-2.1259055E2,-1.0170826E1,4.4332404E0,7.9488807E0,-1.457768E1,4.1403527E0,-1.1332725E1,7.197408E0,-4.7058136E1],"categories":[],"categories_nodes":[],"categories_segments":[],"categories_sizes":[],"default_left":[0,0,0,0,0,0,0,0,0,0,0,0,0,0,0],"id":45,"left_children":[1,3,5,7,9,11,13,-1,-1,-1,-1,-1,-1,-1,-1],"loss_changes":[2.0333994E5,1.744944E5,4.6189003E5,1.0610357E5,1.3630494E5,2.1486133E5,1.1350955E6,0E0,0E0,0E0,0E0,0E0,0E0,0E0,0E0],"parents":[2147483647,0,0,1,1,2,2,3,3,4,4,5,5,6,6],"right_children":[2,4,6,8,10,12,14,-1,-1,-1,-1,-1,-1,-1,-1],"split_conditions":[1.2246469E-16,-1.8369701E-16,5E-1,-5E-1,5.065024E0,4.1080003E0,1.7372667E2,-1.0170826E1,4.4332404E0,7.9488807E0,-1.457768E1,4.1403527E0,-1.1332725E1,7.197408E0,-4.7058136E1],"split_indices":[8,9,9,8,2,2,6,0,0,0,0,0,0,0,0],"split_type":[0,0,0,0,0,0,0,0,0,0,0,0,0,0,0],"sum_hessian":[1.1E2,5.6E1,5.4E1,2E1,3.6E1,4E1,1.4E1,1.3E1,7E0,3.4E1,2E0,2.8E1,1.2E1,7E0,7E0],"tree_param":{"num_deleted":"0","num_feature":"10","num_nodes":"15","size_leaf_vector":"1"}},{"base_weights":[-8.046359E-1,4.3535717E1,-4.362829E1,-3.8818855E1,8.573455E1,7.4614167E0,-1.9398885E2,-8.575606E0,6.0601115E0,1.0183578E1,-1.3605834E1,9.942433E0,-5.192408E0,6.567642E0,-4.294055E1],"categories":[],"categories_nodes":[],"categories_segments":[],"categories_sizes":[],"default_left":[0,0,0,0,0,0,0,0,0,0,0,0,0,0,0],"id":46,"left_children":[1,3,5,7,9,11,13,-1,-1,-1,-1,-1,-1,-1,-1],"loss_changes":[2.202632E5,2.0141834E5,4.5467816E5,9.8526836E4,1.4955881E5,2.5091938E5,9.4514475E5,0E0,0E0,0E0,0E0,0E0,0E0,0E0,0E0],"parents":[2147483647,0,0,1,1,2,2,3,3,4,4,5,5,6,6],"right_children":[2,4,6,8,10,12,14,-1,-1,-1,-1,-1,-1,-1,-1],"split_conditions":[1.2246469E-16,-1.8369701E-16,5E-1,-5E-1,5.065024E0,2.601872E7,1.7372667E2,-8.575606E0,6.0601115E0,1.0183578E1,-1.3605834E1,9.942433E0,-5.192408E0,6.567642E0,-4.294055E1],"split_indices":[8,9,9,8,2,3,6,0,0,0,0,0,0,0,0],"split_type":[0,0,0,0,0,0,0,0,0,0,0,0,0,0,0],"sum_hessian":[1.14E2,5.6E1,5.8E1,1.9E1,3.7E1,4.4E1,1.4E1,1.3E1,6E0,3.5E1,2E0,1.7E1,2.7E1,7E0,7E0],"tree_param":{"num_deleted":"0","num_feature":"10","num_nodes":"15","size_leaf_vector":"1"}},{"base_weights":[4.107318E0,4.1607586E1,-3.278581E1,-2.55137E1,1.0035055E2,3.1079166E1,-6.735563E1,1.0807671E1,-5.4715443E0,-2.2541706E-1,1.3954541E1,1.6288033E1,-9.156545E0,-2.2597607E1,-1.3964933E0],"categories":[],"categories_nodes":[],"categories_segments":[],"categories_sizes":[],"default_left":[0,0,0,0,0,0,0,0,0,0,0,0,0,0,0],"id":47,"left_children":[1,3,5,7,9,11,13,-1,-1,-1,-1,-1,-1,-1,-1],"loss_changes":[1.5078238E5,2.154771E5,1.2352241E5,1.0734136E5,1.1694031E5,3.3820825E5,3.0172306E5,0E0,0E0,0E0,0E0,0E0,0E0,0E0,0E0],"parents":[2147483647,0,0,1,1,2,2,3,3,4,4,5,5,6,6],"right_children":[2,4,6,8,10,12,14,-1,-1,-1,-1,-1,-1,-1,-1],"split_conditions":[1.2246469E-16,5.0901785E11,3.4963868E0,2.5519497E11,-1.8369701E-16,7.1831E3,5.917648E6,1.0807671E1,-5.4715443E0,-2.2541706E-1,1.3954541E1,1.6288033E1,-9.156545E0,-2.2597607E1,-1.3964933E0],"split_indices":[8,1,2,1,9,0,3,0,0,0,0,0,0,0,0],"split_type":[0,0,0,0,0,0,0,0,0,0,0,0,0,0,0],"sum_hessian":[1.07E2,5.3E1,5.4E1,2.5E1,2.8E1,1.9E1,3.5E1,4E0,2.1E1,8E0,2E1,9E0,1E1,8E0,2.7E1],"tree_param":{"num_deleted":"0","num_feature":"10","num_nodes":"15","size_leaf_vector":"1"}},{"base_weights":[-5.9310102E0,5.805155E1,-2.3754833E1,-2.2446232E1,1.8909262E2,-1.8988194E0,-9.420384E1,-1.5454818E1,5.4705733E-1,2.4279108E1,-1.4709668E1,1.0359089E0,-1.1720213E1,3.3238107E-1,-3.0366652E1],"categories":[],"categories_nodes":[],"categories_segments":[],"categories_sizes":[],"default_left":[0,0,0,0,0,0,0,0,0,0,0,0,0,0,0],"id":48,"left_children":[1,3,5,7,9,11,13,-1,-1,-1,-1,-1,-1,-1,-1],"loss_changes":[1.3594784E5,2.785058E5,1.4301642E5,6.3539156E4,2.1624222E5,1.0297728E5,4.504342E5,0E0,0E0,0E0,0E0,0E0,0E0,0E0,0E0],"parents":[2147483647,0,0,1,1,2,2,3,3,4,4,5,5,6,6],"right_children":[2,4,6,8,10,12,14,-1,-1,-1,-1,-1,-1,-1,-1],"split_conditions":[1.2936E2,1.2618E2,8.660254E-1,-5E-1,8.660254E-1,4.2624633E12,1.2246469E-16,-1.5454818E1,5.4705733E-1,2.4279108E1,-1.4709668E1,1.0359089E0,-1.1720213E1,3.3238107E-1,-3.0366652E1],"split_indices":[7,7,9,9,8,1,8,0,0,0,0,0,0,0,0],"split_type":[0,0,0,0,0,0,0,0,0,0,0,0,0,0,0],"sum_hessian":[1.17E2,2.5E1,9.2E1,1.6E1,9E0,7.1E1,2.1E1,2E0,1.4E1,8E0,1E0,6.5E1,6E0,1.5E1,6E0],"tree_param":{"num_deleted":"0","num_feature":"10","num_nodes":"15","size_leaf_vector":"1"}},{"base_weights":[-2.0556305E1,2.0248549E1,-7.307843E1,1.2500293E2,-2.7425647E0,-1.7273878E2,-2.0964548E1,-4.1394286E0,1.9257618E1,-7.922381E0,3.4483826E0,-8.6855966E-1,-4.4471317E1,1.4649121E1,-3.7011306E0],"categories":[],"categories_nodes":[],"categories_segments":[],"categories_sizes":[],"default_left":[0,0,0,0,0,0,0,0,0,0,0,0,0,0,0],"id":49,"left_children":[1,3,5,7,9,11,13,-1,-1,-1,-1,-1,-1,-1,-1],"loss_changes":[2.307976E5,1.4725645E5,2.4048192E5,1.3165553E5,1.4793511E5,7.100296E5,9.140974E4,0E0,0E0,0E0,0E0,0E0,0E0,0E0,0E0],"parents":[2147483647,0,0,1,1,2,2,3,3,4,4,5,5,6,6],"right_children":[2,4,6,8,10,12,14,-1,-1,-1,-1,-1,-1,-1,-1],"split_conditions":[5E-1,1.2936E2,5.917648E6,1.1893E2,1.7372667E2,2.396E2,2.601872E7,-4.1394286E0,1.9257618E1,-7.922381E0,3.4483826E0,-8.6855966E-1,-4.4471317E1,1.4649121E1,-3.7011306E0],"split_indices":[8,7,3,7,6,7,3,0,0,0,0,0,0,0,0],"split_type":[0,0,0,0,0,0,0,0,0,0,0,0,0,0,0],"sum_hessian":[1.06E2,6E1,4.6E1,1E1,5E1,1.5E1,3.1E1,3E0,7E0,1.6E1,3.4E1,1E1,5E0,2E0,2.9E1],"tree_param":{"num_deleted":"0","num_feature":"10","num_nodes":"15","size_leaf_vector":"1"}},{"base_weights":[-1.4037713E1,3.2837368E1,-3.8614002E1,2.684178E0,2.2528096E2,-1.4179291E2,-7.89625E0,2.43062E0,-1.2326037E1,2.7904413E1,5.114136E-1,-5.890537E0,-3.7572918E1,9.3268175E0,-4.816461E0],"categories":[],"categories_nodes":[],"categories_segments":[],"categories_sizes":[],"default_left":[0,0,0,0,0,0,0,0,0,0,0,0,0,0,0],"id":50,"left_children":[1,3,5,7,9,11,13,-1,-1,-1,-1,-1,-1,-1,-1],"loss_changes":[1.2338164E5,2.1409847E5,2.2074005E5,9.286079E4,5.7757266E4,2.8811397E5,2.2854714E5,0E0,0E0,0E0,0E0,0E0,0E0,0E0,0E0],"parents":[2147483647,0,0,1,1,2,2,3,3,4,4,5,5,6,6],"right_children":[2,4,6,8,10,12,14,-1,-1,-1,-1,-1,-1,-1,-1],"split_conditions":[2.3296E2,2.3109E2,2.6237E2,2.3069E2,2.3227E2,2.4999E2,4.5462E2,2.43062E0,-1.2326037E1,2.7904413E1,5.114136E-1,-5.890537E0,-3.7572918E1,9.3268175E0,-4.816461E0],"split_indices":[7,7,7,7,7,7,7,0,0,0,0,0,0,0,0],"split_type":[0,0,0,0,0,0,0,0,0,0,0,0,0,0,0],"sum_hessian":[1.05E2,3.6E1,6.9E1,3.2E1,4E0,1.5E1,5.4E1,2.8E1,4E0,3E0,1E0,1.2E1,3E0,1.5E1,3.9E1],"tree_param":{"num_deleted":"0","num_feature":"10","num_nodes":"15","size_leaf_vector":"1"}},{"base_weights":[-5.6108756E0,3.4465126E1,-2.8431292E1,-1.4518492E1,1.8286783E2,2.0996073E1,-8.44861E1,-6.503934E0,5.147392E0,2.7225447E1,-1.9275742E0,-1.7995541E0,9.736423E0,7.0077795E-1,-2.0915693E1],"categories":[],"categories_nodes":[],"categories_segments":[],"categories_sizes":[],"default_left":[0,0,0,0,0,0,0,0,0,0,0,0,0,0,0],"id":51,"left_children":[1,3,5,7,9,11,13,-1,-1,-1,-1,-1,-1,-1,-1],"loss_changes":[1.0066595E5,2.93427E5,1.9571878E5,1.067016E5,1.8593725E5,1.14905375E5,3.7788406E5,0E0,0E0,0E0,0E0,0E0,0E0,0E0,0E0],"parents":[2147483647,0,0,1,1,2,2,3,3,4,4,5,5,6,6],"right_children":[2,4,6,8,10,12,14,-1,-1,-1,-1,-1,-1,-1,-1],"split_conditions":[3.4963868E0,8.660254E-1,5E-1,1.4750348E0,7.1831E3,1.7372667E2,2.396E2,-6.503934E0,5.147392E0,2.7225447E1,-1.9275742E0,-1.7995541E0,9.736423E0,7.0077795E-1,-2.0915693E1],"split_indices":[2,8,8,2,0,6,7,0,0,0,0,0,0,0,0],"split_type":[0,0,0,0,0,0,0,0,0,0,0,0,0,0,0],"sum_hessian":[1.08E2,3.9E1,6.9E1,3E1,9E0,3.7E1,3.2E1,1.7E1,1.3E1,6E0,3E0,2.5E1,1.2E1,1.9E1,1.3E1],"tree_param":{"num_deleted":"0","num_feature":"10","num_nodes":"15","size_leaf_vector":"1"}},{"base_weights":[-3.6830842E0,4.9207645E1,-2.8649199E1,2.356222E1,2.4206915E1,-1.13828674E2,5.006692E0,5.8735867E0,-1.3864623E1,-1.1082444E0,-2.4959227E1,-2.9141471E0,4.578422E0],"categories":[],"categories_nodes":[],"categories_segments":[],"categories_sizes":[],"default_left":[0,0,0,0,0,0,0,0,0,0,0,0,0],"id":52,"left_children":[1,3,5,7,-1,9,11,-1,-1,-1,-1,-1,-1],"loss_changes":[1.4402117E5,1.6740688E5,2.1271244E5,1.9071831E5,0E0,2.901671E5,7.652802E4,0E0,0E0,0E0,0E0,0E0,0E0],"parents":[2147483647,0,0,1,1,2,2,3,3,5,5,6,6],"right_children":[2,4,6,8,-1,10,12,-1,-1,-1,-1,-1,-1],"split_conditions":[2.3227E2,2.3109E2,4.2369E2,2.3069E2,2.4206915E1,2.396E2,-1.8369701E-16,5.8735867E0,-1.3864623E1,-1.1082444E0,-2.4959227E1,-2.9141471E0,4.578422E0],"split_indices":[7,7,7,7,0,7,9,0,0,0,0,0,0],"split_type":[0,0,0,0,0,0,0,0,0,0,0,0,0],"sum_hessian":[1.07E2,3.4E1,7.3E1,3.1E1,3E0,2E1,5.3E1,2.6E1,5E0,1.2E1,8E0,2.9E1,2.4E1],"tree_param":{"num_deleted":"0","num_feature":"10","num_nodes":"13","size_leaf_vector":"1"}},{"base_weights":[-6.445459E0,5.6169968E1,-1.2404198E1,-1.0713925E1,1.1038968E2,-6.594917E1,-4.030199E0,4.4374714E0,2.0562305E1,2.460955E1,-2.1537659E1,-2.2950106E0,5.6352696E0],"categories":[],"categories_nodes":[],"categories_segments":[],"categories_sizes":[],"default_left":[0,0,0,0,0,0,0,0,0,0,0,0,0],"id":53,"left_children":[1,3,5,-1,7,9,11,-1,-1,-1,-1,-1,-1],"loss_changes":[4.2858055E4,1.0037284E5,4.63663E4,0E0,4.1170156E4,7.057956E5,1.0525523E5,0E0,0E0,0E0,0E0,0E0,0E0],"parents":[2147483647,0,0,1,1,2,2,4,4,5,5,6,6],"right_children":[2,4,6,-1,8,10,12,-1,-1,-1,-1,-1,-1],"split_conditions":[-8.660254E-1,1.7372667E2,2.5519497E11,-1.0713925E1,5.0901785E11,-1.8369701E-16,8.660254E-1,4.4374714E0,2.0562305E1,2.460955E1,-2.1537659E1,-2.2950106E0,5.6352696E0],"split_indices":[8,6,1,0,1,9,8,0,0,0,0,0,0],"split_type":[0,0,0,0,0,0,0,0,0,0,0,0,0],"sum_hessian":[1.12E2,9E0,1.03E2,2E0,7E0,1.3E1,9E1,5E0,2E0,4E0,9E0,6.9E1,2.1E1],"tree_param":{"num_deleted":"0","num_feature":"10","num_nodes":"13","size_leaf_vector":"1"}},{"base_weights":[6.922317E-1,2.2335434E1,-2.7457777E1,-2.3734348E1,5.3657196E1,1.0831443E1,-1.26689445E2,-9.826121E0,2.2381447E-1,3.4755096E0,1.5182622E1,8.147142E0,-6.037861E0,6.904027E0,-3.3228207E1],"categories":[],"categories_nodes":[],"categories_segments":[],"categories_sizes":[],"default_left":[0,0,0,0,0,0,0,0,0,0,0,0,0,0,0],"id":54,"left_children":[1,3,5,7,9,11,13,-1,-1,-1,-1,-1,-1,-1,-1],"loss_changes":[7.00685E4,9.506766E4,1.9134739E5,5.2482426E4,6.709168E4,1.9103934E5,5.86309E5,0E0,0E0,0E0,0E0,0E0,0E0,0E0,0E0],"parents":[2147483647,0,0,1,1,2,2,3,3,4,4,5,5,6,6],"right_children":[2,4,6,8,10,12,14,-1,-1,-1,-1,-1,-1,-1,-1],"split_conditions":[5E-1,-1.8369701E-16,5E-1,1.821407E0,7.8178E3,5.0901785E11,1.7372667E2,-9.826121E0,2.2381447E-1,3.4755096E0,1.5182622E1,8.147142E0,-6.037861E0,6.904027E0,-3.3228207E1],"split_indices":[8,9,9,2,0,1,6,0,0,0,0,0,0,0,0],"split_type":[0,0,0,0,0,0,0,0,0,0,0,0,0,0,0],"sum_hessian":[1.13E2,6.4E1,4.9E1,2.6E1,3.8E1,3.6E1,1.3E1,6E0,2E1,3.3E1,5E0,1.8E1,1.8E1,7E0,6E0],"tree_param":{"num_deleted":"0","num_feature":"10","num_nodes":"15","size_leaf_vector":"1"}},{"base_weights":[4.5411787E0,3.677438E1,-1.4574519E1,-4.9446327E1,7.692604E1,-1.0453789E2,2.1339617E1,-1.9304377E0,-1.434847E1,1.3554456E1,2.8154275E0,3.9538999E0,-2.6901655E1,1.3288884E1,-4.2924476E-1],"categories":[],"categories_nodes":[],"categories_segments":[],"categories_sizes":[],"default_left":[0,0,0,0,0,0,0,0,0,0,0,0,0,0,0],"id":55,"left_children":[1,3,5,7,9,11,13,-1,-1,-1,-1,-1,-1,-1,-1],"loss_changes":[6.4616625E4,1.3881797E5,2.1547392E5,3.4078617E4,7.337492E4,4.6089047E5,1.3781378E5,0E0,0E0,0E0,0E0,0E0,0E0,0E0,0E0],"parents":[2147483647,0,0,1,1,2,2,3,3,4,4,5,5,6,6],"right_children":[2,4,6,8,10,12,14,-1,-1,-1,-1,-1,-1,-1,-1],"split_conditions":[2.3296E2,1.2134E2,4.2859E2,1.2087E2,5E-1,1.2246469E-16,4.5462E2,-1.9304377E0,-1.434847E1,1.3554456E1,2.8154275E0,3.9538999E0,-2.6901655E1,1.3288884E1,-4.2924476E-1],"split_indices":[7,7,7,7,9,8,7,0,0,0,0,0,0,0,0],"split_type":[0,0,0,0,0,0,0,0,0,0,0,0,0,0,0],"sum_hessian":[1.03E2,3.8E1,6.5E1,1.2E1,2.6E1,1.8E1,4.7E1,1E1,2E0,1.1E1,1.5E1,1E1,8E0,8E0,3.9E1],"tree_param":{"num_deleted":"0","num_feature":"10","num_nodes":"15","size_leaf_vector":"1"}},{"base_weights":[8.7888E0,1.5113606E1,-6.246336E1,1.0280464E1,2.4679737E1,-1.0525325E1,1.733731E1,2.849012E0,-1.7291027E0,2.3150635E0,-5.1330565E-3],"categories":[],"categories_nodes":[],"categories_segments":[],"categories_sizes":[],"default_left":[0,0,0,0,0,0,0,0,0,0,0],"id":56,"left_children":[1,3,5,7,-1,-1,9,-1,-1,-1,-1],"loss_changes":[4.9614906E4,1.09438875E5,3.2556762E4,5.0197285E4,0E0,0E0,4.055315E2,0E0,0E0,0E0,0E0],"parents":[2147483647,0,0,1,1,2,2,3,3,6,6],"right_children":[2,4,6,8,-1,-1,10,-1,-1,-1,-1],"split_conditions":[5.2559E2,5.1977E2,5.3607E2,4.1080003E0,2.4679737E1,-1.0525325E1,5.5861E2,2.849012E0,-1.7291027E0,2.3150635E0,-5.1330565E-3],"split_indices":[7,7,7,2,0,0,7,0,0,0,0],"split_type":[0,0,0,0,0,0,0,0,0,0,0],"sum_hessian":[1.07E2,9.9E1,8E0,9.8E1,1E0,5E0,3E0,5.9E1,3.9E1,2E0,1E0],"tree_param":{"num_deleted":"0","num_feature":"10","num_nodes":"11","size_leaf_vector":"1"}},{"base_weights":[-1.2638656E0,2.4360336E1,-2.9375462E1,2.380519E1,-1.2575014E0,-2.0626372E2,8.3308115E0,-2.1850898E0,8.536051E0,1.1167182E1,-3.8384346E1,2.0589533E0,-8.895339E0],"categories":[],"categories_nodes":[],"categories_segments":[],"categories_sizes":[],"default_left":[0,0,0,0,0,0,0,0,0,0,0,0,0],"id":57,"left_children":[1,3,5,-1,7,9,11,-1,-1,-1,-1,-1,-1],"loss_changes":[7.707134E4,3.0686106E5,3.41878E5,0E0,9.283691E4,5.509946E5,5.311244E4,0E0,0E0,0E0,0E0,0E0,0E0],"parents":[2147483647,0,0,1,1,2,2,4,4,5,5,6,6],"right_children":[2,4,6,-1,8,10,12,-1,-1,-1,-1,-1,-1],"split_conditions":[6.123234E-17,2.5519497E11,2.5519497E11,2.380519E1,8.660254E-1,-2.4492937E-16,5.2559E2,-2.1850898E0,8.536051E0,1.1167182E1,-3.8384346E1,2.0589533E0,-8.895339E0],"split_indices":[9,1,1,0,8,8,7,0,0,0,0,0,0],"split_type":[0,0,0,0,0,0,0,0,0,0,0,0,0],"sum_hessian":[1.05E2,5.5E1,5E1,5E0,5E1,8E0,4.2E1,4.1E1,9E0,3E0,5E0,3.8E1,4E0],"tree_param":{"num_deleted":"0","num_feature":"10","num_nodes":"13","size_leaf_vector":"1"}},{"base_weights":[-1.598661E1,4.901972E0,-4.2199463E1,2.1821425E2,-1.8040451E1,-1.646083E2,-9.730544E0,9.753451E0,2.5417051E1,-6.6369014E0,6.5985787E-1,-7.543732E-1,-5.285777E1,8.48411E-2,-8.183712E0],"categories":[],"categories_nodes":[],"categories_segments":[],"categories_sizes":[],"default_left":[0,0,0,0,0,0,0,0,0,0,0,0,0,0,0],"id":58,"left_children":[1,3,5,7,9,11,13,-1,-1,-1,-1,-1,-1,-1,-1],"loss_changes":[5.934219E4,3.0246466E5,1.8917344E5,1.24475E3,6.7121E4,5.6767956E5,2.9819105E4,0E0,0E0,0E0,0E0,0E0,0E0,0E0,0E0],"parents":[2147483647,0,0,1,1,2,2,3,3,4,4,5,5,6,6],"right_children":[2,4,6,8,10,12,14,-1,-1,-1,-1,-1,-1,-1,-1],"split_conditions":[6.123234E-17,2.5519497E11,2.5519497E11,-2.4492937E-16,2.6237E2,2.3899E2,5.1581E2,9.753451E0,2.5417051E1,-6.6369014E0,6.5985787E-1,-7.543732E-1,-5.285777E1,8.48411E-2,-8.183712E0],"split_indices":[9,1,1,8,7,7,7,0,0,0,0,0,0,0,0],"split_type":[0,0,0,0,0,0,0,0,0,0,0,0,0,0,0],"sum_hessian":[1.07E2,6E1,4.7E1,5E0,5.5E1,9E0,3.8E1,2E0,3E0,1.8E1,3.7E1,7E0,2E0,3.4E1,4E0],"tree_param":{"num_deleted":"0","num_feature":"10","num_nodes":"15","size_leaf_vector":"1"}},{"base_weights":[5.018563E-1,7.2425694E0,-6.628139E1,1.4728336E1,-5.3982506E1,-8.993819E1,7.331488E0,9.2152815E0,2.6280534E-1,-3.2481506E1,5.5822575E-1,-2.848694E-1,-1.0046828E1],"categories":[],"categories_nodes":[],"categories_segments":[],"categories_sizes":[],"default_left":[0,0,0,0,0,0,0,0,0,0,0,0,0],"id":59,"left_children":[1,3,5,7,9,11,-1,-1,-1,-1,-1,-1,-1],"loss_changes":[4.9098055E4,4.6168418E4,3.9617812E4,8.313819E4,1.7926605E5,7.967336E3,0E0,0E0,0E0,0E0,0E0,0E0,0E0],"parents":[2147483647,0,0,1,1,2,2,3,3,4,4,5,5],"right_children":[2,4,6,8,10,12,-1,-1,-1,-1,-1,-1,-1],"split_conditions":[4.2624633E12,1E0,1E0,2.5519497E11,2.5519497E11,-8.660254E-1,7.331488E0,9.2152815E0,2.6280534E-1,-3.2481506E1,5.5822575E-1,-2.848694E-1,-1.0046828E1],"split_indices":[1,8,9,1,1,9,0,0,0,0,0,0,0],"split_type":[0,0,0,0,0,0,0,0,0,0,0,0,0],"sum_hessian":[1.07E2,9.8E1,9E0,8.8E1,1E1,8E0,1E0,1.1E1,7.7E1,1E0,9E0,1E0,7E0],"tree_param":{"num_deleted":"0","num_feature":"10","num_nodes":"13","size_leaf_vector":"1"}},{"base_weights":[-2.1273673E0,9.129462E1,-9.433725E0,2.9231771E1,1.8498877E1,2.2730497E1,-2.5146042E1,1.2663257E1,-1.5574902E0,-3.1073824E-1,1.7321167E1,-1.0784937E1,1.8558936E-1],"categories":[],"categories_nodes":[],"categories_segments":[],"categories_sizes":[],"default_left":[0,0,0,0,0,0,0,0,0,0,0,0,0],"id":60,"left_children":[1,3,5,7,-1,9,11,-1,-1,-1,-1,-1,-1],"loss_changes":[7.526187E4,4.111185E4,5.2119773E4,2.8157525E4,0E0,1.3273411E5,1.5428748E5,0E0,0E0,0E0,0E0,0E0,0E0],"parents":[2147483647,0,0,1,1,2,2,3,3,5,5,6,6],"right_children":[2,4,6,8,-1,10,12,-1,-1,-1,-1,-1,-1],"split_conditions":[-8.660254E-1,5.0901785E11,2.3296E2,2.5519497E11,1.8498877E1,2.3109E2,2.6237E2,1.2663257E1,-1.5574902E0,-3.1073824E-1,1.7321167E1,-1.0784937E1,1.8558936E-1],"split_indices":[8,1,7,1,0,7,7,0,0,0,0,0,0],"split_type":[0,0,0,0,0,0,0,0,0,0,0,0,0],"sum_hessian":[1.08E2,7E0,1.01E2,5E0,2E0,3.3E1,6.8E1,1E0,4E0,2.9E1,4E0,1.6E1,5.2E1],"tree_param":{"num_deleted":"0","num_feature":"10","num_nodes":"13","size_leaf_vector":"1"}},{"base_weights":[-7.0110173E0,4.9689514E1,-2.3127705E1,-3.8665344E1,2.0124376E1,-4.0627995E0,-9.280665E1,-1.2559408E1,-1.727595E0,1.7626231E0,-4.3656735E0,-3.137758E0,-1.8485554E1],"categories":[],"categories_nodes":[],"categories_segments":[],"categories_sizes":[],"default_left":[0,0,0,0,0,0,0,0,0,0,0,0,0],"id":61,"left_children":[1,3,5,7,-1,9,11,-1,-1,-1,-1,-1,-1],"loss_changes":[9.892845E4,3.2915447E5,1.11210414E5,2.757989E4,0E0,5.8306023E4,9.598028E4,0E0,0E0,0E0,0E0,0E0,0E0],"parents":[2147483647,0,0,1,1,2,2,3,3,5,5,6,6],"right_children":[2,4,6,8,-1,10,12,-1,-1,-1,-1,-1,-1],"split_conditions":[1.2936E2,1.2618E2,8.660254E-1,-5E-1,2.0124376E1,3.583821E0,1.2246469E-16,-1.2559408E1,-1.727595E0,1.7626231E0,-4.3656735E0,-3.137758E0,-1.8485554E1],"split_indices":[7,7,9,9,0,2,8,0,0,0,0,0,0],"split_type":[0,0,0,0,0,0,0,0,0,0,0,0,0],"sum_hessian":[1.06E2,2.3E1,8.3E1,1.5E1,8E0,6.6E1,1.7E1,2E0,1.3E1,4.3E1,2.3E1,1.1E1,6E0],"tree_param":{"num_deleted":"0","num_feature":"10","num_nodes":"13","size_leaf_vector":"1"}},{"base_weights":[1.6564573E0,4.5277363E1,-1.1398715E1,-2.62771E1,1.8335546E1,-1.3079346E2,-4.068927E0,2.312317E0,-5.981574E0,-3.1218588E0,-1.8677052E1,2.3388855E1,-9.823147E-1],"categories":[],"categories_nodes":[],"categories_segments":[],"categories_sizes":[],"default_left":[0,0,0,0,0,0,0,0,0,0,0,0,0],"id":62,"left_children":[1,3,5,7,-1,9,11,-1,-1,-1,-1,-1,-1],"loss_changes":[6.4297688E4,2.6170078E5,7.5604836E4,3.1205855E4,0E0,2.203882E4,1.1594607E5,0E0,0E0,0E0,0E0,0E0,0E0],"parents":[2147483647,0,0,1,1,2,2,3,3,5,5,6,6],"right_children":[2,4,6,8,-1,10,12,-1,-1,-1,-1,-1,-1],"split_conditions":[1.2936E2,1.2618E2,2.1591E3,1.2086E2,1.8335546E1,1.349E2,2.3069E2,2.312317E0,-5.981574E0,-3.1218588E0,-1.8677052E1,2.3388855E1,-9.823147E-1],"split_indices":[7,7,0,7,0,7,7,0,0,0,0,0,0],"split_type":[0,0,0,0,0,0,0,0,0,0,0,0,0],"sum_hessian":[1.11E2,2.5E1,8.6E1,1.7E1,8E0,4E0,8.2E1,7E0,1E1,2E0,2E0,1E0,8.1E1],"tree_param":{"num_deleted":"0","num_feature":"10","num_nodes":"13","size_leaf_vector":"1"}},{"base_weights":[-5.4433074E0,-3.1170717E1,6.450953E0,2.8111769E1,-1.17867966E2,1.4727726E1,-4.799317E1,2.221941E1,7.297948E-1,-4.721647E1,-1.947146E0,7.554548E-1,2.3690557E1,-7.7051697E0,1.4857544E0],"categories":[],"categories_nodes":[],"categories_segments":[],"categories_sizes":[],"default_left":[0,0,0,0,0,0,0,0,0,0,0,0,0,0,0],"id":63,"left_children":[1,3,5,7,9,11,13,-1,-1,-1,-1,-1,-1,-1,-1],"loss_changes":[3.2943992E4,1.7806084E5,3.4052832E4,8.320993E4,4.7886806E5,1.0180218E5,1.9408295E4,0E0,0E0,0E0,0E0,0E0,0E0,0E0,0E0],"parents":[2147483647,0,0,1,1,2,2,3,3,4,4,5,5,6,6],"right_children":[2,4,6,8,10,12,14,-1,-1,-1,-1,-1,-1,-1,-1],"split_conditions":[4.338577E11,2.396E2,5.2559E2,2.3069E2,2.5519497E11,5.1977E2,5.4668E2,2.221941E1,7.297948E-1,-4.721647E1,-1.947146E0,7.554548E-1,2.3690557E1,-7.7051697E0,1.4857544E0],"split_indices":[1,7,7,7,1,7,7,0,0,0,0,0,0,0,0],"split_type":[0,0,0,0,0,0,0,0,0,0,0,0,0,0,0],"sum_hessian":[1.06E2,3.3E1,7.3E1,2E1,1.3E1,6.4E1,9E0,1E0,1.9E1,2E0,1.1E1,6.3E1,1E0,6E0,3E0],"tree_param":{"num_deleted":"0","num_feature":"10","num_nodes":"15","size_leaf_vector":"1"}},{"base_weights":[2.985746E0,2.1604233E1,-1.5685123E1,2.1108442E1,1.4451295E1,2.9926588E1,-4.521039E1,-1.3859668E1,2.5729418E0,-3.2102768E0,1.2998367E1,-1.9199854E1,-8.2197857E-1],"categories":[],"categories_nodes":[],"categories_segments":[],"categories_sizes":[],"default_left":[0,0,0,0,0,0,0,0,0,0,0,0,0],"id":64,"left_children":[1,3,5,-1,7,9,11,-1,-1,-1,-1,-1,-1],"loss_changes":[3.96203E4,7.4203945E4,7.8114766E4,0E0,1.0022727E5,1.469218E5,1.8846419E5,0E0,0E0,0E0,0E0,0E0,0E0],"parents":[2147483647,0,0,1,1,2,2,4,4,5,5,6,6],"right_children":[2,4,6,-1,8,10,12,-1,-1,-1,-1,-1,-1],"split_conditions":[3.583821E0,2.3069E2,1.2797E2,2.1108442E1,2.3097E2,1.2417E2,4.2369E2,-1.3859668E1,2.5729418E0,-3.2102768E0,1.2998367E1,-1.9199854E1,-8.2197857E-1],"split_indices":[2,7,7,0,7,7,7,0,0,0,0,0,0],"split_type":[0,0,0,0,0,0,0,0,0,0,0,0,0],"sum_hessian":[1.12E2,5.6E1,5.6E1,1E0,5.5E1,2.2E1,3.4E1,3E0,5.2E1,1.4E1,8E0,6E0,2.8E1],"tree_param":{"num_deleted":"0","num_feature":"10","num_nodes":"13","size_leaf_vector":"1"}},{"base_weights":[8.493494E0,1.3817813E1,-4.6131477E1,9.480515E0,2.237738E1,-7.265269E0,1.1813507E0,6.3723097E0,4.071126E-1],"categories":[],"categories_nodes":[],"categories_segments":[],"categories_sizes":[],"default_left":[0,0,0,0,0,0,0,0,0],"id":65,"left_children":[1,3,5,7,-1,-1,-1,-1,-1],"loss_changes":[3.262992E4,8.985332E4,1.622599E4,2.9082492E4,0E0,0E0,0E0,0E0,0E0],"parents":[2147483647,0,0,1,1,2,2,3,3],"right_children":[2,4,6,8,-1,-1,-1,-1,-1],"split_conditions":[5.2559E2,5.1977E2,5.4668E2,-8.660254E-1,2.237738E1,-7.265269E0,1.1813507E0,6.3723097E0,4.071126E-1],"split_indices":[7,7,7,8,0,0,0,0,0],"split_type":[0,0,0,0,0,0,0,0,0],"sum_hessian":[1.09E2,1E2,9E0,9.9E1,1E0,6E0,3E0,8E0,9.1E1],"tree_param":{"num_deleted":"0","num_feature":"10","num_nodes":"9","size_leaf_vector":"1"}},{"base_weights":[-6.0624614E0,1.0832403E1,-2.7315914E1,2.026655E1,-1.0077018E1,3.6317726E1,-6.543602E1,1.1634973E0,1.338841E1,-3.9006882E0,1.2434584E1,-3.6279377E-1,-1.5073737E1],"categories":[],"categories_nodes":[],"categories_segments":[],"categories_sizes":[],"default_left":[0,0,0,0,0,0,0,0,0,0,0,0,0],"id":66,"left_children":[1,3,5,7,-1,9,11,-1,-1,-1,-1,-1,-1],"loss_changes":[3.979406E4,6.732052E4,1.2123681E5,5.532278E4,0E0,1.30833305E5,1.628948E5,0E0,0E0,0E0,0E0,0E0,0E0],"parents":[2147483647,0,0,1,1,2,2,3,3,5,5,6,6],"right_children":[2,4,6,8,-1,10,12,-1,-1,-1,-1,-1,-1],"split_conditions":[5E-1,5.1581E2,3.4963868E0,7.8178E3,-1.0077018E1,8.660254E-1,2.396E2,1.1634973E0,1.338841E1,-3.9006882E0,1.2434584E1,-3.6279377E-1,-1.5073737E1],"split_indices":[8,7,2,0,0,8,7,0,0,0,0,0,0],"split_type":[0,0,0,0,0,0,0,0,0,0,0,0,0],"sum_hessian":[1.09E2,6.1E1,4.8E1,5.7E1,4E0,1.8E1,3E1,5.4E1,3E0,1E1,8E0,1.8E1,1.2E1],"tree_param":{"num_deleted":"0","num_feature":"10","num_nodes":"13","size_leaf_vector":"1"}},{"base_weights":[3.826813E0,9.959592E0,-5.849693E1,1.0538522E0,5.3902428E1,-8.245872E1,-1.9395752E0,1.4722875E0,-4.4106617E0,1.0839924E1,-3.9435756E0,-1.175119E0,-9.228477E0,4.632196E0,-3.3467407E0],"categories":[],"categories_nodes":[],"categories_segments":[],"categories_sizes":[],"default_left":[0,0,0,0,0,0,0,0,0,0,0,0,0,0,0],"id":67,"left_children":[1,3,5,7,9,11,13,-1,-1,-1,-1,-1,-1,-1,-1],"loss_changes":[4.2626555E4,3.9468887E4,1.3392211E4,5.3119836E4,9.074757E4,3.7789766E3,7.6366025E3,0E0,0E0,0E0,0E0,0E0,0E0,0E0,0E0],"parents":[2147483647,0,0,1,1,2,2,3,3,4,4,5,5,6,6],"right_children":[2,4,6,8,10,12,14,-1,-1,-1,-1,-1,-1,-1,-1],"split_conditions":[4.2624633E12,4.9295E2,-1.8369701E-16,4.5462E2,5.2559E2,-8.660254E-1,5.1581E2,1.4722875E0,-4.4106617E0,1.0839924E1,-3.9435756E0,-1.175119E0,-9.228477E0,4.632196E0,-3.3467407E0],"split_indices":[1,7,9,7,7,9,7,0,0,0,0,0,0,0,0],"split_type":[0,0,0,0,0,0,0,0,0,0,0,0,0,0,0],"sum_hessian":[1.09E2,1E2,9E0,8.4E1,1.6E1,6E0,3E0,6.5E1,1.9E1,1E1,6E0,1E0,5E0,1E0,2E0],"tree_param":{"num_deleted":"0","num_feature":"10","num_nodes":"15","size_leaf_vector":"1"}},{"base_weights":[2.4562004E0,1.3848687E1,-3.3500008E1,2.1608E1,-7.569909E1,4.439505E0,-1.24161285E2,-2.9155135E0,3.2048547E0,-1.1163635E0,-8.459439E0,-4.916984E0,3.0927074E0,-3.6928734E1,1.9095274E0],"categories":[],"categories_nodes":[],"categories_segments":[],"categories_sizes":[],"default_left":[0,0,0,0,0,0,0,0,0,0,0,0,0,0,0],"id":68,"left_children":[1,3,5,7,9,11,13,-1,-1,-1,-1,-1,-1,-1,-1],"loss_changes":[4.5932934E4,6.0696195E4,9.3421625E4,4.2803957E4,3.0740547E3,2.9920305E4,2.8797894E5,0E0,0E0,0E0,0E0,0E0,0E0,0E0,0E0],"parents":[2147483647,0,0,1,1,2,2,3,3,4,4,5,5,6,6],"right_children":[2,4,6,8,10,12,14,-1,-1,-1,-1,-1,-1,-1,-1],"split_conditions":[8.660254E-1,4.2624633E12,1.2246469E-16,1.2134E2,-8.660254E-1,1.7372667E2,5.917648E6,-2.9155135E0,3.2048547E0,-1.1163635E0,-8.459439E0,-4.916984E0,3.0927074E0,-3.6928734E1,1.9095274E0],"split_indices":[9,1,8,7,9,6,3,0,0,0,0,0,0,0,0],"split_type":[0,0,0,0,0,0,0,0,0,0,0,0,0,0,0],"sum_hessian":[1.1E2,8.4E1,2.6E1,7.8E1,6E0,1.9E1,7E0,1.3E1,6.5E1,1E0,5E0,6E0,1.3E1,2E0,5E0],"tree_param":{"num_deleted":"0","num_feature":"10","num_nodes":"15","size_leaf_vector":"1"}},{"base_weights":[-7.0690575E0,1.3305261E1,-2.9302248E1,7.432482E1,-5.025638E0,-2.3244177E2,-2.1687827E0,3.325141E-1,1.8725927E1,-8.9046545E0,2.567971E0,1.1187927E1,-3.2368183E1,-3.456318E0,4.167209E0],"categories":[],"categories_nodes":[],"categories_segments":[],"categories_sizes":[],"default_left":[0,0,0,0,0,0,0,0,0,0,0,0,0,0,0],"id":69,"left_children":[1,3,5,7,9,11,13,-1,-1,-1,-1,-1,-1,-1,-1],"loss_changes":[4.84064E4,6.301196E4,2.8060172E5,1.03615375E5,1.1580188E5,2.2470856E5,6.676946E4,0E0,0E0,0E0,0E0,0E0,0E0,0E0,0E0],"parents":[2147483647,0,0,1,1,2,2,3,3,4,4,5,5,6,6],"right_children":[2,4,6,8,10,12,14,-1,-1,-1,-1,-1,-1,-1,-1],"split_conditions":[1.2246469E-16,1.2936E2,5.2E6,1.2618E2,1.7372667E2,-5E-1,8.660254E-1,3.325141E-1,1.8725927E1,-8.9046545E0,2.567971E0,1.1187927E1,-3.2368183E1,-3.456318E0,4.167209E0],"split_indices":[8,7,3,7,6,9,8,0,0,0,0,0,0,0,0],"split_type":[0,0,0,0,0,0,0,0,0,0,0,0,0,0,0],"sum_hessian":[1.05E2,5.5E1,5E1,1.2E1,4.3E1,5E0,4.5E1,8E0,4E0,1.1E1,3.2E1,1E0,4E0,2.6E1,1.9E1],"tree_param":{"num_deleted":"0","num_feature":"10","num_nodes":"15","size_leaf_vector":"1"}},{"base_weights":[-4.332849E0,1.7380316E1,-3.1384037E1,-1.0207726E1,4.7222973E1,-9.153614E1,-1.2683494E0,9.525216E0,-3.326519E0,5.9670596E0,-8.054664E0,3.8889688E-1,-2.5122616E1,1.0194766E1,-1.9020475E0],"categories":[],"categories_nodes":[],"categories_segments":[],"categories_sizes":[],"default_left":[0,0,0,0,0,0,0,0,0,0,0,0,0,0,0],"id":70,"left_children":[1,3,5,7,9,11,13,-1,-1,-1,-1,-1,-1,-1,-1],"loss_changes":[6.3393723E4,4.9880062E4,8.683697E4,8.0980984E4,5.0928676E4,2.4479203E5,6.240511E4,0E0,0E0,0E0,0E0,0E0,0E0,0E0,0E0],"parents":[2147483647,0,0,1,1,2,2,3,3,4,4,5,5,6,6],"right_children":[2,4,6,8,10,12,14,-1,-1,-1,-1,-1,-1,-1,-1],"split_conditions":[5E-1,5.0901785E11,5.917648E6,2.5519497E11,5.2559E2,2.396E2,2.601872E7,9.525216E0,-3.326519E0,5.9670596E0,-8.054664E0,3.8889688E-1,-2.5122616E1,1.0194766E1,-1.9020475E0],"split_indices":[8,1,3,1,7,7,3,0,0,0,0,0,0,0,0],"split_type":[0,0,0,0,0,0,0,0,0,0,0,0,0,0,0],"sum_hessian":[1.06E2,5.9E1,4.7E1,3.1E1,2.8E1,1.5E1,3.2E1,5E0,2.6E1,2.6E1,2E0,1E1,5E0,4E0,2.8E1],"tree_param":{"num_deleted":"0","num_feature":"10","num_nodes":"15","size_leaf_vector":"1"}},{"base_weights":[4.0750704E0,1.8578009E1,-1.353421E1,-1.2594288E1,4.2575027E1,2.609936E1,-5.774893E1,-4.5864196E0,2.4203637E0,2.0414293E0,9.9402075E0,2.1317038E1,-7.569486E-1,-2.6385786E1,1.4162314E0],"categories":[],"categories_nodes":[],"categories_segments":[],"categories_sizes":[],"default_left":[0,0,0,0,0,0,0,0,0,0,0,0,0,0,0],"id":71,"left_children":[1,3,5,7,9,11,13,-1,-1,-1,-1,-1,-1,-1,-1],"loss_changes":[2.7067002E4,4.3922652E4,8.56218E4,3.2940934E4,3.952865E4,1.6537367E5,3.4463247E5,0E0,0E0,0E0,0E0,0E0,0E0,0E0,0E0],"parents":[2147483647,0,0,1,1,2,2,3,3,4,4,5,5,6,6],"right_children":[2,4,6,8,10,12,14,-1,-1,-1,-1,-1,-1,-1,-1],"split_conditions":[5E-1,-1.8369701E-16,-1.8369701E-16,-5E-1,4.1080003E0,2.5519497E11,2.5519497E11,-4.5864196E0,2.4203637E0,2.0414293E0,9.9402075E0,2.1317038E1,-7.569486E-1,-2.6385786E1,1.4162314E0],"split_indices":[8,9,9,8,2,1,1,0,0,0,0,0,0,0,0],"split_type":[0,0,0,0,0,0,0,0,0,0,0,0,0,0,0],"sum_hessian":[1.04E2,5.7E1,4.7E1,2.5E1,3.2E1,2.5E1,2.2E1,1.3E1,1.2E1,2.4E1,8E0,3E0,2.2E1,5E0,1.7E1],"tree_param":{"num_deleted":"0","num_feature":"10","num_nodes":"15","size_leaf_vector":"1"}},{"base_weights":[1.3120322E0,2.1052563E1,-8.970537E0,3.5240767E0,1.3954146E2,-1.5764338E1,-5.8634484E-1,1.1321016E1,-1.4280907E0,1.7276794E1,3.3177492E-1,7.5358915E-1,-1.1093149E1],"categories":[],"categories_nodes":[],"categories_segments":[],"categories_sizes":[],"default_left":[0,0,0,0,0,0,0,0,0,0,0,0,0],"id":72,"left_children":[1,3,5,7,9,-1,11,-1,-1,-1,-1,-1,-1],"loss_changes":[2.3125977E4,8.050855E4,9.339519E4,6.99703E4,2.2057977E4,0E0,6.5365918E4,0E0,0E0,0E0,0E0,0E0,0E0],"parents":[2147483647,0,0,1,1,2,2,3,3,4,4,6,6],"right_children":[2,4,6,8,10,-1,12,-1,-1,-1,-1,-1,-1],"split_conditions":[2.3296E2,2.3109E2,2.3457E2,-5E-1,2.3227E2,-1.5764338E1,1E0,1.1321016E1,-1.4280907E0,1.7276794E1,3.3177492E-1,7.5358915E-1,-1.1093149E1],"split_indices":[7,7,7,9,7,0,8,0,0,0,0,0,0],"split_type":[0,0,0,0,0,0,0,0,0,0,0,0,0],"sum_hessian":[1.12E2,3.8E1,7.4E1,3.4E1,4E0,3E0,7.1E1,4E0,3E1,3E0,1E0,6.7E1,4E0],"tree_param":{"num_deleted":"0","num_feature":"10","num_nodes":"13","size_leaf_vector":"1"}},{"base_weights":[3.5885088E0,2.4764013E1,-1.7272942E1,2.0421467E1,1.76591E1,1.3868067E1,-4.1062073E1,-8.689813E0,2.5513408E0,-3.9215646E0,7.4643397E0,-1.2907577E1,-1.5786773E0],"categories":[],"categories_nodes":[],"categories_segments":[],"categories_sizes":[],"default_left":[0,0,0,0,0,0,0,0,0,0,0,0,0],"id":73,"left_children":[1,3,5,-1,7,9,11,-1,-1,-1,-1,-1,-1],"loss_changes":[4.9020438E4,6.651772E4,4.205524E4,0E0,4.656321E4,8.358169E4,6.914862E4,0E0,0E0,0E0,0E0,0E0,0E0],"parents":[2147483647,0,0,1,1,2,2,4,4,5,5,6,6],"right_children":[2,4,6,-1,8,10,12,-1,-1,-1,-1,-1,-1],"split_conditions":[3.583821E0,2.3069E2,1.2936E2,2.0421467E1,2.3097E2,1.2134E2,4.2369E2,-8.689813E0,2.5513408E0,-3.9215646E0,7.4643397E0,-1.2907577E1,-1.5786773E0],"split_indices":[2,7,7,0,7,7,7,0,0,0,0,0,0],"split_type":[0,0,0,0,0,0,0,0,0,0,0,0,0],"sum_hessian":[1.09E2,5.4E1,5.5E1,1E0,5.3E1,2.4E1,3.1E1,3E0,5E1,1.3E1,1.1E1,6E0,2.5E1],"tree_param":{"num_deleted":"0","num_feature":"10","num_nodes":"13","size_leaf_vector":"1"}},{"base_weights":[-2.8986412E-1,4.797589E0,-5.2661644E1,-5.8652077E0,6.314312E1,-8.741473E0,-3.9087444E1,2.0744689E0,-2.7467875E0,1.0020038E1,-1.5319031E0,1.6100504E0,-5.71555E0],"categories":[],"categories_nodes":[],"categories_segments":[],"categories_sizes":[],"default_left":[0,0,0,0,0,0,0,0,0,0,0,0,0],"id":74,"left_children":[1,3,5,7,9,-1,11,-1,-1,-1,-1,-1,-1],"loss_changes":[3.0093816E4,6.444938E4,1.3006348E3,5.1156145E4,4.8056453E4,0E0,9.894483E3,0E0,0E0,0E0,0E0,0E0,0E0],"parents":[2147483647,0,0,1,1,2,2,3,3,4,4,6,6],"right_children":[2,4,6,8,10,-1,12,-1,-1,-1,-1,-1,-1],"split_conditions":[4.2624633E12,4.9069E2,-5E-1,2.3296E2,5.2559E2,-8.741473E0,-2.4492937E-16,2.0744689E0,-2.7467875E0,1.0020038E1,-1.5319031E0,1.6100504E0,-5.71555E0],"split_indices":[1,7,8,7,7,0,8,0,0,0,0,0,0],"split_type":[0,0,0,0,0,0,0,0,0,0,0,0,0],"sum_hessian":[1.11E2,1.02E2,9E0,8.7E1,1.5E1,1E0,8E0,3.9E1,4.8E1,1E1,5E0,2E0,6E0],"tree_param":{"num_deleted":"0","num_feature":"10","num_nodes":"13","size_leaf_vector":"1"}},{"base_weights":[-2.8369045E0,1.4316252E1,-1.5083391E1,6.980337E1,-1.0584425E1,1.9535872E1,-3.4860092E1,-3.0846386E0,1.092075E1,7.5525564E-1,-1.1728943E1,-2.9367466E0,9.582763E0,1.4332741E0,-9.775276E0],"categories":[],"categories_nodes":[],"categories_segments":[],"categories_sizes":[],"default_left":[0,0,0,0,0,0,0,0,0,0,0,0,0,0,0],"id":75,"left_children":[1,3,5,7,9,11,13,-1,-1,-1,-1,-1,-1,-1,-1],"loss_changes":[2.4163451E4,6.7058836E4,4.65529E4,6.2858906E4,6.668626E4,9.608725E4,1.3443742E5,0E0,0E0,0E0,0E0,0E0,0E0,0E0,0E0],"parents":[2147483647,0,0,1,1,2,2,3,3,4,4,5,5,6,6],"right_children":[2,4,6,8,10,12,14,-1,-1,-1,-1,-1,-1,-1,-1],"split_conditions":[-2.4492937E-16,5.917648E6,3.4963868E0,-1.8369701E-16,8.660254E-1,8.660254E-1,2.396E2,-3.0846386E0,1.092075E1,7.5525564E-1,-1.1728943E1,-2.9367466E0,9.582763E0,1.4332741E0,-9.775276E0],"split_indices":[8,3,2,9,9,8,7,0,0,0,0,0,0,0,0],"split_type":[0,0,0,0,0,0,0,0,0,0,0,0,0,0,0],"sum_hessian":[1.13E2,4.7E1,6.6E1,1.4E1,3.3E1,2.4E1,4.2E1,4E0,1E1,2.9E1,4E0,1.5E1,9E0,2.4E1,1.8E1],"tree_param":{"num_deleted":"0","num_feature":"10","num_nodes":"15","size_leaf_vector":"1"}},{"base_weights":[-1.9696639E0,-3.7708565E1,3.1042178E0,1.5594372E0,-1.3626843E1,8.179053E1,-5.673197E0,5.4012046E0,-5.115308E0,1.1008545E0,1.1055302E1,-1.6921484E1,-1.9343598E-1],"categories":[],"categories_nodes":[],"categories_segments":[],"categories_sizes":[],"default_left":[0,0,0,0,0,0,0,0,0,0,0,0,0],"id":76,"left_children":[1,3,5,7,-1,9,11,-1,-1,-1,-1,-1,-1],"loss_changes":[2.0426572E4,5.4395992E4,6.8839586E4,3.317688E4,0E0,1.9141633E4,5.470368E4,0E0,0E0,0E0,0E0,0E0,0E0],"parents":[2147483647,0,0,1,1,2,2,3,3,5,5,6,6],"right_children":[2,4,6,8,-1,10,12,-1,-1,-1,-1,-1,-1],"split_conditions":[1.2134E2,1.2087E2,1.2797E2,-5E-1,-1.3626843E1,1.7344513E12,1.2821E2,5.4012046E0,-5.115308E0,1.1008545E0,1.1055302E1,-1.6921484E1,-1.9343598E-1],"split_indices":[7,7,7,8,0,1,7,0,0,0,0,0,0],"split_type":[0,0,0,0,0,0,0,0,0,0,0,0,0],"sum_hessian":[1.11E2,1.3E1,9.8E1,1E1,3E0,9E0,8.9E1,5E0,5E0,3E0,6E0,1E0,8.8E1],"tree_param":{"num_deleted":"0","num_feature":"10","num_nodes":"13","size_leaf_vector":"1"}},{"base_weights":[-5.363353E0,-2.4482473E1,1.2859319E1,-1.1506393E1,-2.4556572E2,2.107321E1,2.0293605E0,-2.0332143E0,1.4236678E1,-3.1064814E1,-5.770044E0,-1.3369458E1,6.9278795E-1],"categories":[],"categories_nodes":[],"categories_segments":[],"categories_sizes":[],"default_left":[0,0,0,0,0,0,0,0,0,0,0,0,0],"id":77,"left_children":[1,3,5,7,9,-1,11,-1,-1,-1,-1,-1,-1],"loss_changes":[3.933579E4,1.5495808E5,1.2386367E5,7.487105E4,1.8755656E4,0E0,3.815761E4,0E0,0E0,0E0,0E0,0E0,0E0],"parents":[2147483647,0,0,1,1,2,2,3,3,4,4,6,6],"right_children":[2,4,6,8,10,-1,12,-1,-1,-1,-1,-1,-1],"split_conditions":[2.6237E2,2.4999E2,6.2934E3,2.4181E2,2.5519497E11,2.107321E1,4.2369E2,-2.0332143E0,1.4236678E1,-3.1064814E1,-5.770044E0,-1.3369458E1,6.9278795E-1],"split_indices":[7,7,0,7,1,0,7,0,0,0,0,0,0],"split_type":[0,0,0,0,0,0,0,0,0,0,0,0,0],"sum_hessian":[1.11E2,5.4E1,5.7E1,5.2E1,2E0,2E0,5.5E1,5E1,2E0,1E0,1E0,1E0,5.4E1],"tree_param":{"num_deleted":"0","num_feature":"10","num_nodes":"13","size_leaf_vector":"1"}},{"base_weights":[9.239641E-1,1.6747887E1,-1.9116997E1,-1.3395164E1,3.7476845E1,3.1339545E0,-8.798526E1,-4.639755E0,2.8974075E0,1.696564E0,1.6535543E1,5.415012E0,-5.6559014E0,-1.9493628E1,1.6256344E0],"categories":[],"categories_nodes":[],"categories_segments":[],"categories_sizes":[],"default_left":[0,0,0,0,0,0,0,0,0,0,0,0,0,0,0],"id":78,"left_children":[1,3,5,7,9,11,13,-1,-1,-1,-1,-1,-1,-1,-1],"loss_changes":[3.5204098E4,3.924172E4,7.536258E4,3.7699754E4,9.424355E4,1.1878432E5,1.3695388E5,0E0,0E0,0E0,0E0,0E0,0E0,0E0,0E0],"parents":[2147483647,0,0,1,1,2,2,3,3,4,4,5,5,6,6],"right_children":[2,4,6,8,10,12,14,-1,-1,-1,-1,-1,-1,-1,-1],"split_conditions":[5E-1,-1.8369701E-16,5E-1,-5E-1,7.8178E3,5.0901785E11,5.917648E6,-4.639755E0,2.8974075E0,1.696564E0,1.6535543E1,5.415012E0,-5.6559014E0,-1.9493628E1,1.6256344E0],"split_indices":[8,9,9,8,0,1,3,0,0,0,0,0,0,0,0],"split_type":[0,0,0,0,0,0,0,0,0,0,0,0,0,0,0],"sum_hessian":[1.09E2,6.1E1,4.8E1,2.5E1,3.6E1,3.7E1,1.1E1,1.4E1,1.1E1,3.2E1,4E0,2E1,1.7E1,5E0,6E0],"tree_param":{"num_deleted":"0","num_feature":"10","num_nodes":"15","size_leaf_vector":"1"}},{"base_weights":[6.468673E-1,1.8491068E1,-9.304143E0,3.6589093E0,1.4735773E1,-6.1145283E1,9.816738E0,8.24113E0,-1.1701517E0,5.98468E-1,-1.5419707E1,1.9307325E1,-1.3749866E-1],"categories":[],"categories_nodes":[],"categories_segments":[],"categories_sizes":[],"default_left":[0,0,0,0,0,0,0,0,0,0,0,0,0],"id":79,"left_children":[1,3,5,7,-1,9,11,-1,-1,-1,-1,-1,-1],"loss_changes":[1.9349367E4,7.400428E4,6.9987625E4,4.451247E4,0E0,1.1960752E5,1.0691521E5,0E0,0E0,0E0,0E0,0E0,0E0],"parents":[2147483647,0,0,1,1,2,2,3,3,5,5,6,6],"right_children":[2,4,6,8,-1,10,12,-1,-1,-1,-1,-1,-1],"split_conditions":[2.3227E2,2.3109E2,2.6237E2,-5E-1,1.4735773E1,1.2246469E-16,6.2934E3,8.24113E0,-1.1701517E0,5.98468E-1,-1.5419707E1,1.9307325E1,-1.3749866E-1],"split_indices":[7,7,7,9,0,8,0,0,0,0,0,0,0],"split_type":[0,0,0,0,0,0,0,0,0,0,0,0,0],"sum_hessian":[1.07E2,3.8E1,6.9E1,3.5E1,3E0,1.8E1,5.1E1,5E0,3E1,1.1E1,7E0,2E0,4.9E1],"tree_param":{"num_deleted":"0","num_feature":"10","num_nodes":"13","size_leaf_vector":"1"}},{"base_weights":[-5.306241E0,-5.623261E1,1.1728758E0,-2.2723291E1,-1.2594775E1,7.485245E1,-7.5545244E0,-4.8766017E0,2.7661946E-1,1.3168701E0,9.633777E0,-1.5632471E1,-4.2382756E-1],"categories":[],"categories_nodes":[],"categories_segments":[],"categories_sizes":[],"default_left":[0,0,0,0,0,0,0,0,0,0,0,0,0],"id":80,"left_children":[1,3,5,7,-1,9,11,-1,-1,-1,-1,-1,-1],"loss_changes":[3.8011113E4,2.7507445E4,6.679769E4,6.7730527E3,0E0,1.3309598E4,4.5219836E4,0E0,0E0,0E0,0E0,0E0,0E0],"parents":[2147483647,0,0,1,1,2,2,3,3,5,5,6,6],"right_children":[2,4,6,8,-1,10,12,-1,-1,-1,-1,-1,-1],"split_conditions":[1.2134E2,1.2087E2,1.2797E2,1.1934E2,-1.2594775E1,1.7344513E12,1.2821E2,-4.8766017E0,2.7661946E-1,1.3168701E0,9.633777E0,-1.5632471E1,-4.2382756E-1],"split_indices":[7,7,7,7,0,1,7,0,0,0,0,0,0],"split_type":[0,0,0,0,0,0,0,0,0,0,0,0,0],"sum_hessian":[1.14E2,1.2E1,1.02E2,9E0,3E0,1E1,9.2E1,4E0,5E0,3E0,7E0,1E0,9.1E1],"tree_param":{"num_deleted":"0","num_feature":"10","num_nodes":"13","size_leaf_vector":"1"}},{"base_weights":[1.6718086E0,1.0632281E1,-2.2875877E1,-9.7628E0,2.7618523E1,3.6225857E1,-4.6014046E1,-2.250077E0,4.986261E0,1.9145288E1,1.9543812E0,-3.152649E0,7.5356445E0,-9.61915E0,3.8164508E-1],"categories":[],"categories_nodes":[],"categories_segments":[],"categories_sizes":[],"default_left":[0,0,0,0,0,0,0,0,0,0,0,0,0,0,0],"id":81,"left_children":[1,3,5,7,9,11,13,-1,-1,-1,-1,-1,-1,-1,-1],"loss_changes":[2.4658658E4,2.8677371E4,4.269208E4,2.99832E4,5.5789453E4,2.6236428E4,5.537519E4,0E0,0E0,0E0,0E0,0E0,0E0,0E0,0E0],"parents":[2147483647,0,0,1,1,2,2,3,3,4,4,5,5,6,6],"right_children":[2,4,6,8,10,12,14,-1,-1,-1,-1,-1,-1,-1,-1],"split_conditions":[8.660254E-1,1.7372667E2,1.2791E2,4.9295E2,2.3069E2,1.7344513E12,4.2369E2,-2.250077E0,4.986261E0,1.9145288E1,1.9543812E0,-3.152649E0,7.5356445E0,-9.61915E0,3.8164508E-1],"split_indices":[9,6,7,7,7,1,7,0,0,0,0,0,0,0,0],"split_type":[0,0,0,0,0,0,0,0,0,0,0,0,0,0,0],"sum_hessian":[1.1E2,8.1E1,2.9E1,3.7E1,4.4E1,8E0,2.1E1,3.1E1,6E0,1E0,4.3E1,3E0,5E0,1E1,1.1E1],"tree_param":{"num_deleted":"0","num_feature":"10","num_nodes":"15","size_leaf_vector":"1"}},{"base_weights":[-1.8917324E-2,4.447764E0,-4.557717E1,1.4044138E1,-2.5670835E1,4.8149905E0,-6.134128E1,2.040366E0,-6.5670714E0,4.0257506E0,-5.354616E0,-7.322347E0,-2.8182678E0],"categories":[],"categories_nodes":[],"categories_segments":[],"categories_sizes":[],"default_left":[0,0,0,0,0,0,0,0,0,0,0,0,0],"id":82,"left_children":[1,3,5,7,9,-1,11,-1,-1,-1,-1,-1,-1],"loss_changes":[2.2790574E4,2.9841518E4,1.7728814E4,4.088188E4,4.8099992E4,0E0,1.4823398E3,0E0,0E0,0E0,0E0,0E0,0E0],"parents":[2147483647,0,0,1,1,2,2,3,3,4,4,6,6],"right_children":[2,4,6,8,10,-1,12,-1,-1,-1,-1,-1,-1],"split_conditions":[4.2624633E12,8.660254E-1,4.8776E2,8.5375E0,1.2791E2,4.8149905E0,5.1977E2,2.040366E0,-6.5670714E0,4.0257506E0,-5.354616E0,-7.322347E0,-2.8182678E0],"split_indices":[1,9,7,2,7,0,7,0,0,0,0,0,0],"split_type":[0,0,0,0,0,0,0,0,0,0,0,0,0],"sum_hessian":[1.1E2,1.01E2,9E0,7.7E1,2.4E1,1E0,8E0,7.2E1,5E0,7E0,1.7E1,5E0,3E0],"tree_param":{"num_deleted":"0","num_feature":"10","num_nodes":"13","size_leaf_vector":"1"}},{"base_weights":[-7.879472E0,-2.4877539E1,1.2675798E1,-6.9711237E0,-9.592227E1,9.333458E1,-4.910032E0,-1.5673445E0,1.3168897E1,-3.2627697E1,-1.7223634E0,1.08252325E1,-1.3003663E0,-2.0210187E0,3.0775716E0],"categories":[],"categories_nodes":[],"categories_segments":[],"categories_sizes":[],"default_left":[0,0,0,0,0,0,0,0,0,0,0,0,0,0,0],"id":83,"left_children":[1,3,5,7,9,11,13,-1,-1,-1,-1,-1,-1,-1,-1],"loss_changes":[3.8399926E4,7.566071E4,7.138086E4,6.1190594E4,2.1192353E5,1.5684609E4,2.355388E4,0E0,0E0,0E0,0E0,0E0,0E0,0E0,0E0],"parents":[2147483647,0,0,1,1,2,2,3,3,4,4,5,5,6,6],"right_children":[2,4,6,8,10,12,14,-1,-1,-1,-1,-1,-1,-1,-1],"split_conditions":[4.2859E2,2.396E2,4.5462E2,2.3946E2,5.2E6,1E0,5E-1,-1.5673445E0,1.3168897E1,-3.2627697E1,-1.7223634E0,1.08252325E1,-1.3003663E0,-2.0210187E0,3.0775716E0],"split_indices":[7,7,7,7,3,9,9,0,0,0,0,0,0,0,0],"split_type":[0,0,0,0,0,0,0,0,0,0,0,0,0,0,0],"sum_hessian":[1.08E2,5.9E1,4.9E1,4.8E1,1.1E1,8E0,4.1E1,4.6E1,2E0,2E0,9E0,7E0,1E0,2.9E1,1.2E1],"tree_param":{"num_deleted":"0","num_feature":"10","num_nodes":"15","size_leaf_vector":"1"}},{"base_weights":[-4.2378364E0,5.2457304E0,-3.7253746E1,1.035571E1,-6.290996E0,2.0639496E0,-1.03012566E2,-1.204057E0,3.0372446E0,-9.855566E-1,9.042834E0,-2.4152046E1,-2.8935952E0],"categories":[],"categories_nodes":[],"categories_segments":[],"categories_sizes":[],"default_left":[0,0,0,0,0,0,0,0,0,0,0,0,0],"id":84,"left_children":[1,3,5,7,-1,9,11,-1,-1,-1,-1,-1,-1],"loss_changes":[3.369804E4,2.990651E4,6.226425E4,3.5781434E4,0E0,1.7743396E4,8.5353164E4,0E0,0E0,0E0,0E0,0E0,0E0],"parents":[2147483647,0,0,1,1,2,2,3,3,5,5,6,6],"right_children":[2,4,6,8,-1,10,12,-1,-1,-1,-1,-1,-1],"split_conditions":[8.660254E-1,8.5375E0,2.4874E2,2.4181E2,-6.290996E0,2.3946E2,4.2369E2,-1.204057E0,3.0372446E0,-9.855566E-1,9.042834E0,-2.4152046E1,-2.8935952E0],"split_indices":[9,2,7,7,0,7,7,0,0,0,0,0,0],"split_type":[0,0,0,0,0,0,0,0,0,0,0,0,0],"sum_hessian":[1.06E2,8.3E1,2.3E1,7.8E1,5E0,1.5E1,8E0,3.7E1,4.1E1,1.4E1,1E0,2E0,6E0],"tree_param":{"num_deleted":"0","num_feature":"10","num_nodes":"13","size_leaf_vector":"1"}},{"base_weights":[-2.7825003E0,-3.6205425E1,2.1206608E0,-4.5283647E0,-1.14265995E1,5.6373455E1,-5.563506E0,2.953597E0,-3.783797E0,9.177592E0,-8.042594E0,-7.6376367E0,-1.12365656E-1],"categories":[],"categories_nodes":[],"categories_segments":[],"categories_sizes":[],"default_left":[0,0,0,0,0,0,0,0,0,0,0,0,0],"id":85,"left_children":[1,3,5,7,-1,9,11,-1,-1,-1,-1,-1,-1],"loss_changes":[1.7939479E4,3.4100773E4,4.033484E4,1.3598946E4,0E0,6.5497605E4,2.6638047E4,0E0,0E0,0E0,0E0,0E0,0E0],"parents":[2147483647,0,0,1,1,2,2,3,3,5,5,6,6],"right_children":[2,4,6,8,-1,10,12,-1,-1,-1,-1,-1,-1],"split_conditions":[1.2134E2,1.2087E2,1.2936E2,-5E-1,-1.14265995E1,8.660254E-1,2.1591E3,2.953597E0,-3.783797E0,9.177592E0,-8.042594E0,-7.6376367E0,-1.12365656E-1],"split_indices":[7,7,7,8,0,8,0,0,0,0,0,0,0],"split_type":[0,0,0,0,0,0,0,0,0,0,0,0,0],"sum_hessian":[1.08E2,1.3E1,9.5E1,1E1,3E0,1.1E1,8.4E1,5E0,5E0,9E0,2E0,4E0,8E1],"tree_param":{"num_deleted":"0","num_feature":"10","num_nodes":"13","size_leaf_vector":"1"}},{"base_weights":[-3.3262331E0,2.8736506E1,-1.2101909E1,2.150716E0,7.49928E0,-1.08706055E2,-2.800139E0,-2.495063E0,3.6688058E0,-2.7929688E-1,-1.2589274E1,1.8230194E1,-7.833071E-1],"categories":[],"categories_nodes":[],"categories_segments":[],"categories_sizes":[],"default_left":[0,0,0,0,0,0,0,0,0,0,0,0,0],"id":86,"left_children":[1,3,5,7,-1,9,11,-1,-1,-1,-1,-1,-1],"loss_changes":[2.8766355E4,2.6893434E4,7.158277E4,1.4955517E4,0E0,1.2390453E4,7.0366836E4,0E0,0E0,0E0,0E0,0E0,0E0],"parents":[2147483647,0,0,1,1,2,2,3,3,5,5,6,6],"right_children":[2,4,6,8,-1,10,12,-1,-1,-1,-1,-1,-1],"split_conditions":[1.2797E2,1.2618E2,2.1591E3,5E-1,7.49928E0,1.7344513E12,2.3069E2,-2.495063E0,3.6688058E0,-2.7929688E-1,-1.2589274E1,1.8230194E1,-7.833071E-1],"split_indices":[7,7,0,9,0,1,7,0,0,0,0,0,0],"split_type":[0,0,0,0,0,0,0,0,0,0,0,0,0],"sum_hessian":[1E2,2.1E1,7.9E1,1.4E1,7E0,6E0,7.3E1,8E0,6E0,1E0,5E0,1E0,7.2E1],"tree_param":{"num_deleted":"0","num_feature":"10","num_nodes":"13","size_leaf_vector":"1"}},{"base_weights":[9.121103E0,1.6551037E0,3.8570507E1,-4.985359E1,1.753786E1,1.2841585E2,-3.3508255E1,-9.973963E0,4.564592E-1,3.3047104E0,-1.8746976E0,1.8244368E1,-5.8463664E0,-7.0548005E0,8.31839E-1],"categories":[],"categories_nodes":[],"categories_segments":[],"categories_sizes":[],"default_left":[0,0,0,0,0,0,0,0,0,0,0,0,0,0,0],"id":87,"left_children":[1,3,5,7,9,11,13,-1,-1,-1,-1,-1,-1,-1,-1],"loss_changes":[2.3901906E4,7.2867125E4,1.4677367E5,5.746412E4,3.8886555E4,1.1163328E5,2.0727078E4,0E0,0E0,0E0,0E0,0E0,0E0,0E0,0E0],"parents":[2147483647,0,0,1,1,2,2,3,3,4,4,5,5,6,6],"right_children":[2,4,6,8,10,12,14,-1,-1,-1,-1,-1,-1,-1,-1],"split_conditions":[8.660254E-1,1.4750348E0,2.6659922E7,6.123234E-17,8.660254E-1,5E-1,-1.8369701E-16,-9.973963E0,4.564592E-1,3.3047104E0,-1.8746976E0,1.8244368E1,-5.8463664E0,-7.0548005E0,8.31839E-1],"split_indices":[8,2,3,9,9,9,9,0,0,0,0,0,0,0,0],"split_type":[0,0,0,0,0,0,0,0,0,0,0,0,0,0,0],"sum_hessian":[1.08E2,8.7E1,2.1E1,2E1,6.7E1,9E0,1.2E1,1E1,1E1,4.7E1,2E1,7E0,2E0,6E0,6E0],"tree_param":{"num_deleted":"0","num_feature":"10","num_nodes":"15","size_leaf_vector":"1"}},{"base_weights":[6.769281E0,5.117782E1,6.8511134E-1,9.064492E1,-2.1121368E1,-5.871652E0,2.7566292E1,1.5562495E1,2.1998465E0,3.2427735E0,-1.790193E0,1.4630742E1,-2.5291781E0],"categories":[],"categories_nodes":[],"categories_segments":[],"categories_sizes":[],"default_left":[0,0,0,0,0,0,0,0,0,0,0,0,0],"id":88,"left_children":[1,3,5,7,-1,9,11,-1,-1,-1,-1,-1,-1],"loss_changes":[2.9145355E4,1.5377123E5,1.70822E4,5.010429E4,0E0,3.6519195E4,1.22952484E5,0E0,0E0,0E0,0E0,0E0,0E0],"parents":[2147483647,0,0,1,1,2,2,3,3,5,5,6,6],"right_children":[2,4,6,8,-1,10,12,-1,-1,-1,-1,-1,-1],"split_conditions":[2.5519497E11,1E0,8.660254E-1,6.123234E-17,-2.1121368E1,1.2936E2,2.601872E7,1.5562495E1,2.1998465E0,3.2427735E0,-1.790193E0,1.4630742E1,-2.5291781E0],"split_indices":[1,8,8,9,0,7,3,0,0,0,0,0,0],"split_type":[0,0,0,0,0,0,0,0,0,0,0,0,0],"sum_hessian":[1.07E2,1.2E1,9.5E1,1.1E1,1E0,7.7E1,1.8E1,5E0,6E0,1.8E1,5.9E1,5E0,1.3E1],"tree_param":{"num_deleted":"0","num_feature":"10","num_nodes":"13","size_leaf_vector":"1"}},{"base_weights":[-3.2913222E0,-2.1168224E1,8.212495E0,1.3680409E1,-6.2239296E1,1.5253385E1,-1.4003673E2,-1.3303894E0,6.5938964E0,-7.4945993E0,8.32406E0,5.046512E0,-5.3746974E-1,-2.0065302E1,-9.4020766E-1],"categories":[],"categories_nodes":[],"categories_segments":[],"categories_sizes":[],"default_left":[0,0,0,0,0,0,0,0,0,0,0,0,0,0,0],"id":89,"left_children":[1,3,5,7,9,11,13,-1,-1,-1,-1,-1,-1,-1,-1],"loss_changes":[2.1561715E4,5.9533555E4,6.893965E4,3.3310945E4,4.1361344E4,4.530497E4,2.1869207E4,0E0,0E0,0E0,0E0,0E0,0E0,0E0,0E0],"parents":[2147483647,0,0,1,1,2,2,3,3,4,4,5,5,6,6],"right_children":[2,4,6,8,10,12,14,-1,-1,-1,-1,-1,-1,-1,-1],"split_conditions":[2.3575E2,1.2797E2,1E0,1.2618E2,1E0,4.5462E2,6.2934E3,-1.3303894E0,6.5938964E0,-7.4945993E0,8.32406E0,5.046512E0,-5.3746974E-1,-2.0065302E1,-9.4020766E-1],"split_indices":[7,7,8,7,8,7,0,0,0,0,0,0,0,0,0],"split_type":[0,0,0,0,0,0,0,0,0,0,0,0,0,0,0],"sum_hessian":[1.03E2,4E1,6.3E1,2.2E1,1.8E1,6.1E1,2E0,1.5E1,7E0,1.7E1,1E0,2.2E1,3.9E1,1E0,1E0],"tree_param":{"num_deleted":"0","num_feature":"10","num_nodes":"15","size_leaf_vector":"1"}},{"base_weights":[2.0776658E0,-5.1255813E0,2.232691E1,1.3061481E1,-1.9889414E1,3.9562878E1,-2.570837E1,-6.588154E-2,9.825908E0,-1.1485895E0,-1.9062037E1,5.397824E0,-1.7361914E0,4.7033877E0,-4.2819247E0],"categories":[],"categories_nodes":[],"categories_segments":[],"categories_sizes":[],"default_left":[0,0,0,0,0,0,0,0,0,0,0,0,0,0,0],"id":90,"left_children":[1,3,5,7,9,11,13,-1,-1,-1,-1,-1,-1,-1,-1],"loss_changes":[1.5575631E4,2.1472135E4,2.4199266E4,4.2146445E4,6.093915E4,1.8169582E4,1.1971423E4,0E0,0E0,0E0,0E0,0E0,0E0,0E0,0E0],"parents":[2147483647,0,0,1,1,2,2,3,3,4,4,5,5,6,6],"right_children":[2,4,6,8,10,12,14,-1,-1,-1,-1,-1,-1,-1,-1],"split_conditions":[4.8233E2,2.3296E2,4.2624633E12,2.3109E2,1E0,5.2559E2,4.8776E2,-6.588154E-2,9.825908E0,-1.1485895E0,-1.9062037E1,5.397824E0,-1.7361914E0,4.7033877E0,-4.2819247E0],"split_indices":[7,7,1,7,8,7,7,0,0,0,0,0,0,0,0],"split_type":[0,0,0,0,0,0,0,0,0,0,0,0,0,0,0],"sum_hessian":[1.05E2,7.8E1,2.7E1,3.5E1,4.3E1,2E1,7E0,3.1E1,4E0,4.2E1,1E0,1.6E1,4E0,1E0,6E0],"tree_param":{"num_deleted":"0","num_feature":"10","num_nodes":"15","size_leaf_vector":"1"}},{"base_weights":[2.5092068E0,4.0373734E1,-2.7641852E0,1.4340788E2,-3.2801666E1,-1.3913973E1,1.2598644E1,7.6467285E0,1.8485937E1,5.928584E0,-1.1832885E1,-4.8150506E0,2.2911032E-1,1.9747065E0,-4.5678773E0],"categories":[],"categories_nodes":[],"categories_segments":[],"categories_sizes":[],"default_left":[0,0,0,0,0,0,0,0,0,0,0,0,0,0,0],"id":91,"left_children":[1,3,5,7,9,11,13,-1,-1,-1,-1,-1,-1,-1,-1],"loss_changes":[2.2874492E4,1.10257914E5,1.7475818E4,2.513039E3,7.789908E4,3.2843848E4,1.8815457E4,0E0,0E0,0E0,0E0,0E0,0E0,0E0,0E0],"parents":[2147483647,0,0,1,1,2,2,3,3,4,4,5,5,6,6],"right_children":[2,4,6,8,10,12,14,-1,-1,-1,-1,-1,-1,-1,-1],"split_conditions":[2.5519497E11,6.123234E-17,6.123234E-17,-5E-1,1.2246469E-16,2.6237E2,5.2559E2,7.6467285E0,1.8485937E1,5.928584E0,-1.1832885E1,-4.8150506E0,2.2911032E-1,1.9747065E0,-4.5678773E0],"split_indices":[1,9,9,9,8,7,7,0,0,0,0,0,0,0,0],"split_type":[0,0,0,0,0,0,0,0,0,0,0,0,0,0,0],"sum_hessian":[1.13E2,1.3E1,1E2,5E0,8E0,5.8E1,4.2E1,3E0,2E0,4E0,4E0,1.8E1,4E1,3.8E1,4E0],"tree_param":{"num_deleted":"0","num_feature":"10","num_nodes":"15","size_leaf_vector":"1"}},{"base_weights":[1.2941865E0,-6.6475334E0,3.300224E1,7.513907E0,-4.070612E1,1.50266695E1,-1.4046792E0,-1.2082027E0,2.5694513E0,-1.5356967E1,8.9578086E-1,2.5160842E0,-3.7756684E0],"categories":[],"categories_nodes":[],"categories_segments":[],"categories_sizes":[],"default_left":[0,0,0,0,0,0,0,0,0,0,0,0,0],"id":92,"left_children":[1,3,5,7,9,-1,11,-1,-1,-1,-1,-1,-1],"loss_changes":[2.7667379E4,4.2749895E4,8.8974664E4,2.2755197E4,1.471121E5,0E0,1.8332768E4,0E0,0E0,0E0,0E0,0E0,0E0],"parents":[2147483647,0,0,1,1,2,2,3,3,4,4,6,6],"right_children":[2,4,6,8,10,-1,12,-1,-1,-1,-1,-1,-1],"split_conditions":[8.660254E-1,5E-1,1.4750348E0,5.0901785E11,5.917648E6,1.50266695E1,1.7344513E12,-1.2082027E0,2.5694513E0,-1.5356967E1,8.9578086E-1,2.5160842E0,-3.7756684E0],"split_indices":[8,8,2,1,3,0,1,0,0,0,0,0,0],"split_type":[0,0,0,0,0,0,0,0,0,0,0,0,0],"sum_hessian":[1.08E2,8.7E1,2.1E1,6.2E1,2.5E1,4E0,1.7E1,3E1,3.2E1,7E0,1.8E1,1E1,7E0],"tree_param":{"num_deleted":"0","num_feature":"10","num_nodes":"13","size_leaf_vector":"1"}},{"base_weights":[4.8938484E0,1.3771844E1,-2.1908892E1,7.638775E1,5.567601E0,-4.3448386E0,-6.045736E1,1.3852495E1,-1.3454431E0,-6.004463E-1,3.7263417E0,2.9982443E0,-4.510309E0,-2.1278328E1,1.3461946E0],"categories":[],"categories_nodes":[],"categories_segments":[],"categories_sizes":[],"default_left":[0,0,0,0,0,0,0,0,0,0,0,0,0,0,0],"id":93,"left_children":[1,3,5,7,9,11,13,-1,-1,-1,-1,-1,-1,-1,-1],"loss_changes":[2.7666506E4,4.4268E4,1.9372273E4,5.7689188E4,2.8833055E4,3.073382E4,1.0420291E5,0E0,0E0,0E0,0E0,0E0,0E0,0E0,0E0],"parents":[2147483647,0,0,1,1,2,2,3,3,4,4,5,5,6,6],"right_children":[2,4,6,8,10,12,14,-1,-1,-1,-1,-1,-1,-1,-1],"split_conditions":[8.660254E-1,2.5519497E11,1.2246469E-16,6.123234E-17,6.123234E-17,5.917648E6,5.917648E6,1.3852495E1,-1.3454431E0,-6.004463E-1,3.7263417E0,2.9982443E0,-4.510309E0,-2.1278328E1,1.3461946E0],"split_indices":[9,1,8,9,9,3,3,0,0,0,0,0,0,0,0],"split_type":[0,0,0,0,0,0,0,0,0,0,0,0,0,0,0],"sum_hessian":[1.14E2,8.6E1,2.8E1,9E0,7.7E1,2E1,8E0,5E0,4E0,5.7E1,2E1,1.1E1,9E0,2E0,6E0],"tree_param":{"num_deleted":"0","num_feature":"10","num_nodes":"15","size_leaf_vector":"1"}},{"base_weights":[-3.9606595E-1,-1.2568669E1,1.1142823E1,-9.9074477E-1,-1.5704504E2,1.5024134E1,6.3288105E-1,-8.576105E-1,1.2323373E1,-2.19E1,-6.3393393E0,-9.5963545E0,6.1935806E-1],"categories":[],"categories_nodes":[],"categories_segments":[],"categories_sizes":[],"default_left":[0,0,0,0,0,0,0,0,0,0,0,0,0],"id":94,"left_children":[1,3,5,7,9,-1,11,-1,-1,-1,-1,-1,-1],"loss_changes":[1.5590466E4,9.017219E4,8.32342E4,4.9113523E4,9.325578E3,0E0,2.960012E4,0E0,0E0,0E0,0E0,0E0,0E0],"parents":[2147483647,0,0,1,1,2,2,3,3,4,4,6,6],"right_children":[2,4,6,8,10,-1,12,-1,-1,-1,-1,-1,-1],"split_conditions":[2.6237E2,2.4999E2,4.2545E2,2.4181E2,2.5519497E11,1.5024134E1,4.2859E2,-8.576105E-1,1.2323373E1,-2.19E1,-6.3393393E0,-9.5963545E0,6.1935806E-1],"split_indices":[7,7,7,7,1,0,7,0,0,0,0,0,0],"split_type":[0,0,0,0,0,0,0,0,0,0,0,0,0],"sum_hessian":[1.09E2,5.3E1,5.6E1,5E1,3E0,3E0,5.3E1,4.8E1,2E0,1E0,2E0,2E0,5.1E1],"tree_param":{"num_deleted":"0","num_feature":"10","num_nodes":"13","size_leaf_vector":"1"}},{"base_weights":[4.27933E-1,3.3661187E0,-3.7087425E1,1.1779632E-2,1.1405538E2,-7.1997232E0,-1.3451283E1,3.0233547E-1,-3.4999254E0,-6.7138064E-1,1.7779688E1,-2.3796768E0,4.8264566E-1],"categories":[],"categories_nodes":[],"categories_segments":[],"categories_sizes":[],"default_left":[0,0,0,0,0,0,0,0,0,0,0,0,0],"id":95,"left_children":[1,3,5,7,9,-1,11,-1,-1,-1,-1,-1,-1],"loss_changes":[1.2139593E4,3.7870164E4,5.6326113E3,1.064965E4,2.4287719E4,0E0,1.2494066E3,0E0,0E0,0E0,0E0,0E0,0E0],"parents":[2147483647,0,0,1,1,2,2,3,3,4,4,6,6],"right_children":[2,4,6,8,10,-1,12,-1,-1,-1,-1,-1,-1],"split_conditions":[5.258E2,5.1977E2,-2.4492937E-16,1E0,1.3942518E0,-7.1997232E0,5.3148E2,3.0233547E-1,-3.4999254E0,-6.7138064E-1,1.7779688E1,-2.3796768E0,