{"learner":{"attributes":{"scikit_learn":"{\"_estimator_type\": \"regressor\"}"},"feature_names":["distance_km","gdp_usd","gdp_growth_pct","population","tourism_arrivals_baseline","competitor_count","competitor_avg_fare_usd","avg_fare_usd","month_sin","month_cos"],"feature_types":["float","float","float","float","float","int","float","float","float","float"],"gradient_booster":{"model":{"gbtree_model_param":{"num_parallel_tree":"1","num_trees":"150"},"iteration_indptr":[0,1,2,3,4,5,6,7,8,9,10,11,12,13,14,15,16,17,18,19,20,21,22,23,24,25,26,27,28,29,30,31,32,33,34,35,36,37,38,39,40,41,42,43,44,45,46,47,48,49,50,51,52,53,54,55,56,57,58,59,60,61,62,63,64,65,66,67,68,69,70,71,72,73,74,75,76,77,78,79,80,81,82,83,84,85,86,87,88,89,90,91,92,93,94,95,96,97,98,99,100,101,102,103,104,105,106,107,108,109,110,111,112,113,114,115,116,117,118,119,120,121,122,123,124,125,126,127,128,129,130,131,132,133,134,135,136,137,138,139,140,141,142,143,144,145,146,147,148,149,150],"tree_info":[0,0,0,0,0,0,0,0,0,0,0,0,0,0,0,0,0,0,0,0,0,0,0,0,0,0,0,0,0,0,0,0,0,0,0,0,0,0,0,0,0,0,0,0,0,0,0,0,0,0,0,0,0,0,0,0,0,0,0,0,0,0,0,0,0,0,0,0,0,0,0,0,0,0,0,0,0,0,0,0,0,0,0,0,0,0,0,0,0,0,0,0,0,0,0,0,0,0,0,0,0,0,0,0,0,0,0,0,0,0,0,0,0,0,0,0,0,0,0,0,0,0,0,0,0,0,0,0,0,0,0,0,0,0,0,0,0,0,0,0,0,0,0,0,0,0,0,0,0,0],"trees":[{"base_weights":[-5.250577E1,1.6236807E3,-2.584243E3,5.95309E1,3.0967495E3,-3.230991E2,-1.7612341E3,-5.2550396E1,1.516165E2,3.7662662E2,1.823456E2,-1.2982289E2,-2.4092146E2],"categories":[],"categories_nodes":[],"categories_segments":[],"categories_sizes":[],"default_left":[0,0,0,0,0,0,0,0,0,0,0,0,0],"id":0,"left_children":[1,3,5,7,9,-1,11,-1,-1,-1,-1,-1,-1],"loss_changes":[4.794863E8,1.5649446E8,1.8262016E7,2.977093E7,2.29696E7,0E0,3.472688E6,0E0,0E0,0E0,0E0,0E0,0E0],"parents":[2147483647,0,0,1,1,2,2,3,3,4,4,6,6],"right_children":[2,4,6,8,10,-1,12,-1,-1,-1,-1,-1,-1],"split_conditions":[7.1831E3,5.917648E6,7.8178E3,4.2369E2,2.1591E3,-3.230991E2,4.2624633E12,-5.2550396E1,1.516165E2,3.7662662E2,1.823456E2,-1.2982289E2,-2.4092146E2],"split_indices":[0,3,0,7,0,0,1,0,0,0,0,0,0],"split_type":[0,0,0,0,0,0,0,0,0,0,0,0,0],"sum_hessian":[1.11E2,6.7E1,4.4E1,3.3E1,3.4E1,2.3E1,2.1E1,2.4E1,9E0,2.1E1,1.3E1,1.4E1,7E0],"tree_param":{"num_deleted":"0","num_feature":"10","num_nodes":"13","size_leaf_vector":"1"}},{"base_weights":[8.157773E0,1.5020789E3,-2.3687202E3,1.2033949E2,2.7311885E3,-2.932938E2,-1.611104E3,-4.673386E1,1.3916063E2,3.3073587E2,1.6656485E2,-1.16042274E2,-2.1984085E2],"categories":[],"categories_nodes":[],"categories_segments":[],"categories_sizes":[],"default_left":[0,0,0,0,0,0,0,0,0,0,0,0,0],"id":1,"left_children":[1,3,5,7,9,-1,11,-1,-1,-1,-1,-1,-1],"loss_changes":[4.0480605E8,1.1855298E8,1.4083008E7,2.6051602E7,1.7206592E7,0E0,3.007348E6,0E0,0E0,0E0,0E0,0E0,0E0],"parents":[2147483647,0,0,1,1,2,2,3,3,4,4,6,6],"right_children":[2,4,6,8,10,-1,12,-1,-1,-1,-1,-1,-1],"split_conditions":[7.1831E3,5.917648E6,7.8178E3,4.2369E2,2.1591E3,-2.932938E2,4.2624633E12,-4.673386E1,1.3916063E2,3.3073587E2,1.6656485E2,-1.16042274E2,-2.1984085E2],"split_indices":[0,3,0,7,0,0,1,0,0,0,0,0,0],"split_type":[0,0,0,0,0,0,0,0,0,0,0,0,0],"sum_hessian":[1.12E2,6.9E1,4.3E1,3.3E1,3.6E1,2.3E1,2E1,2.3E1,1E1,2.2E1,1.4E1,1.3E1,7E0],"tree_param":{"num_deleted":"0","num_feature":"10","num_nodes":"13","size_leaf_vector":"1"}},{"base_weights":[-2.9597889E1,1.380836E3,-2.1602627E3,3.0980673E2,6.0077997E2,-2.664887E2,-1.4566498E3,-4.0533543E1,1.4676982E2,-1.6159329E2,-3.7571358E1],"categories":[],"categories_nodes":[],"categories_segments":[],"categories_sizes":[],"default_left":[0,0,0,0,0,0,0,0,0,0,0],"id":2,"left_children":[1,3,5,-1,7,-1,9,-1,-1,-1,-1],"loss_changes":[3.3956112E8,8.922724E7,1.2095888E7,0E0,4.246146E7,0E0,3.008544E6,0E0,0E0,0E0,0E0],"parents":[2147483647,0,0,1,1,2,2,4,4,6,6],"right_children":[2,4,6,-1,8,-1,10,-1,-1,-1,-1],"split_conditions":[7.1831E3,2.1591E3,7.8178E3,3.0980673E2,4.2369E2,-2.664887E2,1E0,-4.0533543E1,1.4676982E2,-1.6159329E2,-3.7571358E1],"split_indices":[0,0,0,0,7,0,9,0,0,0,0],"split_type":[0,0,0,0,0,0,0,0,0,0,0],"sum_hessian":[1.11E2,6.7E1,4.4E1,2E1,4.7E1,2.4E1,2E1,2.2E1,2.5E1,1.7E1,3E0],"tree_param":{"num_deleted":"0","num_feature":"10","num_nodes":"11","size_leaf_vector":"1"}},{"base_weights":[-3.8756E1,1.3153292E3,-2.0532373E3,1.4282492E2,2.2827522E3,-2.4082454E2,-1.4263795E3,7.8208145E1,-7.53286E1,2.818442E2,1.3806029E2,-9.7796394E1,-1.8646536E2],"categories":[],"categories_nodes":[],"categories_segments":[],"categories_sizes":[],"default_left":[0,0,0,0,0,0,0,0,0,0,0,0,0],"id":3,"left_children":[1,3,5,7,9,-1,11,-1,-1,-1,-1,-1,-1],"loss_changes":[2.9184534E8,7.226965E7,6.134128E6,1.7774472E7,1.3023376E7,0E0,1.713952E6,0E0,0E0,0E0,0E0,0E0,0E0],"parents":[2147483647,0,0,1,1,2,2,3,3,4,4,6,6],"right_children":[2,4,6,8,10,-1,12,-1,-1,-1,-1,-1,-1],"split_conditions":[7.1831E3,5.917648E6,7.8178E3,1.2246469E-16,2.1591E3,-2.4082454E2,4.2624633E12,7.8208145E1,-7.53286E1,2.818442E2,1.3806029E2,-9.7796394E1,-1.8646536E2],"split_indices":[0,3,0,8,0,0,1,0,0,0,0,0,0],"split_type":[0,0,0,0,0,0,0,0,0,0,0,0,0],"sum_hessian":[1.05E2,6.3E1,4.2E1,2.9E1,3.4E1,2.5E1,1.7E1,1.7E1,1.2E1,2E1,1.4E1,1E1,7E0],"tree_param":{"num_deleted":"0","num_feature":"10","num_nodes":"13","size_leaf_vector":"1"}},{"base_weights":[3.0537733E1,1.2224327E3,-1.7579686E3,1.0521223E2,2.0791353E3,-2.1793062E2,-1.1992683E3,7.207555E1,-8.0252106E1,2.498883E2,1.24094666E2,-8.51462E1,-1.7014964E2],"categories":[],"categories_nodes":[],"categories_segments":[],"categories_sizes":[],"default_left":[0,0,0,0,0,0,0,0,0,0,0,0,0],"id":4,"left_children":[1,3,5,7,9,-1,11,-1,-1,-1,-1,-1,-1],"loss_changes":[2.4516414E8,6.582291E7,8.214896E6,1.7899642E7,1.0620304E7,0E0,2.39416E6,0E0,0E0,0E0,0E0,0E0,0E0],"parents":[2147483647,0,0,1,1,2,2,3,3,4,4,6,6],"right_children":[2,4,6,8,10,-1,12,-1,-1,-1,-1,-1,-1],"split_conditions":[7.1831E3,5.917648E6,7.8178E3,1.2246469E-16,2.1591E3,-2.1793062E2,4.2624633E12,7.207555E1,-8.0252106E1,2.498883E2,1.24094666E2,-8.51462E1,-1.7014964E2],"split_indices":[0,3,0,8,0,0,1,0,0,0,0,0,0],"split_type":[0,0,0,0,0,0,0,0,0,0,0,0,0],"sum_hessian":[1.13E2,6.8E1,4.5E1,3E1,3.8E1,2.4E1,2.1E1,1.8E1,1.2E1,2.4E1,1.4E1,1.4E1,7E0],"tree_param":{"num_deleted":"0","num_feature":"10","num_nodes":"13","size_leaf_vector":"1"}},{"base_weights":[8.996471E1,1.1327582E3,-1.5654388E3,1.6113803E2,1.8188795E3,-1.9516307E2,-9.6354736E2,-2.8915985E1,1.0005902E2,2.2177043E2,1.13188896E2,-1.1001693E2,-2.1032812E1],"categories":[],"categories_nodes":[],"categories_segments":[],"categories_sizes":[],"default_left":[0,0,0,0,0,0,0,0,0,0,0,0,0],"id":5,"left_children":[1,3,5,7,9,-1,11,-1,-1,-1,-1,-1,-1],"loss_changes":[1.8302888E8,4.303912E7,7.649784E6,1.087343E7,7.901384E6,0E0,1.620917E6,0E0,0E0,0E0,0E0,0E0,0E0],"parents":[2147483647,0,0,1,1,2,2,3,3,4,4,6,6],"right_children":[2,4,6,8,10,-1,12,-1,-1,-1,-1,-1,-1],"split_conditions":[7.1831E3,5.917648E6,7.8178E3,4.2369E2,2.1591E3,-1.9516307E2,1E0,-2.8915985E1,1.0005902E2,2.2177043E2,1.13188896E2,-1.1001693E2,-2.1032812E1],"split_indices":[0,3,0,7,0,0,9,0,0,0,0,0,0],"split_type":[0,0,0,0,0,0,0,0,0,0,0,0,0],"sum_hessian":[1.04E2,6.4E1,4E1,2.7E1,3.7E1,2.3E1,1.7E1,1.8E1,9E0,2.2E1,1.5E1,1.4E1,3E0],"tree_param":{"num_deleted":"0","num_feature":"10","num_nodes":"13","size_leaf_vector":"1"}},{"base_weights":[-6.0276432E1,9.2112335E2,-1.4510929E3,1.1496136E1,1.6925798E3,-1.7629329E2,-1.0043304E3,6.00014E1,-8.722387E1,1.0038393E2,2.038344E2,-6.489079E1,-1.4563507E2],"categories":[],"categories_nodes":[],"categories_segments":[],"categories_sizes":[],"default_left":[0,0,0,0,0,0,0,0,0,0,0,0,0],"id":6,"left_children":[1,3,5,7,9,-1,11,-1,-1,-1,-1,-1,-1],"loss_changes":[1.4192618E8,4.2786544E7,4.22012E6,1.5606072E7,5.81252E6,0E0,2.268126E6,0E0,0E0,0E0,0E0,0E0,0E0],"parents":[2147483647,0,0,1,1,2,2,3,3,4,4,6,6],"right_children":[2,4,6,8,10,-1,12,-1,-1,-1,-1,-1,-1],"split_conditions":[9.968066E7,5.917648E6,5.0543952E11,5E-1,5.0901785E11,-1.7629329E2,4.2624633E12,6.00014E1,-8.722387E1,1.0038393E2,2.038344E2,-6.489079E1,-1.4563507E2],"split_indices":[3,3,1,8,1,0,1,0,0,0,0,0,0],"split_type":[0,0,0,0,0,0,0,0,0,0,0,0,0],"sum_hessian":[1.02E2,6E1,4.2E1,2.8E1,3.2E1,2.3E1,1.9E1,1.7E1,1.1E1,1.2E1,2E1,1.2E1,7E0],"tree_param":{"num_deleted":"0","num_feature":"10","num_nodes":"13","size_leaf_vector":"1"}},{"base_weights":[-4.53228E1,8.2244135E2,-1.3183102E3,-3.1459357E2,1.3264481E3,-1.6127342E2,-9.104313E2,9.757281E0,-8.189505E1,1.8510387E2,8.113702E1,-6.2654186E1,-1.3289201E2],"categories":[],"categories_nodes":[],"categories_segments":[],"categories_sizes":[],"default_left":[0,0,0,0,0,0,0,0,0,0,0,0,0],"id":7,"left_children":[1,3,5,7,9,-1,11,-1,-1,-1,-1,-1,-1],"loss_changes":[1.2811931E8,3.9959356E7,4.175912E6,4.653245E6,1.146796E7,0E0,1.781076E6,0E0,0E0,0E0,0E0,0E0,0E0],"parents":[2147483647,0,0,1,1,2,2,3,3,4,4,6,6],"right_children":[2,4,6,8,10,-1,12,-1,-1,-1,-1,-1,-1],"split_conditions":[7.1831E3,4.1344523E11,7.8178E3,5E-1,2.1591E3,-1.6127342E2,4.2624633E12,9.757281E0,-8.189505E1,1.8510387E2,8.113702E1,-6.2654186E1,-1.3289201E2],"split_indices":[0,1,0,8,0,0,1,0,0,0,0,0,0],"split_type":[0,0,0,0,0,0,0,0,0,0,0,0,0],"sum_hessian":[1.14E2,6.8E1,4.6E1,2.1E1,4.7E1,2.5E1,2.1E1,1.2E1,9E0,2.2E1,2.5E1,1.4E1,7E0],"tree_param":{"num_deleted":"0","num_feature":"10","num_nodes":"13","size_leaf_vector":"1"}},{"base_weights":[4.1046453E0,8.174663E2,-1.2069917E3,-1.5016428E2,1.2324191E3,-1.4503174E2,-8.303188E2,6.1442904E0,-6.8942276E1,1.6373305E2,8.106037E1,-9.535763E1,-9.889472E0],"categories":[],"categories_nodes":[],"categories_segments":[],"categories_sizes":[],"default_left":[0,0,0,0,0,0,0,0,0,0,0,0,0],"id":8,"left_children":[1,3,5,7,9,-1,11,-1,-1,-1,-1,-1,-1],"loss_changes":[1.1032826E8,2.7086964E7,2.920216E6,2.4386905E6,6.70028E6,0E0,1.708766E6,0E0,0E0,0E0,0E0,0E0,0E0],"parents":[2147483647,0,0,1,1,2,2,3,3,4,4,6,6],"right_children":[2,4,6,8,10,-1,12,-1,-1,-1,-1,-1,-1],"split_conditions":[7.1831E3,4.1344523E11,7.8178E3,2.396E2,2.1591E3,-1.4503174E2,1E0,6.1442904E0,-6.8942276E1,1.6373305E2,8.106037E1,-9.535763E1,-9.889472E0],"split_indices":[0,1,0,7,0,0,9,0,0,0,0,0,0],"split_type":[0,0,0,0,0,0,0,0,0,0,0,0,0],"sum_hessian":[1.1E2,6.6E1,4.4E1,2E1,4.6E1,2.5E1,1.9E1,1.5E1,5E0,2.2E1,2.4E1,1.6E1,3E0],"tree_param":{"num_deleted":"0","num_feature":"10","num_nodes":"13","size_leaf_vector":"1"}},{"base_weights":[2.8555417E0,6.930851E2,-1.0796147E3,-2.6837326E1,1.2810964E3,-1.3205562E2,-6.930838E2,4.26423E1,-7.220965E1,7.70965E1,1.5155263E2,-8.001676E1,-9.147766E0],"categories":[],"categories_nodes":[],"categories_segments":[],"categories_sizes":[],"default_left":[0,0,0,0,0,0,0,0,0,0,0,0,0],"id":9,"left_children":[1,3,5,7,9,-1,11,-1,-1,-1,-1,-1,-1],"loss_changes":[8.44294E7,2.9243642E7,3.182524E6,1.0392188E7,3.376E6,0E0,1.150826E6,0E0,0E0,0E0,0E0,0E0,0E0],"parents":[2147483647,0,0,1,1,2,2,3,3,4,4,6,6],"right_children":[2,4,6,8,10,-1,12,-1,-1,-1,-1,-1,-1],"split_conditions":[9.968066E7,5.917648E6,5.0543952E11,5E-1,5.0901785E11,-1.3205562E2,1E0,4.26423E1,-7.220965E1,7.70965E1,1.5155263E2,-8.001676E1,-9.147766E0],"split_indices":[3,3,1,8,1,0,9,0,0,0,0,0,0],"split_type":[0,0,0,0,0,0,0,0,0,0,0,0,0],"sum_hessian":[1.11E2,6.8E1,4.3E1,3.1E1,3.7E1,2.5E1,1.8E1,1.9E1,1.2E1,1.3E1,2.4E1,1.5E1,3E0],"tree_param":{"num_deleted":"0","num_feature":"10","num_nodes":"13","size_leaf_vector":"1"}},{"base_weights":[6.7007835E1,6.8454004E2,-9.5882623E2,-1.4949362E2,1.0109917E3,-1.1785644E2,-6.42363E2,4.470716E0,-6.1008003E1,1.3700357E2,6.1150814E1,-4.2816128E1,-1.0351066E2],"categories":[],"categories_nodes":[],"categories_segments":[],"categories_sizes":[],"default_left":[0,0,0,0,0,0,0,0,0,0,0,0,0],"id":10,"left_children":[1,3,5,7,9,-1,11,-1,-1,-1,-1,-1,-1],"loss_changes":[6.90728E7,1.8665612E7,2.094028E6,1.8161999E6,6.190388E6,0E0,1.155208E6,0E0,0E0,0E0,0E0,0E0,0E0],"parents":[2147483647,0,0,1,1,2,2,3,3,4,4,6,6],"right_children":[2,4,6,8,10,-1,12,-1,-1,-1,-1,-1,-1],"split_conditions":[7.1831E3,4.1344523E11,7.8178E3,2.396E2,2.1591E3,-1.1785644E2,4.2624633E12,4.470716E0,-6.1008003E1,1.3700357E2,6.1150814E1,-4.2816128E1,-1.0351066E2],"split_indices":[0,1,0,7,0,0,1,0,0,0,0,0,0],"split_type":[0,0,0,0,0,0,0,0,0,0,0,0,0],"sum_hessian":[1.07E2,6.7E1,4E1,1.9E1,4.8E1,2.2E1,1.8E1,1.4E1,5E0,2.4E1,2.4E1,1.3E1,5E0],"tree_param":{"num_deleted":"0","num_feature":"10","num_nodes":"13","size_leaf_vector":"1"}},{"base_weights":[5.3205147E1,5.7580725E2,-8.99563E2,-2.9093607E2,9.456582E2,-1.06913635E2,-6.172246E2,5.921563E0,-8.032903E1,1.25114685E2,6.390884E1,-3.781212E1,-9.047837E1],"categories":[],"categories_nodes":[],"categories_segments":[],"categories_sizes":[],"default_left":[0,0,0,0,0,0,0,0,0,0,0,0,0],"id":11,"left_children":[1,3,5,7,9,-1,11,-1,-1,-1,-1,-1,-1],"loss_changes":[5.4791108E7,2.30353E7,1.207308E6,3.994405E6,3.883088E6,0E0,8.267405E5,0E0,0E0,0E0,0E0,0E0,0E0],"parents":[2147483647,0,0,1,1,2,2,3,3,4,4,6,6],"right_children":[2,4,6,8,10,-1,12,-1,-1,-1,-1,-1,-1],"split_conditions":[9.968066E7,4.1344523E11,5.0543952E11,5E-1,1.3549E2,-1.06913635E2,1.2246469E-16,5.921563E0,-8.032903E1,1.25114685E2,6.390884E1,-3.781212E1,-9.047837E1],"split_indices":[3,1,1,8,7,0,8,0,0,0,0,0,0],"split_type":[0,0,0,0,0,0,0,0,0,0,0,0,0],"sum_hessian":[1.08E2,7E1,3.8E1,2.1E1,4.9E1,2.2E1,1.6E1,1.3E1,8E0,2.3E1,2.6E1,1E1,6E0],"tree_param":{"num_deleted":"0","num_feature":"10","num_nodes":"13","size_leaf_vector":"1"}},{"base_weights":[4.482781E1,5.7715765E2,-8.261704E2,6.487596E1,9.4328613E2,-6.015273E2,-9.928383E1,4.8247883E1,-3.5705196E1,1.12085045E2,5.8445995E1,-8.351333E1,-3.3447384E1],"categories":[],"categories_nodes":[],"categories_segments":[],"categories_sizes":[],"default_left":[0,0,0,0,0,0,0,0,0,0,0,0,0],"id":12,"left_children":[1,3,5,7,9,11,-1,-1,-1,-1,-1,-1,-1],"loss_changes":[5.0088276E7,1.2505382E7,9.37854E5,5.282021E6,1.829784E6,9.683755E5,0E0,0E0,0E0,0E0,0E0,0E0,0E0],"parents":[2147483647,0,0,1,1,2,2,3,3,4,4,5,5],"right_children":[2,4,6,8,10,12,-1,-1,-1,-1,-1,-1,-1],"split_conditions":[7.1831E3,5.917648E6,1.2246469E-16,-2.4492937E-16,2.1591E3,7.8178E3,-9.928383E1,4.8247883E1,-3.5705196E1,1.12085045E2,5.8445995E1,-8.351333E1,-3.3447384E1],"split_indices":[0,3,8,8,0,0,0,0,0,0,0,0,0],"split_type":[0,0,0,0,0,0,0,0,0,0,0,0,0],"sum_hessian":[1.06E2,6.6E1,4E1,2.8E1,3.8E1,1.9E1,2.1E1,1.4E1,1.4E1,2.4E1,1.4E1,9E0,1E1],"tree_param":{"num_deleted":"0","num_feature":"10","num_nodes":"13","size_leaf_vector":"1"}},{"base_weights":[5.9116344E0,4.5432748E2,-7.095592E2,-5.36131E2,6.584556E2,-8.840938E1,-4.277301E2,1.1286705E1,-1.2039402E2,1.0152953E2,3.5909786E1,-5.5121864E1,-8.888327E0],"categories":[],"categories_nodes":[],"categories_segments":[],"categories_sizes":[],"default_left":[0,0,0,0,0,0,0,0,0,0,0,0,0],"id":13,"left_children":[1,3,5,7,9,-1,11,-1,-1,-1,-1,-1,-1],"loss_changes":[3.4971844E7,1.3899105E7,1.687782E6,5.336768E6,5.617484E6,0E0,7.041925E5,0E0,0E0,0E0,0E0,0E0,0E0],"parents":[2147483647,0,0,1,1,2,2,3,3,4,4,6,6],"right_children":[2,4,6,8,10,-1,12,-1,-1,-1,-1,-1,-1],"split_conditions":[7.1831E3,2.5519497E11,7.8178E3,5E-1,2.3296E2,-8.840938E1,8.660254E-1,1.1286705E1,-1.2039402E2,1.0152953E2,3.5909786E1,-5.5121864E1,-8.888327E0],"split_indices":[0,1,0,8,7,0,9,0,0,0,0,0,0],"split_type":[0,0,0,0,0,0,0,0,0,0,0,0,0],"sum_hessian":[1.07E2,6.6E1,4.1E1,1.1E1,5.5E1,2.4E1,1.7E1,6E0,5E0,2.4E1,3.1E1,1.2E1,5E0],"tree_param":{"num_deleted":"0","num_feature":"10","num_nodes":"13","size_leaf_vector":"1"}},{"base_weights":[5.2293096E0,4.3509045E2,-6.6899E2,5.2043056E1,7.6496814E2,-7.192078E2,-1.3344914E2,-2.082921E1,5.9164898E1,8.9818275E1,5.0970787E1,-7.653942E1,-2.4282423E1,-3.488349E1,7.606018E-1],"categories":[],"categories_nodes":[],"categories_segments":[],"categories_sizes":[],"default_left":[0,0,0,0,0,0,0,0,0,0,0,0,0,0,0],"id":14,"left_children":[1,3,5,7,9,11,13,-1,-1,-1,-1,-1,-1,-1,-1],"loss_changes":[3.2750988E7,8.678944E6,1.087346E6,4.759023E6,8.00354E5,6.94242E5,1.5455961E5,0E0,0E0,0E0,0E0,0E0,0E0,0E0,0E0],"parents":[2147483647,0,0,1,1,2,2,3,3,4,4,5,5,6,6],"right_children":[2,4,6,8,10,12,14,-1,-1,-1,-1,-1,-1,-1,-1],"split_conditions":[7.1831E3,5.917648E6,1E0,4.2369E2,1.3549E2,5.3607E2,7.8178E3,-2.082921E1,5.9164898E1,8.9818275E1,5.0970787E1,-7.653942E1,-2.4282423E1,-3.488349E1,7.606018E-1],"split_indices":[0,3,9,7,7,7,0,0,0,0,0,0,0,0,0],"split_type":[0,0,0,0,0,0,0,0,0,0,0,0,0,0,0],"sum_hessian":[1.11E2,6.8E1,4.3E1,3.2E1,3.6E1,3.9E1,4E0,2.2E1,1E1,2.2E1,1.4E1,3.5E1,4E0,1E0,3E0],"tree_param":{"num_deleted":"0","num_feature":"10","num_nodes":"15","size_leaf_vector":"1"}},{"base_weights":[-3.732612E1,3.386735E2,-5.8796277E2,-4.5105634E2,5.225219E2,-7.3035995E1,-3.7344827E2,5.748915E-1,-1.1830945E2,8.517398E1,3.0381317E1,-2.0239464E1,-6.622057E1],"categories":[],"categories_nodes":[],"categories_segments":[],"categories_sizes":[],"default_left":[0,0,0,0,0,0,0,0,0,0,0,0,0],"id":15,"left_children":[1,3,5,7,9,-1,11,-1,-1,-1,-1,-1,-1],"loss_changes":[2.2973436E7,9.818265E6,1.101831E6,4.353987E6,3.629381E6,0E0,8.538335E5,0E0,0E0,0E0,0E0,0E0,0E0],"parents":[2147483647,0,0,1,1,2,2,3,3,4,4,6,6],"right_children":[2,4,6,8,10,-1,12,-1,-1,-1,-1,-1,-1],"split_conditions":[7.1831E3,2.5519497E11,7.8178E3,-1.8369701E-16,2.3296E2,-7.3035995E1,4.2624633E12,5.748915E-1,-1.1830945E2,8.517398E1,3.0381317E1,-2.0239464E1,-6.622057E1],"split_indices":[0,1,0,9,7,0,1,0,0,0,0,0,0],"split_type":[0,0,0,0,0,0,0,0,0,0,0,0,0],"sum_hessian":[1.09E2,6.5E1,4.4E1,1.2E1,5.3E1,2.5E1,1.9E1,8E0,4E0,2E1,3.3E1,1.3E1,6E0],"tree_param":{"num_deleted":"0","num_feature":"10","num_nodes":"13","size_leaf_vector":"1"}},{"base_weights":[-1.959447E1,3.5156067E2,-5.405125E2,-5.9712244E2,5.3426605E2,-5.6901917E2,1.9746908E0,-1.381285E0,-1.4686336E2,7.598145E1,2.9684391E1,-3.330798E1,-6.470279E1],"categories":[],"categories_nodes":[],"categories_segments":[],"categories_sizes":[],"default_left":[0,0,0,0,0,0,0,0,0,0,0,0,0],"id":16,"left_children":[1,3,5,7,9,11,-1,-1,-1,-1,-1,-1,-1],"loss_changes":[1.9524164E7,1.0545464E7,6.82024E5,5.0633225E6,2.451963E6,5.20701E5,0E0,0E0,0E0,0E0,0E0,0E0,0E0],"parents":[2147483647,0,0,1,1,2,2,3,3,4,4,5,5],"right_children":[2,4,6,8,10,12,-1,-1,-1,-1,-1,-1,-1],"split_conditions":[7.1831E3,2.5519497E11,1E0,-1.8369701E-16,2.3296E2,-5E-1,1.9746908E0,-1.381285E0,-1.4686336E2,7.598145E1,2.9684391E1,-3.330798E1,-6.470279E1],"split_indices":[0,1,9,9,7,8,0,0,0,0,0,0,0],"split_type":[0,0,0,0,0,0,0,0,0,0,0,0,0],"sum_hessian":[9.9E1,5.8E1,4.1E1,9E0,4.9E1,3.9E1,2E0,6E0,3E0,2.4E1,2.5E1,1.1E1,2.8E1],"tree_param":{"num_deleted":"0","num_feature":"10","num_nodes":"13","size_leaf_vector":"1"}},{"base_weights":[-2.4495895E1,2.9398697E2,-4.9813712E2,-1.767954E2,4.9808148E2,-3.5626865E2,-6.433074E2,-8.806944E1,-5.634843E0,6.356056E1,1.9190311E1,-5.274541E1,-1.8409048E1,-6.95913E1,-9.570264E0],"categories":[],"categories_nodes":[],"categories_segments":[],"categories_sizes":[],"default_left":[0,0,0,0,0,0,0,0,0,0,0,0,0,0,0],"id":17,"left_children":[1,3,5,7,9,11,13,-1,-1,-1,-1,-1,-1,-1,-1],"loss_changes":[1.6890418E7,6.525693E6,6.97588E5,1.7308069E6,1.857051E6,6.3976075E5,5.38349E5,0E0,0E0,0E0,0E0,0E0,0E0,0E0,0E0],"parents":[2147483647,0,0,1,1,2,2,3,3,4,4,5,5,6,6],"right_children":[2,4,6,8,10,12,14,-1,-1,-1,-1,-1,-1,-1,-1],"split_conditions":[7.1831E3,4.1344523E11,5E-1,2.3109E2,5E-1,7.8178E3,5.3607E2,-8.806944E1,-5.634843E0,6.356056E1,1.9190311E1,-5.274541E1,-1.8409048E1,-6.95913E1,-9.570264E0],"split_indices":[0,1,8,7,8,0,7,0,0,0,0,0,0,0,0],"split_type":[0,0,0,0,0,0,0,0,0,0,0,0,0,0,0],"sum_hessian":[1.1E2,6.6E1,4.4E1,2E1,4.6E1,2.4E1,2E1,2E0,1.8E1,3.1E1,1.5E1,1.1E1,1.3E1,1.8E1,2E0],"tree_param":{"num_deleted":"0","num_feature":"10","num_nodes":"15","size_leaf_vector":"1"}},{"base_weights":[-2.2431028E1,2.680236E2,-4.4147815E2,-1.7563654E2,4.8376224E2,-5.4193752E1,-2.7548438E2,-8.219815E1,-6.9902954E0,6.226784E1,2.6820524E1,-1.0842594E1,-6.1937336E1],"categories":[],"categories_nodes":[],"categories_segments":[],"categories_sizes":[],"default_left":[0,0,0,0,0,0,0,0,0,0,0,0,0],"id":18,"left_children":[1,3,5,7,9,-1,11,-1,-1,-1,-1,-1,-1],"loss_changes":[1.3385173E7,6.3064165E6,6.01108E5,1.446029E6,1.150546E6,0E0,1.0243854E6,0E0,0E0,0E0,0E0,0E0,0E0],"parents":[2147483647,0,0,1,1,2,2,3,3,4,4,6,6],"right_children":[2,4,6,8,10,-1,12,-1,-1,-1,-1,-1,-1],"split_conditions":[7.1831E3,4.1344523E11,7.8178E3,2.3109E2,1.2246469E-16,-5.4193752E1,4.2624633E12,-8.219815E1,-6.9902954E0,6.226784E1,2.6820524E1,-1.0842594E1,-6.1937336E1],"split_indices":[0,1,0,7,8,0,1,0,0,0,0,0,0],"split_type":[0,0,0,0,0,0,0,0,0,0,0,0,0],"sum_hessian":[1.08E2,6.4E1,4.4E1,2.1E1,4.3E1,2.6E1,1.8E1,2E0,1.9E1,2.5E1,1.8E1,1.3E1,5E0],"tree_param":{"num_deleted":"0","num_feature":"10","num_nodes":"13","size_leaf_vector":"1"}},{"base_weights":[-1.6356627E0,2.5333293E2,-3.840514E2,-1.4147392E2,4.4072E2,-4.952975E1,-2.3862479E2,-7.671827E1,-4.054391E0,3.8836967E1,1.0441683E2,-1.1219157E1,-4.7546383E1],"categories":[],"categories_nodes":[],"categories_segments":[],"categories_sizes":[],"default_left":[0,0,0,0,0,0,0,0,0,0,0,0,0],"id":19,"left_children":[1,3,5,7,9,-1,11,-1,-1,-1,-1,-1,-1],"loss_changes":[1.0725228E7,4.945142E6,5.936485E5,1.3582569E6,1.01606E6,0E0,5.7548775E5,0E0,0E0,0E0,0E0,0E0,0E0],"parents":[2147483647,0,0,1,1,2,2,3,3,4,4,6,6],"right_children":[2,4,6,8,10,-1,12,-1,-1,-1,-1,-1,-1],"split_conditions":[7.1831E3,4.1344523E11,7.8178E3,2.3109E2,1E0,-4.952975E1,4.2624633E12,-7.671827E1,-4.054391E0,3.8836967E1,1.0441683E2,-1.1219157E1,-4.7546383E1],"split_indices":[0,1,0,7,9,0,1,0,0,0,0,0,0],"split_type":[0,0,0,0,0,0,0,0,0,0,0,0,0],"sum_hessian":[1.08E2,6.5E1,4.3E1,2.1E1,4.4E1,2.3E1,2E1,2E0,1.9E1,4.2E1,2E0,1.4E1,6E0],"tree_param":{"num_deleted":"0","num_feature":"10","num_nodes":"13","size_leaf_vector":"1"}},{"base_weights":[3.4392826E1,2.7056387E2,-3.289021E2,-2.2905498E2,3.638718E2,-4.3895565E1,-1.667842E2,1.9685316E1,-7.795154E1,5.5507973E1,2.1378508E1,-2.4588985E1,4.559302E0],"categories":[],"categories_nodes":[],"categories_segments":[],"categories_sizes":[],"default_left":[0,0,0,0,0,0,0,0,0,0,0,0,0],"id":20,"left_children":[1,3,5,7,9,-1,11,-1,-1,-1,-1,-1,-1],"loss_changes":[9.355361E6,3.160161E6,6.9398E5,2.7323515E6,1.4884075E6,0E0,3.304153E5,0E0,0E0,0E0,0E0,0E0,0E0],"parents":[2147483647,0,0,1,1,2,2,3,3,4,4,6,6],"right_children":[2,4,6,8,10,-1,12,-1,-1,-1,-1,-1,-1],"split_conditions":[7.1831E3,2.5519497E11,7.8178E3,5E-1,2.3296E2,-4.3895565E1,8.660254E-1,1.9685316E1,-7.795154E1,5.5507973E1,2.1378508E1,-2.4588985E1,4.559302E0],"split_indices":[0,1,0,8,7,0,9,0,0,0,0,0,0],"split_type":[0,0,0,0,0,0,0,0,0,0,0,0,0],"sum_hessian":[1.07E2,6.5E1,4.2E1,1E1,5.5E1,2.4E1,1.8E1,6E0,4E0,2.3E1,3.2E1,1.3E1,5E0],"tree_param":{"num_deleted":"0","num_feature":"10","num_nodes":"13","size_leaf_vector":"1"}},{"base_weights":[-1.7855007E1,4.9811618E2,-1.4806909E2,1.627181E0,5.4323126E2,2.1348347E1,-4.0749432E2,7.3572464E1,3.0135324E1,2.0265997E1,-2.1158447E1,-1.5628806E1,-1.0450018E2],"categories":[],"categories_nodes":[],"categories_segments":[],"categories_sizes":[],"default_left":[0,0,0,0,0,0,0,0,0,0,0,0,0],"id":21,"left_children":[1,3,5,-1,7,9,11,-1,-1,-1,-1,-1,-1],"loss_changes":[7.6658545E6,4.911455E5,4.0082545E6,0E0,7.56045E5,2.4079518E6,5.60193E6,0E0,0E0,0E0,0E0,0E0,0E0],"parents":[2147483647,0,0,1,1,2,2,4,4,5,5,6,6],"right_children":[2,4,6,-1,8,10,12,-1,-1,-1,-1,-1,-1],"split_conditions":[2.1591E3,-8.660254E-1,5E-1,1.627181E0,1.2246469E-16,7.1831E3,5E-1,7.3572464E1,3.0135324E1,2.0265997E1,-2.1158447E1,-1.5628806E1,-1.0450018E2],"split_indices":[0,8,8,0,8,0,9,0,0,0,0,0,0],"split_type":[0,0,0,0,0,0,0,0,0,0,0,0,0],"sum_hessian":[1.12E2,2.2E1,9E1,2E0,2E1,5.5E1,3.5E1,1E1,1E1,3.1E1,2.4E1,2.6E1,9E0],"tree_param":{"num_deleted":"0","num_feature":"10","num_nodes":"13","size_leaf_vector":"1"}},{"base_weights":[2.2848701E0,1.9273927E2,-2.875867E2,-1.2096311E2,3.296518E2,-1.6359525E2,-3.9442908E2,-6.2402645E1,-3.9455457E0,2.5171051E1,5.4899483E1,-3.0987238E1,-3.6851808E-1,-4.2376774E1,-4.7802734E0],"categories":[],"categories_nodes":[],"categories_segments":[],"categories_sizes":[],"default_left":[0,0,0,0,0,0,0,0,0,0,0,0,0,0,0],"id":22,"left_children":[1,3,5,7,9,11,13,-1,-1,-1,-1,-1,-1,-1,-1],"loss_changes":[6.4042705E6,3.0463602E6,5.4486E5,8.77456E5,6.995105E5,5.368554E5,2.23812E5,0E0,0E0,0E0,0E0,0E0,0E0,0E0,0E0],"parents":[2147483647,0,0,1,1,2,2,3,3,4,4,5,5,6,6],"right_children":[2,4,6,8,10,12,14,-1,-1,-1,-1,-1,-1,-1,-1],"split_conditions":[7.1831E3,4.1344523E11,1.2246469E-16,2.3109E2,1.7344513E12,7.8178E3,5.3607E2,-6.2402645E1,-3.9455457E0,2.5171051E1,5.4899483E1,-3.0987238E1,-3.6851808E-1,-4.2376774E1,-4.7802734E0],"split_indices":[0,1,8,7,1,0,7,0,0,0,0,0,0,0,0],"split_type":[0,0,0,0,0,0,0,0,0,0,0,0,0,0,0],"sum_hessian":[1.14E2,6.9E1,4.5E1,2.1E1,4.8E1,2.2E1,2.3E1,2E0,1.9E1,3.7E1,1.1E1,1.1E1,1.1E1,2.1E1,2E0],"tree_param":{"num_deleted":"0","num_feature":"10","num_nodes":"15","size_leaf_vector":"1"}},{"base_weights":[-2.9380873E1,4.6379254E2,-1.5087807E2,1.4162682E2,5.8321704E2,-1.2158143E1,-3.3051044E2,3.9453857E0,3.7733227E1,7.917573E1,1.3844719E1,1.1850486E1,-1.7790388E1,-1.05259285E1,-9.281626E1],"categories":[],"categories_nodes":[],"categories_segments":[],"categories_sizes":[],"default_left":[0,0,0,0,0,0,0,0,0,0,0,0,0,0,0],"id":23,"left_children":[1,3,5,7,9,11,13,-1,-1,-1,-1,-1,-1,-1,-1],"loss_changes":[6.3614905E6,7.253655E5,2.1140615E6,1.5369186E5,1.281669E6,1.0822672E6,4.88331E6,0E0,0E0,0E0,0E0,0E0,0E0,0E0,0E0],"parents":[2147483647,0,0,1,1,2,2,3,3,4,4,5,5,6,6],"right_children":[2,4,6,8,10,12,14,-1,-1,-1,-1,-1,-1,-1,-1],"split_conditions":[1.3272E2,1.2134E2,5E-1,6.123234E-17,8.660254E-1,7.1831E3,5E-1,3.9453857E0,3.7733227E1,7.917573E1,1.3844719E1,1.1850486E1,-1.7790388E1,-1.05259285E1,-9.281626E1],"split_indices":[7,7,8,9,8,0,9,0,0,0,0,0,0,0,0],"split_type":[0,0,0,0,0,0,0,0,0,0,0,0,0,0,0],"sum_hessian":[1.04E2,2E1,8.4E1,6E0,1.4E1,4.8E1,3.6E1,5E0,1E0,9E0,5E0,2.7E1,2.1E1,2.7E1,9E0],"tree_param":{"num_deleted":"0","num_feature":"10","num_nodes":"15","size_leaf_vector":"1"}},{"base_weights":[4.262964E0,1.6877731E2,-2.5539885E2,-9.883421E1,2.9094644E2,-1.502985E2,-3.5844473E2,-5.4797737E1,-2.9964519E0,2.5168695E1,8.090296E1,-2.6515951E1,-3.2711523E0,-2.7917173E1,-6.453803E1],"categories":[],"categories_nodes":[],"categories_segments":[],"categories_sizes":[],"default_left":[0,0,0,0,0,0,0,0,0,0,0,0,0,0,0],"id":24,"left_children":[1,3,5,7,9,11,13,-1,-1,-1,-1,-1,-1,-1,-1],"loss_changes":[4.955686E6,2.35002E6,4.3348325E5,6.950242E5,7.93022E5,3.1547406E5,3.202455E5,0E0,0E0,0E0,0E0,0E0,0E0,0E0,0E0],"parents":[2147483647,0,0,1,1,2,2,3,3,4,4,5,5,6,6],"right_children":[2,4,6,8,10,12,14,-1,-1,-1,-1,-1,-1,-1,-1],"split_conditions":[7.1831E3,4.1344523E11,1.2246469E-16,2.3109E2,1E0,7.8178E3,4.2624633E12,-5.4797737E1,-2.9964519E0,2.5168695E1,8.090296E1,-2.6515951E1,-3.2711523E0,-2.7917173E1,-6.453803E1],"split_indices":[0,1,8,7,9,0,1,0,0,0,0,0,0,0,0],"split_type":[0,0,0,0,0,0,0,0,0,0,0,0,0,0,0],"sum_hessian":[1.14E2,7E1,4.4E1,2.2E1,4.8E1,2.3E1,2.1E1,2E0,2E1,4.6E1,2E0,1.1E1,1.2E1,1.8E1,3E0],"tree_param":{"num_deleted":"0","num_feature":"10","num_nodes":"15","size_leaf_vector":"1"}},{"base_weights":[1.0395555E1,1.6471506E2,-2.360283E2,4.0003174E2,6.3234875E1,-2.7818045E2,-5.056154E1,1.0347483E1,5.8911346E1,-1.0831637E1,2.392993E1,-1.1180585E1,-3.250724E1,-2.0752678E1,1.1651602E1],"categories":[],"categories_nodes":[],"categories_segments":[],"categories_sizes":[],"default_left":[0,0,0,0,0,0,0,0,0,0,0,0,0,0,0],"id":25,"left_children":[1,3,5,7,9,11,13,-1,-1,-1,-1,-1,-1,-1,-1],"loss_changes":[4.1459022E6,1.5746628E6,3.1428325E5,1.0605112E6,1.4757154E6,2.2891025E5,2.6020853E5,0E0,0E0,0E0,0E0,0E0,0E0,0E0,0E0],"parents":[2147483647,0,0,1,1,2,2,3,3,4,4,5,5,6,6],"right_children":[2,4,6,8,10,12,14,-1,-1,-1,-1,-1,-1,-1,-1],"split_conditions":[7.1831E3,1.3272E2,8.660254E-1,1.2134E2,4.2369E2,-5E-1,7.8178E3,1.0347483E1,5.8911346E1,-1.0831637E1,2.392993E1,-1.1180585E1,-3.250724E1,-2.0752678E1,1.1651602E1],"split_indices":[0,7,9,7,7,8,0,0,0,0,0,0,0,0,0],"split_type":[0,0,0,0,0,0,0,0,0,0,0,0,0,0,0],"sum_hessian":[1.07E2,6.6E1,4.1E1,1.9E1,4.7E1,3.3E1,8E0,8E0,1.1E1,2.4E1,2.3E1,8E0,2.5E1,4E0,4E0],"tree_param":{"num_deleted":"0","num_feature":"10","num_nodes":"15","size_leaf_vector":"1"}},{"base_weights":[-6.4067345E0,3.7639703E2,-9.140305E1,5.1680255E2,1.4736784E2,2.895678E1,-2.6459302E2,1.8128637E1,7.305589E1,-3.027995E-1,1.9077065E1,1.4093488E1,-1.2809783E1,-6.1361113E0,-8.07183E1],"categories":[],"categories_nodes":[],"categories_segments":[],"categories_sizes":[],"default_left":[0,0,0,0,0,0,0,0,0,0,0,0,0,0,0],"id":26,"left_children":[1,3,5,7,9,11,13,-1,-1,-1,-1,-1,-1,-1,-1],"loss_changes":[3.5809275E6,5.66979E5,1.8837218E6,7.2818425E5,5.9326062E4,9.677339E5,4.0305192E6,0E0,0E0,0E0,0E0,0E0,0E0,0E0,0E0],"parents":[2147483647,0,0,1,1,2,2,3,3,4,4,5,5,6,6],"right_children":[2,4,6,8,10,12,14,-1,-1,-1,-1,-1,-1,-1,-1],"split_conditions":[1.3549E2,1.2246469E-16,5E-1,-5E-1,1.2134E2,7.1831E3,5E-1,1.8128637E1,7.305589E1,-3.027995E-1,1.9077065E1,1.4093488E1,-1.2809783E1,-6.1361113E0,-8.07183E1],"split_indices":[7,8,8,8,7,0,9,0,0,0,0,0,0,0,0],"split_type":[0,0,0,0,0,0,0,0,0,0,0,0,0,0,0],"sum_hessian":[1.08E2,1.9E1,8.9E1,1.1E1,8E0,5.3E1,3.6E1,5E0,6E0,2E0,6E0,3.1E1,2.2E1,2.7E1,9E0],"tree_param":{"num_deleted":"0","num_feature":"10","num_nodes":"15","size_leaf_vector":"1"}},{"base_weights":[-2.7852009E1,2.7005667E2,-1.072014E2,2.00474E2,6.6711655E1,7.383519E-1,-2.5713824E2,2.477674E1,4.0945964E0,1.1389221E1,-1.3130526E1,-7.0800414E0,-7.345366E1],"categories":[],"categories_nodes":[],"categories_segments":[],"categories_sizes":[],"default_left":[0,0,0,0,0,0,0,0,0,0,0,0,0],"id":27,"left_children":[1,3,5,7,-1,9,11,-1,-1,-1,-1,-1,-1],"loss_changes":[2.5819488E6,5.0171575E5,1.3920265E6,1.48292E5,0E0,7.7695806E5,3.1504592E6,0E0,0E0,0E0,0E0,0E0,0E0],"parents":[2147483647,0,0,1,1,2,2,3,3,5,5,6,6],"right_children":[2,4,6,8,-1,10,12,-1,-1,-1,-1,-1,-1],"split_conditions":[2.1591E3,1E0,5E-1,8.660254E-1,6.6711655E1,7.1831E3,5E-1,2.477674E1,4.0945964E0,1.1389221E1,-1.3130526E1,-7.0800414E0,-7.345366E1],"split_indices":[0,9,8,8,0,0,9,0,0,0,0,0,0],"split_type":[0,0,0,0,0,0,0,0,0,0,0,0,0],"sum_hessian":[1.07E2,2.2E1,8.5E1,2E1,2E0,5E1,3.5E1,1.5E1,5E0,2.7E1,2.3E1,2.6E1,9E0],"tree_param":{"num_deleted":"0","num_feature":"10","num_nodes":"13","size_leaf_vector":"1"}},{"base_weights":[1.5858476E1,-1.7778537E2,1.4874083E2,-5.246483E0,-2.6684872E2,2.2793246E2,-1.5036734E2,-4.4842834E1,9.009582E0,2.9215078E1,-3.1907648E1,1.991149E1,6.226423E1,-2.895955E0,-4.4664692E1],"categories":[],"categories_nodes":[],"categories_segments":[],"categories_sizes":[],"default_left":[0,0,0,0,0,0,0,0,0,0,0,0,0,0,0],"id":28,"left_children":[1,3,5,7,9,11,13,-1,-1,-1,-1,-1,-1,-1,-1],"loss_changes":[2.779752E6,6.74743E5,1.550233E6,7.1646506E5,9.39882E5,4.561265E5,4.9065434E5,0E0,0E0,0E0,0E0,0E0,0E0,0E0,0E0],"parents":[2147483647,0,0,1,1,2,2,3,3,4,4,5,5,6,6],"right_children":[2,4,6,8,10,12,14,-1,-1,-1,-1,-1,-1,-1,-1],"split_conditions":[5.0543952E11,2.396E2,5.2381E2,2.3109E2,1.4750348E0,1E0,4.2624633E12,-4.4842834E1,9.009582E0,2.9215078E1,-3.1907648E1,1.991149E1,6.226423E1,-2.895955E0,-4.4664692E1],"split_indices":[1,7,7,7,2,9,1,0,0,0,0,0,0,0,0],"split_type":[0,0,0,0,0,0,0,0,0,0,0,0,0,0,0],"sum_hessian":[1.06E2,4.3E1,6.3E1,1.5E1,2.8E1,5E1,1.3E1,2E0,1.3E1,2E0,2.6E1,4.8E1,2E0,1E1,3E0],"tree_param":{"num_deleted":"0","num_feature":"10","num_nodes":"15","size_leaf_vector":"1"}},{"base_weights":[-8.627757E0,2.3387595E2,-8.100096E1,3.514185E2,8.9301216E1,-7.030288E1,-6.559332E1,9.556647E0,5.313617E1,-3.6695802E0,1.307699E1,5.510103E0,-1.6229095E1],"categories":[],"categories_nodes":[],"categories_segments":[],"categories_sizes":[],"default_left":[0,0,0,0,0,0,0,0,0,0,0,0,0],"id":29,"left_children":[1,3,5,7,9,-1,11,-1,-1,-1,-1,-1,-1],"loss_changes":[1.9846302E6,4.1045362E5,7.876921E5,5.937634E5,7.2722805E4,0E0,1.0126364E6,0E0,0E0,0E0,0E0,0E0,0E0],"parents":[2147483647,0,0,1,1,2,2,3,3,4,4,6,6],"right_children":[2,4,6,8,10,-1,12,-1,-1,-1,-1,-1,-1],"split_conditions":[2.3069E2,1.2246469E-16,2.3109E2,-5E-1,1.2134E2,-7.030288E1,7.1831E3,9.556647E0,5.313617E1,-3.6695802E0,1.307699E1,5.510103E0,-1.6229095E1],"split_indices":[7,8,7,8,7,0,0,0,0,0,0,0,0],"split_type":[0,0,0,0,0,0,0,0,0,0,0,0,0],"sum_hessian":[1.11E2,2.5E1,8.6E1,1.3E1,1.2E1,1E0,8.5E1,6E0,7E0,3E0,9E0,3.8E1,4.7E1],"tree_param":{"num_deleted":"0","num_feature":"10","num_nodes":"13","size_leaf_vector":"1"}},{"base_weights":[-2.2689571E0,2.1679866E2,-6.2947105E1,1.26585884E2,4.5130386E2,3.2903603E1,-2.0917253E2,2.742696E1,7.671742E-1,5.183978E1,5.7917237E0,-7.629417E0,1.0581489E1,-2.2343621E0,-6.3664467E1],"categories":[],"categories_nodes":[],"categories_segments":[],"categories_sizes":[],"default_left":[0,0,0,0,0,0,0,0,0,0,0,0,0,0,0],"id":30,"left_children":[1,3,5,7,9,11,13,-1,-1,-1,-1,-1,-1,-1,-1],"loss_changes":[1.4093718E6,4.2944475E5,1.1701948E6,3.140062E5,1.28338875E5,4.1412225E5,2.621292E6,0E0,0E0,0E0,0E0,0E0,0E0,0E0,0E0],"parents":[2147483647,0,0,1,1,2,2,3,3,4,4,5,5,6,6],"right_children":[2,4,6,8,10,12,14,-1,-1,-1,-1,-1,-1,-1,-1],"split_conditions":[2.3069E2,6.123234E-17,5E-1,-5E-1,8.660254E-1,5.0543952E11,5E-1,2.742696E1,7.671742E-1,5.183978E1,5.7917237E0,-7.629417E0,1.0581489E1,-2.2343621E0,-6.3664467E1],"split_indices":[7,9,8,9,8,1,9,0,0,0,0,0,0,0,0],"split_type":[0,0,0,0,0,0,0,0,0,0,0,0,0,0,0],"sum_hessian":[1.04E2,2.2E1,8.2E1,1.7E1,5E0,5E1,3.2E1,7E0,1E1,4E0,1E0,2E1,3E1,2.3E1,9E0],"tree_param":{"num_deleted":"0","num_feature":"10","num_nodes":"15","size_leaf_vector":"1"}},{"base_weights":[9.05732E0,1.0149188E2,-1.3641264E2,2.1221567E2,5.2215977E1,-2.8640888E1,-7.394918E1,1.1664274E1,4.1577873E1,-4.097838E0,1.51243925E1,-3.401299E0,-2.0601429E1],"categories":[],"categories_nodes":[],"categories_segments":[],"categories_sizes":[],"default_left":[0,0,0,0,0,0,0,0,0,0,0,0,0],"id":31,"left_children":[1,3,5,7,9,-1,11,-1,-1,-1,-1,-1,-1],"loss_changes":[1.4526152E6,3.4901594E5,3.7233025E5,3.406048E5,4.399535E5,0E0,1.5649234E5,0E0,0E0,0E0,0E0,0E0,0E0],"parents":[2147483647,0,0,1,1,2,2,3,3,4,4,6,6],"right_children":[2,4,6,8,10,-1,12,-1,-1,-1,-1,-1,-1],"split_conditions":[7.1831E3,1.3212E2,4.338577E11,6.123234E-17,4.2369E2,-2.8640888E1,4.2624633E12,1.1664274E1,4.1577873E1,-4.097838E0,1.51243925E1,-3.401299E0,-2.0601429E1],"split_indices":[0,7,1,9,7,0,1,0,0,0,0,0,0],"split_type":[0,0,0,0,0,0,0,0,0,0,0,0,0],"sum_hessian":[1.06E2,6.5E1,4.1E1,1.9E1,4.6E1,1.1E1,3E1,1.4E1,5E0,2.4E1,2.2E1,2.4E1,6E0],"tree_param":{"num_deleted":"0","num_feature":"10","num_nodes":"13","size_leaf_vector":"1"}},{"base_weights":[-1.9004372E1,2.1654613E2,-8.1969086E1,6.595871E1,2.9788474E2,1.8797089E1,-1.5373672E2,-4.047746E0,2.0912329E1,4.8707325E1,2.020085E1,-1.02899065E1,1.0482781E1,-6.572169E0,-2.6376932E1],"categories":[],"categories_nodes":[],"categories_segments":[],"categories_sizes":[],"default_left":[0,0,0,0,0,0,0,0,0,0,0,0,0,0,0],"id":32,"left_children":[1,3,5,7,9,11,13,-1,-1,-1,-1,-1,-1,-1,-1],"loss_changes":[1.5453811E6,2.4982044E5,5.9589344E5,1.4560578E5,1.5554862E5,3.7722294E5,4.4752175E5,0E0,0E0,0E0,0E0,0E0,0E0,0E0,0E0],"parents":[2147483647,0,0,1,1,2,2,3,3,4,4,5,5,6,6],"right_children":[2,4,6,8,10,12,14,-1,-1,-1,-1,-1,-1,-1,-1],"split_conditions":[1.3549E2,1.2529E2,3.4963868E0,6.123234E-17,1.2797E2,1.4750348E0,6.123234E-17,-4.047746E0,2.0912329E1,4.8707325E1,2.020085E1,-1.02899065E1,1.0482781E1,-6.572169E0,-2.6376932E1],"split_indices":[7,7,2,9,7,2,9,0,0,0,0,0,0,0,0],"split_type":[0,0,0,0,0,0,0,0,0,0,0,0,0,0,0],"sum_hessian":[1.02E2,2.1E1,8.1E1,8E0,1.3E1,3.4E1,4.7E1,5E0,3E0,3E0,1E1,1.4E1,2E1,2.7E1,2E1],"tree_param":{"num_deleted":"0","num_feature":"10","num_nodes":"15","size_leaf_vector":"1"}},{"base_weights":[-1.5123097E1,7.738918E1,-1.6142004E2,2.9228262E2,1.2549388E0,-3.579287E1,-5.0078574E2,-8.173893E0,3.4760143E1,-1.3051534E1,8.197688E0,2.5730103E1,-1.4892558E1,-9.559139E1,-1.0415333E1],"categories":[],"categories_nodes":[],"categories_segments":[],"categories_sizes":[],"default_left":[0,0,0,0,0,0,0,0,0,0,0,0,0,0,0],"id":33,"left_children":[1,3,5,7,9,11,13,-1,-1,-1,-1,-1,-1,-1,-1],"loss_changes":[1.4335899E6,1.0630819E6,1.730051E6,3.8014988E5,5.3190006E5,1.0662325E6,1.8861428E6,0E0,0E0,0E0,0E0,0E0,0E0,0E0,0E0],"parents":[2147483647,0,0,1,1,2,2,3,3,4,4,5,5,6,6],"right_children":[2,4,6,8,10,12,14,-1,-1,-1,-1,-1,-1,-1,-1],"split_conditions":[5E-1,2.3169E2,5E-1,-8.660254E-1,5.0543952E11,3.4963868E0,5.917648E6,-8.173893E0,3.4760143E1,-1.3051534E1,8.197688E0,2.5730103E1,-1.4892558E1,-9.559139E1,-1.0415333E1],"split_indices":[8,7,9,8,1,2,3,0,0,0,0,0,0,0,0],"split_type":[0,0,0,0,0,0,0,0,0,0,0,0,0,0,0],"sum_hessian":[1.04E2,6.4E1,4E1,1.6E1,4.8E1,3E1,1E1,2E0,1.4E1,1.8E1,3E1,8E0,2.2E1,4E0,6E0],"tree_param":{"num_deleted":"0","num_feature":"10","num_nodes":"15","size_leaf_vector":"1"}},{"base_weights":[-6.402388E0,1.4741269E2,-7.139591E1,2.3282666E2,1.4863246E1,-2.5126633E2,-2.8123224E1,-7.628971E0,2.7141127E1,-3.2794907E1,9.932773E0,4.5383124E0,-4.540752E1,1.1778257E1,-1.0735442E1],"categories":[],"categories_nodes":[],"categories_segments":[],"categories_sizes":[],"default_left":[0,0,0,0,0,0,0,0,0,0,0,0,0,0,0],"id":34,"left_children":[1,3,5,7,9,11,13,-1,-1,-1,-1,-1,-1,-1,-1],"loss_changes":[1.1101929E6,3.701515E5,6.000448E5,2.5924838E5,4.3795088E5,9.2305444E5,7.52503E5,0E0,0E0,0E0,0E0,0E0,0E0,0E0,0E0],"parents":[2147483647,0,0,1,1,2,2,3,3,4,4,5,5,6,6],"right_children":[2,4,6,8,10,12,14,-1,-1,-1,-1,-1,-1,-1,-1],"split_conditions":[2.3477E2,1.2246469E-16,4.2369E2,-8.660254E-1,2.5519497E11,-1.8369701E-16,7.1831E3,-7.628971E0,2.7141127E1,-3.2794907E1,9.932773E0,4.5383124E0,-4.540752E1,1.1778257E1,-1.0735442E1],"split_indices":[7,8,7,8,1,9,0,0,0,0,0,0,0,0,0],"split_type":[0,0,0,0,0,0,0,0,0,0,0,0,0,0,0],"sum_hessian":[1.09E2,3.2E1,7.7E1,1.9E1,1.3E1,1.4E1,6.3E1,2E0,1.7E1,2E0,1.1E1,6E0,8E0,2.2E1,4.1E1],"tree_param":{"num_deleted":"0","num_feature":"10","num_nodes":"15","size_leaf_vector":"1"}},{"base_weights":[-1.0834855E1,6.4656555E1,-1.02717674E2,2.404109E2,7.189066E0,-1.3252175E1,-3.8492075E2,3.3048177E0,3.4078747E1,-9.617396E0,8.731627E0,1.0414321E1,-1.5599919E1,-8.456374E1,-4.885775E0],"categories":[],"categories_nodes":[],"categories_segments":[],"categories_sizes":[],"default_left":[0,0,0,0,0,0,0,0,0,0,0,0,0,0,0],"id":35,"left_children":[1,3,5,7,9,11,13,-1,-1,-1,-1,-1,-1,-1,-1],"loss_changes":[7.696414E5,6.143815E5,1.2572708E6,3.0095294E5,3.9766047E5,6.6980206E5,1.8166419E6,0E0,0E0,0E0,0E0,0E0,0E0,0E0,0E0],"parents":[2147483647,0,0,1,1,2,2,3,3,4,4,5,5,6,6],"right_children":[2,4,6,8,10,12,14,-1,-1,-1,-1,-1,-1,-1,-1],"split_conditions":[1.2246469E-16,2.3169E2,5E-1,1.2099E2,5.0543952E11,4.1080003E0,5.917648E6,3.3048177E0,3.4078747E1,-9.617396E0,8.731627E0,1.0414321E1,-1.5599919E1,-8.456374E1,-4.885775E0],"split_indices":[8,7,9,7,1,2,3,0,0,0,0,0,0,0,0],"split_type":[0,0,0,0,0,0,0,0,0,0,0,0,0,0,0],"sum_hessian":[1.09E2,6E1,4.9E1,1.4E1,4.6E1,3.8E1,1.1E1,5E0,9E0,2E1,2.6E1,2.1E1,1.7E1,4E0,7E0],"tree_param":{"num_deleted":"0","num_feature":"10","num_nodes":"15","size_leaf_vector":"1"}},{"base_weights":[-3.8736298E0,6.475913E1,-1.1231908E2,1.2513556E2,-1.133969E1,-4.1877983E1,-1.7175142E2,-5.0098557E0,2.0793972E1,8.418058E0,-5.2488125E1,-1.2206645E1,2.843557E0,-1.3113565E1,-3.318924E1],"categories":[],"categories_nodes":[],"categories_segments":[],"categories_sizes":[],"default_left":[0,0,0,0,0,0,0,0,0,0,0,0,0,0,0],"id":36,"left_children":[1,3,5,7,9,11,13,-1,-1,-1,-1,-1,-1,-1,-1],"loss_changes":[8.259939E5,3.1385006E5,1.7282594E5,5.618019E5,1.5648472E6,1.2187608E5,1.0607481E5,0E0,0E0,0E0,0E0,0E0,0E0,0E0,0E0],"parents":[2147483647,0,0,1,1,2,2,3,3,4,4,5,5,6,6],"right_children":[2,4,6,8,10,12,14,-1,-1,-1,-1,-1,-1,-1,-1],"split_conditions":[7.1831E3,1.2246469E-16,1.2246469E-16,3.4963868E0,8.660254E-1,6.123234E-17,4.2624633E12,-5.0098557E0,2.0793972E1,8.418058E0,-5.2488125E1,-1.2206645E1,2.843557E0,-1.3113565E1,-3.318924E1],"split_indices":[0,8,8,2,9,9,1,0,0,0,0,0,0,0,0],"split_type":[0,0,0,0,0,0,0,0,0,0,0,0,0,0,0],"sum_hessian":[1.09E2,6.7E1,4.2E1,3.7E1,3E1,2E1,2.2E1,1.2E1,2.5E1,2.6E1,4E0,9E0,1.1E1,1.9E1,3E0],"tree_param":{"num_deleted":"0","num_feature":"10","num_nodes":"15","size_leaf_vector":"1"}},{"base_weights":[-5.9035373E0,9.797237E1,-4.4783207E1,6.499439E1,3.731094E1,-1.571109E2,-4.722131E0,1.658227E0,2.0786184E1,4.4244692E-1,-2.3819462E1,2.388475E0,-1.9365244E1],"categories":[],"categories_nodes":[],"categories_segments":[],"categories_sizes":[],"default_left":[0,0,0,0,0,0,0,0,0,0,0,0,0],"id":37,"left_children":[1,3,5,7,-1,9,11,-1,-1,-1,-1,-1,-1],"loss_changes":[4.4460153E5,2.479539E5,3.5925553E5,1.9021564E5,0E0,2.761096E5,3.2890772E5,0E0,0E0,0E0,0E0,0E0,0E0],"parents":[2147483647,0,0,1,1,2,2,3,3,5,5,6,6],"right_children":[2,4,6,8,-1,10,12,-1,-1,-1,-1,-1,-1],"split_conditions":[2.3477E2,1E0,4.338577E11,2.3109E2,3.731094E1,1.4750348E0,4.2624633E12,1.658227E0,2.0786184E1,4.4244692E-1,-2.3819462E1,2.388475E0,-1.9365244E1],"split_indices":[7,9,1,7,0,2,1,0,0,0,0,0,0],"split_type":[0,0,0,0,0,0,0,0,0,0,0,0,0],"sum_hessian":[1.08E2,2.9E1,7.9E1,2.7E1,2E0,2E1,5.9E1,2.1E1,6E0,7E0,1.3E1,5.2E1,7E0],"tree_param":{"num_deleted":"0","num_feature":"10","num_nodes":"13","size_leaf_vector":"1"}},{"base_weights":[-1.1840369E1,1.2424284E2,-6.612565E1,4.161521E1,3.0186213E1,-3.0101733E2,-2.0247448E1,1.2356449E1,-4.3802004E0,-9.145248E0,-5.302676E1,2.7668945E1,-4.8205767E0],"categories":[],"categories_nodes":[],"categories_segments":[],"categories_sizes":[],"default_left":[0,0,0,0,0,0,0,0,0,0,0,0,0],"id":38,"left_children":[1,3,5,7,-1,9,11,-1,-1,-1,-1,-1,-1],"loss_changes":[8.282077E5,4.5707822E5,8.560179E5,1.664096E5,0E0,5.760621E5,5.7786425E5,0E0,0E0,0E0,0E0,0E0,0E0],"parents":[2147483647,0,0,1,1,2,2,3,3,5,5,6,6],"right_children":[2,4,6,8,-1,10,12,-1,-1,-1,-1,-1,-1],"split_conditions":[2.3477E2,6.123234E-17,4.2369E2,-5E-1,3.0186213E1,5E-1,4.3461E2,1.2356449E1,-4.3802004E0,-9.145248E0,-5.302676E1,2.7668945E1,-4.8205767E0],"split_indices":[7,9,7,9,0,8,7,0,0,0,0,0,0],"split_type":[0,0,0,0,0,0,0,0,0,0,0,0,0],"sum_hessian":[1.1E2,3.1E1,7.9E1,2.2E1,9E0,1.2E1,6.7E1,1.1E1,1.1E1,7E0,5E0,5E0,6.2E1],"tree_param":{"num_deleted":"0","num_feature":"10","num_nodes":"13","size_leaf_vector":"1"}},{"base_weights":[-4.4547443E0,1.3503831E2,-3.524316E1,-2.1075684E1,2.3272968E2,-1.4719004E1,-1.7597532E1,7.830115E0,-8.38143E0,3.5398388E1,-3.207383E0,5.214794E-1,-1.34756365E1],"categories":[],"categories_nodes":[],"categories_segments":[],"categories_sizes":[],"default_left":[0,0,0,0,0,0,0,0,0,0,0,0,0],"id":39,"left_children":[1,3,5,7,9,11,-1,-1,-1,-1,-1,-1,-1],"loss_changes":[4.9865775E5,3.2517578E5,2.718087E5,6.267563E4,4.2876462E5,2.0169797E5,0E0,0E0,0E0,0E0,0E0,0E0,0E0],"parents":[2147483647,0,0,1,1,2,2,3,3,4,4,5,5],"right_children":[2,4,6,8,10,12,-1,-1,-1,-1,-1,-1,-1],"split_conditions":[1.3212E2,1.2134E2,8.5375E0,1.1981E2,8.660254E-1,5.2381E2,-1.7597532E1,7.830115E0,-8.38143E0,3.5398388E1,-3.207383E0,5.214794E-1,-1.34756365E1],"split_indices":[7,7,2,7,8,7,0,0,0,0,0,0,0],"split_type":[0,0,0,0,0,0,0,0,0,0,0,0,0],"sum_hessian":[1.14E2,2E1,9.4E1,8E0,1.2E1,8.3E1,1.1E1,3E0,5E0,8E0,4E0,7.2E1,1.1E1],"tree_param":{"num_deleted":"0","num_feature":"10","num_nodes":"13","size_leaf_vector":"1"}},{"base_weights":[-6.7953974E-1,-8.019133E1,4.992917E1,-2.9703647E2,-6.1923164E1,9.03567E1,-1.2184128E2,8.917005E0,-5.3472473E1,2.6109863E1,-8.579533E0,-1.2184021E0,1.0588796E1,-8.30462E-1,-3.0183899E1],"categories":[],"categories_nodes":[],"categories_segments":[],"categories_sizes":[],"default_left":[0,0,0,0,0,0,0,0,0,0,0,0,0,0,0],"id":40,"left_children":[1,3,5,7,9,11,13,-1,-1,-1,-1,-1,-1,-1,-1],"loss_changes":[4.3457072E5,1.4798381E5,4.6932997E5,3.2307166E5,3.308502E5,8.728984E4,2.6316575E5,0E0,0E0,0E0,0E0,0E0,0E0,0E0,0E0],"parents":[2147483647,0,0,1,1,2,2,3,3,4,4,5,5,6,6],"right_children":[2,4,6,8,10,12,14,-1,-1,-1,-1,-1,-1,-1,-1],"split_conditions":[5.0543952E11,2.3109E2,5.1977E2,2.3069E2,2.3169E2,1.2134E2,4.2624633E12,8.917005E0,-5.3472473E1,2.6109863E1,-8.579533E0,-1.2184021E0,1.0588796E1,-8.30462E-1,-3.0183899E1],"split_indices":[1,7,7,7,7,7,1,0,0,0,0,0,0,0,0],"split_type":[0,0,0,0,0,0,0,0,0,0,0,0,0,0,0],"sum_hessian":[1.06E2,4.1E1,6.5E1,2E0,3.9E1,5.3E1,1.2E1,1E0,1E0,2E0,3.7E1,7E0,4.6E1,8E0,4E0],"tree_param":{"num_deleted":"0","num_feature":"10","num_nodes":"15","size_leaf_vector":"1"}},{"base_weights":[-1.0043628E1,4.759622E1,-8.246896E1,1.7283957E2,4.8568454E0,-5.175626E0,-3.5603845E2,9.367351E-1,2.4629354E1,-7.451359E0,7.4882355E0,3.4625397E1,-4.3028135E0,-7.111638E1,-5.1514874E0],"categories":[],"categories_nodes":[],"categories_segments":[],"categories_sizes":[],"default_left":[0,0,0,0,0,0,0,0,0,0,0,0,0,0,0],"id":41,"left_children":[1,3,5,7,9,11,13,-1,-1,-1,-1,-1,-1,-1,-1],"loss_changes":[4.7147872E5,3.3638838E5,1.0554121E6,1.8981584E5,2.723616E5,5.469983E5,1.1529489E6,0E0,0E0,0E0,0E0,0E0,0E0,0E0,0E0],"parents":[2147483647,0,0,1,1,2,2,3,3,4,4,5,5,6,6],"right_children":[2,4,6,8,10,12,14,-1,-1,-1,-1,-1,-1,-1,-1],"split_conditions":[1.2246469E-16,2.3169E2,5E-1,1.2099E2,-1.8369701E-16,1.4750348E0,1.6956275E12,9.367351E-1,2.4629354E1,-7.451359E0,7.4882355E0,3.4625397E1,-4.3028135E0,-7.111638E1,-5.1514874E0],"split_indices":[8,7,9,7,9,2,1,0,0,0,0,0,0,0,0],"split_type":[0,0,0,0,0,0,0,0,0,0,0,0,0,0,0],"sum_hessian":[1.11E2,6.2E1,4.9E1,1.5E1,4.7E1,3.9E1,1E1,5E0,1E1,2.2E1,2.5E1,3E0,3.6E1,4E0,6E0],"tree_param":{"num_deleted":"0","num_feature":"10","num_nodes":"15","size_leaf_vector":"1"}},{"base_weights":[-9.986543E0,1.06173645E2,-3.38676E1,1.6070638E2,-3.8764973E1,1.6901245E1,-8.075781E1,-6.520229E-1,2.8694136E1,5.214844E-1,-4.8603907E0,7.418344E0,-1.1523673E1,2.7597942E0,-1.9973572E1],"categories":[],"categories_nodes":[],"categories_segments":[],"categories_sizes":[],"default_left":[0,0,0,0,0,0,0,0,0,0,0,0,0,0,0],"id":42,"left_children":[1,3,5,7,9,11,13,-1,-1,-1,-1,-1,-1,-1,-1],"loss_changes":[3.0873894E5,1.5640381E5,2.203766E5,2.9740875E5,2.849749E3,3.491606E5,6.243255E5,0E0,0E0,0E0,0E0,0E0,0E0,0E0,0E0],"parents":[2147483647,0,0,1,1,2,2,3,3,4,4,5,5,6,6],"right_children":[2,4,6,8,10,12,14,-1,-1,-1,-1,-1,-1,-1,-1],"split_conditions":[1.3212E2,8.660254E-1,3.4963868E0,1.2134E2,1.7344513E12,5.2381E2,5E-1,-6.520229E-1,2.8694136E1,5.214844E-1,-4.8603907E0,7.418344E0,-1.1523673E1,2.7597942E0,-1.9973572E1],"split_indices":[7,8,2,7,1,7,8,0,0,0,0,0,0,0,0],"split_type":[0,0,0,0,0,0,0,0,0,0,0,0,0,0,0],"sum_hessian":[1.09E2,1.8E1,9.1E1,1.3E1,5E0,4.4E1,4.7E1,6E0,7E0,1E0,4E0,3.1E1,1.3E1,2.5E1,2.2E1],"tree_param":{"num_deleted":"0","num_feature":"10","num_nodes":"15","size_leaf_vector":"1"}},{"base_weights":[-2.5714524E0,1.10592285E2,-2.6621487E1,-1.0057312E1,1.7633109E2,-1.2013585E1,-1.3575261E1,-6.43471E0,1.849856E1,2.7223108E1,-3.1555078E0,-1.5179133E1,2.6647994E-1],"categories":[],"categories_nodes":[],"categories_segments":[],"categories_sizes":[],"default_left":[0,0,0,0,0,0,0,0,0,0,0,0,0],"id":43,"left_children":[1,3,5,7,9,11,-1,-1,-1,-1,-1,-1,-1],"loss_changes":[3.1048403E5,1.6040061E5,1.4822175E5,9.661399E4,2.6776188E5,1.7274825E5,0E0,0E0,0E0,0E0,0E0,0E0,0E0],"parents":[2147483647,0,0,1,1,2,2,3,3,4,4,5,5],"right_children":[2,4,6,8,10,12,-1,-1,-1,-1,-1,-1,-1],"split_conditions":[1.3212E2,1.2134E2,8.5375E0,6.123234E-17,8.660254E-1,1.3942518E0,-1.3575261E1,-6.43471E0,1.849856E1,2.7223108E1,-3.1555078E0,-1.5179133E1,2.6647994E-1],"split_indices":[7,7,2,9,8,2,0,0,0,0,0,0,0],"split_type":[0,0,0,0,0,0,0,0,0,0,0,0,0],"sum_hessian":[1.12E2,1.9E1,9.3E1,7E0,1.2E1,8.3E1,1E1,6E0,1E0,8E0,4E0,7E0,7.6E1],"tree_param":{"num_deleted":"0","num_feature":"10","num_nodes":"13","size_leaf_vector":"1"}},{"base_weights":[1.2195201E1,1.3935492E2,-1.0296564E1,2.6167267E1,7.677628E1,4.1815515E0,-1.8463132E2,-4.7891045E0,2.0942547E1,7.3742156E0,-4.363811E0,-1.1225667E0,-2.5174845E1],"categories":[],"categories_nodes":[],"categories_segments":[],"categories_sizes":[],"default_left":[0,0,0,0,0,0,0,0,0,0,0,0,0],"id":44,"left_children":[1,3,5,-1,7,9,11,-1,-1,-1,-1,-1,-1],"loss_changes":[3.045998E5,1.0238141E5,2.3045958E5,0E0,2.0847381E5,2.8595897E5,7.864336E4,0E0,0E0,0E0,0E0,0E0,0E0],"parents":[2147483647,0,0,1,1,2,2,4,4,5,5,6,6],"right_children":[2,4,6,-1,8,10,12,-1,-1,-1,-1,-1,-1],"split_conditions":[1.2824E2,-5E-1,4.2624633E12,2.6167267E1,6.123234E-17,3.4963868E0,5.1391E2,-4.7891045E0,2.0942547E1,7.3742156E0,-4.363811E0,-1.1225667E0,-2.5174845E1],"split_indices":[7,9,1,0,9,2,7,0,0,0,0,0,0],"split_type":[0,0,0,0,0,0,0,0,0,0,0,0,0],"sum_hessian":[1.05E2,1.5E1,9E1,4E0,1.1E1,8.4E1,6E0,6E0,5E0,3.4E1,5E1,2E0,4E0],"tree_param":{"num_deleted":"0","num_feature":"10","num_nodes":"13","size_leaf_vector":"1"}},{"base_weights":[-2.4072406E0,4.2482475E1,-5.8241226E1,-2.767294E1,1.02846855E2,1.0511675E1,-3.274287E2,2.2816406E1,-5.507435E0,1.6494284E1,2.6560936E0,3.0899036E1,-2.204039E0,-5.3764324E1,1.2230388E1],"categories":[],"categories_nodes":[],"categories_segments":[],"categories_sizes":[],"default_left":[0,0,0,0,0,0,0,0,0,0,0,0,0,0,0],"id":45,"left_children":[1,3,5,7,9,11,13,-1,-1,-1,-1,-1,-1,-1,-1],"loss_changes":[2.7566875E5,2.6117427E5,9.103054E5,2.1586453E5,1.519416E5,3.9545416E5,1.0111591E6,0E0,0E0,0E0,0E0,0E0,0E0,0E0,0E0],"parents":[2147483647,0,0,1,1,2,2,3,3,4,4,5,5,6,6],"right_children":[2,4,6,8,10,12,14,-1,-1,-1,-1,-1,-1,-1,-1],"split_conditions":[1.2246469E-16,5.0901785E11,5E-1,2.3169E2,4.3461E2,1.4750348E0,4.2530456E0,2.2816406E1,-5.507435E0,1.6494284E1,2.6560936E0,3.0899036E1,-2.204039E0,-5.3764324E1,1.2230388E1],"split_indices":[8,1,9,7,7,2,2,0,0,0,0,0,0,0,0],"split_type":[0,0,0,0,0,0,0,0,0,0,0,0,0,0,0],"sum_hessian":[1.08E2,6E1,4.8E1,2.8E1,3.2E1,3.9E1,9E0,2E0,2.6E1,1.7E1,1.5E1,3E0,3.6E1,6E0,3E0],"tree_param":{"num_deleted":"0","num_feature":"10","num_nodes":"15","size_leaf_vector":"1"}},{"base_weights":[-5.6210165E0,8.851964E1,-2.3978743E1,-9.135091E0,1.6755693E2,2.3179245E1,-5.759324E1,-8.395346E0,1.0537622E1,2.5897251E1,-3.430957E0,-1.2149127E1,8.435307E0,2.2824392E0,-1.59066305E1],"categories":[],"categories_nodes":[],"categories_segments":[],"categories_sizes":[],"default_left":[0,0,0,0,0,0,0,0,0,0,0,0,0,0,0],"id":46,"left_children":[1,3,5,7,9,11,13,-1,-1,-1,-1,-1,-1,-1,-1],"loss_changes":[1.9049731E5,1.4046123E5,1.4717262E5,8.595463E4,1.9342269E5,3.5540003E5,4.4428262E5,0E0,0E0,0E0,0E0,0E0,0E0,0E0,0E0],"parents":[2147483647,0,0,1,1,2,2,3,3,4,4,5,5,6,6],"right_children":[2,4,6,8,10,12,14,-1,-1,-1,-1,-1,-1,-1,-1],"split_conditions":[1.2824E2,1.2529E2,3.4963868E0,6.123234E-17,8.660254E-1,-5E-1,5E-1,-8.395346E0,1.0537622E1,2.5897251E1,-3.430957E0,-1.2149127E1,8.435307E0,2.2824392E0,-1.59066305E1],"split_indices":[7,7,2,9,8,9,8,0,0,0,0,0,0,0,0],"split_type":[0,0,0,0,0,0,0,0,0,0,0,0,0,0,0],"sum_hessian":[1.08E2,1.7E1,9.1E1,8E0,9E0,3.8E1,5.3E1,5E0,3E0,6E0,3E0,1.1E1,2.7E1,3E1,2.3E1],"tree_param":{"num_deleted":"0","num_feature":"10","num_nodes":"15","size_leaf_vector":"1"}},{"base_weights":[1.2504046E-1,3.2834938E1,-5.0500397E1,6.11763E1,-7.477833E1,-8.970645E1,-1.0780963E1,7.8794427E0,-2.069927E0,8.813298E0,-3.856453E1,-7.9433208E0,-1.475857E1,1.8152468E0,-9.096219E0],"categories":[],"categories_nodes":[],"categories_segments":[],"categories_sizes":[],"default_left":[0,0,0,0,0,0,0,0,0,0,0,0,0,0,0],"id":47,"left_children":[1,3,5,7,9,11,13,-1,-1,-1,-1,-1,-1,-1,-1],"loss_changes":[1.7718919E5,2.028186E5,6.4437062E4,7.664066E4,7.430005E5,7.635625E2,5.2689383E4,0E0,0E0,0E0,0E0,0E0,0E0,0E0,0E0],"parents":[2147483647,0,0,1,1,2,2,3,3,4,4,5,5,6,6],"right_children":[2,4,6,8,10,12,14,-1,-1,-1,-1,-1,-1,-1,-1],"split_conditions":[7.1831E3,8.660254E-1,6.123234E-17,4.2530456E0,1.2246469E-16,4.2624633E12,4.2624633E12,7.8794427E0,-2.069927E0,8.813298E0,-3.856453E1,-7.9433208E0,-1.475857E1,1.8152468E0,-9.096219E0],"split_indices":[0,9,9,2,8,1,1,0,0,0,0,0,0,0,0],"split_type":[0,0,0,0,0,0,0,0,0,0,0,0,0,0,0],"sum_hessian":[1.05E2,6.4E1,4.1E1,5.1E1,1.3E1,2E1,2.1E1,4.2E1,9E0,9E0,4E0,1.9E1,1E0,1.6E1,5E0],"tree_param":{"num_deleted":"0","num_feature":"10","num_nodes":"15","size_leaf_vector":"1"}},{"base_weights":[-9.3455476E-1,-1.1926911E2,1.5980651E1,-2.0346527E2,1.2870616E1,4.1078312E1,-5.579525E1,-8.855591E-1,-2.3000156E1,6.9257007E0,-1.3453067E1,2.9636493E0,1.5437105E1,-8.242261E0,2.064584E0],"categories":[],"categories_nodes":[],"categories_segments":[],"categories_sizes":[],"default_left":[0,0,0,0,0,0,0,0,0,0,0,0,0,0,0],"id":48,"left_children":[1,3,5,7,9,11,13,-1,-1,-1,-1,-1,-1,-1,-1],"loss_changes":[2.080763E5,1.4725225E5,1.6622005E5,3.927697E4,5.9185754E4,8.35717E4,5.0551867E4,0E0,0E0,0E0,0E0,0E0,0E0,0E0,0E0],"parents":[2147483647,0,0,1,1,2,2,3,3,4,4,5,5,6,6],"right_children":[2,4,6,8,10,12,14,-1,-1,-1,-1,-1,-1,-1,-1],"split_conditions":[1.4750348E0,8.660254E-1,5.065024E0,-5E-1,5.1977E2,1E0,4.9295E2,-8.855591E-1,-2.3000156E1,6.9257007E0,-1.3453067E1,2.9636493E0,1.5437105E1,-8.242261E0,2.064584E0],"split_indices":[2,9,2,8,7,9,7,0,0,0,0,0,0,0,0],"split_type":[0,0,0,0,0,0,0,0,0,0,0,0,0,0,0],"sum_hessian":[1.02E2,1.2E1,9E1,7E0,5E0,6.7E1,2.3E1,1E0,6E0,4E0,1E0,6.2E1,5E0,1.7E1,6E0],"tree_param":{"num_deleted":"0","num_feature":"10","num_nodes":"15","size_leaf_vector":"1"}},{"base_weights":[-2.2793427E1,-1.0112413E2,8.021048E0,-4.3098103E1,-7.488834E1,2.1680763E1,-1.3167336E2,1.2700388E1,-1.4489967E1,-6.697685E-1,5.276018E0,-1.1217122E0,-1.7761244E1],"categories":[],"categories_nodes":[],"categories_segments":[],"categories_sizes":[],"default_left":[0,0,0,0,0,0,0,0,0,0,0,0,0],"id":49,"left_children":[1,3,5,-1,7,9,11,-1,-1,-1,-1,-1,-1],"loss_changes":[2.5666538E5,2.2734625E5,1.4978508E5,0E0,4.2831038E5,6.2974355E4,3.6743234E4,0E0,0E0,0E0,0E0,0E0,0E0],"parents":[2147483647,0,0,1,1,2,2,4,4,5,5,6,6],"right_children":[2,4,6,-1,8,10,12,-1,-1,-1,-1,-1,-1],"split_conditions":[4.338577E11,2.3109E2,4.2624633E12,-4.3098103E1,2.3477E2,-1.8369701E-16,5.1391E2,1.2700388E1,-1.4489967E1,-6.697685E-1,5.276018E0,-1.1217122E0,-1.7761244E1],"split_indices":[1,7,1,0,7,9,7,0,0,0,0,0,0],"split_type":[0,0,0,0,0,0,0,0,0,0,0,0,0],"sum_hessian":[1.05E2,2.9E1,7.6E1,1E0,2.8E1,7E1,6E0,7E0,2.1E1,3.7E1,3.3E1,2E0,4E0],"tree_param":{"num_deleted":"0","num_feature":"10","num_nodes":"13","size_leaf_vector":"1"}},{"base_weights":[-1.2302136E1,-7.731858E1,1.3045512E1,7.0212326E0,-1.5682599E2,3.0784674E1,-6.5876495E1,-4.583197E0,2.513291E1,-4.089773E1,-6.7177415E0,-2.2458375E0,5.97858E0,-1.0543864E1,6.9279056E0],"categories":[],"categories_nodes":[],"categories_segments":[],"categories_sizes":[],"default_left":[0,0,0,0,0,0,0,0,0,0,0,0,0,0,0],"id":50,"left_children":[1,3,5,7,9,11,13,-1,-1,-1,-1,-1,-1,-1,-1],"loss_changes":[1.8229019E5,2.0897592E5,1.14028805E5,2.1811816E5,3.3420603E5,1.0325384E5,8.751033E4,0E0,0E0,0E0,0E0,0E0,0E0,0E0,0E0],"parents":[2147483647,0,0,1,1,2,2,3,3,4,4,5,5,6,6],"right_children":[2,4,6,8,10,12,14,-1,-1,-1,-1,-1,-1,-1,-1],"split_conditions":[4.338577E11,2.396E2,5.2381E2,2.3946E2,2.5519497E11,4.2369E2,1E0,-4.583197E0,2.513291E1,-4.089773E1,-6.7177415E0,-2.2458375E0,5.97858E0,-1.0543864E1,6.9279056E0],"split_indices":[1,7,7,7,1,7,9,0,0,0,0,0,0,0,0],"split_type":[0,0,0,0,0,0,0,0,0,0,0,0,0,0,0],"sum_hessian":[1.09E2,3E1,7.9E1,1.5E1,1.5E1,6.5E1,1.4E1,1.3E1,2E0,3E0,1.2E1,2.3E1,4.2E1,1.1E1,3E0],"tree_param":{"num_deleted":"0","num_feature":"10","num_nodes":"15","size_leaf_vector":"1"}},{"base_weights":[-6.823274E0,9.166016E1,-1.7453829E1,-7.9777675E0,1.4449182E2,-7.034217E1,8.008141E0,1.7007227E1,-1.7285645E0,9.168828E-1,-3.3290245E1,2.3856121E1,-3.461815E-1],"categories":[],"categories_nodes":[],"categories_segments":[],"categories_sizes":[],"default_left":[0,0,0,0,0,0,0,0,0,0,0,0,0],"id":51,"left_children":[1,3,5,-1,7,9,11,-1,-1,-1,-1,-1,-1],"loss_changes":[1.073401E5,1.0210069E5,1.2445432E5,0E0,3.604653E4,6.293452E5,1.6742516E5,0E0,0E0,0E0,0E0,0E0,0E0],"parents":[2147483647,0,0,1,1,2,2,4,4,5,5,6,6],"right_children":[2,4,6,-1,8,10,12,-1,-1,-1,-1,-1,-1],"split_conditions":[1.2797E2,-8.660254E-1,4.2369E2,-7.9777675E0,8.660254E-1,2.396E2,4.2545E2,1.7007227E1,-1.7285645E0,9.168828E-1,-3.3290245E1,2.3856121E1,-3.461815E-1],"split_indices":[7,8,7,0,8,7,7,0,0,0,0,0,0],"split_type":[0,0,0,0,0,0,0,0,0,0,0,0,0],"sum_hessian":[1E2,9E0,9.1E1,2E0,7E0,2.9E1,6.2E1,6E0,1E0,2.3E1,6E0,2E0,6E1],"tree_param":{"num_deleted":"0","num_feature":"10","num_nodes":"13","size_leaf_vector":"1"}},{"base_weights":[-1.5451273E1,-7.986809E1,8.390991E0,-3.0887161E1,-2.2939569E2,2.2249434E1,-6.367875E1,7.970142E0,-8.4251E0,-5.7282307E1,2.2539887E0,-1.3781302E-1,8.201266E0,-1.0851947E1,6.4342713E0],"categories":[],"categories_nodes":[],"categories_segments":[],"categories_sizes":[],"default_left":[0,0,0,0,0,0,0,0,0,0,0,0,0,0,0],"id":52,"left_children":[1,3,5,7,9,11,13,-1,-1,-1,-1,-1,-1,-1,-1],"loss_changes":[1.6500536E5,2.0531062E5,8.031999E4,1.4244784E5,6.185624E5,9.472101E4,8.160989E4,0E0,0E0,0E0,0E0,0E0,0E0,0E0,0E0],"parents":[2147483647,0,0,1,1,2,2,3,3,4,4,5,5,6,6],"right_children":[2,4,6,8,10,12,14,-1,-1,-1,-1,-1,-1,-1,-1],"split_conditions":[4.338577E11,5E-1,5.2381E2,2.3477E2,2.5519497E11,1.7344513E12,1E0,7.970142E0,-8.4251E0,-5.7282307E1,2.2539887E0,-1.3781302E-1,8.201266E0,-1.0851947E1,6.4342713E0],"split_indices":[1,9,7,7,1,1,9,0,0,0,0,0,0,0,0],"split_type":[0,0,0,0,0,0,0,0,0,0,0,0,0,0,0],"sum_hessian":[1.06E2,2.8E1,7.8E1,2.2E1,6E0,6.6E1,1.2E1,7E0,1.5E1,2E0,4E0,4.8E1,1.8E1,9E0,3E0],"tree_param":{"num_deleted":"0","num_feature":"10","num_nodes":"15","size_leaf_vector":"1"}},{"base_weights":[-2.271665E0,1.11926985E1,-4.7238125E1,3.659583E1,-2.4124933E1,-7.019691E0,-2.5721891E1,-2.3523784E0,1.1691367E1,5.7426143E0,-2.2210257E1,-6.3494983E0,2.6518066E0],"categories":[],"categories_nodes":[],"categories_segments":[],"categories_sizes":[],"default_left":[0,0,0,0,0,0,0,0,0,0,0,0,0],"id":53,"left_children":[1,3,5,7,9,-1,11,-1,-1,-1,-1,-1,-1],"loss_changes":[6.833854E4,7.89374E4,1.1038055E4,2.4901281E5,6.101302E5,0E0,3.1282734E4,0E0,0E0,0E0,0E0,0E0,0E0],"parents":[2147483647,0,0,1,1,2,2,3,3,4,4,6,6],"right_children":[2,4,6,8,10,-1,12,-1,-1,-1,-1,-1,-1],"split_conditions":[5.065024E0,1.2246469E-16,4.338577E11,6.123234E-17,5E-1,-7.019691E0,1.2246469E-16,-2.3523784E0,1.1691367E1,5.7426143E0,-2.2210257E1,-6.3494983E0,2.6518066E0],"split_indices":[2,8,1,9,9,0,8,0,0,0,0,0,0],"split_type":[0,0,0,0,0,0,0,0,0,0,0,0,0],"sum_hessian":[1.11E2,8.6E1,2.5E1,5E1,3.6E1,1.1E1,1.4E1,2.9E1,2.1E1,2.6E1,1E1,8E0,6E0],"tree_param":{"num_deleted":"0","num_feature":"10","num_nodes":"13","size_leaf_vector":"1"}},{"base_weights":[3.8805618E0,2.2999893E1,-2.4082642E1,-2.471336E0,7.868582E1,-6.0514366E1,1.8148117E1,1.5323476E0,-2.8043295E1,1.6296618E1,3.6895301E0,-4.7501564E0,-8.90489E0,-5.650352E0,5.4339676E0],"categories":[],"categories_nodes":[],"categories_segments":[],"categories_sizes":[],"default_left":[0,0,0,0,0,0,0,0,0,0,0,0,0,0,0],"id":54,"left_children":[1,3,5,7,9,11,13,-1,-1,-1,-1,-1,-1,-1,-1],"loss_changes":[6.3106516E4,9.948169E4,7.494812E4,2.4666464E5,7.147394E4,5.424203E3,6.521084E4,0E0,0E0,0E0,0E0,0E0,0E0,0E0,0E0],"parents":[2147483647,0,0,1,1,2,2,3,3,4,4,5,5,6,6],"right_children":[2,4,6,8,10,12,14,-1,-1,-1,-1,-1,-1,-1,-1],"split_conditions":[4.6394E2,4.2369E2,6.123234E-17,6.2934E3,4.3461E2,5.1352E2,4.8776E2,1.5323476E0,-2.8043295E1,1.6296618E1,3.6895301E0,-4.7501564E0,-8.90489E0,-5.650352E0,5.4339676E0],"split_indices":[7,7,9,0,7,7,7,0,0,0,0,0,0,0,0],"split_type":[0,0,0,0,0,0,0,0,0,0,0,0,0,0,0],"sum_hessian":[1.16E2,6.9E1,4.7E1,4.8E1,2.1E1,2.5E1,2.2E1,4.6E1,2E0,6E0,1.5E1,1.9E1,6E0,7E0,1.5E1],"tree_param":{"num_deleted":"0","num_feature":"10","num_nodes":"15","size_leaf_vector":"1"}},{"base_weights":[6.3810825E0,2.7028473E1,-2.1559914E1,1.9325163E1,1.8814442E1,1.6733444E1,-6.2146053E1,-6.035951E0,3.4594052E0,1.3275245E1,-2.4709878E0,-1.982466E1,-2.501362E0],"categories":[],"categories_nodes":[],"categories_segments":[],"categories_sizes":[],"default_left":[0,0,0,0,0,0,0,0,0,0,0,0,0],"id":55,"left_children":[1,3,5,-1,7,9,11,-1,-1,-1,-1,-1,-1],"loss_changes":[6.635031E4,8.647797E4,7.719471E4,0E0,8.204547E4,1.2829382E5,1.1633099E5,0E0,0E0,0E0,0E0,0E0,0E0],"parents":[2147483647,0,0,1,1,2,2,4,4,5,5,6,6],"right_children":[2,4,6,-1,8,10,12,-1,-1,-1,-1,-1,-1],"split_conditions":[4.1080003E0,1.2797E2,5E-1,1.9325163E1,2.3109E2,4.2530456E0,4.2530456E0,-6.035951E0,3.4594052E0,1.3275245E1,-2.4709878E0,-1.982466E1,-2.501362E0],"split_indices":[2,7,8,0,7,2,2,0,0,0,0,0,0],"split_type":[0,0,0,0,0,0,0,0,0,0,0,0,0],"sum_hessian":[1.13E2,6.5E1,4.8E1,2E0,6.3E1,2.5E1,2.3E1,1E1,5.3E1,6E0,1.9E1,4E0,1.9E1],"tree_param":{"num_deleted":"0","num_feature":"10","num_nodes":"13","size_leaf_vector":"1"}},{"base_weights":[1.477714E1,4.6345013E1,-3.0348843E1,6.971176E1,1.7534187E0,-7.120579E1,-3.5000706E0,2.388142E0,1.5311943E1,5.862936E0,-8.691509E0,-4.650993E0,-8.38419E0,-3.8628354E0,3.73018E0],"categories":[],"categories_nodes":[],"categories_segments":[],"categories_sizes":[],"default_left":[0,0,0,0,0,0,0,0,0,0,0,0,0,0,0],"id":56,"left_children":[1,3,5,7,9,11,13,-1,-1,-1,-1,-1,-1,-1,-1],"loss_changes":[1.4813322E5,6.3437367E4,4.6920004E4,1.4924734E5,1.1604408E5,1.4055312E3,4.014E4,0E0,0E0,0E0,0E0,0E0,0E0,0E0,0E0],"parents":[2147483647,0,0,1,1,2,2,3,3,4,4,5,5,6,6],"right_children":[2,4,6,8,10,12,14,-1,-1,-1,-1,-1,-1,-1,-1],"split_conditions":[4.6394E2,4.1080003E0,-2.4492937E-16,5E-1,5E-1,5.0543952E11,4.9295E2,2.388142E0,1.5311943E1,5.862936E0,-8.691509E0,-4.650993E0,-8.38419E0,-3.8628354E0,3.73018E0],"split_indices":[7,2,8,8,8,1,7,0,0,0,0,0,0,0,0],"split_type":[0,0,0,0,0,0,0,0,0,0,0,0,0,0,0],"sum_hessian":[1.02E2,6E1,4.2E1,3.9E1,2.1E1,1.6E1,2.6E1,2.6E1,1.3E1,1.3E1,8E0,7E0,9E0,1.4E1,1.2E1],"tree_param":{"num_deleted":"0","num_feature":"10","num_nodes":"15","size_leaf_vector":"1"}},{"base_weights":[-8.769089E-1,6.9357514E0,-5.4944847E1,7.5753E1,-6.5765862E0,-8.412085E0,-1.3702141E1,-3.2568226E0,3.2057335E1,5.584032E0,-3.3367035E0,-6.234414E0,3.793331E0],"categories":[],"categories_nodes":[],"categories_segments":[],"categories_sizes":[],"default_left":[0,0,0,0,0,0,0,0,0,0,0,0,0],"id":57,"left_children":[1,3,5,7,9,11,-1,-1,-1,-1,-1,-1,-1],"loss_changes":[4.684667E4,9.069674E4,5.2316855E4,4.3474838E5,1.3898175E5,2.7359943E4,0E0,0E0,0E0,0E0,0E0,0E0,0E0],"parents":[2147483647,0,0,1,1,2,2,3,3,4,4,5,5],"right_children":[2,4,6,8,10,12,-1,-1,-1,-1,-1,-1,-1],"split_conditions":[5.2381E2,1.821407E0,4.2624633E12,1.2246469E-16,-5E-1,-1.8369701E-16,-1.3702141E1,-3.2568226E0,3.2057335E1,5.584032E0,-3.3367035E0,-6.234414E0,3.793331E0],"split_indices":[7,2,1,8,9,9,0,0,0,0,0,0,0],"split_type":[0,0,0,0,0,0,0,0,0,0,0,0,0],"sum_hessian":[1.09E2,9.6E1,1.3E1,1.5E1,8.1E1,9E0,4E0,1.1E1,4E0,2.4E1,5.7E1,4E0,5E0],"tree_param":{"num_deleted":"0","num_feature":"10","num_nodes":"13","size_leaf_vector":"1"}},{"base_weights":[-2.295204E0,-7.509296E1,3.169069E0,-3.31237E0,-8.35621E0,1.378072E2,-4.781891E0,1.6486807E1,1.251465E-1,-3.9258702E0,1.0128707E0],"categories":[],"categories_nodes":[],"categories_segments":[],"categories_sizes":[],"default_left":[0,0,0,0,0,0,0,0,0,0,0],"id":58,"left_children":[1,3,5,-1,-1,7,9,-1,-1,-1,-1],"loss_changes":[4.558567E4,7.566016E1,1.1520274E5,0E0,0E0,2.196557E4,5.2832758E4,0E0,0E0,0E0,0E0],"parents":[2147483647,0,0,1,1,2,2,5,5,6,6],"right_children":[2,4,6,-1,-1,8,10,-1,-1,-1,-1],"split_conditions":[1.2134E2,1.1934E2,1.2797E2,-3.31237E0,-8.35621E0,8.660254E-1,2.5511E2,1.6486807E1,1.251465E-1,-3.9258702E0,1.0128707E0],"split_indices":[7,7,7,0,0,8,7,0,0,0,0],"split_type":[0,0,0,0,0,0,0,0,0,0,0],"sum_hessian":[1.13E2,7E0,1.06E2,2E0,5E0,5E0,1.01E2,4E0,1E0,3E1,7.1E1],"tree_param":{"num_deleted":"0","num_feature":"10","num_nodes":"11","size_leaf_vector":"1"}},{"base_weights":[-6.9243774E0,1.3783031E1,-3.1879038E1,-2.5441206E1,6.3721943E1,2.7096018E1,-1.13531204E2,-2.4021889E1,1.3633983E-1,1.627242E1,1.598483E0,2.5632132E1,-2.6844287E0,-4.8119686E1,2.2911453E0],"categories":[],"categories_nodes":[],"categories_segments":[],"categories_sizes":[],"default_left":[0,0,0,0,0,0,0,0,0,0,0,0,0,0,0],"id":59,"left_children":[1,3,5,7,9,11,13,-1,-1,-1,-1,-1,-1,-1,-1],"loss_changes":[5.934848E4,1.2502655E5,2.534792E5,2.0758062E5,1.2972919E5,3.9017972E5,1.1146611E6,0E0,0E0,0E0,0E0,0E0,0E0,0E0,0E0],"parents":[2147483647,0,0,1,1,2,2,3,3,4,4,5,5,6,6],"right_children":[2,4,6,8,10,12,14,-1,-1,-1,-1,-1,-1,-1,-1],"split_conditions":[1.2246469E-16,6.123234E-17,-1.8369701E-16,1.4750348E0,5.917648E6,4.1344523E11,5.917648E6,-2.4021889E1,1.3633983E-1,1.627242E1,1.598483E0,2.5632132E1,-2.6844287E0,-4.8119686E1,2.2911453E0],"split_indices":[8,9,9,2,3,1,3,0,0,0,0,0,0,0,0],"split_type":[0,0,0,0,0,0,0,0,0,0,0,0,0,0,0],"sum_hessian":[1.13E2,6.2E1,5.1E1,3.5E1,2.7E1,3E1,2.1E1,3E0,3.2E1,8E0,1.9E1,5E0,2.5E1,5E0,1.6E1],"tree_param":{"num_deleted":"0","num_feature":"10","num_nodes":"15","size_leaf_vector":"1"}},{"base_weights":[6.8969817E0,3.270677E1,-2.1527155E1,7.2125885E1,-1.3763565E1,-4.376004E1,4.2347646E0,7.2713983E-1,1.4081924E1,7.2106247E0,-3.263256E1,-6.992264E0,-2.2718208E0,-5.009692E0,5.0502295E0],"categories":[],"categories_nodes":[],"categories_segments":[],"categories_sizes":[],"default_left":[0,0,0,0,0,0,0,0,0,0,0,0,0,0,0],"id":60,"left_children":[1,3,5,7,9,11,13,-1,-1,-1,-1,-1,-1,-1,-1],"loss_changes":[7.993516E4,1.0540642E5,2.9968926E4,1.3708328E5,7.4820044E5,1.3825742E4,6.5374832E4,0E0,0E0,0E0,0E0,0E0,0E0,0E0,0E0],"parents":[2147483647,0,0,1,1,2,2,3,3,4,4,5,5,6,6],"right_children":[2,4,6,8,10,12,14,-1,-1,-1,-1,-1,-1,-1,-1],"split_conditions":[4.5778E2,1.2246469E-16,6.123234E-17,-1.8369701E-16,5E-1,3.4963868E0,4.8776E2,7.2713983E-1,1.4081924E1,7.2106247E0,-3.263256E1,-6.992264E0,-2.2718208E0,-5.009692E0,5.0502295E0],"split_indices":[7,8,9,9,9,2,7,0,0,0,0,0,0,0,0],"split_type":[0,0,0,0,0,0,0,0,0,0,0,0,0,0,0],"sum_hessian":[1.07E2,5.6E1,5.1E1,3E1,2.6E1,2.7E1,2.4E1,1.6E1,1.4E1,2.1E1,5E0,1.1E1,1.6E1,1.1E1,1.3E1],"tree_param":{"num_deleted":"0","num_feature":"10","num_nodes":"15","size_leaf_vector":"1"}},{"base_weights":[3.1599253E-1,7.5153832E0,-5.6705517E1,5.7139797E1,-1.407601E1,-6.8882904E0,-1.2507197E1,-1.9367188E0,2.2930723E1,3.435054E0,-6.208856E0,-4.5115204E0,2.5070899E0],"categories":[],"categories_nodes":[],"categories_segments":[],"categories_sizes":[],"default_left":[0,0,0,0,0,0,0,0,0,0,0,0,0],"id":61,"left_children":[1,3,5,7,9,11,-1,-1,-1,-1,-1,-1,-1],"loss_changes":[4.39413E4,1.0259302E5,4.0008395E4,3.864293E5,1.5791327E5,1.0904688E4,0E0,0E0,0E0,0E0,0E0,0E0,0E0],"parents":[2147483647,0,0,1,1,2,2,3,3,4,4,5,5],"right_children":[2,4,6,8,10,12,-1,-1,-1,-1,-1,-1,-1],"split_conditions":[5.2381E2,3.4963868E0,4.2624633E12,5E-1,-2.4492937E-16,-1.8369701E-16,-1.2507197E1,-1.9367188E0,2.2930723E1,3.435054E0,-6.208856E0,-4.5115204E0,2.5070899E0],"split_indices":[7,2,1,8,8,9,0,0,0,0,0,0,0],"split_type":[0,0,0,0,0,0,0,0,0,0,0,0,0],"sum_hessian":[1.05E2,9.4E1,1.1E1,2.8E1,6.6E1,7E0,4E0,2E1,8E0,3.3E1,3.3E1,3E0,4E0],"tree_param":{"num_deleted":"0","num_feature":"10","num_nodes":"13","size_leaf_vector":"1"}},{"base_weights":[4.533119E0,5.698159E1,-4.7056136E0,5.9930015E0,1.4946184E2,-1.18094315E2,4.068304E0,-4.1026955E0,1.6072851E1,1.7156857E1,1.9464111E0,2.7052343E0,-3.2064068E1,1.506119E1,-6.202974E-1],"categories":[],"categories_nodes":[],"categories_segments":[],"categories_sizes":[],"default_left":[0,0,0,0,0,0,0,0,0,0,0,0,0,0,0],"id":62,"left_children":[1,3,5,7,9,11,13,-1,-1,-1,-1,-1,-1,-1,-1],"loss_changes":[5.502312E4,7.926672E4,9.698217E4,9.3902086E4,1.39035E4,2.1446656E5,1.3790653E5,0E0,0E0,0E0,0E0,0E0,0E0,0E0,0E0],"parents":[2147483647,0,0,1,1,2,2,3,3,4,4,5,5,6,6],"right_children":[2,4,6,8,10,12,14,-1,-1,-1,-1,-1,-1,-1,-1],"split_conditions":[1.2824E2,6.123234E-17,2.3109E2,1.2821E2,8.660254E-1,-1.8369701E-16,2.3296E2,-4.1026955E0,1.6072851E1,1.7156857E1,1.9464111E0,2.7052343E0,-3.2064068E1,1.506119E1,-6.202974E-1],"split_indices":[7,9,7,7,8,9,7,0,0,0,0,0,0,0,0],"split_type":[0,0,0,0,0,0,0,0,0,0,0,0,0,0,0],"sum_hessian":[1.12E2,1.6E1,9.6E1,1.1E1,5E0,6E0,9E1,9E0,2E0,4E0,1E0,4E0,2E0,5E0,8.5E1],"tree_param":{"num_deleted":"0","num_feature":"10","num_nodes":"15","size_leaf_vector":"1"}},{"base_weights":[8.015075E0,5.387224E1,-6.988692E0,1.8354126E1,1.4765652E2,-1.3972017E2,3.7230093E0,4.05386E0,-1.2087077E1,9.39386E-1,2.4900507E1,6.131185E-1,-2.1417866E1,8.875764E0,-7.75512E-1],"categories":[],"categories_nodes":[],"categories_segments":[],"categories_sizes":[],"default_left":[0,0,0,0,0,0,0,0,0,0,0,0,0,0,0],"id":63,"left_children":[1,3,5,7,9,11,13,-1,-1,-1,-1,-1,-1,-1,-1],"loss_changes":[7.2619664E4,8.389697E4,1.14262586E5,6.667256E4,9.574992E4,6.647238E4,7.389121E4,0E0,0E0,0E0,0E0,0E0,0E0,0E0,0E0],"parents":[2147483647,0,0,1,1,2,2,3,3,4,4,5,5,6,6],"right_children":[2,4,6,8,10,12,14,-1,-1,-1,-1,-1,-1,-1,-1],"split_conditions":[2.3296E2,2.1591E3,2.3899E2,1.3272E2,-1.8369701E-16,2.5519497E11,6.2934E3,4.05386E0,-1.2087077E1,9.39386E-1,2.4900507E1,6.131185E-1,-2.1417866E1,8.875764E0,-7.75512E-1],"split_indices":[7,0,7,7,9,1,0,0,0,0,0,0,0,0,0],"split_type":[0,0,0,0,0,0,0,0,0,0,0,0,0,0,0],"sum_hessian":[1.04E2,2.5E1,7.9E1,1.9E1,6E0,5E0,7.4E1,1.7E1,2E0,3E0,3E0,2E0,3E0,8E0,6.6E1],"tree_param":{"num_deleted":"0","num_feature":"10","num_nodes":"15","size_leaf_vector":"1"}},{"base_weights":[7.7136487E-1,-1.1176387E2,1.3932176E1,6.479443E1,-3.365927E2,7.8242485E1,-2.328719E0,-2.7997754E0,1.9784994E1,1.344961E1,-4.8798897E1,1.5240374E1,1.0452149E0,-1.9811518E1,8.431206E-1],"categories":[],"categories_nodes":[],"categories_segments":[],"categories_sizes":[],"default_left":[0,0,0,0,0,0,0,0,0,0,0,0,0,0,0],"id":64,"left_children":[1,3,5,7,9,11,13,-1,-1,-1,-1,-1,-1,-1,-1],"loss_changes":[1.5558684E5,4.5845875E5,9.848206E4,9.196492E4,4.2223794E5,9.392794E4,1.6177556E5,0E0,0E0,0E0,0E0,0E0,0E0,0E0,0E0],"parents":[2147483647,0,0,1,1,2,2,3,3,4,4,5,5,6,6],"right_children":[2,4,6,8,10,12,14,-1,-1,-1,-1,-1,-1,-1,-1],"split_conditions":[2.5519497E11,-1.8369701E-16,2.3296E2,5E-1,-5E-1,4.1080003E0,2.3899E2,-2.7997754E0,1.9784994E1,1.344961E1,-4.8798897E1,1.5240374E1,1.0452149E0,-1.9811518E1,8.431206E-1],"split_indices":[1,9,7,8,8,2,7,0,0,0,0,0,0,0,0],"split_type":[0,0,0,0,0,0,0,0,0,0,0,0,0,0,0],"sum_hessian":[1.03E2,1E1,9.3E1,6E0,4E0,1.8E1,7.5E1,4E0,2E0,1E0,3E0,8E0,1E1,3E0,7.2E1],"tree_param":{"num_deleted":"0","num_feature":"10","num_nodes":"15","size_leaf_vector":"1"}},{"base_weights":[-1.7329052E1,-4.148265E1,-1.8480888E-1,-5.483334E0,-2.3098141E2,1.908431E1,-9.576594E0,-2.1176298E0,1.8466E1,4.695581E0,-3.5154747E1,-2.1983654E0,4.881765E0],"categories":[],"categories_nodes":[],"categories_segments":[],"categories_sizes":[],"default_left":[0,0,0,0,0,0,0,0,0,0,0,0,0],"id":65,"left_children":[1,3,5,7,9,-1,11,-1,-1,-1,-1,-1,-1],"loss_changes":[4.3886414E4,2.9889378E5,1.1485549E5,1.1729907E5,2.5107578E5,0E0,4.526775E4,0E0,0E0,0E0,0E0,0E0,0E0],"parents":[2147483647,0,0,1,1,2,2,3,3,4,4,6,6],"right_children":[2,4,6,8,10,-1,12,-1,-1,-1,-1,-1,-1],"split_conditions":[4.2369E2,2.396E2,4.2545E2,2.3946E2,5E-1,1.908431E1,8.660254E-1,-2.1176298E0,1.8466E1,4.695581E0,-3.5154747E1,-2.1983654E0,4.881765E0],"split_indices":[7,7,7,7,8,0,9,0,0,0,0,0,0],"split_type":[0,0,0,0,0,0,0,0,0,0,0,0,0],"sum_hessian":[1.05E2,4.3E1,6.2E1,3.7E1,6E0,2E0,6E1,3.5E1,2E0,2E0,4E0,5E1,1E1],"tree_param":{"num_deleted":"0","num_feature":"10","num_nodes":"13","size_leaf_vector":"1"}},{"base_weights":[-9.9579114E-1,-2.52449E1,1.448184E1,3.5911427E1,-4.1996853E1,3.0862528E1,-5.2075325E1,-8.785477E0,3.5398415E1,4.4735084E0,-7.847903E0,1.9292856E0,1.450146E1,-1.5764759E0,-1.142814E1],"categories":[],"categories_nodes":[],"categories_segments":[],"categories_sizes":[],"default_left":[0,0,0,0,0,0,0,0,0,0,0,0,0,0,0],"id":66,"left_children":[1,3,5,7,9,11,13,-1,-1,-1,-1,-1,-1,-1,-1],"loss_changes":[4.2401293E4,4.658563E4,7.683456E4,4.2476566E5,1.14256695E5,7.116156E4,2.9820707E4,0E0,0E0,0E0,0E0,0E0,0E0,0E0,0E0],"parents":[2147483647,0,0,1,1,2,2,3,3,4,4,5,5,6,6],"right_children":[2,4,6,8,10,12,14,-1,-1,-1,-1,-1,-1,-1,-1],"split_conditions":[5.0543952E11,1.4750348E0,5.2381E2,8.660254E-1,2.396E2,5.0953E2,4.2624633E12,-8.785477E0,3.5398415E1,4.4735084E0,-7.847903E0,1.9292856E0,1.450146E1,-1.5764759E0,-1.142814E1],"split_indices":[1,2,7,8,7,7,1,0,0,0,0,0,0,0,0],"split_type":[0,0,0,0,0,0,0,0,0,0,0,0,0,0,0],"sum_hessian":[1.11E2,4.3E1,6.8E1,9E0,3.4E1,5.5E1,1.3E1,7E0,2E0,1E1,2.4E1,5.1E1,4E0,9E0,4E0],"tree_param":{"num_deleted":"0","num_feature":"10","num_nodes":"15","size_leaf_vector":"1"}},{"base_weights":[-1.1992359E1,1.0435353E1,-3.8217213E1,-2.9082432E1,4.7066982E1,7.934124E-1,-1.9433905E2,1.6879118E1,-4.999126E0,7.0757407E-1,8.925259E0,6.053278E0,-3.2424512E0,-3.4941006E1,-3.2723374E0],"categories":[],"categories_nodes":[],"categories_segments":[],"categories_sizes":[],"default_left":[0,0,0,0,0,0,0,0,0,0,0,0,0,0,0],"id":67,"left_children":[1,3,5,7,9,11,13,-1,-1,-1,-1,-1,-1,-1,-1],"loss_changes":[6.3920465E4,8.677727E4,3.0467475E5,1.28419945E5,5.166717E4,8.3323875E4,2.3918519E5,0E0,0E0,0E0,0E0,0E0,0E0,0E0,0E0],"parents":[2147483647,0,0,1,1,2,2,3,3,4,4,5,5,6,6],"right_children":[2,4,6,8,10,12,14,-1,-1,-1,-1,-1,-1,-1,-1],"split_conditions":[1.2246469E-16,5.0901785E11,5E-1,2.3169E2,-5E-1,2.601872E7,1.6956275E12,1.6879118E1,-4.999126E0,7.0757407E-1,8.925259E0,6.053278E0,-3.2424512E0,-3.4941006E1,-3.2723374E0],"split_indices":[8,1,9,7,8,3,1,0,0,0,0,0,0,0,0],"split_type":[0,0,0,0,0,0,0,0,0,0,0,0,0,0,0],"sum_hessian":[1.07E2,5.8E1,4.9E1,2.8E1,3E1,4E1,9E0,2E0,2.6E1,1.6E1,1.4E1,1.4E1,2.6E1,4E0,5E0],"tree_param":{"num_deleted":"0","num_feature":"10","num_nodes":"15","size_leaf_vector":"1"}},{"base_weights":[-5.0471714E-3,7.291152E0,-4.7951138E1,1.7372246E1,-3.820616E1,-1.4651331E1,-1.0496053E1,5.50703E-1,8.019448E0,-3.1568604E1,-1.1332913E-1,-4.2270527E0,2.1421974E0],"categories":[],"categories_nodes":[],"categories_segments":[],"categories_sizes":[],"default_left":[0,0,0,0,0,0,0,0,0,0,0,0,0],"id":68,"left_children":[1,3,5,7,9,11,-1,-1,-1,-1,-1,-1,-1],"loss_changes":[3.708116E4,4.2860695E4,2.5039812E4,5.6208734E4,1.7452081E5,1.0868674E4,0E0,0E0,0E0,0E0,0E0,0E0,0E0],"parents":[2147483647,0,0,1,1,2,2,3,3,4,4,5,5],"right_children":[2,4,6,8,10,12,-1,-1,-1,-1,-1,-1,-1],"split_conditions":[5.2381E2,8.660254E-1,4.2624633E12,5E-1,2.5519497E11,-1.8369701E-16,-1.0496053E1,5.50703E-1,8.019448E0,-3.1568604E1,-1.1332913E-1,-4.2270527E0,2.1421974E0],"split_indices":[7,9,1,9,1,9,0,0,0,0,0,0,0],"split_type":[0,0,0,0,0,0,0,0,0,0,0,0,0],"sum_hessian":[1.04E2,9.1E1,1.3E1,7.5E1,1.6E1,9E0,4E0,6.4E1,1.1E1,1E0,1.5E1,5E0,4E0],"tree_param":{"num_deleted":"0","num_feature":"10","num_nodes":"13","size_leaf_vector":"1"}},{"base_weights":[-6.1776314E0,-6.5295555E1,1.6477286E0,6.1994682E1,-2.813589E2,-1.3652396E1,4.2953705E1,-1.8747925E0,1.6760992E1,1.1414405E1,-4.0877064E1,4.441647E0,-2.818427E0,3.259825E1,7.272101E-1],"categories":[],"categories_nodes":[],"categories_segments":[],"categories_sizes":[],"default_left":[0,0,0,0,0,0,0,0,0,0,0,0,0,0,0],"id":69,"left_children":[1,3,5,7,9,11,13,-1,-1,-1,-1,-1,-1,-1,-1],"loss_changes":[5.1458305E4,3.749785E5,6.315309E4,7.989119E4,2.9861738E5,6.2852863E4,2.703003E5,0E0,0E0,0E0,0E0,0E0,0E0,0E0,0E0],"parents":[2147483647,0,0,1,1,2,2,3,3,4,4,5,5,6,6],"right_children":[2,4,6,8,10,12,14,-1,-1,-1,-1,-1,-1,-1,-1],"split_conditions":[5.2E6,-1.8369701E-16,8.660254E-1,5E-1,-5E-1,1.2824E2,5.637022E6,-1.8747925E0,1.6760992E1,1.1414405E1,-4.0877064E1,4.441647E0,-2.818427E0,3.259825E1,7.272101E-1],"split_indices":[3,9,8,8,8,7,3,0,0,0,0,0,0,0,0],"split_type":[0,0,0,0,0,0,0,0,0,0,0,0,0,0,0],"sum_hessian":[1.1E2,1.2E1,9.8E1,8E0,4E0,7.2E1,2.6E1,5E0,3E0,1E0,3E0,1.4E1,5.8E1,2E0,2.4E1],"tree_param":{"num_deleted":"0","num_feature":"10","num_nodes":"15","size_leaf_vector":"1"}},{"base_weights":[2.6282616E0,-7.4301643E0,4.3215782E1,-3.2107044E1,5.922275E0,-6.7924805E0,7.4512596E1,7.888905E-1,-1.1288783E1,1.3498088E1,-1.2264377E0,1.4153565E0,-3.6513429E0,1.0734868E1,-2.6205766E0],"categories":[],"categories_nodes":[],"categories_segments":[],"categories_sizes":[],"default_left":[0,0,0,0,0,0,0,0,0,0,0,0,0,0,0],"id":70,"left_children":[1,3,5,7,9,11,13,-1,-1,-1,-1,-1,-1,-1,-1],"loss_changes":[4.318699E4,2.8197352E4,3.337322E4,9.78177E4,1.3309552E5,6.1196216E3,4.580671E4,0E0,0E0,0E0,0E0,0E0,0E0,0E0,0E0],"parents":[2147483647,0,0,1,1,2,2,3,3,4,4,5,5,6,6],"right_children":[2,4,6,8,10,12,14,-1,-1,-1,-1,-1,-1,-1,-1],"split_conditions":[8.660254E-1,2.3899E2,5.0901785E11,2.3069E2,4.2545E2,7.1831E3,5.1977E2,7.888905E-1,-1.1288783E1,1.3498088E1,-1.2264377E0,1.4153565E0,-3.6513429E0,1.0734868E1,-2.6205766E0],"split_indices":[9,7,1,7,7,0,7,0,0,0,0,0,0,0,0],"split_type":[0,0,0,0,0,0,0,0,0,0,0,0,0,0,0],"sum_hessian":[1.04E2,8.4E1,2E1,2.9E1,5.5E1,8E0,1.2E1,2E1,9E0,6E0,4.9E1,5E0,3E0,9E0,3E0],"tree_param":{"num_deleted":"0","num_feature":"10","num_nodes":"15","size_leaf_vector":"1"}},{"base_weights":[8.4556E0,1.5269179E1,-4.1462254E1,-1.3707804E1,3.3491234E1,-7.4081354E0,-9.446722E0,-1.1402527E1,5.5300903E-1,1.9573576E1,1.449202E0,-3.541819E0,2.2083547E0],"categories":[],"categories_nodes":[],"categories_segments":[],"categories_sizes":[],"default_left":[0,0,0,0,0,0,0,0,0,0,0,0,0],"id":71,"left_children":[1,3,5,7,9,11,-1,-1,-1,-1,-1,-1,-1],"loss_changes":[3.668574E4,5.0092984E4,2.2765658E4,7.203674E4,1.7594947E5,8.216731E3,0E0,0E0,0E0,0E0,0E0,0E0,0E0],"parents":[2147483647,0,0,1,1,2,2,3,3,4,4,5,5],"right_children":[2,4,6,8,10,12,-1,-1,-1,-1,-1,-1,-1],"split_conditions":[5.2381E2,2.3946E2,4.2624633E12,1.4750348E0,6.2934E3,-1.8369701E-16,-9.446722E0,-1.1402527E1,5.5300903E-1,1.9573576E1,1.449202E0,-3.541819E0,2.2083547E0],"split_indices":[7,7,1,2,0,9,0,0,0,0,0,0,0],"split_type":[0,0,0,0,0,0,0,0,0,0,0,0,0],"sum_hessian":[1.05E2,9.3E1,1.2E1,3.6E1,5.7E1,8E0,4E0,5E0,3.1E1,5E0,5.2E1,4E0,4E0],"tree_param":{"num_deleted":"0","num_feature":"10","num_nodes":"13","size_leaf_vector":"1"}},{"base_weights":[8.300221E-1,-6.4518524E1,9.490237E0,2.0777344E1,-2.6162857E2,1.6327318E1,-3.64697E1,-1.2090161E1,7.1309786E0,-3.4520912E1,-5.443482E-1,6.113991E-1,7.8800006E0,-4.3952093E-1,-8.690985E0],"categories":[],"categories_nodes":[],"categories_segments":[],"categories_sizes":[],"default_left":[0,0,0,0,0,0,0,0,0,0,0,0,0,0,0],"id":72,"left_children":[1,3,5,7,9,11,13,-1,-1,-1,-1,-1,-1,-1,-1],"loss_changes":[6.286487E4,2.2400069E5,3.1390168E4,8.0215305E4,8.376922E4,5.439086E4,2.0649957E4,0E0,0E0,0E0,0E0,0E0,0E0,0E0,0E0],"parents":[2147483647,0,0,1,1,2,2,3,3,4,4,5,5,6,6],"right_children":[2,4,6,8,10,12,14,-1,-1,-1,-1,-1,-1,-1,-1],"split_conditions":[2.5519497E11,2.396E2,5.2381E2,2.3109E2,2.5511E2,4.9295E2,4.2624633E12,-1.2090161E1,7.1309786E0,-3.4520912E1,-5.443482E-1,6.113991E-1,7.8800006E0,-4.3952093E-1,-8.690985E0],"split_indices":[1,7,7,7,7,7,1,0,0,0,0,0,0,0,0],"split_type":[0,0,0,0,0,0,0,0,0,0,0,0,0,0,0],"sum_hessian":[1.09E2,1.2E1,9.7E1,9E0,3E0,8.5E1,1.2E1,2E0,7E0,2E0,1E0,7.4E1,1.1E1,8E0,4E0],"tree_param":{"num_deleted":"0","num_feature":"10","num_nodes":"15","size_leaf_vector":"1"}},{"base_weights":[-1.3289555E0,-6.782052E1,6.663321E0,1.8120205E1,-2.4423201E2,1.2764082E1,-3.9139263E1,-1.1284153E1,7.165807E0,-3.2219517E1,-5.171265E-1,1.1514671E-1,5.0312E0,-5.419123E0,-2.810069E0],"categories":[],"categories_nodes":[],"categories_segments":[],"categories_sizes":[],"default_left":[0,0,0,0,0,0,0,0,0,0,0,0,0,0,0],"id":73,"left_children":[1,3,5,7,9,11,13,-1,-1,-1,-1,-1,-1,-1,-1],"loss_changes":[5.9439414E4,1.863567E5,2.8442637E4,7.11887E4,7.288556E4,3.8748695E4,4.7101562E2,0E0,0E0,0E0,0E0,0E0,0E0,0E0,0E0],"parents":[2147483647,0,0,1,1,2,2,3,3,4,4,5,5,6,6],"right_children":[2,4,6,8,10,12,14,-1,-1,-1,-1,-1,-1,-1,-1],"split_conditions":[2.5519497E11,2.396E2,8.5375E0,2.3109E2,2.5511E2,8.660254E-1,4.6562E2,-1.1284153E1,7.165807E0,-3.2219517E1,-5.171265E-1,1.1514671E-1,5.0312E0,-5.419123E0,-2.810069E0],"split_indices":[1,7,2,7,7,8,7,0,0,0,0,0,0,0,0],"split_type":[0,0,0,0,0,0,0,0,0,0,0,0,0,0,0],"sum_hessian":[1.1E2,1.1E1,9.9E1,8E0,3E0,8.8E1,1.1E1,2E0,6E0,2E0,1E0,6.8E1,2E1,3E0,8E0],"tree_param":{"num_deleted":"0","num_feature":"10","num_nodes":"15","size_leaf_vector":"1"}},{"base_weights":[-1.2813465E-1,-7.8195366E1,9.241215E0,3.465738E1,-2.431207E2,5.6976112E1,-2.6592684E0,1.4220866E1,-2.4894493E0,-1.04485655E1,-3.0071548E1,1.813234E0,2.0781813E1,-4.508251E0,1.2940242E0],"categories":[],"categories_nodes":[],"categories_segments":[],"categories_sizes":[],"default_left":[0,0,0,0,0,0,0,0,0,0,0,0,0,0,0],"id":74,"left_children":[1,3,5,7,9,11,13,-1,-1,-1,-1,-1,-1,-1,-1],"loss_changes":[8.1912375E4,2.3177322E5,5.6958348E4,5.477925E4,8.5028125E3,1.134172E5,5.41877E4,0E0,0E0,0E0,0E0,0E0,0E0,0E0,0E0],"parents":[2147483647,0,0,1,1,2,2,3,3,4,4,5,5,6,6],"right_children":[2,4,6,8,10,12,14,-1,-1,-1,-1,-1,-1,-1,-1],"split_conditions":[2.5519497E11,5E-1,5.917648E6,2.3169E2,2.396E2,8.660254E-1,-5E-1,1.4220866E1,-2.4894493E0,-1.04485655E1,-3.0071548E1,1.813234E0,2.0781813E1,-4.508251E0,1.2940242E0],"split_indices":[1,8,3,7,7,8,8,0,0,0,0,0,0,0,0],"split_type":[0,0,0,0,0,0,0,0,0,0,0,0,0,0,0],"sum_hessian":[1.1E2,1.1E1,9.9E1,7E0,4E0,1.9E1,8E1,2E0,5E0,2E0,2E0,1.6E1,3E0,2.1E1,5.9E1],"tree_param":{"num_deleted":"0","num_feature":"10","num_nodes":"15","size_leaf_vector":"1"}},{"base_weights":[-1.0016178E0,-5.622468E1,5.505033E0,1.6730724E1,-2.8066782E1,-6.8885317E0,4.395275E1,-9.835307E0,5.7795806E0,-3.08333E0,2.0478191E0,1.8836342E1,-1.1564481E0],"categories":[],"categories_nodes":[],"categories_segments":[],"categories_sizes":[],"default_left":[0,0,0,0,0,0,0,0,0,0,0,0,0],"id":75,"left_children":[1,3,5,7,-1,9,11,-1,-1,-1,-1,-1,-1],"loss_changes":[4.0912355E4,2.0118784E5,4.8906207E4,5.294365E4,0E0,5.174401E4,2.0261034E5,0E0,0E0,0E0,0E0,0E0,0E0],"parents":[2147483647,0,0,1,1,2,2,3,3,5,5,6,6],"right_children":[2,4,6,8,-1,10,12,-1,-1,-1,-1,-1,-1],"split_conditions":[2.5519497E11,2.396E2,8.660254E-1,2.3109E2,-2.8066782E1,-1.8369701E-16,2.601872E7,-9.835307E0,5.7795806E0,-3.08333E0,2.0478191E0,1.8836342E1,-1.1564481E0],"split_indices":[1,7,8,7,0,9,3,0,0,0,0,0,0],"split_type":[0,0,0,0,0,0,0,0,0,0,0,0,0],"sum_hessian":[1.12E2,1.1E1,1.01E2,9E0,2E0,7.7E1,2.4E1,2E0,7E0,4.1E1,3.6E1,6E0,1.8E1],"tree_param":{"num_deleted":"0","num_feature":"10","num_nodes":"13","size_leaf_vector":"1"}},{"base_weights":[-4.0040927E0,5.4533176E0,-2.3858513E1,1.328304E1,2.1568835E-1,-3.628946E1,1.2090894E1,-3.2903068E0,1.7784504E0,-6.8046837E0,-1.0203336E0,-5.508655E0,9.028564E0],"categories":[],"categories_nodes":[],"categories_segments":[],"categories_sizes":[],"default_left":[0,0,0,0,0,0,0,0,0,0,0,0,0],"id":76,"left_children":[1,3,5,-1,7,9,11,-1,-1,-1,-1,-1,-1],"loss_changes":[2.0972732E4,5.067505E4,1.6526637E4,0E0,4.3642605E4,2.1673219E4,5.7502758E4,0E0,0E0,0E0,0E0,0E0,0E0],"parents":[2147483647,0,0,1,1,2,2,4,4,5,5,6,6],"right_children":[2,4,6,-1,8,10,12,-1,-1,-1,-1,-1,-1],"split_conditions":[4.2530456E0,1.2797E2,5E-1,1.328304E1,2.5511E2,4.6562E2,5.0543952E11,-3.2903068E0,1.7784504E0,-6.8046837E0,-1.0203336E0,-5.508655E0,9.028564E0],"split_indices":[2,7,9,0,7,7,1,0,0,0,0,0,0],"split_type":[0,0,0,0,0,0,0,0,0,0,0,0,0],"sum_hessian":[1.1E2,7.5E1,3.5E1,2E0,7.3E1,2.6E1,9E0,2.5E1,4.8E1,1.1E1,1.5E1,5E0,4E0],"tree_param":{"num_deleted":"0","num_feature":"10","num_nodes":"13","size_leaf_vector":"1"}},{"base_weights":[5.89359E-1,-3.1968805E1,1.2350269E1,1.8469865E0,-7.633153E1,-2.5382476E0,4.3324165E1,-6.4058847E0,4.0138144E0,5.041984E0,-2.3261145E1,-5.795545E0,1.3527573E0,6.0486336E0,-2.6824484E0],"categories":[],"categories_nodes":[],"categories_segments":[],"categories_sizes":[],"default_left":[0,0,0,0,0,0,0,0,0,0,0,0,0,0,0],"id":77,"left_children":[1,3,5,7,9,11,13,-1,-1,-1,-1,-1,-1,-1,-1],"loss_changes":[4.3281152E4,4.5145805E4,3.8385867E4,4.7996188E4,2.6924125E5,5.1532402E4,3.4127902E4,0E0,0E0,0E0,0E0,0E0,0E0,0E0,0E0],"parents":[2147483647,0,0,1,1,2,2,3,3,4,4,5,5,6,6],"right_children":[2,4,6,8,10,12,14,-1,-1,-1,-1,-1,-1,-1,-1],"split_conditions":[4.338577E11,6.123234E-17,5E-1,-2.4492937E-16,1.2246469E-16,1.2821E2,4.2624633E12,-6.4058847E0,4.0138144E0,5.041984E0,-2.3261145E1,-5.795545E0,1.3527573E0,6.0486336E0,-2.6824484E0],"split_indices":[1,9,9,8,8,7,1,0,0,0,0,0,0,0,0],"split_type":[0,0,0,0,0,0,0,0,0,0,0,0,0,0,0],"sum_hessian":[1.11E2,2.9E1,8.2E1,1.7E1,1.2E1,5.6E1,2.6E1,6E0,1.1E1,7E0,5E0,1.2E1,4.4E1,2.1E1,5E0],"tree_param":{"num_deleted":"0","num_feature":"10","num_nodes":"15","size_leaf_vector":"1"}},{"base_weights":[1.6203686E0,-5.8760223E0,2.7624321E1,6.8440084E0,-6.145242E1,1.8058506E1,1.2463149E1,2.4070382E0,-1.5964482E0,9.8914795E0,-1.0978713E1,-1.6942831E0,9.370291E0],"categories":[],"categories_nodes":[],"categories_segments":[],"categories_sizes":[],"default_left":[0,0,0,0,0,0,0,0,0,0,0,0,0],"id":78,"left_children":[1,3,5,7,9,-1,11,-1,-1,-1,-1,-1,-1],"loss_changes":[2.0045771E4,5.6975258E4,5.1087816E4,2.6316168E4,1.2712909E5,0E0,5.4144152E4,0E0,0E0,0E0,0E0,0E0,0E0],"parents":[2147483647,0,0,1,1,2,2,3,3,4,4,6,6],"right_children":[2,4,6,8,10,-1,12,-1,-1,-1,-1,-1,-1],"split_conditions":[4.8853E2,8.660254E-1,4.9753E2,4.2545E2,1.2791E2,1.8058506E1,8.660254E-1,2.4070382E0,-1.5964482E0,9.8914795E0,-1.0978713E1,-1.6942831E0,9.370291E0],"split_indices":[7,9,7,7,7,0,9,0,0,0,0,0,0],"split_type":[0,0,0,0,0,0,0,0,0,0,0,0,0],"sum_hessian":[1.01E2,7.9E1,2.2E1,6.5E1,1.4E1,1E0,2.1E1,3.7E1,2.8E1,3E0,1.1E1,1.6E1,5E0],"tree_param":{"num_deleted":"0","num_feature":"10","num_nodes":"13","size_leaf_vector":"1"}},{"base_weights":[3.5376783E-2,5.254579E0,-3.5805504E1,-5.184976E-1,8.450227E1,-1.0951827E1,-8.33225E0,8.179967E-1,-1.6876827E0,2.1394665E0,1.615142E1,-2.9927757E0,9.8494065E-1],"categories":[],"categories_nodes":[],"categories_segments":[],"categories_sizes":[],"default_left":[0,0,0,0,0,0,0,0,0,0,0,0,0],"id":79,"left_children":[1,3,5,7,9,11,-1,-1,-1,-1,-1,-1,-1],"loss_changes":[2.2074258E4,4.716663E4,1.680205E4,1.3940411E4,3.0564723E4,4.63672E3,0E0,0E0,0E0,0E0,0E0,0E0,0E0],"parents":[2147483647,0,0,1,1,2,2,3,3,4,4,5,5],"right_children":[2,4,6,8,10,12,-1,-1,-1,-1,-1,-1,-1],"split_conditions":[5.2381E2,5.0983E2,4.2624633E12,4.5778E2,8.660254E-1,-1.8369701E-16,-8.33225E0,8.179967E-1,-1.6876827E0,2.1394665E0,1.615142E1,-2.9927757E0,9.8494065E-1],"split_indices":[7,7,1,7,9,9,0,0,0,0,0,0,0],"split_type":[0,0,0,0,0,0,0,0,0,0,0,0,0],"sum_hessian":[1.16E2,1.02E2,1.4E1,9.6E1,6E0,1E1,4E0,6.3E1,3.3E1,4E0,2E0,5E0,5E0],"tree_param":{"num_deleted":"0","num_feature":"10","num_nodes":"13","size_leaf_vector":"1"}},{"base_weights":[-2.0662353E0,-6.853479E1,2.969752E0,-2.8187501E0,-7.728597E0,4.417589E1,-7.7303047E0,1.0274812E1,1.578955E0,-9.682145E0,-9.518398E-2],"categories":[],"categories_nodes":[],"categories_segments":[],"categories_sizes":[],"default_left":[0,0,0,0,0,0,0,0,0,0,0],"id":80,"left_children":[1,3,5,-1,-1,7,9,-1,-1,-1,-1],"loss_changes":[3.8028566E4,6.461914E2,4.7077746E4,0E0,0E0,3.495598E4,5.123944E4,0E0,0E0,0E0,0E0],"parents":[2147483647,0,0,1,1,2,2,5,5,6,6],"right_children":[2,4,6,-1,-1,8,10,-1,-1,-1,-1],"split_conditions":[1.2134E2,1.1934E2,2.3296E2,-2.8187501E0,-7.728597E0,-5E-1,2.3899E2,1.0274812E1,1.578955E0,-9.682145E0,-9.518398E-2],"split_indices":[7,7,7,0,0,9,7,0,0,0,0],"split_type":[0,0,0,0,0,0,0,0,0,0,0],"sum_hessian":[1.12E2,7E0,1.05E2,2E0,5E0,2.1E1,8.4E1,6E0,1.5E1,5E0,7.9E1],"tree_param":{"num_deleted":"0","num_feature":"10","num_nodes":"11","size_leaf_vector":"1"}},{"base_weights":[7.7937126E0,1.405927E1,-3.2825436E1,9.311611E0,8.3722206E1,-9.952615E0,-7.6580553E0,1.6718348E0,-2.1655614E0,1.2475739E0,1.5081011E1,-2.7354453E0,9.1079915E-1],"categories":[],"categories_nodes":[],"categories_segments":[],"categories_sizes":[],"default_left":[0,0,0,0,0,0,0,0,0,0,0,0,0],"id":81,"left_children":[1,3,5,7,9,11,-1,-1,-1,-1,-1,-1,-1],"loss_changes":[2.8456678E4,3.0971053E4,1.4249867E4,2.1234357E4,2.6797184E4,3.8977292E3,0E0,0E0,0E0,0E0,0E0,0E0,0E0],"parents":[2147483647,0,0,1,1,2,2,3,3,4,4,5,5],"right_children":[2,4,6,8,10,12,-1,-1,-1,-1,-1,-1,-1],"split_conditions":[5.2381E2,7.8178E3,4.2624633E12,8.660254E-1,-5E-1,-1.8369701E-16,-7.6580553E0,1.6718348E0,-2.1655614E0,1.2475739E0,1.5081011E1,-2.7354453E0,9.1079915E-1],"split_indices":[7,0,1,9,8,9,0,0,0,0,0,0,0],"split_type":[0,0,0,0,0,0,0,0,0,0,0,0,0],"sum_hessian":[1.09E2,9.5E1,1.4E1,9E1,5E0,1E1,4E0,7.3E1,1.7E1,3E0,2E0,5E0,5E0],"tree_param":{"num_deleted":"0","num_feature":"10","num_nodes":"13","size_leaf_vector":"1"}},{"base_weights":[9.5547414E-1,-4.805107E1,7.2686253E0,1.8888561E1,-2.5516615E1,-4.7371902E0,4.4014027E1,6.721658E0,-2.080318E1,-7.015363E0,5.890256E-1,2.73777E1,9.0948385E-1],"categories":[],"categories_nodes":[],"categories_segments":[],"categories_sizes":[],"default_left":[0,0,0,0,0,0,0,0,0,0,0,0,0],"id":82,"left_children":[1,3,5,7,-1,9,11,-1,-1,-1,-1,-1,-1],"loss_changes":[3.252538E4,1.7119023E5,4.1236246E4,1.236493E5,0E0,4.9773113E4,1.8204219E5,0E0,0E0,0E0,0E0,0E0,0E0],"parents":[2147483647,0,0,1,1,2,2,3,3,5,5,6,6],"right_children":[2,4,6,8,-1,10,12,-1,-1,-1,-1,-1,-1],"split_conditions":[2.5519497E11,8.660254E-1,8.660254E-1,8.660254E-1,-2.5516615E1,1.4750348E0,4.1344523E11,6.721658E0,-2.080318E1,-7.015363E0,5.890256E-1,2.73777E1,9.0948385E-1],"split_indices":[1,8,8,9,0,2,1,0,0,0,0,0,0],"split_type":[0,0,0,0,0,0,0,0,0,0,0,0,0],"sum_hessian":[1.03E2,1.1E1,9.2E1,9E0,2E0,7E1,2.2E1,8E0,1E0,9E0,6.1E1,2E0,2E1],"tree_param":{"num_deleted":"0","num_feature":"10","num_nodes":"13","size_leaf_vector":"1"}},{"base_weights":[1.4708968E0,-4.4217262E1,4.9051833E0,-3.4198303E0,-6.8011756E0,9.076351E0,-3.1943663E1,-4.086711E0,5.4460998E0,-9.4936067E-1,1.9886879E0,-2.039408E0,-4.705692E0],"categories":[],"categories_nodes":[],"categories_segments":[],"categories_sizes":[],"default_left":[0,0,0,0,0,0,0,0,0,0,0,0,0],"id":83,"left_children":[1,3,5,7,-1,9,11,-1,-1,-1,-1,-1,-1],"loss_changes":[1.7947297E4,7.5334453E3,1.6582422E4,1.089558E4,0E0,1.9460898E4,9.603867E2,0E0,0E0,0E0,0E0,0E0,0E0],"parents":[2147483647,0,0,1,1,2,2,3,3,5,5,6,6],"right_children":[2,4,6,8,-1,10,12,-1,-1,-1,-1,-1,-1],"split_conditions":[1.3942518E0,5.1977E2,8.5375E0,5.1391E2,-6.8011756E0,2.3899E2,6.123234E-17,-4.086711E0,5.4460998E0,-9.4936067E-1,1.9886879E0,-2.039408E0,-4.705692E0],"split_indices":[2,7,2,7,0,7,9,0,0,0,0,0,0],"split_type":[0,0,0,0,0,0,0,0,0,0,0,0,0],"sum_hessian":[1.12E2,7E0,1.05E2,3E0,4E0,9.5E1,1E1,2E0,1E0,3.5E1,6E1,7E0,3E0],"tree_param":{"num_deleted":"0","num_feature":"10","num_nodes":"13","size_leaf_vector":"1"}},{"base_weights":[2.6034112E0,7.494929E0,-3.182317E1,4.2932537E1,5.6705847E-2,-1.3267029E1,-6.257082E0,-2.3114927E0,2.0606943E1,2.0703528E0,-2.109508E0,-2.7223043E0,6.133594E-1],"categories":[],"categories_nodes":[],"categories_segments":[],"categories_sizes":[],"default_left":[0,0,0,0,0,0,0,0,0,0,0,0,0],"id":84,"left_children":[1,3,5,7,9,11,-1,-1,-1,-1,-1,-1,-1],"loss_changes":[1.8930717E4,2.5829664E4,7.1576797E3,1.8793448E5,3.6247547E4,2.8745288E3,0E0,0E0,0E0,0E0,0E0,0E0,0E0],"parents":[2147483647,0,0,1,1,2,2,3,3,4,4,5,5],"right_children":[2,4,6,8,10,12,-1,-1,-1,-1,-1,-1,-1],"split_conditions":[5.2381E2,1.821407E0,4.2624633E12,1.2246469E-16,1.2246469E-16,-1.8369701E-16,-6.257082E0,-2.3114927E0,2.0606943E1,2.0703528E0,-2.109508E0,-2.7223043E0,6.133594E-1],"split_indices":[7,2,1,8,8,9,0,0,0,0,0,0,0],"split_type":[0,0,0,0,0,0,0,0,0,0,0,0,0],"sum_hessian":[1.1E2,9.7E1,1.3E1,1.6E1,8.1E1,9E0,4E0,1.2E1,4E0,4.1E1,4E1,5E0,4E0],"tree_param":{"num_deleted":"0","num_feature":"10","num_nodes":"13","size_leaf_vector":"1"}},{"base_weights":[-4.22716E0,1.1035459E1,-1.395948E1,-2.3839838E1,1.0311663E2,1.8055546E1,-4.954015E1,-1.6844988E1,-8.5841733E-1,1.4724772E1,-2.195749E0,6.3380957E0,-2.5834606E0,-1.0704306E1,-1.8536875E0],"categories":[],"categories_nodes":[],"categories_segments":[],"categories_sizes":[],"default_left":[0,0,0,0,0,0,0,0,0,0,0,0,0,0,0],"id":85,"left_children":[1,3,5,7,9,11,13,-1,-1,-1,-1,-1,-1,-1,-1],"loss_changes":[1.6344983E4,1.4054669E5,7.721526E4,6.914991E4,6.946909E4,7.3253625E4,5.5064656E4,0E0,0E0,0E0,0E0,0E0,0E0,0E0,0E0],"parents":[2147483647,0,0,1,1,2,2,3,3,4,4,5,5,6,6],"right_children":[2,4,6,8,10,12,14,-1,-1,-1,-1,-1,-1,-1,-1],"split_conditions":[3.4963868E0,5E-1,5E-1,2.3899E2,5.1345E2,4.2530456E0,5.917648E6,-1.6844988E1,-8.5841733E-1,1.4724772E1,-2.195749E0,6.3380957E0,-2.5834606E0,-1.0704306E1,-1.8536875E0],"split_indices":[2,8,8,7,7,2,3,0,0,0,0,0,0,0,0],"split_type":[0,0,0,0,0,0,0,0,0,0,0,0,0,0,0],"sum_hessian":[1.08E2,4.2E1,6.6E1,3.1E1,1.1E1,3.5E1,3.1E1,2E0,2.9E1,8E0,3E0,1.7E1,1.8E1,1E1,2.1E1],"tree_param":{"num_deleted":"0","num_feature":"10","num_nodes":"15","size_leaf_vector":"1"}},{"base_weights":[4.2456427E0,3.1615072E1,-9.848346E-1,-3.1865234E1,8.558584E1,-8.574178E1,5.692508E0,-6.2404666E0,1.062251E1,1.3088965E1,3.356836E0,2.3777003E0,-2.3969252E1,1.139362E1,1.8945359E-1],"categories":[],"categories_nodes":[],"categories_segments":[],"categories_sizes":[],"default_left":[0,0,0,0,0,0,0,0,0,0,0,0,0,0,0],"id":86,"left_children":[1,3,5,7,9,11,13,-1,-1,-1,-1,-1,-1,-1,-1],"loss_changes":[1.6064515E4,6.439667E4,5.4253445E4,4.4583742E4,1.9172148E4,1.2372264E5,3.6372625E4,0E0,0E0,0E0,0E0,0E0,0E0,0E0,0E0],"parents":[2147483647,0,0,1,1,2,2,3,3,4,4,5,5,6,6],"right_children":[2,4,6,8,10,12,14,-1,-1,-1,-1,-1,-1,-1,-1],"split_conditions":[1.2824E2,1.2134E2,2.3109E2,6.123234E-17,-5E-1,-1.8369701E-16,2.3169E2,-6.2404666E0,1.062251E1,1.3088965E1,3.356836E0,2.3777003E0,-2.3969252E1,1.139362E1,1.8945359E-1],"split_indices":[7,7,7,9,9,9,7,0,0,0,0,0,0,0,0],"split_type":[0,0,0,0,0,0,0,0,0,0,0,0,0,0,0],"sum_hessian":[1.11E2,1.7E1,9.4E1,8E0,9E0,6E0,8.8E1,7E0,1E0,4E0,5E0,4E0,2E0,2E0,8.6E1],"tree_param":{"num_deleted":"0","num_feature":"10","num_nodes":"15","size_leaf_vector":"1"}},{"base_weights":[-3.2122824E0,-4.077493E1,1.3732128E0,1.6825695E1,-2.1918537E1,-1.4621627E1,1.8672348E1,1.1540235E1,-6.949748E-1,-6.3864827E0,-2.8296825E-1,8.088126E0,1.7312704E-2],"categories":[],"categories_nodes":[],"categories_segments":[],"categories_sizes":[],"default_left":[0,0,0,0,0,0,0,0,0,0,0,0,0],"id":87,"left_children":[1,3,5,7,-1,9,11,-1,-1,-1,-1,-1,-1],"loss_changes":[1.9002758E4,1.2700658E5,2.766601E4,2.4239053E4,0E0,3.0014281E4,5.522518E4,0E0,0E0,0E0,0E0,0E0,0E0],"parents":[2147483647,0,0,1,1,2,2,3,3,5,5,6,6],"right_children":[2,4,6,8,-1,10,12,-1,-1,-1,-1,-1,-1],"split_conditions":[2.5519497E11,2.396E2,-1.8369701E-16,2.3069E2,-2.1918537E1,-5E-1,5.917648E6,1.1540235E1,-6.949748E-1,-6.3864827E0,-2.8296825E-1,8.088126E0,1.7312704E-2],"split_indices":[1,7,9,7,0,8,3,0,0,0,0,0,0],"split_type":[0,0,0,0,0,0,0,0,0,0,0,0,0],"sum_hessian":[1.09E2,1.1E1,9.8E1,9E0,2E0,5.1E1,4.7E1,1E0,8E0,9E0,4.2E1,1E1,3.7E1],"tree_param":{"num_deleted":"0","num_feature":"10","num_nodes":"13","size_leaf_vector":"1"}},{"base_weights":[-3.0864248E0,-2.7991259E1,4.6781373E0,-6.431495E1,1.0009623E0,-3.7524586E1,1.0028767E1,-9.198348E0,-3.1411211E0,1.2676196E1,-2.6019323E0,9.013488E0,-2.5154749E1,5.404636E0,4.226094E-1],"categories":[],"categories_nodes":[],"categories_segments":[],"categories_sizes":[],"default_left":[0,0,0,0,0,0,0,0,0,0,0,0,0,0,0],"id":88,"left_children":[1,3,5,7,9,11,13,-1,-1,-1,-1,-1,-1,-1,-1],"loss_changes":[2.1982338E4,2.8498195E4,2.0021895E4,8.035465E3,5.7667824E4,2.958937E5,1.9694332E4,0E0,0E0,0E0,0E0,0E0,0E0,0E0,0E0],"parents":[2147483647,0,0,1,1,2,2,3,3,4,4,5,5,6,6],"right_children":[2,4,6,8,10,12,14,-1,-1,-1,-1,-1,-1,-1,-1],"split_conditions":[-5E-1,-1.8369701E-16,2.5519497E11,2.601872E7,5.917648E6,-1.8369701E-16,4.1344523E11,-9.198348E0,-3.1411211E0,1.2676196E1,-2.6019323E0,9.013488E0,-2.5154749E1,5.404636E0,4.226094E-1],"split_indices":[8,9,1,3,3,9,1,0,0,0,0,0,0,0,0],"split_type":[0,0,0,0,0,0,0,0,0,0,0,0,0,0,0],"sum_hessian":[1.12E2,2.6E1,8.6E1,1.1E1,1.5E1,9E0,7.7E1,5E0,6E0,2E0,1.3E1,6E0,3E0,8E0,6.9E1],"tree_param":{"num_deleted":"0","num_feature":"10","num_nodes":"15","size_leaf_vector":"1"}},{"base_weights":[4.532017E0,1.5676157E1,-8.012061E0,-1.0097508E1,5.7138695E1,-2.48502E1,2.1654816E1,2.1962845E0,-5.154563E0,8.246855E0,-7.746277E0,-3.9538178E0,8.120133E-1,4.758095E0,-2.9587264E0],"categories":[],"categories_nodes":[],"categories_segments":[],"categories_sizes":[],"default_left":[0,0,0,0,0,0,0,0,0,0,0,0,0,0,0],"id":89,"left_children":[1,3,5,7,9,11,13,-1,-1,-1,-1,-1,-1,-1,-1],"loss_changes":[1.5083444E4,6.1489523E4,2.6014412E4,4.8970375E4,8.139581E4,1.6301881E4,2.664946E4,0E0,0E0,0E0,0E0,0E0,0E0,0E0,0E0],"parents":[2147483647,0,0,1,1,2,2,3,3,4,4,5,5,6,6],"right_children":[2,4,6,8,10,12,14,-1,-1,-1,-1,-1,-1,-1,-1],"split_conditions":[4.5778E2,2.3946E2,5E-1,1.3272E2,1E0,5.1391E2,5.1345E2,2.1962845E0,-5.154563E0,8.246855E0,-7.746277E0,-3.9538178E0,8.120133E-1,4.758095E0,-2.9587264E0],"split_indices":[7,7,8,7,8,7,7,0,0,0,0,0,0,0,0],"split_type":[0,0,0,0,0,0,0,0,0,0,0,0,0,0,0],"sum_hessian":[1.06E2,5.6E1,5E1,3.5E1,2.1E1,3.2E1,1.8E1,2E1,1.5E1,1.8E1,3E0,2.2E1,1E1,1.2E1,6E0],"tree_param":{"num_deleted":"0","num_feature":"10","num_nodes":"15","size_leaf_vector":"1"}},{"base_weights":[1.990804E0,1.8528002E1,-4.442245E0,1.3277117E1,6.070847E0,-4.2356922E1,6.461032E0,-1.0331464E0,7.0668283E0,3.7209594E0,-6.0750866E0,1.4664255E0,-2.6217847E0],"categories":[],"categories_nodes":[],"categories_segments":[],"categories_sizes":[],"default_left":[0,0,0,0,0,0,0,0,0,0,0,0,0],"id":90,"left_children":[1,3,5,-1,7,9,11,-1,-1,-1,-1,-1,-1],"loss_changes":[1.1784613E4,4.3311453E4,3.3345207E4,0E0,3.1456979E4,2.860427E4,1.727301E4,0E0,0E0,0E0,0E0,0E0,0E0],"parents":[2147483647,0,0,1,1,2,2,4,4,5,5,6,6],"right_children":[2,4,6,-1,8,10,12,-1,-1,-1,-1,-1,-1],"split_conditions":[5.917648E6,-8.660254E-1,-5E-1,1.3277117E1,8.660254E-1,1.1981E2,5.1977E2,-1.0331464E0,7.0668283E0,3.7209594E0,-6.0750866E0,1.4664255E0,-2.6217847E0],"split_indices":[3,8,8,0,8,7,7,0,0,0,0,0,0],"split_type":[0,0,0,0,0,0,0,0,0,0,0,0,0],"sum_hessian":[1.09E2,3E1,7.9E1,2E0,2.8E1,1.7E1,6.2E1,2.3E1,5E0,3E0,1.4E1,5E1,1.2E1],"tree_param":{"num_deleted":"0","num_feature":"10","num_nodes":"13","size_leaf_vector":"1"}},{"base_weights":[-1.8552983E0,-1.3563556E1,5.1629014E0,-5.677801E0,-1.7238264E1,2.214452E1,-1.0022742E0,5.893914E-1,-4.8762302E0,-1.1050488E1,2.14069E-1],"categories":[],"categories_nodes":[],"categories_segments":[],"categories_sizes":[],"default_left":[0,0,0,0,0,0,0,0,0,0,0],"id":91,"left_children":[1,3,5,7,-1,-1,9,-1,-1,-1,-1],"loss_changes":[9.437509E3,5.2874805E4,9.622806E4,2.1226986E4,0E0,0E0,2.4672113E4,0E0,0E0,0E0,0E0],"parents":[2147483647,0,0,1,1,2,2,3,3,6,6],"right_children":[2,4,6,8,-1,-1,10,-1,-1,-1,-1],"split_conditions":[2.5511E2,2.4999E2,6.2934E3,8.660254E-1,-1.7238264E1,2.214452E1,4.2369E2,5.893914E-1,-4.8762302E0,-1.1050488E1,2.14069E-1],"split_indices":[7,7,0,8,0,0,7,0,0,0,0],"split_type":[0,0,0,0,0,0,0,0,0,0,0],"sum_hessian":[1.13E2,4.2E1,7.1E1,4.1E1,1E0,1E0,7E1,3.3E1,8E0,1E0,6.9E1],"tree_param":{"num_deleted":"0","num_feature":"10","num_nodes":"11","size_leaf_vector":"1"}},{"base_weights":[1.7363524E0,4.9904113E0,-2.6339014E1,9.368873E0,-2.1321157E1,-6.2211E-1,-2.7602363E0,7.118611E-2,6.4858713E0,-5.428001E0,-4.401575E-1],"categories":[],"categories_nodes":[],"categories_segments":[],"categories_sizes":[],"default_left":[0,0,0,0,0,0,0,0,0,0,0],"id":92,"left_children":[1,3,5,7,9,-1,-1,-1,-1,-1,-1],"loss_changes":[1.0546355E4,1.2065787E4,1.3327344E2,4.2707312E4,8.125832E3,0E0,0E0,0E0,0E0,0E0,0E0],"parents":[2147483647,0,0,1,1,2,2,3,3,4,4],"right_children":[2,4,6,8,10,-1,-1,-1,-1,-1,-1],"split_conditions":[8.5375E0,5.2381E2,-8.660254E-1,4.9069E2,5.2593E2,-6.2211E-1,-2.7602363E0,7.118611E-2,6.4858713E0,-5.428001E0,-4.401575E-1],"split_indices":[2,7,8,7,7,0,0,0,0,0,0],"split_type":[0,0,0,0,0,0,0,0,0,0,0],"sum_hessian":[1.13E2,1.02E2,1.1E1,8.8E1,1.4E1,1E0,1E1,7.7E1,1.1E1,4E0,1E1],"tree_param":{"num_deleted":"0","num_feature":"10","num_nodes":"11","size_leaf_vector":"1"}},{"base_weights":[-3.531847E0,1.9170704E1,-1.0964006E1,-7.2783394E1,4.33777E1,2.3470528E1,-2.9253588E1,-9.68344E0,-1.6454264E0,9.727012E0,-1.4147528E-1,3.8561627E-1,1.1684825E1,-6.41663E0,-1.2807317E-1],"categories":[],"categories_nodes":[],"categories_segments":[],"categories_sizes":[],"default_left":[0,0,0,0,0,0,0,0,0,0,0,0,0,0,0],"id":93,"left_children":[1,3,5,7,9,11,13,-1,-1,-1,-1,-1,-1,-1,-1],"loss_changes":[1.8432916E4,6.325735E4,5.232965E4,6.535291E3,5.3245035E4,5.2664203E4,5.265466E4,0E0,0E0,0E0,0E0,0E0,0E0,0E0,0E0],"parents":[2147483647,0,0,1,1,2,2,3,3,4,4,5,5,6,6],"right_children":[2,4,6,8,10,12,14,-1,-1,-1,-1,-1,-1,-1,-1],"split_conditions":[1.821407E0,-5E-1,-5E-1,1.4750348E0,5.1345E2,1.7344513E12,4.2369E2,-9.68344E0,-1.6454264E0,9.727012E0,-1.4147528E-1,3.8561627E-1,1.1684825E1,-6.41663E0,-1.2807317E-1],"split_indices":[2,9,9,2,7,1,7,0,0,0,0,0,0,0,0],"split_type":[0,0,0,0,0,0,0,0,0,0,0,0,0,0,0],"sum_hessian":[1.07E2,2.6E1,8.1E1,5E0,2.1E1,2.8E1,5.3E1,3E0,2E0,9E0,1.2E1,2.4E1,4E0,2.3E1,3E1],"tree_param":{"num_deleted":"0","num_feature":"10","num_nodes":"15",